svm_type c_svc
kernel_type rbf
gamma 0.00195312
nr_class 2
total_sv 416
rho -12.9674
label 1 -1
nr_sv 210 206
SV
2048 1:0.47668 2:-0.824207 3:0.625824 4:0.658242 5:-0.605338 6:-0.473112 7:-0.101122 8:0.256542 
2048 1:0.814572 2:0.736908 3:-0.461788 4:-0.700846 5:0.60993 6:-0.338656 7:-0.267184 8:0.263168 
315.8255283771073 1:0.686882 2:-0.65689 3:-0.403844 4:-0.446956 5:0.686002 6:-0.623156 7:-0.1914 8:0.256542 
2048 1:0.807962 2:0.791146 3:-0.52552 4:-0.392228 5:0.511434 6:-0.45438 7:-0.293034 8:0.232108 
1135.725986218384 1:0.67757 2:-0.65689 3:-0.552644 4:-0.100798 5:0.083834 6:-0.548084 7:-0.1914 8:0.158748 
2048 1:0.583718 2:-0.65689 3:-0.060016 4:0.449738 5:-0.367918 6:-0.636994 7:-0.123684 8:0.232108 
2048 1:0.361516 2:-0.867328 3:0.141442 4:-0.176232 5:-0.08755 6:0.487484 7:0.11788 8:-0.030218 
2048 1:0.74649 2:0.736908 3:-0.553726 4:-0.260148 5:0.485882 6:-0.140318 7:-0.249626 8:0.156318 
2048 1:0.679456 2:0.764132 3:-0.061832 4:0.539434 5:-0.519814 6:-0.576704 7:-0.497106 8:0.573096 
2048 1:0.600914 2:-0.65689 3:-0.236598 4:-0.100798 5:0.083834 6:-0.02531 7:-0.462592 8:0.158748 
2048 1:0.72608 2:-0.53649 3:-0.806144 4:-0.40305 5:0.511434 6:-0.663622 7:-0.340836 8:0.560408 
2048 1:0.814956 2:0.81795 3:-0.276252 4:-0.413692 5:0.47614 6:-0.594992 7:-0.462592 8:0.537006 
2048 1:0.668584 2:0.764132 3:-0.061832 4:0.539434 5:-0.519814 6:-0.360834 7:-0.236564 8:0.354218 
2048 1:0.665964 2:-0.576162 3:-0.37768 4:0.06348 5:-0.11651 6:-0.68063 7:-0.223278 8:0.382916 
2048 1:0.665964 2:-0.61629 3:-0.78694 4:-0.166302 5:0.477722 6:-0.703514 7:-0.337838 8:0.4215 
2048 1:0.76778 2:0.764132 3:-0.334526 4:-0.326718 5:0.344886 6:-0.338656 7:-0.439588 8:0.44928 
2048 1:0.524578 2:-0.781616 3:-0.291426 4:-0.250758 5:0.095102 6:0.581706 7:-0.311864 8:0.1302 
2048 1:0.71802 2:-0.576162 3:-0.587178 4:-0.436502 5:0.544698 6:-0.714568 7:-0.740506 8:0.978296 
2048 1:0.827706 2:0.736908 3:-0.461788 4:-0.700846 5:0.60993 6:-0.386184 7:-0.3821 8:0.32526 
2048 1:0.647584 2:-0.65689 3:-0.429628 4:-0.33156 5:0.473474 6:-0.398232 7:-0.010898 8:0.158748 
2048 1:0.802796 2:0.791146 3:-0.52552 4:-0.392228 5:0.511434 6:-0.220794 7:-0.293034 8:0.1098 
2048 1:0.63755 2:-0.65689 3:-0.220822 4:-0.571204 5:0.269902 6:-0.623156 7:-0.1914 8:0.256542 
1677.364177671467 1:0.54776 2:-0.781616 3:-0.920409 4:-0.231602 5:0.699182 6:0.581706 7:0.71994 8:-0.690074 
2048 1:0.608316 2:-0.61629 3:-0.432772 4:-0.250758 5:0.38216 6:-0.3311 7:0.56694 8:-0.269498 
2048 1:0.709154 2:-0.61629 3:-0.645132 4:-0.589664 5:0.954596 6:-0.380174 7:-0.493802 8:0.337386 
2048 1:0.742028 2:-0.61629 3:-0.857914 4:-0.504772 5:0.859344 6:-0.859882 7:-0.480456 8:0.712956 
2048 1:0.807962 2:0.764132 3:-0.320614 4:-0.840777 5:0.416128 6:-0.243714 7:-0.669794 8:0.573096 
2048 1:0.713622 2:-0.65689 3:-0.48936 4:-0.40305 5:0.312044 6:-0.813487 7:-0.382772 8:0.382916 
2048 1:0.784132 2:0.81795 3:-0.276252 4:-0.201186 5:0.115678 6:-0.45438 7:-0.293034 8:0.354218 
2048 1:0.845444 2:0.791146 3:-0.320614 4:-0.787236 5:0.536134 6:-0.585926 7:-0.622366 8:0.616228 
2048 1:0.675668 2:0.764132 3:0.07426 4:0.485632 5:-0.519814 6:-0.349836 7:-0.109462 8:0.185878 
2048 1:0.775856 2:0.764132 3:-0.380044 4:-0.435794 5:0.529522 6:-0.14893 7:-0.439588 8:0.387292 
2048 1:0.675032 2:-0.61629 3:-0.574298 4:-0.166302 5:0.38216 6:-0.458638 7:-0.586042 8:0.398566 
2048 1:0.820654 2:0.764132 3:-0.243552 4:-0.818993 5:0.77534 6:-0.538626 7:-0.508226 8:0.616228 
2048 1:0.75568 2:0.736908 3:-0.14062 4:-0.150434 5:-0.011358 6:-0.407588 7:-0.349528 8:0.415194 
2048 1:0.649688 2:-0.198488 3:-0.637804 4:-0.284762 5:0.378862 6:-0.122806 7:0.284232 8:-0.423916 
2048 1:0.740524 2:-0.61629 3:-0.648352 4:-0.666936 5:0.932956 6:-0.711194 7:-0.74864 8:0.80876 
2048 1:0.74501 2:0.597484 3:-0.278148 4:-0.590394 5:0.485882 6:-0.568182 7:-0.184146 8:0.362928 
2048 1:0.699412 2:-0.69797 3:-0.838728 4:-0.472684 5:0.730526 6:-0.614322 7:-0.06396 8:0.037762 
2048 1:0.75425 2:0.709466 3:-0.452278 4:-0.192498 5:0.128124 6:-0.433756 7:-0.497106 8:0.511216 
2048 1:0.657266 2:-0.61629 3:-0.291426 4:-0.250758 5:0.095102 6:-0.614322 7:-0.223278 8:0.296782 
2048 1:0.64688 2:-0.576162 3:-0.61596 4:-0.176232 5:0.34054 6:-0.431284 7:-0.321648 8:0.493522 
2048 1:0.792168 2:0.791146 3:-0.344852 4:-0.392228 5:0.45042 6:-0.45438 7:-0.236564 8:0.415194 
2048 1:0.745998 2:0.791146 3:-0.07442 4:-0.176232 5:0.02265 6:-0.45438 7:-0.236564 8:0.415194 
2048 1:0.733396 2:0.540108 3:-0.538258 4:0.121564 5:0.157784 6:-0.407588 7:-0.067284 8:0.1098 
2048 1:0.693516 2:-0.61629 3:-0.645132 4:-0.335322 5:0.477722 6:-0.577322 7:-0.145668 8:0.11298 
2048 1:0.69648 2:-0.65689 3:-0.48936 4:-0.188814 5:0.231262 6:-0.623156 7:-0.553108 8:0.549172 
2048 1:0.721272 2:-0.69797 3:-0.474826 4:-0.38565 5:0.534508 6:-0.880031 7:-0.462592 8:0.554904 
2048 1:0.790076 2:0.709466 3:-0.545004 4:-0.247842 5:0.378862 6:-0.349836 7:-0.223278 8:0.247512 
2048 1:0.378826 2:-0.867328 3:-0.25063 4:0.590804 5:-0.416602 6:0.40849 7:-0.17205 8:0.074818 
2048 1:0.838132 2:0.791146 3:-0.480322 4:-0.446344 5:0.572416 6:-0.491372 7:-0.622366 8:0.616228 
2048 1:0.792168 2:0.736908 3:-0.232286 4:-0.205268 5:-0.13593 6:-0.538626 7:-0.508226 8:0.554904 
2048 1:0.090224 2:-0.910991 3:0.91985 4:1 5:-1 6:0.670688 7:0.742666 8:-0.815566 
2048 1:0.807174 2:0.736908 3:-0.278148 4:-0.756142 5:0.485882 6:-0.615454 7:-0.311864 8:0.5292 
2048 1:0.814572 2:0.791146 3:-0.480322 4:-0.446344 5:0.511434 6:-0.491372 7:-0.394174 8:0.432096 
2048 1:0.779808 2:0.764132 3:-0.425582 4:-0.435794 5:0.468008 6:-0.360834 7:-0.123684 8:0.170982 
2048 1:0.835296 2:0.81795 3:-0.355008 4:-0.94172 5:0.554124 6:-0.360834 7:-0.349528 8:0.232108 
2048 1:0.665964 2:0.36206 3:0.293742 4:-0.390672 5:0.12089 6:-0.407588 7:-0.293034 8:0.293184 
2048 1:0.720732 2:0.681808 3:-0.0868 4:-0.13536 5:0.19085 6:-0.255262 7:-0.22674 8:0.248046 
2048 1:0.653158 2:-0.65689 3:-0.920409 4:-0.231602 5:0.699182 6:-0.548084 7:0.17466 8:-0.04877 
2048 1:0.641896 2:-0.61629 3:-0.503516 4:0.086416 5:0.095102 6:-0.650482 7:0.11788 8:0.208296 
2048 1:0.75425 2:0.653928 3:-0.291426 4:-0.222594 5:0.222752 6:-0.585926 7:-0.622366 8:0.616228 
2048 1:0.655904 2:-0.65689 3:-0.920409 4:-0.231602 5:0.699182 6:-0.01348 7:-0.277628 8:0.148736 
2048 1:0.651082 2:-0.65689 3:-0.362076 4:-0.335322 5:0.477722 6:-0.398232 7:-0.462592 8:0.646468 
1984.184749545459 1:0.762262 2:-0.576162 3:-0.806144 4:-0.40305 5:0.511434 6:-0.650482 7:-0.850947 8:0.966504 
2048 1:0.695298 2:-0.576162 3:-0.6571 4:-0.269418 5:0.45042 6:-0.577322 7:-0.145668 8:0.11298 
2048 1:0.844412 2:0.81795 3:-0.418858 4:-0.794696 5:0.518432 6:-0.594992 7:-0.406052 8:0.537006 
2048 1:0.793 2:0.791146 3:-0.389994 4:-0.554696 5:0.511434 6:-0.360834 7:-0.123684 8:0.170982 
2048 1:0.613144 2:-0.61629 3:-0.291426 4:0.17044 5:-0.192516 6:-0.614322 7:-0.303004 8:0.382916 
2048 1:0.823646 2:0.844548 3:-0.409396 4:-0.733746 5:0.356084 6:-0.371648 7:-0.249626 8:0.216958 
2048 1:0.670534 2:-0.65689 3:-0.920409 4:0.024732 5:0.408922 6:-0.562896 7:-0.123684 8:0.135566 
2048 1:0.801188 2:0.81795 3:-0.399772 4:-0.188814 5:0.372598 6:-0.501216 7:-0.349528 8:0.354218 
2048 1:0.664644 2:-0.61629 3:-0.432772 4:-0.250758 5:0.477722 6:-0.504258 7:-0.409722 8:0.303492 
2048 1:0.479282 2:-0.69797 3:0.15402 4:0.449738 5:-0.367918 6:-0.078578 7:0.287378 8:-0.115494 
2048 1:0.751366 2:-0.270808 3:-0.806144 4:-0.40305 5:0.511434 6:-0.68063 7:0.015622 8:0.21054 
2048 1:0.649688 2:-0.61629 3:-0.552644 4:-0.100798 5:0.083834 6:-0.488888 7:-0.21279 8:0.135566 
2048 1:0.72342 2:0.736908 3:-0.14062 4:-0.205268 5:0.05089 6:-0.371648 7:-0.249626 8:0.216958 
2048 1:0.685044 2:-0.65689 3:-0.920409 4:-0.231602 5:0.699182 6:-0.285618 7:-0.23363 8:0.303492 
2048 1:0.814572 2:0.81795 3:-0.355008 4:-0.94172 5:0.554124 6:-0.220794 7:-0.293034 8:0.1098 
2048 1:0.799164 2:0.736908 3:-0.453812 4:-0.733746 5:0.536134 6:-0.183746 7:-0.196032 8:0.028152 
2048 1:0.801188 2:0.791146 3:-0.299736 4:-0.392228 5:0.389388 6:-0.520418 7:-0.42922 8:0.68152 
2048 1:0.689312 2:-0.69797 3:-0.474826 4:-0.29874 5:0.534508 6:-0.74702 7:-0.223278 8:0.296782 
2048 1:0.658622 2:-0.61629 3:-0.645132 4:-0.081954 5:0.477722 6:-0.573962 7:-0.259926 8:0.168868 
2048 1:0.812644 2:0.709466 3:-0.452278 4:-0.580878 5:0.566634 6:-0.360834 7:-0.406052 8:0.415194 
2048 1:0.384362 2:-0.69797 3:0.580834 4:-0.146048 5:-0.270584 6:0.222304 7:0.56073 8:-0.514734 
2048 1:0.6881 2:-0.65689 3:-0.6571 4:-0.352906 5:0.356084 6:-0.773598 7:-0.101122 8:0.256542 
2048 1:0.76869 2:0.81795 3:-0.09898 4:-0.201186 5:0.115678 6:-0.407588 7:-0.519156 8:0.537006 
2048 1:0.796714 2:0.81795 3:-0.399772 4:-0.564188 5:0.251456 6:-0.32531 7:-0.19364 8:0.156318 
2048 1:0.684428 2:-0.576162 3:-0.587178 4:-0.102758 5:0.261686 6:-0.723734 7:-0.586042 8:0.777668 
2048 1:0.799974 2:0.81795 3:-0.421638 4:-0.170292 5:0.434088 6:-0.45438 7:-0.293034 8:0.354218 
2048 1:0.694704 2:0.36206 3:0.293742 4:-0.390672 5:0.12089 6:-0.501216 7:-0.406052 8:0.354218 
2048 1:0.700576 2:-0.61629 3:-0.503516 4:-0.419996 5:0.38216 6:-0.504258 7:-0.674286 8:0.872146 
2048 1:0.609936 2:-0.65689 3:-0.417688 4:-0.060606 5:0.312044 6:-0.473112 7:-0.101122 8:0.354218 
2048 1:0.63682 2:-0.61629 3:-0.362076 4:-0.504772 5:0.286536 6:-0.650482 7:0.11788 8:0.208296 
2048 1:0.750398 2:0.736908 3:-0.599724 4:-0.205268 5:0.485882 6:-0.020934 7:-0.223278 8:0.000686 
2048 1:0.659298 2:0.36206 3:-0.278148 4:-0.315074 5:-0.011358 6:0.268454 7:-0.449542 8:0.161574 
2048 1:0.689312 2:-0.344664 3:-0.333978 4:-0.294556 5:0.125104 6:-0.548084 7:-0.223278 8:0.296782 
2048 1:0.801994 2:0.81795 3:-0.320614 4:-0.520204 5:0.596096 6:-0.407588 7:-0.293034 8:0.415194 
2048 1:0.80038 2:0.764132 3:-0.421638 4:-0.170292 5:0.434088 6:-0.529012 7:-0.3821 8:0.387292 
2048 1:0.785844 2:0.791146 3:-0.18758 4:-0.254252 5:0.115678 6:-0.491372 7:-0.394174 8:0.432096 
2048 1:0.651776 2:-0.65689 3:-0.417688 4:-0.231602 5:0.215094 6:-0.623156 7:-0.1914 8:0.256542 
1298.353548722512 1:0.849198 2:0.791146 3:-0.399772 4:-0.564188 5:0.251456 6:-0.585926 7:-0.622366 8:0.616228 
119.7219850487765 1:0.834224 2:0.736908 3:-0.86767 4:0.417392 5:0.038066 6:-0.519238 7:-0.776178 8:0.653942 
2048 1:0.71583 2:0.764132 3:-0.061832 4:0.539434 5:-0.519814 6:-0.548084 7:-0.406052 8:0.354218 
2048 1:0.504046 2:-1 3:0.437686 4:-0.058056 5:-0.108032 6:-0.650482 7:0.11788 8:0.208296 
2048 1:0.754728 2:0.791146 3:-0.0868 4:-0.13536 5:0.19085 6:-0.538626 7:-0.622366 8:0.616228 
2048 1:0.667932 2:-0.65689 3:-0.37768 4:-0.186036 5:0.261686 6:-0.548084 7:-0.553108 8:0.549172 
2048 1:0.59245 2:-0.65689 3:-0.432772 4:0.086416 5:-0.192516 6:-0.02531 7:-0.462592 8:0.158748 
2048 1:0.811482 2:0.709466 3:-0.498632 4:-0.247842 5:0.25355 6:-0.567326 7:-0.776178 8:0.653942 
112.3017858159372 1:0.674394 2:-0.65689 3:-0.362076 4:-0.335322 5:0.38216 6:-0.248774 7:-0.825019 8:0.549172 
2048 1:0.898996 2:0.844548 3:-0.364998 4:-0.840777 5:0.536134 6:-0.876885 7:-0.858603 8:0.878842 
2048 1:0.612344 2:-0.61629 3:-0.432772 4:0.086416 5:-0.192516 6:-0.562896 7:0.054354 8:0.135566 
2048 1:0.76778 2:0.791146 3:-0.131454 4:-0.349426 5:0.069558 6:-0.491372 7:-0.394174 8:0.432096 
2048 1:0.805192 2:0.81795 3:-0.399772 4:-0.456716 5:0.19085 6:-0.371648 7:-0.361674 8:0.45901 
2048 1:0.723954 2:0.764132 3:-0.061832 4:0.539434 5:-0.519814 6:-0.624428 7:-0.61221 8:0.696708 
68.87290893126439 1:0.347258 2:-0.69797 3:0.681526 4:0.735358 5:-0.844967 6:0.670688 7:0.742666 8:-0.815566 
2048 1:0.804794 2:0.709466 3:-0.545004 4:-0.247842 5:0.378862 6:-0.360834 7:-0.349528 8:0.232108 
2048 1:0.791332 2:0.736908 3:-0.278148 4:-0.756142 5:0.485882 6:-0.338656 7:-0.267184 8:0.263168 
2048 1:0.738 2:0.736908 3:-0.553726 4:-0.260148 5:0.485882 6:-0.020934 7:-0.223278 8:0.000686 
2048 1:0.79175 2:0.81795 3:-0.364998 4:-0.840777 5:0.536134 6:-0.45438 7:-0.236564 8:0.415194 
2048 1:0.655904 2:-0.69797 3:-0.402196 4:-0.29874 5:0.436406 6:-0.341156 7:-0.301954 8:0.135566 
2048 1:0.681954 2:-0.576162 3:-0.447468 4:-0.520204 5:0.544698 6:-0.614322 7:-0.303004 8:0.382916 
2048 1:0.803198 2:0.791146 3:-0.220822 4:-0.242306 5:0.312044 6:-0.585926 7:-0.622366 8:0.616228 
2048 1:0.724486 2:0.791146 3:-0.737834 4:0.823434 5:-0.285558 6:-0.349836 7:-0.223278 8:0.247512 
2048 1:0.659972 2:-0.61629 3:-0.476558 4:-0.158264 5:0.19085 6:-0.488888 7:-0.21279 8:0.135566 
2048 1:0.790076 2:0.764132 3:-0.26553 4:-0.188814 5:0.372598 6:-0.576704 7:-0.554642 8:0.63493 
2048 1:0.58986 2:-0.576162 3:-0.61596 4:-0.100798 5:0.255026 6:-0.285618 7:-0.23363 8:0.398566 
2048 1:0.578342 2:-0.781616 3:-0.071918 4:0.095758 5:0.29185 6:-0.248774 7:-0.825019 8:0.549172 
2048 1:0.533234 2:-0.61629 3:0.015576 4:0.049804 5:-0.259142 6:-0.193806 7:0.054354 8:-0.05789 
2048 1:0.80038 2:0.81795 3:-0.355008 4:-0.349426 5:0.61458 6:-0.501216 7:-0.349528 8:0.354218 
2048 1:0.765494 2:0.81795 3:-0.220822 4:-0.295842 5:0.372598 6:-0.174186 7:-0.406052 8:0.1098 
2048 1:0.651082 2:-0.65689 3:-0.561082 4:0.024732 5:0.118088 6:-0.341156 7:-0.301954 8:0.135566 
2048 1:0.761796 2:0.540108 3:-0.538258 4:0.121564 5:0.157784 6:-0.360834 7:-0.406052 8:0.415194 
2048 1:0.584604 2:0.36206 3:0.293742 4:-0.390672 5:0.12089 6:-0.25567 7:-0.16636 8:0.185878 
2048 1:0.72661 2:0.540108 3:-0.538258 4:0.121564 5:0.157784 6:-0.220794 7:-0.349528 8:0.170982 
2048 1:0.652468 2:-0.73954 3:-0.607288 4:-0.1039 5:0.365138 6:-0.267434 7:-0.639748 8:0.311768 
2048 1:0.740022 2:0.653928 3:-0.452278 4:-0.41415 5:0.378862 6:-0.341156 7:-0.272226 8:0.26426 
2048 1:0.780242 2:0.681808 3:-0.20916 4:-0.17951 5:0.206664 6:-0.491372 7:-0.622366 8:0.616228 
2048 1:0.69648 2:-0.61629 3:-0.574298 4:-0.589664 5:0.668652 6:-0.68063 7:0.015622 8:0.21054 
2048 1:0.727138 2:0.597484 3:-0.498632 4:-0.247842 5:0.25355 6:-0.568182 7:-0.184146 8:0.362928 
2048 1:0.810704 2:0.791146 3:-0.310262 4:-0.295842 5:0.312044 6:-0.585926 7:-0.622366 8:0.616228 
2048 1:0.798756 2:0.709466 3:-0.778292 4:0.449738 5:-0.090342 6:-0.50929 7:-0.474294 8:0.4215 
2048 1:0.803998 2:0.791146 3:-0.52552 4:-0.392228 5:0.511434 6:-0.371648 7:-0.249626 8:0.216958 
2048 1:0.701156 2:-0.69797 3:-0.765848 4:-0.29874 5:0.33823 6:-0.548084 7:-0.236564 8:0.272836 
2048 1:0.844066 2:0.81795 3:-0.355008 4:-0.94172 5:0.554124 6:-0.548084 7:-0.462592 8:0.537006 
2048 1:0.630902 2:-0.65689 3:-0.417688 4:-0.060606 5:0.312044 6:-0.458638 7:-0.586042 8:0.398566 
2048 1:0.803998 2:0.791146 3:-0.176132 4:-0.295842 5:0.13022 6:-0.585926 7:-0.622366 8:0.616228 
2048 1:0.830258 2:0.764132 3:-0.418858 4:-0.794696 5:0.518432 6:-0.433756 7:-0.497106 8:0.511216 
2048 1:0.83954 2:0.764132 3:-0.425582 4:-0.435794 5:0.529522 6:-0.585926 7:-0.67948 8:0.677504 
2048 1:0.676936 2:-0.65689 3:-0.432772 4:-0.250758 5:0.38216 6:-0.773598 7:-0.101122 8:0.256542 
2048 1:0.663316 2:-0.65689 3:-0.637804 4:-0.284762 5:0.378862 6:-0.773598 7:-0.101122 8:0.256542 
2048 1:0.640454 2:-0.61629 3:-0.143778 4:-0.063546 5:0.044452 6:-0.711194 7:-0.21279 8:0.232108 
2048 1:0.55573 2:-0.781616 3:-0.928934 4:-0.166302 5:0.38216 6:-0.112106 7:0.064238 8:0.333878 
2048 1:0.724486 2:-0.61629 3:-0.645132 4:-0.250758 5:0.477722 6:-0.880031 7:-0.462592 8:0.554904 
2048 1:0.793 2:0.736908 3:-0.232286 4:-0.150434 5:-0.198256 6:-0.672198 7:-0.554642 8:0.63493 
2048 1:0.664644 2:-0.61629 3:-0.637804 4:-0.284762 5:0.378862 6:-0.562896 7:-0.21279 8:0.232108 
2048 1:0.711956 2:0.736908 3:-0.36993 4:-0.260148 5:-0.011358 6:-0.020934 7:-0.223278 8:0.000686 
2048 1:0.772744 2:0.736908 3:-0.36993 4:-0.260148 5:-0.011358 6:-0.557386 7:0.030086 8:0.034902 
2048 1:0.746982 2:0.844548 3:-0.276252 4:-0.201186 5:0.115678 6:-0.32531 7:-0.19364 8:0.156318 
2048 1:0.828802 2:0.709466 3:-0.452278 4:-0.41415 5:0.378862 6:-0.576704 7:-0.554642 8:0.63493 
2048 1:0.842334 2:0.764132 3:-0.471132 4:-0.435794 5:0.529522 6:-0.624428 7:-0.61221 8:0.696708 
2048 1:0.807568 2:0.81795 3:-0.44456 4:-0.242306 5:0.312044 6:-0.520418 7:-0.42922 8:0.68152 
2048 1:0.706892 2:0.568914 3:-0.595994 4:-0.009854 5:0.207232 6:-0.338656 7:-0.439588 8:0.44928 
2048 1:0.671828 2:-0.61629 3:-0.503516 4:-0.081954 5:0.286536 6:-0.458638 7:-0.586042 8:0.398566 
2048 1:0.793414 2:0.681808 3:-0.418858 4:-0.794696 5:0.518432 6:-0.352702 7:-0.285666 8:0.248046 
2048 1:0.741528 2:-0.65689 3:-0.806953 4:-0.535238 5:0.888662 6:-0.548084 7:-0.553108 8:0.549172 
2048 1:0.70289 2:-0.61629 3:-1 4:-0.250758 5:0.477722 6:-0.504258 7:-0.321648 8:0.398566 
2048 1:0.495628 2:-1 3:0.19869 4:0.607624 5:-0.325784 6:-0.636994 7:-0.123684 8:0.232108 
1769.173823175766 1:0.75852 2:0.791146 3:-0.209552 4:-0.122346 5:0.144992 6:-0.32531 7:-0.19364 8:0.156318 
2048 1:0.819146 2:0.764132 3:-0.380044 4:-0.435794 5:0.529522 6:-0.548084 7:-0.462592 8:0.537006 
2048 1:0.805192 2:0.736908 3:-0.599724 4:-0.205268 5:0.485882 6:-0.45438 7:-0.293034 8:0.354218 
2048 1:0.765034 2:0.709466 3:-0.267076 4:-0.137206 5:0.065378 6:-0.433756 7:-0.497106 8:0.573096 
2048 1:0.656586 2:-0.61629 3:-0.645132 4:-0.335322 5:0.477722 6:-0.414974 7:-0.21279 8:0.52099 
2048 1:0.78712 2:0.709466 3:-0.452278 4:-0.580878 5:0.566634 6:-0.371648 7:-0.249626 8:0.216958 
2048 1:0.778058 2:0.764132 3:-0.320614 4:-0.520204 5:0.596096 6:-0.338656 7:-0.439588 8:0.44928 
2048 1:0.748938 2:-0.270808 3:-0.742712 4:-0.327354 5:0.34054 6:-0.74702 7:-0.303004 8:0.382916 
2048 1:0.733396 2:0.81795 3:-0.737834 4:0.823434 5:-0.285558 6:-0.407588 7:-0.067284 8:0.1098 
2048 1:0.778934 2:0.709466 3:-0.452278 4:-0.192498 5:0.128124 6:-0.576704 7:-0.554642 8:0.63493 
2048 1:0.57286 2:0.36206 3:0.293742 4:-0.390672 5:0.12089 6:-0.23274 7:-0.305642 8:0.216958 
2048 1:0.675032 2:-0.65689 3:-0.417688 4:-0.231602 5:0.215094 6:-0.504258 7:-0.321648 8:0.208296 
2048 1:0.676936 2:-0.61629 3:-0.503516 4:-0.504772 5:0.286536 6:-0.548084 7:-0.223278 8:0.296782 
2048 1:0.676936 2:-0.61629 3:-0.503516 4:-0.419996 5:0.668652 6:-0.562896 7:-0.480456 8:0.712956 
2048 1:0.517902 2:-1 3:0.437686 4:-0.058056 5:-0.108032 6:-0.74702 7:-0.382772 8:0.468958 
2048 1:0.787968 2:0.81795 3:-0.320614 4:-0.840777 5:0.416128 6:-0.127622 7:-0.180108 8:0.048574 
2048 1:0.771398 2:0.736908 3:-0.278148 4:-0.756142 5:0.485882 6:-0.267434 7:-0.293034 8:0.354218 
2048 1:0.52894 2:-0.867328 3:-0.291426 4:-0.250758 5:0.095102 6:0.40849 7:-0.17205 8:0.074818 
2048 1:0.807174 2:0.764132 3:-0.344852 4:-0.230162 5:0.206134 6:-0.576704 7:-0.497106 8:0.573096 
2048 1:0.639006 2:-0.65689 3:-0.417688 4:-0.231602 5:0.602496 6:-0.341156 7:-0.301954 8:0.135566 
2048 1:0.670534 2:-0.65689 3:-0.776534 4:0.109952 5:0.118088 6:-0.562896 7:-0.480456 8:0.712956 
2048 1:0.669236 2:-0.61629 3:-0.362076 4:-0.504772 5:0.286536 6:-0.573962 7:-0.18206 8:0.168868 
2048 1:0.73288 2:0.653928 3:-0.291426 4:-0.222594 5:0.222752 6:-0.291162 7:-0.439588 8:0.263168 
2048 1:0.672472 2:-0.65689 3:-0.346056 4:0.024732 5:0.215094 6:-0.5844 7:-0.725552 8:0.60568 
2048 1:0.787968 2:0.736908 3:-0.36993 4:-0.260148 5:-0.011358 6:-0.501216 7:-0.349528 8:0.354218 
2048 1:0.764114 2:0.736908 3:-0.278148 4:-0.315074 5:-0.011358 6:-0.338656 7:-0.439588 8:0.44928 
2048 1:0.51106 2:-0.69797 3:-0.5173 4:-0.019588 5:0.356084 6:0.222304 7:0.56073 8:-0.514734 
2048 1:0.80914 2:0.709466 3:-0.498632 4:-0.247842 5:0.25355 6:-0.672198 7:-0.554642 8:0.63493 
2048 1:0.697068 2:0.709466 3:-0.061832 4:0.539434 5:-0.519814 6:-0.50929 7:-0.474294 8:0.4215 
2048 1:0.72555 2:-0.61629 3:-0.432772 4:-0.335322 5:0.38216 6:-0.870519 7:-0.586042 8:0.683072 
2048 1:0.799974 2:0.791146 3:-0.418858 4:-0.794696 5:0.518432 6:-0.491372 7:-0.394174 8:0.432096 
2048 1:0.57286 2:-0.61629 3:-0.645132 4:-0.250758 5:0.477722 6:0.218812 7:0.70038 8:-0.754838 
2048 1:0.661984 2:-0.61629 3:-0.432772 4:0.086416 5:-0.192516 6:-0.577322 7:-0.762588 8:0.872146 
2048 1:0.65522 2:-0.61629 3:-0.403844 4:-0.520204 5:0.356084 6:-0.193806 7:-0.21279 8:0.0389 
2048 1:0.681332 2:-0.65689 3:-0.202944 4:-0.574946 5:0.312044 6:-0.668788 7:-0.446436 8:0.667298 
2048 1:0.691722 2:-0.65689 3:-0.70467 4:-0.317272 5:0.505736 6:-0.488888 7:-0.21279 8:0.135566 
2048 1:0.685658 2:-0.69797 3:-0.693022 4:-0.29874 5:0.534508 6:-0.562896 7:-0.123684 8:0.135566 
2048 1:0.72661 2:-0.61629 3:-0.574298 4:-0.589664 5:0.954596 6:-0.723734 7:-0.321648 8:0.493522 
2048 1:0.51564 2:-0.781616 3:-0.346056 4:0.024732 5:0.118088 6:-0.112106 7:0.064238 8:0.333878 
2048 1:0.75663 2:-0.270808 3:-0.806144 4:-0.40305 5:0.511434 6:-0.614322 7:-0.223278 8:0.296782 
2048 1:0.785416 2:0.709466 3:-0.452278 4:-0.41415 5:0.378862 6:-0.23274 7:-0.305642 8:0.216958 
2048 1:0.828802 2:0.709466 3:-0.452278 4:-0.580878 5:0.566634 6:-0.519238 7:-0.776178 8:0.653942 
-2048 1:0.728716 2:0.81795 3:-0.220822 4:-0.188814 5:0.19085 6:-0.407588 7:-0.293034 8:0.415194 
-2048 1:0.578342 2:-0.69797 3:-0.417688 4:-0.146048 5:0.312044 6:-0.381044 7:-0.260976 8:0.380588 
-2048 1:0.514502 2:-0.61629 3:0.272122 4:0.505456 5:-0.384568 6:0.245988 7:0.498434 8:-0.349002 
-2048 1:0.66265 2:-0.61629 3:-0.503516 4:-0.166302 5:0.286536 6:-0.650482 7:-0.740506 8:0.730388 
-2048 1:0.659972 2:0.36206 3:-0.286794 4:-0.900946 5:0.518432 6:0.268454 7:-0.449542 8:0.161574 
-2048 1:0.797124 2:0.791146 3:-0.515594 4:-0.696798 5:0.560024 6:-0.444156 7:-0.622366 8:0.677504 
-2048 1:0.778934 2:0.81795 3:-0.399772 4:-0.564188 5:0.251456 6:-0.594992 7:-0.406052 8:0.537006 
-2048 1:0.423482 2:-0.61629 3:0.342362 4:0.588946 5:-0.673124 6:0.318962 7:0.58708 8:-0.641254 
-2048 1:0.80159 2:0.791146 3:-0.389994 4:-0.392228 5:0.389388 6:-0.491372 7:-0.622366 8:0.616228 
-2048 1:0.666622 2:-0.576162 3:-0.23824 4:-0.436502 5:0.356084 6:-0.285618 7:-0.497854 8:0.398566 
-2048 1:0.666622 2:0.764132 3:0.119584 4:0.485632 5:-0.519814 6:-0.481368 7:-0.497106 8:0.573096 
-918.3841374085399 1:0.74649 2:0.81795 3:-0.364998 4:-0.840777 5:0.536134 6:-0.220794 7:-0.293034 8:0.1098 
-2048 1:0.683812 2:-0.61629 3:-0.524062 4:-0.652724 5:0.561924 6:-0.636994 7:-0.123684 8:0.232108 
-2048 1:0.803598 2:0.81795 3:-0.399772 4:-0.564188 5:0.43313 6:-0.557386 7:-0.417728 8:0.45901 
-2048 1:0.616316 2:-0.61629 3:-0.454294 4:-0.291188 5:0.269902 6:-0.341156 7:-0.301954 8:0.42482 
-2048 1:0.60008 2:-0.61629 3:-0.645132 4:-0.335322 5:0.477722 6:-0.122806 7:0.284232 8:-0.423916 
-2048 1:0.640454 2:0.764132 3:-0.061832 4:0.539434 5:-0.519814 6:-0.360834 7:-0.349528 8:0.354218 
-2048 1:0.739518 2:0.81795 3:-0.26553 4:-0.242306 5:0.19085 6:-0.557386 7:-0.417728 8:0.45901 
-2048 1:0.733912 2:0.81795 3:-0.320614 4:-0.520204 5:0.596096 6:-0.407588 7:-0.293034 8:0.415194 
-2048 1:0.640454 2:-0.53649 3:-0.324028 4:-0.452586 5:0.423818 6:-0.375216 7:-0.514806 8:0.466752 
-2048 1:0.770498 2:0.81795 3:-0.374822 4:-0.688612 5:0.220658 6:-0.407588 7:-0.349528 8:0.354218 
-2048 1:0.840592 2:0.81795 3:-0.737834 4:-1 5:1 6:-0.548084 7:-0.406052 8:0.354218 
-1917.842287205281 1:0.471398 2:-0.781616 3:0.373564 4:0.537938 5:-0.315184 6:-0.562896 7:-0.301954 8:0.232108 
-2048 1:0.658622 2:-0.576162 3:-0.587178 4:-0.436502 5:0.544698 6:-0.283164 7:-0.37112 8:0.293872 
-2048 1:0.635352 2:-0.69797 3:-0.474826 4:-0.29874 5:0.534508 6:-0.248774 7:-0.825019 8:0.549172 
-2048 1:0.69052 2:-0.61629 3:-0.432772 4:-0.250758 5:0.38216 6:-0.88088 7:-0.514806 8:0.840666 
-2048 1:0.449202 2:-0.781616 3:0.743414 4:0.626018 5:-0.82297 6:-0.488888 7:-0.034636 8:0.0389 
-2048 1:0.680084 2:-0.61629 3:-0.78694 4:-0.419996 5:0.668652 6:-0.561174 7:-0.16305 8:0.274726 
-2048 1:0.63828 2:-0.61629 3:-0.716014 4:-0.504772 5:0.668652 6:-0.298552 7:0.589052 8:-0.381418 
-2048 1:0.475368 2:-0.69797 3:0.104888 4:0.134118 5:-0.35081 6:0.07206 7:0.104836 8:-0.31485 
-2048 1:0.775856 2:0.764132 3:-0.380044 4:-0.435794 5:0.468008 6:-0.433756 7:-0.497106 8:0.511216 
-2048 1:0.79383 2:0.764132 3:-0.380044 4:-0.435794 5:0.40646 6:-0.338656 7:-0.439588 8:0.44928 
-2048 1:0.653158 2:-0.65689 3:-0.561082 4:-0.317272 5:0.408922 6:-0.668788 7:-0.446436 8:0.667298 
-2048 1:0.785844 2:0.764132 3:-0.425582 4:-0.435794 5:0.529522 6:-0.538626 7:-0.451186 8:0.554904 
-2048 1:0.61074 2:-0.61629 3:-0.291426 4:0.086416 5:-0.096582 6:-0.859882 7:-0.480456 8:0.712956 
-2048 1:0.774526 2:0.709466 3:-0.452278 4:-0.580878 5:0.566634 6:-0.39276 7:-0.827237 8:0.603768 
-2048 1:0.700576 2:-0.65689 3:-0.806144 4:-0.40305 5:0.511434 6:-0.473112 7:-0.101122 8:0.256542 
-2048 1:0.557686 2:-0.824207 3:0.55083 4:-0.240046 5:0.11399 6:-0.323454 7:-0.91578 8:0.646468 
-2048 1:0.76133 2:0.709466 3:-0.452278 4:-0.358664 5:0.316216 6:-0.697084 7:-0.249626 8:0.45901 
-2048 1:0.720192 2:-0.576162 3:-0.447468 4:-0.269418 5:0.167228 6:-0.504258 7:-0.321648 8:0.208296 
-2048 1:0.746982 2:0.81795 3:-0.320614 4:-0.14817 5:0.17582 6:-0.407588 7:-0.236564 8:0.232108 
-2048 1:0.737492 2:0.81795 3:-0.399772 4:-0.188814 5:0.372598 6:-0.314112 7:-0.406052 8:0.232108 
-2048 1:0.635352 2:-0.61629 3:-0.362076 4:-0.335322 5:0.477722 6:-0.723734 7:-0.321648 8:0.398566 
-2048 1:0.76641 2:0.81795 3:-0.44456 4:-0.456716 5:0.493642 6:-0.548084 7:-0.236564 8:0.354218 
-2048 1:0.833506 2:0.81795 3:-0.48936 4:-0.40305 5:0.43313 6:-0.658882 7:-0.484848 8:0.442172 
-2048 1:0.641896 2:-0.95521 3:-0.920409 4:-0.231602 5:0.699182 6:0.060998 7:0.17466 8:-0.09208 
-2048 1:0.601748 2:-0.65689 3:-0.333978 4:-0.294556 5:0.125104 6:-0.248774 7:-0.825019 8:0.549172 
-2048 1:0.679456 2:-0.61629 3:-0.645132 4:-0.674668 5:0.477722 6:-0.522516 7:-0.586042 8:0.398566 
-2048 1:0.855896 2:0.709466 3:-0.452278 4:-0.192498 5:0.128124 6:-0.50929 7:-0.240452 8:0.168868 
-2048 1:0.600914 2:-0.61629 3:-0.291426 4:-0.419996 5:0.19085 6:-0.341156 7:-0.301954 8:0.135566 
-2048 1:0.686882 2:0.653928 3:-0.056256 4:-0.110058 5:0.095102 6:-0.349836 7:-0.223278 8:0.247512 
-2048 1:0.524578 2:-0.69797 3:0.321484 4:0.392464 5:-0.449512 6:-0.668788 7:-0.446436 8:0.667298 
-2048 1:0.74649 2:0.791146 3:-0.435148 4:-0.554696 5:0.572416 6:-0.371648 7:-0.19364 8:0.216958 
-2048 1:0.60008 2:-0.69797 3:-0.474826 4:0.134118 5:0.33823 6:-0.636994 7:-0.123684 8:0.232108 
-2048 1:0.774526 2:0.764132 3:-0.471132 4:-0.490396 5:0.591018 6:-0.338656 7:-0.439588 8:0.44928 
-2048 1:0.5747 2:-0.65689 3:-0.291426 4:0.086416 5:-0.000708 6:-0.398232 7:-0.010898 8:0.256542 
-2048 1:0.778058 2:0.764132 3:-0.289032 4:-0.38123 5:0.40646 6:-0.302738 7:-0.280216 8:0.247512 
-2048 1:0.78456 2:0.791146 3:-0.389994 4:-0.230162 5:0.267242 6:-0.585926 7:-0.67948 8:0.677504 
-2048 1:0.77497 2:0.791146 3:-0.389994 4:-0.554696 5:0.511434 6:-0.594992 7:-0.462592 8:0.537006 
-2048 1:0.658622 2:-0.53649 3:-0.48936 4:-0.176232 5:0.255026 6:-0.88088 7:-0.514806 8:0.840666 
-2048 1:0.671828 2:0.681808 3:-0.20916 4:-0.17951 5:0.206664 6:-0.127622 7:0.101788 8:-0.135408 
-2048 1:0.75946 2:-0.61629 3:-0.716014 4:-0.504772 5:0.668652 6:-0.78549 7:-0.569788 8:0.712956 
-2048 1:0.634614 2:-0.61629 3:-0.574298 4:-0.419996 5:0.38216 6:-0.548084 7:-0.236564 8:0.272836 
-2048 1:0.748938 2:-0.270808 3:-0.552644 4:-0.176232 5:0.255026 6:-0.614322 7:-0.223278 8:0.296782 
-2048 1:0.797124 2:0.81795 3:-0.374822 4:-0.688612 5:0.220658 6:-0.594992 7:-0.406052 8:0.537006 
-2048 1:0.417064 2:-0.824207 3:0.625824 4:0.568968 5:-0.708384 6:-0.456914 7:-0.169436 8:0.479418 
-2048 1:0.781978 2:0.81795 3:-0.355008 4:-0.456716 5:0.493642 6:-0.501216 7:-0.406052 8:0.354218 
-2048 1:0.653848 2:-0.61629 3:-0.362076 4:-0.504772 5:0.286536 6:-0.663622 7:-0.601876 8:0.840666 
-2048 1:0.641176 2:-0.30754 3:-0.348618 4:-0.158264 5:0.19085 6:-0.68063 7:0.015622 8:0.21054 
-2048 1:0.738506 2:0.764132 3:-0.299736 4:-0.230162 5:0.267242 6:-0.481368 7:-0.497106 8:0.573096 
-2048 1:0.654536 2:-0.65689 3:-0.587178 4:-0.687926 5:0.827166 6:-0.248774 7:-0.825019 8:0.549172 
-2048 1:0.674394 2:-0.61629 3:-0.716014 4:-0.419996 5:0.573222 6:-0.380174 7:-0.493802 8:0.337386 
-2048 1:0.825868 2:0.791146 3:-0.435148 4:-0.284144 5:0.328332 6:-0.491372 7:-0.337188 8:0.37062 
-2048 1:0.729762 2:0.764132 3:-0.380044 4:-0.435794 5:0.40646 6:-0.302738 7:-0.280216 8:0.247512 
-2048 1:0.668584 2:-0.576162 3:-0.587178 4:-0.436502 5:0.544698 6:-0.723734 7:-0.321648 8:0.493522 
-2048 1:0.49806 2:-0.65689 3:0.580834 4:-0.060606 5:-0.270584 6:-0.488888 7:-0.301954 8:0.42482 
-2048 1:0.663316 2:-0.576162 3:-0.6571 4:-0.269418 5:0.45042 6:-0.458638 7:-0.586042 8:0.398566 
-2048 1:0.586366 2:-0.61629 3:-0.220822 4:-0.250758 5:0.095102 6:-0.488888 7:-0.034636 8:0.135566 
-2048 1:0.62332 2:-0.69797 3:-0.574298 4:-0.419996 5:0.38216 6:-0.30528 7:0.104836 8:0.182546 
-2048 1:0.393352 2:-0.781616 3:0.373564 4:0.537938 5:-0.315184 6:0.351364 7:0.532914 8:-0.278814 
-2048 1:0.656586 2:-0.65689 3:-0.564418 4:-0.643026 5:0.65534 6:-0.773598 7:-0.101122 8:0.256542 
-2048 1:0.72661 2:0.81795 3:-0.310262 4:-0.188814 5:0.312044 6:-0.407588 7:-0.349528 8:0.415194 
-2048 1:0.814188 2:0.81795 3:-0.399772 4:-0.188814 5:0.251456 6:-0.594992 7:-0.462592 8:0.537006 
-2048 1:0.534298 2:-0.781616 3:-0.648352 4:-0.74043 5:0.768362 6:0.351364 7:0.532914 8:-0.278814 
-2048 1:0.722884 2:0.709466 3:-0.267076 4:-0.137206 5:0.065378 6:-0.548084 7:-0.349528 8:0.415194 
-2048 1:0.780678 2:0.81795 3:-0.515594 4:-0.802034 5:0.619004 6:-0.360834 7:-0.236564 8:0.354218 
-2048 1:0.72819 2:0.81795 3:-0.176132 4:-0.456716 5:0.312044 6:-0.520418 7:-0.42922 8:0.68152 
-2048 1:0.775414 2:0.791146 3:-0.524062 4:-0.600628 5:0.659422 6:-0.444156 7:-0.451186 8:0.432096 
-2048 1:0.701156 2:0.736908 3:-0.232286 4:-0.150434 5:-0.13593 6:-0.302738 7:-0.280216 8:0.247512 
-2048 1:0.795482 2:0.81795 3:-0.48936 4:-0.349426 5:0.493642 6:-0.548084 7:-0.406052 8:0.537006 
-2048 1:0.607504 2:-0.61629 3:-0.645132 4:-0.081954 5:0.477722 6:-0.341156 7:-0.123684 8:0.232108 
-2048 1:0.729762 2:-0.576162 3:-0.867136 4:-0.436502 5:0.638914 6:-0.944052 7:-0.497854 8:0.683072 
-2048 1:0.699994 2:0.653928 3:-0.056256 4:-0.110058 5:0.095102 6:-0.39276 7:-0.827237 8:0.603768 
-2048 1:0.750882 2:0.791146 3:-0.299736 4:-0.068496 5:0.144992 6:-0.548084 7:-0.406052 8:0.476122 
-2048 1:0.659972 2:-0.23446 3:-0.37687 4:-0.11921 5:0.063914 6:-0.430438 7:-0.16305 8:0.104108 
-2048 1:0.796714 2:0.791146 3:-0.594534 4:-0.77195 5:0.83212 6:-0.538626 7:-0.451186 8:0.554904 
-2048 1:0.705184 2:0.81795 3:-0.809115 4:0.267458 5:0.077144 6:-0.127622 7:0.101788 8:-0.135408 
-2048 1:0.770048 2:0.764132 3:-0.48936 4:-0.349426 5:0.493642 6:-0.529012 7:-0.3821 8:0.387292 
-2048 1:0.615526 2:-0.61629 3:-0.362076 4:-0.335322 5:0.477722 6:-0.504258 7:-0.321648 8:0.208296 
-2048 1:0.62255 2:-0.61629 3:-0.220822 4:-0.250758 5:0.19085 6:-0.663622 7:-0.340836 8:0.560408 
-2048 1:0.709154 2:-0.162886 3:-0.464924 4:-0.520204 5:0.356084 6:-0.522516 7:-0.586042 8:0.398566 
-2048 1:0.596714 2:-0.576162 3:-0.514088 4:-0.210942 5:0.128124 6:-0.358406 7:-0.145668 8:0.303492 
-2048 1:0.731846 2:0.791146 3:0.015576 4:-0.122346 5:-0.038568 6:-0.444156 7:-0.67948 8:0.554904 
-2048 1:0.641176 2:-0.30754 3:-0.348618 4:-0.158264 5:0.19085 6:-0.68063 7:0.015622 8:0.21054 
-2048 1:0.813804 2:0.81795 3:-0.26553 4:-0.295842 5:0.19085 6:-0.314112 7:-0.349528 8:0.232108 
-2048 1:0.61867 2:-0.61629 3:-0.716014 4:-0.419996 5:0.573222 6:-0.18704 7:-0.10423 8:0.084472 
-2048 1:0.757104 2:0.736908 3:-0.324028 4:-0.095646 5:-0.011358 6:-0.433756 7:-0.497106 8:0.511216 
-2048 1:0.740022 2:0.764132 3:-0.334526 4:-0.272244 5:0.283294 6:-0.314112 7:-0.406052 8:0.232108 
-2048 1:0.628648 2:-0.576162 3:-0.37768 4:0.06348 5:-0.11651 6:-0.431284 7:0.030086 8:-0.078016 
-2048 1:0.75946 2:0.791146 3:-0.389994 4:-0.230162 5:0.267242 6:-0.548084 7:-0.349528 8:0.415194 
-2048 1:0.568208 2:-0.61629 3:-0.514088 4:-0.137206 5:0.128124 6:-0.193806 7:0.054354 8:-0.05789 
-2048 1:0.77674 2:0.81795 3:-0.53418 4:-0.349426 5:0.493642 6:-0.501216 7:-0.406052 8:0.354218 
-2048 1:0.792168 2:0.870946 3:-0.286794 4:-0.900946 5:0.518432 6:-0.39276 7:-0.827237 8:0.603768 
-2048 1:0.710838 2:0.709466 3:-0.452278 4:-0.192498 5:0.128124 6:-0.127622 7:-0.349528 8:0.170982 
-2048 1:0.6881 2:-0.61629 3:-0.645132 4:-0.166302 5:0.19085 6:-0.711194 7:-0.21279 8:0.232108 
-2048 1:0.745998 2:0.791146 3:-0.310262 4:-0.188814 5:0.13022 6:-0.396974 7:-0.337188 8:0.247512 
-2048 1:0.76133 2:0.791146 3:-0.299736 4:-0.068496 5:0.144992 6:-0.349836 7:-0.109462 8:0.185878 
-2048 1:0.659972 2:-0.576162 3:-0.587178 4:-0.352906 5:0.544698 6:-0.430438 7:-0.16305 8:0.104108 
-2048 1:0.633876 2:-0.61629 3:-0.37687 4:-0.268448 5:0.233138 6:-0.562896 7:-0.480456 8:0.42482 
-2048 1:0.748938 2:0.791146 3:-0.344852 4:-0.392228 5:0.389388 6:-0.501216 7:-0.349528 8:0.354218 
-2048 1:0.666622 2:-0.61629 3:-0.587178 4:-0.666936 5:0.686002 6:-0.193806 7:-0.21279 8:0.0389 
-2048 1:0.58899 2:-0.61629 3:-0.362076 4:-0.335322 5:0.19085 6:-0.358406 7:-0.145668 8:0.303492 
-2048 1:0.624854 2:-0.61629 3:-0.447468 4:-0.687926 5:0.638914 6:-0.341156 7:-0.301954 8:0.42482 
-2048 1:0.789656 2:0.844548 3:-0.320614 4:-0.201186 5:0.17582 6:-0.371648 7:-0.249626 8:0.216958 
-2048 1:0.507576 2:-0.69797 3:-0.257074 4:0.134118 5:0.141688 6:-0.02531 7:-0.101122 8:-0.03723 
-2048 1:0.705184 2:-0.65689 3:-0.645132 4:-0.504772 5:0.668652 6:-0.773598 7:-0.101122 8:0.256542 
-2048 1:0.75852 2:0.81795 3:-0.48936 4:-0.349426 5:0.493642 6:-0.501216 7:-0.349528 8:0.354218 
-2048 1:0.676936 2:-0.576162 3:-0.23824 4:-0.269418 5:0.07271 6:-0.285618 7:-0.321648 8:0.11298 
-2048 1:0.789234 2:0.681808 3:-0.418858 4:-0.794696 5:0.518432 6:-0.352702 7:-0.285666 8:0.248046 
-2048 1:0.598402 2:-0.65689 3:-0.574298 4:-0.419996 5:0.573222 6:-0.248774 7:-0.010898 8:0.158748 
-2048 1:0.746982 2:0.791146 3:-0.778292 4:0.449738 5:-0.090342 6:-0.444156 7:-0.67948 8:0.554904 
-2048 1:0.782842 2:0.764132 3:-0.299736 4:-0.392228 5:0.389388 6:-0.672198 7:-0.554642 8:0.63493 
-2048 1:0.72555 2:-0.61629 3:-0.645132 4:-0.335322 5:0.477722 6:-0.78549 7:-0.569788 8:0.617038 
-2048 1:0.738 2:0.791146 3:-0.26553 4:-0.295842 5:0.13022 6:-0.396974 7:-0.337188 8:0.247512 
-2048 1:0.612344 2:-0.65689 3:-0.48936 4:-0.146048 5:0.118088 6:-0.431284 7:-0.321648 8:0.398566 
-2048 1:0.578342 2:-0.61629 3:-0.432772 4:0.086416 5:-0.192516 6:-0.267434 7:-0.301954 8:0.135566 
-2048 1:0.779372 2:0.81795 3:-0.399772 4:-0.564188 5:0.43313 6:-0.39276 7:-0.827237 8:0.603768 
-2048 1:0.643328 2:-0.53649 3:-0.637804 4:-0.284762 5:0.378862 6:-0.375216 7:-0.514806 8:0.466752 
-2048 1:0.661984 2:-0.61629 3:-0.637804 4:-0.284762 5:0.378862 6:-0.636994 7:-0.391176 8:0.328526 
-2048 1:0.665304 2:-0.61629 3:-0.928934 4:-0.166302 5:0.38216 6:-0.573962 7:-0.18206 8:0.168868 
-2048 1:0.689916 2:0.81795 3:-0.737834 4:0.823434 5:-0.285558 6:-0.314112 7:-0.293034 8:0.415194 
-2048 1:0.804396 2:0.764132 3:-0.425582 4:-0.38123 5:0.468008 6:-0.481368 7:-0.439588 8:0.511216 
-2048 1:0.697656 2:-0.61629 3:-0.716014 4:-0.250758 5:0.477722 6:-0.5844 7:-0.725552 8:0.60568 
-2048 1:0.577436 2:-0.61629 3:-0.291426 4:0.086416 5:-0.000708 6:-0.573962 7:-0.18206 8:0.168868 
-2048 1:0.765494 2:0.709466 3:-0.545004 4:-0.247842 5:0.378862 6:-0.360834 7:-0.406052 8:0.415194 
-2048 1:0.617888 2:-0.576162 3:-0.587178 4:-0.102758 5:0.261686 6:-0.650482 7:0.11788 8:0.208296 
-2048 1:0.74845 2:0.764132 3:-0.559332 4:-0.01688 5:-0.090342 6:-0.386184 7:-0.439588 8:0.387292 
-2048 1:0.54266 2:-0.65689 3:-0.561082 4:0.024732 5:0.215094 6:-0.3311 7:0.56694 8:-0.269498 
-2048 1:0.754728 2:0.81795 3:-0.310262 4:-0.40305 5:0.312044 6:-0.407588 7:-0.293034 8:0.293184 
-2048 1:0.802796 2:0.844548 3:-0.320614 4:-0.14817 5:0.17582 6:-0.371648 7:-0.19364 8:0.216958 
-2048 1:0.709154 2:-0.576162 3:-0.5173 4:-0.019588 5:0.356084 6:-0.577322 7:-0.057762 8:0.398566 
-1549.298068892852 1:0.688706 2:0.791146 3:-0.0868 4:-0.13536 5:0.19085 6:-0.349836 7:-0.451186 8:0.432096 
-2048 1:0.760398 2:0.764132 3:-0.344852 4:-0.230162 5:0.267242 6:-0.338656 7:-0.439588 8:0.44928 
-2048 1:0.73494 2:0.568914 3:-0.595994 4:-0.009854 5:0.207232 6:-0.481368 7:-0.32463 8:0.387292 
-2048 1:0.790494 2:0.791146 3:-0.344852 4:-0.230162 5:0.267242 6:-0.720776 7:-1 8:0.938362 
-2048 1:0.764114 2:-0.198488 3:-0.452278 4:-0.432656 5:0.378862 6:-0.50929 7:-0.493802 8:0.4215 
-2048 1:0.578342 2:-0.61629 3:-0.503516 4:-0.335322 5:0.286536 6:0.026516 7:0.054354 8:-0.154804 
-2048 1:0.58986 2:-0.65689 3:-0.417688 4:-0.146048 5:0.312044 6:-0.02531 7:-0.462592 8:0.158748 
-2048 1:0.548768 2:-0.69797 3:-0.474826 4:0.306464 5:0.141688 6:-0.267434 7:-0.301954 8:0.135566 
-2048 1:0.749912 2:0.791146 3:-0.0868 4:-0.295842 5:0.13022 6:-0.585926 7:-0.622366 8:0.616228 
-2048 1:0.78241 2:0.791146 3:-0.435148 4:-0.554696 5:0.572416 6:-0.548084 7:-0.462592 8:0.476122 
-2048 1:0.705184 2:-0.576162 3:-0.806144 4:-0.40305 5:0.511434 6:-0.650482 7:-0.762588 8:0.777668 
-2048 1:0.743524 2:0.764132 3:-0.243552 4:-0.38123 5:0.221668 6:-0.548084 7:-0.293034 8:0.354218 
-2048 1:0.72555 2:0.764132 3:-0.380044 4:-0.435794 5:0.40646 6:-0.407588 7:-0.067284 8:0.1098 
-2048 1:0.744516 2:0.81795 3:-0.310262 4:-0.13536 5:0.19085 6:-0.557386 7:-0.417728 8:0.45901 
-2048 1:0.742528 2:0.791146 3:-0.480322 4:-0.446344 5:0.511434 6:-0.32531 7:-0.19364 8:0.156318 
-2048 1:0.665964 2:-0.61629 3:-0.324028 4:0.204878 5:0.144214 6:-0.636994 7:-0.123684 8:0.232108 
-2048 1:0.688706 2:-0.61629 3:-0.503516 4:-0.166302 5:0.286536 6:-0.562896 7:-0.21279 8:0.232108 
-2048 1:0.617888 2:-0.65689 3:-0.857914 4:-0.250758 5:0.573222 6:-0.398232 7:-0.010898 8:0.158748 
-2048 1:0.77762 2:0.653928 3:-0.471874 4:-0.644246 5:0.560024 6:-0.341156 7:-0.272226 8:0.26426 
-2048 1:0.842682 2:0.791146 3:-0.737834 4:-1 5:1 6:-0.538626 7:-0.508226 8:0.554904 
-2048 1:0.683194 2:0.764132 3:0.07426 4:0.485632 5:-0.519814 6:-0.548084 7:-0.293034 8:0.354218 
-2048 1:0.776298 2:0.764132 3:-0.425582 4:-0.435794 5:0.468008 6:-0.45438 7:-0.293034 8:0.232108 
-2048 1:0.710838 2:0.736908 3:-0.18758 4:-0.254252 5:0.115678 6:-0.2794 7:-0.196032 8:-0.097632 
-2048 1:0.605872 2:-0.65689 3:-0.48936 4:-0.40305 5:0.312044 6:-0.358406 7:-0.321648 8:0.493522 
-2048 1:0.700576 2:-0.61629 3:-0.716014 4:-0.419996 5:0.573222 6:-0.711194 7:-0.74864 8:0.80876 
-2048 1:0.464652 2:-0.781616 3:-0.48936 4:0.20007 5:-0.08755 6:0.581706 7:0.71994 8:-0.690074 
-2048 1:0.709154 2:0.81795 3:-0.131454 4:-0.188814 5:0.251456 6:-0.174186 7:-0.236564 8:0.293184 
-2048 1:0.774082 2:-0.61629 3:-0.797078 4:-0.269418 5:0.45042 6:-0.711194 7:-0.74864 8:0.80876 
-2048 1:0.588118 2:-0.61629 3:-0.291426 4:-0.250758 5:0.095102 6:-0.341156 7:-0.301954 8:0.135566 
-2048 1:0.70746 2:0.791146 3:-0.344852 4:-0.176232 5:0.206134 6:-0.360834 7:-0.236564 8:0.354218 
-2048 1:0.794656 2:0.844548 3:-0.320614 4:-0.201186 5:0.17582 6:-0.371648 7:-0.249626 8:0.216958 
-2048 1:0.762726 2:0.81795 3:-0.48936 4:-0.295842 5:0.372598 6:-0.501216 7:-0.406052 8:0.354218 
-2048 1:0.813804 2:0.897144 3:-0.34082 4:-0.749398 5:0.560024 6:-0.39276 7:-0.827237 8:0.603768 
-2048 1:0.676304 2:0.844548 3:-0.143268 4:-0.254252 5:0.115678 6:-0.301588 7:0.110034 8:0.067992 
-2048 1:0.894142 2:0.764132 3:-0.607912 4:-0.490396 5:0.591018 6:-0.672198 7:-0.554642 8:0.63493 
-2048 1:0.742528 2:0.736908 3:-0.232286 4:-0.205268 5:-0.13593 6:-0.557386 7:-0.417728 8:0.45901 
-2048 1:0.753292 2:0.764132 3:-0.18758 4:-0.254252 5:0.115678 6:-0.433756 7:-0.497106 8:0.511216 
-2048 1:0.420292 2:-0.65689 3:0.722736 4:0.618976 5:-0.855524 6:0.713352 7:0.618978 8:-0.826281 
-2048 1:0.730806 2:0.736908 3:-0.232286 4:-0.150434 5:-0.198256 6:-0.407588 7:-0.236564 8:0.293184 
-2048 1:0.657266 2:-0.576162 3:-0.530732 4:-0.370046 5:0.516908 6:-0.577322 7:-0.674286 8:0.777668 
-2048 1:0.832788 2:0.764132 3:-0.380044 4:-0.435794 5:0.529522 6:-0.338656 7:-0.267184 8:0.263168 
-2048 1:0.681332 2:-0.61629 3:-0.645132 4:-0.250758 5:0.477722 6:-0.562896 7:-0.480456 8:0.52099 
-2048 1:0.60423 2:-0.198488 3:-0.514088 4:-0.210942 5:0.128124 6:-0.360834 7:0.514196 8:-0.217322 
-2048 1:0.859838 2:0.81795 3:-0.399772 4:-0.564188 5:0.43313 6:-0.45438 7:-0.632362 8:0.476122 
-2048 1:0.762262 2:-0.270808 3:-0.426114 4:-0.100798 5:0.083834 6:-0.481924 7:-0.143596 8:0.1242 
-2048 1:0.603404 2:-0.61629 3:-0.291426 4:0.17044 5:-0.192516 6:-0.68063 7:-0.462592 8:0.640744 
-2048 1:0.719108 2:-0.61629 3:-0.503516 4:-0.335322 5:0.477722 6:-0.562896 7:-0.391176 8:0.52099 
-2048 1:0.70746 2:-0.576162 3:-0.587178 4:-0.77195 5:0.921202 6:-0.577322 7:-0.762588 8:0.872146 
-2048 1:0.670534 2:-0.270808 3:-0.552644 4:-0.176232 5:0.255026 6:-0.614322 7:-0.223278 8:0.296782 
-2048 1:0.740022 2:0.764132 3:-0.289032 4:-0.38123 5:0.40646 6:-0.557386 7:0.030086 8:0.034902 
-2048 1:0.87071 2:1 3:-0.86767 4:0.417392 5:0.038066 6:-0.876885 7:-0.858603 8:0.878842 
-2048 1:0.605052 2:-0.69797 3:-0.474826 4:0.306464 5:0.141688 6:-0.532878 7:0.287378 8:0.182546 
-2048 1:0.668584 2:-0.576162 3:-0.587178 4:-0.436502 5:0.544698 6:-0.723734 7:-0.321648 8:0.493522 
-2048 1:0.772296 2:0.81795 3:-0.48936 4:-0.242306 5:0.312044 6:-0.371648 7:-0.249626 8:0.216958 
-2048 1:0.61867 2:-0.65689 3:-0.587178 4:-0.352906 5:0.544698 6:-0.398232 7:-0.010898 8:0.256542 
