svm_type c_svc
kernel_type rbf
gamma 256.0
nr_class 2
total_sv 768
rho 0.33666152410329026
label 1 -1
nr_sv 261 507
SV
1.2699164832525904 1:0.73834 2:0.0878964 3:0.812912 4:0.829121 5:0.197331 6:0.263444 7:0.449439 8:0.628271 
1.2018728119964277 1:0.830992 2:0.191855 3:0.248242 4:0.290002 5:0.738861 6:0.403097 7:0.438158 8:0.567783 
0.25330363003354645 1:0.935355 2:0.908975 3:0.344869 4:0.405593 5:0.56511 6:0.225958 7:0.325236 8:0.707597 
1.255319666755888 1:0.850867 2:0.171555 3:0.25532 4:0.405593 5:0.615631 6:0.375613 7:0.0874905 8:0.774586 
1.146676119415665 1:0.929101 2:0.882066 3:0.282426 4:0.222652 5:0.816686 6:0.163901 7:0.222679 8:0.817465 
1.2921437864106329 1:0.888149 2:0.882066 3:0.423673 4:0.282103 5:0.610834 6:0.436189 7:0.409946 8:0.524287 
1.177389171549218 1:0.916394 2:0.882066 3:0.332737 4:0.309385 5:0.672443 6:0.296206 7:0.240422 8:0.768503 
1.8423860634382119 1:0.903981 2:0.895573 3:0.23724 4:0.303886 5:0.755717 6:0.27281 7:0.353483 8:0.616054 
1.3741017701945242 1:0.854858 2:0.171555 3:0.267538 4:0.276522 5:0.636747 6:0.375613 7:0.0874905 8:0.774586 
0.8824043059731882 1:0.838785 2:0.171555 3:0.223678 4:0.449601 5:0.541917 6:0.225958 7:0.4043 8:0.579374 
1.3366848507782427 1:0.680758 2:0.0663361 3:0.570721 4:0.411884 5:0.456225 6:0.743742 7:0.55894 8:0.484891 
2.0810353482069313 1:0.85764 2:0.191855 3:0.248242 4:0.332339 5:0.738861 6:0.255556 7:0.304412 8:0.71241 
1.34345718314803 1:0.850867 2:0.151015 3:0.153489 4:0.35063 5:0.767254 6:0.312392 7:0.199062 8:0.780204 
1.2947737409776703 1:1.0 2:0.961572 3:0.237969 4:0.199686 5:0.829711 6:0.2078 7:0.164638 8:0.851841 
1.3376982279271579 1:0.855419 2:0.171555 3:0.25532 4:0.212527 5:0.801248 6:0.338273 7:0.132838 8:0.725879 
1.3136904779689695 1:0.873245 2:0.868454 3:0.223137 4:0.369926 5:0.742941 6:0.429841 7:0.375187 8:0.578159 
1.3365387759930525 1:0.775887 2:0.109192 3:0.219459 4:0.512366 5:0.559044 6:0.790853 7:0.766457 8:0.103379 
0.9927759665711563 1:0.919066 2:0.895573 3:0.40621 4:0.372874 5:0.557839 6:0.277922 7:0.16026 8:0.777452 
1.5020821105554678 1:0.856256 2:0.191855 3:0.141993 4:0.290002 5:0.738861 6:0.320797 7:0.427166 8:0.651746 
0.7406884600385898 1:0.911077 2:0.895573 3:0.327574 4:0.357928 5:0.603067 6:0.254314 7:0.331406 8:0.68531 
1.3902148245240018 1:0.856256 2:0.171555 3:0.234634 4:0.479548 5:0.572107 6:0.263444 7:0.0421098 8:0.871815 
1.3546261615407102 1:0.85901 2:0.211919 3:0.206411 4:0.281749 5:0.772349 6:0.142716 7:0.129747 8:0.989148 
0.21439856776787608 1:0.91089 2:0.895573 3:0.40621 4:0.372874 5:0.58791 6:0.230687 7:0.274407 8:0.746761 
1.0847155704233165 1:0.913853 2:0.868454 3:0.269106 4:0.149577 5:0.804965 6:0.306908 7:0.30895 8:0.66263 
1.2739663128712349 1:0.823792 2:0.171555 3:0.285186 4:0.33422 5:0.736737 6:0.300884 7:0.494551 8:0.579374 
1.3306012328632597 1:0.837834 2:0.191855 3:0.177434 4:0.459023 5:0.738861 6:0.284358 7:0.515043 8:0.460992 
1.336336445306006 1:0.763384 2:0.109192 3:0.318962 4:0.332339 5:0.595425 6:0.790853 7:0.85997 8:0.154963 
0.8069913493292242 1:0.920121 2:0.882066 3:0.378224 4:0.309385 5:0.610834 6:0.296206 7:0.353483 8:0.646592 
1.3391325768023912 1:0.826924 2:0.191855 3:0.354287 4:0.374621 5:0.547551 6:0.329422 7:0.527177 8:0.471055 
1.7842497343822359 1:0.86171 2:0.171555 3:0.141993 4:0.374621 5:0.738861 6:0.263444 7:0.584679 8:0.530413 
0.17271918095103675 1:0.918359 2:0.895573 3:0.259839 4:0.303886 5:0.755717 6:0.27281 7:0.353483 8:0.677109 
1.3378937525804195 1:0.85764 2:0.171555 3:0.177434 4:0.162666 5:0.738861 6:0.263444 7:0.359132 8:0.823234 
1.3336456410647122 1:0.824844 2:0.191855 3:0.530569 4:0.543208 5:0.403742 6:0.320797 7:0.427166 8:0.651746 
1.3362090295853353 1:0.77933 2:0.109192 3:0.871707 4:0.813009 5:0.0885151 6:0.255556 7:0.482682 8:0.51945 
1.2578175082465002 1:0.838468 2:0.191855 3:0.415706 4:0.490206 5:0.489065 6:0.144403 7:0.304412 8:0.760495 
1.468119341772506 1:0.884571 2:0.895573 3:0.507788 4:0.411884 5:0.480716 6:0.249392 7:0.325236 8:0.677109 
1.2150047416091987 1:0.913302 2:0.882066 3:0.300114 4:0.352079 5:0.686299 6:0.283122 7:0.366408 8:0.66263 
1.2781569952381862 1:0.917648 2:0.922274 3:0.428366 4:0.372874 5:0.557839 6:0.216731 7:0.118345 8:0.930271 
1.3866513714067092 1:0.903389 2:0.895573 3:0.417754 4:0.465752 5:0.450099 6:0.319583 7:0.325236 8:0.616054 
0.4472721020110686 1:0.917469 2:0.882066 3:0.350132 4:0.411884 5:0.603067 6:0.235494 7:0.30895 8:0.693646 
1.3577519453974913 1:0.871014 2:0.191855 3:0.071043 4:0.247614 5:0.929672 6:0.0700592 7:0.259772 8:0.856478 
1.0826489975471563 1:0.917291 2:0.908975 3:0.344869 4:0.352079 5:0.656022 6:0.151458 7:0.375187 8:0.729505 
1.3388963521645039 1:0.903981 2:0.882066 3:0.339693 4:0.0796113 5:0.708064 6:0.378143 7:0.165103 8:0.786548 
1.4740170196252436 1:0.902596 2:0.882066 3:0.0859277 4:0.690689 5:0.536737 6:0.330672 7:0.366408 8:0.631584 
1.133230506708741 1:0.946059 2:0.882066 3:0.400952 4:0.41828 5:0.549174 6:0.221493 7:0.155502 8:0.862565 
0.6756686527566232 1:0.892066 2:0.908975 3:0.361874 4:0.399407 5:0.557839 6:0.27281 7:0.353483 8:0.677109 
1.2409492616337237 1:0.874956 2:0.171555 3:0.25532 4:0.298475 5:0.656022 6:0.225958 7:0.268704 8:0.677109 
1.2720505304623633 1:0.783634 2:0.0878964 3:0.812912 4:0.829121 5:0.197331 6:0.192839 7:0.388361 8:0.648391 
1.339196257413973 1:0.868237 2:0.191855 3:0.318962 4:0.332339 5:0.69108 6:0.144403 7:0.0809238 8:0.95222 
0.3853516476060989 1:0.918181 2:0.908975 3:0.367235 4:0.405593 5:0.595425 6:0.319583 7:0.325236 8:0.616054 
1.295475213310026 1:0.922722 2:0.895573 3:0.339693 4:0.106382 5:0.768067 6:0.207037 7:0.188817 8:0.808114 
1.3979088860090938 1:0.887928 2:0.882066 3:0.309978 4:0.282103 5:0.764761 6:0.425535 7:0.280206 8:0.693646 
1.3266203543784354 1:0.860905 2:0.171555 3:0.206411 4:0.57322 5:0.583614 6:0.263444 7:0.494551 8:0.628271 
1.3367049022818045 1:0.799621 2:0.109192 3:0.501228 4:0.856991 5:0.190177 6:0.150835 7:0.449439 8:0.871815 
1.450941071551821 1:0.870262 2:0.191855 3:0.175824 4:0.166532 5:0.966478 6:0.144403 7:0.12568 8:0.90438 
1.3448105125947516 1:0.872505 2:0.798742 3:0.360926 4:0.204803 5:0.742941 6:0.215909 7:0.407927 8:0.681464 
1.1546251727555574 1:0.877125 2:0.854733 3:0.273861 4:0.403751 5:0.564062 6:0.283122 7:0.251447 8:0.755608 
1.130652910242598 1:0.828633 2:0.191855 3:0.354287 4:0.374621 5:0.547551 6:0.192839 7:0.388361 8:0.648391 
0.9454859875551042 1:0.887928 2:0.854733 3:0.478917 4:0.405593 5:0.625728 6:0.245355 7:0.262853 8:0.71075 
1.3967226297340394 1:0.863305 2:0.171555 3:0.25532 4:0.512366 5:0.607547 6:0.107255 7:0.259772 8:0.760495 
1.2906922909693566 1:0.84526 2:0.191855 3:0.248242 4:0.247614 5:0.69108 6:0.174759 7:0.55894 8:0.604148 
1.5836635453662535 1:0.82344 2:0.211919 3:0.19202 4:0.411884 5:0.67027 6:0.284358 7:0.339176 8:0.746761 
0.5379411035366742 1:0.913669 2:0.895573 3:0.327574 4:0.384919 5:0.633621 6:0.230687 7:0.274407 8:0.777452 
1.2492477179463575 1:0.776384 2:0.0878964 3:0.206411 4:0.365291 5:0.72521 6:0.689765 7:0.782932 8:0.317965 
1.2554348715036132 1:0.883662 2:0.908975 3:0.367235 4:0.459023 5:0.595425 6:0.296206 7:0.466358 8:0.5549 
1.22029810031877 1:0.847945 2:0.191855 3:0.212851 4:0.416849 5:0.69108 6:0.255556 7:0.393605 8:0.567783 
1.400034016986234 1:0.873981 2:0.882066 3:0.559792 4:0.742816 5:0.240093 6:0.406746 7:0.347179 8:0.578159 
1.1448075396349513 1:0.861442 2:0.191855 3:0.234634 4:0.314977 5:0.758454 6:0.255556 7:0.393605 8:0.567783 
1.255707248914468 1:0.867982 2:0.191855 3:0.283614 4:0.332339 5:0.738861 6:0.138133 7:0.206979 8:0.888834 
1.3198096570924949 1:0.914401 2:0.868454 3:0.360926 4:0.342463 5:0.494321 6:0.27281 7:0.0704771 8:0.798918 
1.4301623368160665 1:0.849706 2:0.191855 3:0.354287 4:0.374621 5:0.547551 6:0.168189 7:0.199062 8:0.920333 
0.5472119577001349 1:0.898971 2:0.895573 3:0.40621 4:0.372874 5:0.557839 6:0.372165 7:0.41682 8:0.592939 
0.32243663031086645 1:0.909573 2:0.908975 3:0.367235 4:0.405593 5:0.595425 6:0.225958 7:0.325236 8:0.707597 
0.757822921603789 1:0.922033 2:0.895573 3:0.282426 4:0.222652 5:0.786208 6:0.342944 7:0.325236 8:0.616054 
1.3318865730205187 1:0.836877 2:0.171555 3:0.45051 4:0.53174 5:0.441745 6:0.225958 7:0.4043 8:0.579374 
0.8700670538867754 1:0.899785 2:0.882066 3:0.355484 4:0.363878 5:0.672443 6:0.330672 7:0.337685 8:0.693646 
1.2896895211834891 1:0.90457 2:0.882066 3:0.434273 4:0.325287 5:0.534779 6:0.211648 7:0.222679 8:0.817465 
1.4686461410844687 1:0.92047 2:0.908975 3:0.339693 4:0.106382 5:0.768067 6:0.225958 7:0.353483 8:0.677109 
0.8403157907765311 1:0.922033 2:0.882066 3:0.378224 4:0.309385 5:0.610834 6:0.342944 7:0.296974 8:0.616054 
0.6819660054335932 1:0.941187 2:0.922274 3:0.40621 4:0.372874 5:0.557839 6:0.38363 7:0.347179 8:0.578159 
1.825806507158372 1:0.919066 2:0.895573 3:0.259839 4:0.276828 5:0.786208 6:0.254314 7:0.188817 8:0.808114 
1.595084893599049 1:0.896084 2:0.868454 3:0.383857 4:0.397366 5:0.432035 6:0.230687 7:0.245887 8:0.777452 
1.3292089010095187 1:0.842214 2:0.191855 3:0.318962 4:0.543208 5:0.547551 6:0.255556 7:0.438158 8:0.71241 
1.336245100235722 1:0.545112 2:0.0445045 3:0.959925 4:1.0 6:0.835344 7:0.871333 8:0.0922168 
0.820260658214048 1:0.907478 2:0.882066 3:0.322496 4:0.325287 5:0.80729 6:0.306908 7:0.30895 8:0.66263 
1.8202706011445111 1:0.889904 2:0.882066 3:0.287209 4:0.282103 5:0.734004 6:0.319583 7:0.438158 8:0.585491 
1.4126758672786122 1:0.917648 2:0.908975 3:0.322496 4:0.0291398 5:0.777062 6:0.319583 7:0.325236 8:0.616054 
1.3436051720548672 1:0.945914 2:0.922274 3:0.339693 4:0.0796113 5:0.708064 6:0.314176 7:0.0383579 8:0.729505 
1.0705754094913096 1:0.842522 2:0.191855 3:0.389589 4:0.416849 5:0.547551 6:0.159685 7:0.388361 8:0.691458 
1.3700606702250617 1:0.825541 2:0.171555 3:0.318962 4:0.332339 5:0.738861 6:0.300884 7:0.268704 8:0.823234 
1.213671784636512 1:0.884571 2:0.908975 3:0.40621 4:0.372874 5:0.557839 6:0.366283 7:0.353483 8:0.677109 
0.5271960001497829 1:0.847649 2:0.211919 3:0.17145 4:0.365291 5:0.72521 6:0.211339 7:0.427166 8:0.55649 
1.7134088361345308 1:0.922206 2:0.908975 3:0.290571 4:0.102652 5:0.759216 6:0.202504 7:0.296974 8:0.768503 
1.322976667052393 1:0.909762 2:0.882066 3:0.0859277 4:0.690689 5:0.536737 6:0.283122 7:0.251447 8:0.755608 
0.5433386452083289 1:0.8965 2:0.895573 3:0.305003 4:0.222652 5:0.755717 6:0.319583 7:0.438158 8:0.585491 
1.3465131432461281 1:0.806572 2:0.191855 3:0.354287 4:0.58522 5:0.403742 6:0.192839 7:0.348498 8:0.691458 
1.3996686510821266 1:0.835267 2:0.171555 3:0.0397957 4:0.512366 5:0.704461 6:0.218552 7:0.438158 8:0.567783 
1.2236287537522959 1:0.849121 2:0.171555 3:0.276266 4:0.365291 5:0.583614 6:0.338273 7:0.132838 8:0.725879 
1.332142581225601 1:0.836877 2:0.211919 3:0.381701 4:0.449601 5:0.541917 6:0.211339 7:0.251073 8:0.794178 
1.3178574184199876 1:0.875683 2:0.364596 3:0.0969281 4:0.298475 5:0.755717 6:0.159685 7:0.507811 8:0.60527 
1.3383722470765678 1:0.842522 2:0.171555 3:0.0397957 4:0.384199 5:0.849591 6:0.357191 7:0.383185 8:0.651746 
1.6828555185376102 1:0.907286 2:0.908975 3:0.322496 4:0.0291398 5:0.777062 6:0.389603 7:0.353483 8:0.5549 
1.4146096912613484 1:0.899582 2:0.868454 3:0.273094 4:0.133127 5:0.768067 6:0.408127 7:0.401984 8:0.514076 
1.3126549239555925 1:0.912379 2:0.908975 3:0.300114 4:0.459023 5:0.56511 6:0.436189 7:0.409946 8:0.524287 
1.3508400373389438 1:0.86171 2:0.171555 3:0.362762 4:0.083182 5:0.801248 6:0.255556 7:0.393605 8:0.567783 
1.313410555290685 1:0.900594 2:0.895573 3:0.350132 4:0.303886 5:0.694694 6:0.239791 7:0.28539 8:0.84076 
1.1392770820483897 1:0.937686 2:0.908975 3:0.25532 4:0.325287 5:0.746821 6:0.225958 7:0.353483 8:0.677109 
1.0636227849943565 1:0.929265 2:0.908975 3:0.25532 4:0.298475 5:0.716565 6:0.314176 7:0.319163 8:0.729505 
1.357681854568645 1:0.906322 2:0.854733 3:0.273861 4:0.209561 5:0.783317 6:0.319583 7:0.296974 8:0.707597 
1.314553172049616 1:0.868237 2:0.151015 3:0.262587 4:0.394031 5:0.767254 6:0.107255 7:0.259772 8:0.808519 
4.917825585357005 1:0.903587 2:0.882066 3:0.40621 4:0.372874 5:0.557839 6:0.283122 7:0.251447 8:0.755608 
0.9055451768879895 1:0.919945 2:0.895573 3:0.305003 4:0.303886 5:0.694694 6:0.249392 7:0.353483 8:0.677109 
0.8508991534360156 1:0.940131 2:0.908975 3:0.322496 4:0.352079 5:0.625728 6:0.221307 7:0.291136 8:0.729505 
1.0760505932362565 1:0.926952 2:0.895573 3:0.259839 4:0.0868138 5:0.786208 6:0.314176 7:0.319163 8:0.729505 
1.2234503682704347 1:0.850288 2:0.191855 3:0.248242 4:0.290002 5:0.69108 6:0.247871 7:0.162857 8:0.936073 
1.3425202967419436 1:0.804968 2:0.171555 3:0.291156 4:0.469697 5:0.656022 6:0.263444 7:0.449439 8:0.677109 
0.8197088428200975 1:0.90457 2:0.854733 3:0.273861 4:0.292925 5:0.689431 6:0.296206 7:0.353483 8:0.707597 
1.3546992083891916 1:0.844656 2:0.327668 3:0.333011 4:0.352722 5:0.562552 6:0.225958 7:0.388361 8:0.648391 
1.115984746243538 1:0.900997 2:0.908975 3:0.339693 4:0.239898 5:0.798048 6:0.296206 7:0.353483 8:0.707597 
1.6561963105069923 1:0.90019 2:0.882066 3:0.289181 4:0.414854 5:0.717044 6:0.235494 7:0.30895 8:0.693646 
0.9070506393475775 1:0.892922 2:0.895573 3:0.40621 4:0.372874 5:0.557839 6:0.254314 7:0.302913 8:0.716048 
1.569005307153212 1:0.825888 2:0.171555 3:0.291156 4:0.384199 5:0.607547 6:0.188422 7:0.4043 8:0.628271 
1.3931840063959402 1:0.815076 2:0.191855 3:0.354287 4:0.374621 5:0.547551 6:0.49326 7:0.361186 8:0.574368 
1.3367285933303117 1:0.859825 2:0.191855 3:0.0965237 4:0.273707 5:0.897903 6:0.292513 7:0.393605 8:0.760495 
1.2426539128515965 1:0.816938 2:0.109192 3:0.262587 4:0.394031 5:0.767254 6:0.675682 7:0.766457 8:0.360593 
1.3752787696554507 1:0.917112 2:0.868454 3:0.0661651 4:0.708696 5:0.519033 6:0.240381 7:0.111911 8:0.826971 
1.1196070937559781 1:0.909573 2:0.854733 3:0.297024 4:0.292925 5:0.689431 6:0.348631 7:0.359892 8:0.623756 
2.260127880958837 1:0.917469 2:0.908975 3:0.312589 4:0.155694 5:0.610329 6:0.366283 7:0.353483 8:0.616054 
1.290253156767757 1:0.877364 2:0.895573 3:0.4566 4:0.43232 5:0.595425 6:0.230687 7:0.188817 8:0.808114 
0.36412255761944606 1:0.915673 2:0.854733 3:0.40621 4:0.372874 5:0.557839 6:0.245355 7:0.262853 8:0.71075 
1.3658090298079348 1:0.833966 2:0.171555 3:0.31116 4:0.406982 5:0.630843 6:0.225958 7:0.223446 8:0.774586 
1.5196901771312432 1:0.905741 2:0.854733 3:0.250684 4:0.376079 5:0.626775 6:0.216337 7:0.111911 8:0.826971 
1.2993823836669949 1:0.900392 2:0.895573 3:0.327574 4:0.384919 5:0.633621 6:0.389603 7:0.240422 8:0.677109 
1.3362797962127184 1:0.93598 2:1.0 3:0.131083 4:0.911717 5:0.357221 6:0.0615576 7:0.0706983 8:0.939421 
1.345517638948063 1:0.949498 2:0.922274 3:0.317501 4:0.0796113 5:0.768067 6:0.0615576 7:0.0706983 8:0.939421 
1.3319837452906322 1:0.837516 2:0.151015 3:0.298902 4:0.437372 5:0.718203 6:0.393539 7:0.471119 8:0.508771 
0.5307127302419163 1:0.891636 2:0.895573 3:0.384048 4:0.425915 5:0.557839 6:0.325082 7:0.445269 8:0.592939 
1.2420179808503684 1:0.925444 2:0.908975 3:0.322496 4:0.485704 5:0.534779 6:0.225958 7:0.353483 8:0.677109 
1.2361357806234512 1:0.920121 2:0.908975 3:0.344869 4:0.298475 5:0.656022 6:0.366283 7:0.353483 8:0.616054 
1.232321077573437 1:0.869 2:0.868454 3:0.223137 4:0.369926 5:0.742941 6:0.489533 7:0.388361 8:0.500343 
1.6844623105425875 1:0.895875 2:0.908975 3:0.317501 4:0.0796113 5:0.768067 6:0.27281 7:0.381718 8:0.707597 
1.2671461694952195 1:0.847649 2:0.171555 3:0.25532 4:0.298475 5:0.656022 6:0.403097 7:0.482682 8:0.51945 
1.189780244780644 1:0.827952 2:0.151015 3:0.298902 4:0.35063 5:0.718203 6:0.329422 7:0.349023 8:0.567783 
1.12672401748777 1:0.905157 2:0.868454 3:0.337986 4:0.452177 5:0.494321 6:0.296206 7:0.325236 8:0.707597 
1.082431621229489 1:0.906902 2:0.868454 3:0.327574 4:0.357928 5:0.603067 6:0.168189 7:0.373032 8:0.7646 
1.2561418668923565 1:0.809725 2:0.171555 3:0.291156 4:0.384199 5:0.607547 6:0.49326 7:0.399681 8:0.574368 
0.22985780727718622 1:0.900997 2:0.908975 3:0.400579 4:0.367 5:0.550692 6:0.319583 7:0.381718 8:0.677109 
1.2965217805062623 1:0.864095 2:0.211919 3:0.276266 4:0.323547 5:0.630843 6:0.225958 7:0.188817 8:0.863246 
1.5512335155415682 1:0.924768 2:0.908975 3:0.295302 4:0.399407 5:0.648011 6:0.27281 7:0.353483 8:0.616054 
1.345980754666302 1:0.87973 2:0.211919 3:0.136467 4:0.323547 5:0.772349 6:0.174759 7:0.118706 8:0.888834 
0.6843199128598503 1:0.901599 2:0.895573 3:0.389589 4:0.378847 5:0.656022 6:0.207037 7:0.188817 8:0.808114 
1.2725298415729358 1:0.915129 2:0.854733 3:0.273861 4:0.320668 5:0.658108 6:0.225958 7:0.353483 8:0.677109 
1.3362471089644554 1:0.79493 2:0.109192 3:0.797813 4:0.768969 5:0.0885151 6:0.2078 7:0.137224 8:0.80284 
1.2661257095677019 1:0.86171 2:0.171555 3:0.25532 4:0.298475 5:0.656022 6:0.312392 7:0.242597 8:0.733376 
0.5894915676540254 1:0.908815 2:0.882066 3:0.287209 4:0.309385 5:0.734004 6:0.348631 7:0.359892 8:0.623756 
1.1754913400025135 1:0.829986 2:0.191855 3:0.261721 4:0.420868 5:0.595425 6:0.255556 7:0.393605 8:0.567783 
1.3383570939927485 1:0.86644 2:0.908975 3:0.4566 4:0.43232 5:0.595425 6:0.436189 7:0.550894 8:0.432296 
0.7911197790311756 1:0.850578 2:0.211919 3:0.242956 4:0.431397 5:0.564062 6:0.211339 7:0.427166 8:0.55649 
1.3942558232705118 1:0.82761 2:0.191855 3:0.354287 4:0.543208 5:0.451709 6:0.320797 7:0.427166 8:0.651746 
0.8873174825654426 1:0.895038 2:0.882066 3:0.367235 4:0.405593 5:0.686299 6:0.211648 7:0.222679 8:0.817465 
1.3190794235016121 1:0.870011 2:0.171555 3:0.0397957 4:0.384199 5:0.849591 6:0.218552 7:0.304412 8:0.71241 
0.3737111775598855 1:0.905935 2:0.908975 3:0.361874 4:0.346323 5:0.617965 6:0.366283 7:0.353483 8:0.677109 
1.3401882857011427 1:0.871513 2:0.191855 3:0.141993 4:0.162666 5:0.882014 6:0.192839 7:0.388361 8:0.648391 
0.6978710126854185 1:0.91089 2:0.908975 3:0.322496 4:0.405593 5:0.595425 6:0.314176 7:0.319163 8:0.729505 
0.72899789002307 1:0.917826 2:0.908975 3:0.411934 4:0.378847 5:0.534779 6:0.27281 7:0.353483 8:0.646592 
0.9029889996818942 1:0.885249 2:0.882066 3:0.478917 4:0.405593 5:0.625728 6:0.235494 7:0.30895 8:0.693646 
1.1832855027888458 1:0.832322 2:0.191855 3:0.318962 4:0.332339 5:0.738861 6:0.403097 7:0.393605 8:0.51945 
1.1119676448658131 1:0.90019 2:0.908975 3:0.322496 4:0.325287 5:0.80729 6:0.249392 7:0.325236 8:0.677109 
1.3691292042559426 1:0.825541 2:0.171555 3:0.219459 4:0.512366 5:0.559044 6:0.329422 7:0.349023 8:0.567783 
0.9197385819344276 1:0.921514 2:0.882066 3:0.322496 4:0.405593 5:0.625728 6:0.163901 7:0.222679 8:0.817465 
1.0324704358738026 1:0.913486 2:0.868454 3:0.360926 4:0.204803 5:0.742941 6:0.314176 7:0.40318 8:0.608479 
1.3609563761445336 1:0.84824 2:0.191855 3:0.212851 4:0.205168 5:0.834326 6:0.159685 7:0.507811 8:0.60527 
1.333714883695919 1:0.863569 2:0.798742 3:0.250684 4:0.376079 5:0.626775 6:0.215909 7:0.407927 8:0.681464 
1.3878858333878588 1:0.899378 2:0.854733 3:0.110854 4:0.724869 5:0.454829 6:0.245355 7:0.262853 8:0.71075 
1.3322412593909134 1:0.829311 2:0.151015 3:0.262587 4:0.653232 5:0.570844 6:0.233561 7:0.552418 8:0.690294 
1.0098665212160678 1:0.850578 2:0.151015 3:0.117076 4:0.35063 5:0.669115 6:0.225958 7:0.381718 8:0.636418 
1.6250865107215666 1:0.82344 2:0.191855 3:0.318962 4:0.332339 5:0.595425 6:0.329422 7:0.438158 8:0.616054 
0.5374214020679432 1:0.913118 2:0.882066 3:0.287209 4:0.282103 5:0.764761 6:0.319583 7:0.325236 8:0.616054 
1.3822895289758916 1:0.928772 2:0.882066 3:0.423673 4:0.0905035 5:0.856964 6:0.221307 7:0.291136 8:0.729505 
3.6144236255841453 1:0.93598 2:0.908975 3:0.300114 4:0.217906 5:0.716565 6:0.221307 7:0.291136 8:0.729505 
1.3346789707296232 1:0.790969 2:0.151015 3:0.248242 4:0.416849 5:0.643268 6:0.648638 7:0.689277 8:0.292635 
0.6309320974959388 1:0.915673 2:0.882066 3:0.350132 4:0.411884 5:0.603067 6:0.283122 7:0.280206 8:0.755608 
1.345401922145471 1:0.823792 2:0.171555 3:0.291156 4:0.597531 5:0.510509 6:0.403097 7:0.393605 8:0.51945 
4.919158544908034 1:0.815451 2:0.171555 3:0.291156 4:0.469697 5:0.656022 6:0.270681 7:0.206979 8:0.699283 
0.5181034128560735 1:0.892708 2:0.922274 3:0.384048 4:0.425915 5:0.557839 6:0.337345 7:0.375187 8:0.578159 
1.426555661163467 1:0.915129 2:0.882066 3:0.290571 4:0.102652 5:0.759216 6:0.283122 7:0.251447 8:0.755608 
1.186761842999608 1:0.820227 2:0.191855 3:0.428111 4:0.468227 5:0.522226 6:0.144403 7:0.393605 8:0.616054 
1.3363382499471812 1:0.777865 2:0.109192 3:0.0355331 4:0.416849 5:0.69108 6:0.443947 7:0.532119 8:0.666939 
0.747081652981113 1:0.940584 2:0.895573 3:0.23724 4:0.222652 5:0.786208 6:0.207037 7:0.188817 8:0.808114 
1.1018490111157733 1:0.910139 2:0.908975 3:0.367235 4:0.378847 5:0.686299 6:0.249392 7:0.296974 8:0.677109 
1.2628681273501259 1:0.841597 2:0.191855 3:0.424868 4:0.459023 5:0.547551 6:0.218552 7:0.438158 8:0.567783 
0.7760346806274667 1:0.904961 2:0.895573 3:0.327574 4:0.384919 5:0.603067 6:0.319583 7:0.381718 8:0.677109 
1.2657531324265243 1:0.847055 2:0.151015 3:0.413251 4:0.449601 5:0.499081 6:0.0811229 7:0.323707 8:0.690294 
1.3370161223332018 1:0.808944 2:0.171555 3:0.398528 4:0.724869 5:0.413339 6:0.329422 7:0.349023 8:0.567783 
5.788743958432702 1:0.832322 2:0.191855 3:0.181098 4:0.357619 5:0.689431 6:0.218552 7:0.393605 8:0.616054 
1.3338270540815673 1:0.855978 2:0.868454 3:0.315035 4:0.369926 5:0.494321 6:0.489533 7:0.388361 8:0.500343 
1.3166144444623815 1:0.821664 2:0.171555 3:0.38088 4:0.406982 5:0.630843 6:0.300884 7:0.494551 8:0.628271 
1.3512289884303206 1:0.95409 2:0.922274 3:0.273094 4:0.133127 5:0.768067 6:0.244554 7:0.0946111 8:0.789872 
0.8849177726217244 1:0.873491 2:0.922274 3:0.361874 4:0.399407 5:0.557839 6:0.337345 7:0.40318 8:0.578159 
1.3362624780421828 1:0.757251 2:0.171555 3:0.57701 4:0.724869 5:0.316041 6:0.561593 7:0.719653 8:0.333922 
1.2756133196492059 1:0.849414 2:0.171555 3:0.291156 4:0.255531 5:0.752868 6:0.329422 7:0.527177 8:0.51945 
1.1202113344525704 1:0.903784 2:0.908975 3:0.27772 4:0.378847 5:0.656022 6:0.239791 7:0.28539 8:0.84076 
1.3544376630498869 1:0.853446 2:0.784457 3:0.202003 4:0.495073 5:0.603616 6:0.330672 7:0.280206 8:0.72464 
0.9704564065651198 1:0.928772 2:0.908975 3:0.23291 4:0.298475 5:0.746821 6:0.342944 7:0.296974 8:0.616054 
0.20968113951037232 1:0.927118 2:0.868454 3:0.269106 4:0.149577 5:0.804965 6:0.296206 7:0.353483 8:0.646592 
1.3366922778834822 1:0.823792 2:0.109192 3:0.262587 4:0.394031 5:0.767254 6:0.560047 7:0.672817 8:0.462984 
1.3247836669707393 1:0.851445 2:0.191855 4:0.374621 5:0.738861 6:0.247871 7:0.339176 8:0.699283 
1.8890131949152822 1:0.907286 2:0.854733 3:0.273861 4:0.292925 5:0.689431 6:0.296206 7:0.240422 8:0.768503 
1.840723342020922 1:0.909573 2:0.882066 3:0.309978 4:0.282103 5:0.764761 6:0.225958 7:0.268704 8:0.768503 
0.7024049332251792 1:0.919419 2:0.908975 3:0.411934 4:0.378847 5:0.595425 6:0.314176 7:0.40318 8:0.608479 
1.3646297591185823 1:0.882517 2:0.854733 3:0.366462 4:0.431397 5:0.532689 6:0.283122 7:0.251447 8:0.786548 
1.6718704854978372 1:0.89356 2:0.854733 3:0.273861 4:0.209561 5:0.783317 6:0.314176 7:0.375187 8:0.608479 
1.2380235361433103 1:0.889029 2:0.882066 3:0.339693 4:0.239898 5:0.798048 6:0.330672 7:0.280206 8:0.72464 
1.3310173073015406 1:0.899582 2:0.854733 3:0.373231 4:0.569514 5:0.514059 6:0.245355 7:0.262853 8:0.71075 
1.482348975368332 1:0.842522 2:0.171555 3:0.291156 4:0.255531 5:0.752868 6:0.329422 7:0.349023 8:0.567783 
1.3420378003393767 1:0.896707 2:0.895573 3:0.300114 4:0.217906 5:0.716565 6:0.489533 7:0.41682 8:0.500343 
2.3228592870490608 1:0.92409 2:0.908975 3:0.312589 4:0.155694 5:0.610329 6:0.296206 7:0.325236 8:0.707597 
1.1229417679380553 1:0.889467 2:0.854733 3:0.273861 4:0.403751 5:0.564062 6:0.211648 7:0.222679 8:0.817465 
1.3367062572551136 1:0.78643 2:0.68103 3:0.646871 4:0.304664 5:0.560445 6:0.38363 7:0.347179 8:0.608479 
0.997782272116104 1:0.90767 2:0.908975 3:0.40621 4:0.372874 5:0.557839 6:0.436189 7:0.325236 8:0.585491 
0.9182956773790842 1:0.920819 2:0.854733 3:0.273861 4:0.292925 5:0.689431 6:0.174759 7:0.347179 8:0.699283 
1.3313591803538856 1:0.895038 2:0.882066 3:0.46279 4:0.411884 5:0.511325 6:0.378143 7:0.165103 8:0.786548 
1.3723075898007213 1:0.880898 2:0.171555 3:0.219459 4:0.341364 5:0.704461 6:0.107255 7:0.349023 8:0.760495 
1.3911927774308 1:0.834292 2:0.171555 3:0.424868 4:0.374621 5:0.595425 6:0.375613 7:0.0874905 8:0.774586 
1.7491679767380566 1:0.838468 2:0.191855 3:0.248242 4:0.247614 5:0.643268 6:0.225958 7:0.388361 8:0.648391 
1.3411159588542836 1:0.838468 2:0.191855 3:0.248242 4:0.290002 5:0.834326 6:0.218552 7:0.259772 8:0.856478 
1.3362742845647277 1:0.758951 3:0.718843 4:0.470972 5:0.445984 6:0.12649 7:0.308614 8:0.734479 
1.3344060324151863 1:0.854577 2:0.191855 3:0.318962 4:0.543208 5:0.547551 6:0.312392 7:0.242597 8:0.733376 
1.3362846370061332 1:0.76447 2:0.0663361 3:0.354287 4:0.374621 5:0.547551 6:0.704245 7:0.413975 8:0.537409 
1.1306050294346899 1:0.921341 2:0.868454 3:0.223137 4:0.149577 5:0.835958 6:0.296206 7:0.381718 8:0.646592 
0.5199386651964363 1:0.903587 2:0.882066 3:0.327574 4:0.384919 5:0.603067 6:0.211648 7:0.251447 8:0.786548 
1.247980682999998 1:0.884345 2:0.171555 3:0.248242 4:0.247614 5:0.643268 6:0.188422 7:0.178155 8:0.968793 
1.457652246522008 1:0.927948 2:0.895573 3:0.305003 4:0.195527 5:0.755717 6:0.296206 7:0.240422 8:0.768503 
0.9515166912083284 1:0.910139 2:0.882066 3:0.378224 4:0.309385 5:0.610834 6:0.436189 7:0.325236 8:0.585491 
0.08588250293859688 1:0.92409 2:0.895573 3:0.259839 4:0.303886 5:0.72521 6:0.319583 7:0.381718 8:0.616054 
1.2070867221868777 1:0.819503 2:0.171555 3:0.291156 4:0.384199 5:0.801248 6:0.329422 7:0.349023 8:0.567783 
0.9894279409391671 1:0.907862 2:0.908975 3:0.361874 4:0.425915 5:0.557839 6:0.342944 7:0.296974 8:0.616054 
0.9115298449794806 1:0.931379 2:0.882066 3:0.300114 4:0.352079 5:0.656022 6:0.306908 7:0.280206 8:0.693646 
0.7117387871304227 1:0.906902 2:0.882066 3:0.287209 4:0.282103 5:0.764761 6:0.319583 7:0.381718 8:0.677109 
1.351713155526662 1:0.836236 2:0.171555 3:0.326972 4:0.512366 5:0.607547 6:0.2078 7:0.137224 8:0.80284 
1.3371582468839682 1:0.80537 2:0.191855 3:0.354287 4:0.374621 5:0.547551 6:0.319583 7:0.757098 8:0.391339 
0.4472018216102465 1:0.915311 2:0.908975 3:0.389589 4:0.383862 5:0.623834 6:0.249392 7:0.353483 8:0.677109 
0.47846984020960337 1:0.883205 2:0.895573 3:0.361874 4:0.399407 5:0.557839 6:0.372165 7:0.41682 8:0.592939 
1.1826435815218157 1:0.893984 2:0.868454 3:0.315035 4:0.369926 5:0.494321 6:0.249392 7:0.325236 8:0.677109 
0.8636278044559559 1:0.919419 2:0.895573 3:0.389589 4:0.383862 5:0.623834 6:0.254314 7:0.188817 8:0.838752 
1.5778495303744569 1:0.889904 2:0.882066 3:0.332737 4:0.363878 5:0.641647 6:0.436189 7:0.381718 8:0.5549 
1.2781477815140607 1:0.882057 2:0.868454 3:0.360926 4:0.342463 5:0.494321 6:0.330672 7:0.280206 8:0.72464 
0.49346017851788815 1:0.911077 2:0.882066 3:0.309978 4:0.282103 5:0.70323 6:0.296206 7:0.353483 8:0.707597 
1.6792818790414843 1:0.960246 2:0.882066 3:0.202733 4:0.114025 5:0.91606 6:0.211648 7:0.251447 8:0.786548 
1.3802232353592712 1:0.848534 2:0.854733 3:0.469084 4:0.769717 5:0.240093 6:0.245355 7:0.262853 8:0.71075 
0.9453369847250793 1:0.926451 2:0.908975 3:0.27772 4:0.271642 5:0.746821 6:0.296206 7:0.466358 8:0.5549 
1.3006021175286742 1:0.862775 2:0.191855 3:0.283614 4:0.332339 5:0.69108 6:0.0647407 7:0.206979 8:0.841536 
1.3369911063890632 1:0.86462 2:0.171555 3:0.206411 4:0.114025 5:0.960601 6:0.338273 7:0.132838 8:0.725879 
1.3547886112215601 1:0.916574 2:0.882066 3:0.264434 4:0.309385 5:0.734004 6:0.235494 7:0.280206 8:0.755608 
0.7215883581512557 1:0.920819 2:0.908975 3:0.322496 4:0.271642 5:0.746821 6:0.319583 7:0.381718 8:0.616054 
0.6741612783777099 1:0.845861 2:0.171555 3:0.147665 4:0.341364 5:0.752868 6:0.255556 7:0.393605 8:0.567783 
0.9718992244932071 1:0.842829 2:0.151015 3:0.153489 4:0.35063 5:0.767254 6:0.218552 7:0.438158 8:0.567783 
1.2804928883408317 1:0.846459 2:0.171555 3:0.219459 4:0.341364 5:0.704461 6:0.159685 7:0.507811 8:0.60527 
0.60864298954798 1:0.923919 2:0.882066 3:0.322496 4:0.352079 5:0.656022 6:0.211648 7:0.222679 8:0.817465 
1.7495424508417456 1:0.878315 2:0.364596 3:0.0969281 4:0.298475 5:0.755717 6:0.192839 7:0.388361 8:0.648391 
0.4577696777781712 1:0.917291 2:0.895573 3:0.305003 4:0.357928 5:0.664166 6:0.319583 7:0.296974 8:0.707597 
-0.5731690257895738 1:0.822021 2:0.882066 3:0.289181 4:0.414854 5:0.717044 6:0.283122 7:0.251447 8:0.755608 
-0.651192528529795 1:0.644661 2:0.109192 3:0.797813 4:0.768969 5:0.0885151 6:0.168189 7:0.329582 8:0.780204 
-0.6063008499681095 1:0.826579 2:0.784457 3:0.298902 4:0.37957 5:0.636372 6:0.348631 7:0.359892 8:0.623756 
-0.6635117863657303 1:0.836236 2:0.935473 3:0.131083 4:0.911717 5:0.357221 6:0.262832 7:0.0625712 8:0.780971 
-0.4770861167936472 1:0.791859 2:0.364596 3:0.298078 4:0.239898 5:0.678042 6:0.225958 7:0.388361 8:0.648391 
-1.296387591583207 1:0.797934 2:0.171555 3:0.141993 4:0.374621 5:0.738861 6:0.263444 7:0.584679 8:0.530413 
-0.7210709390795256 1:0.880898 2:0.922274 3:0.317501 4:0.0796113 5:0.768067 6:0.30362 7:0.0863814 8:0.801884 
-0.7581365533829917 1:0.768732 2:0.171555 3:0.25532 4:0.512366 5:0.607547 6:0.263444 7:0.0421098 8:0.871815 
-0.5116951526913046 1:0.783634 2:0.191855 3:0.17145 4:0.365291 5:0.72521 6:0.292513 7:0.304412 8:0.71241 
-0.6333948054521018 1:0.810503 2:0.211919 3:0.101461 4:0.365291 5:0.72521 6:0.168189 7:0.329582 8:0.780204 
-0.5526741179239208 1:0.791415 2:0.171555 3:0.111733 4:0.426976 5:0.656022 6:0.255556 7:0.393605 8:0.567783 
-0.8212343800820805 1:0.801702 2:0.191855 3:0.19202 4:0.449601 5:0.627513 6:0.292513 7:0.304412 8:0.71241 
-0.23907076454662543 1:0.857915 2:0.922274 3:0.273094 4:0.425915 5:0.648011 6:0.314176 7:0.40318 8:0.608479 
-0.6636970610038613 1:0.829986 2:0.68103 3:0.356603 4:0.0495271 5:0.759216 6:0.634227 7:0.275229 8:0.580787 
-0.42992908617826553 1:0.826579 2:0.908975 3:0.389589 4:0.405593 5:0.595425 6:0.389603 7:0.353483 8:0.5549 
-0.5474229493368163 1:0.75553 2:0.191855 3:0.354287 4:0.459023 5:0.595425 6:0.218552 7:0.259772 8:0.71241 
-0.1956742164666682 1:0.809335 2:0.882066 3:0.367235 4:0.378847 5:0.686299 6:0.283122 7:0.251447 8:0.755608 
-0.5803155336992821 1:0.889467 2:0.908975 3:0.300114 4:0.217906 5:0.625728 6:0.202504 7:0.296974 8:0.768503 
-0.6605321969192363 1:0.515647 2:0.0663361 3:0.389589 4:0.332339 5:0.595425 6:0.822581 7:0.847955 8:0.115177 
-0.47343161035319337 1:0.789623 2:0.191855 3:0.248242 4:0.247614 5:0.786611 6:0.292513 7:0.304412 8:0.71241 
-0.6636892095723331 1:0.688478 2:0.171555 3:0.612636 4:0.561526 5:0.525445 6:0.375613 7:0.0874905 8:0.774586 
-0.5753688551043644 1:0.81166 2:0.854733 3:0.227498 4:0.376079 5:0.689431 6:0.412907 7:0.381718 8:0.646592 
-0.4249549576165855 1:0.82761 2:0.908975 3:0.339693 4:0.0796113 5:0.708064 6:0.389603 7:0.353483 8:0.5549 
-0.6791594700623014 1:0.879495 2:0.948572 3:0.395041 4:0.151601 5:0.780012 6:0.0615576 7:0.0706983 8:0.939421 
-0.48364718018890474 1:0.845561 2:0.882066 3:0.110854 4:0.724869 5:0.454829 6:0.354419 7:0.280206 8:0.631584 
-1.1380972375573595 1:0.873245 2:0.908975 3:0.317501 4:0.0796113 5:0.768067 6:0.389603 7:0.353483 8:0.5549 
-0.37446183512440373 1:0.856811 2:0.895573 3:0.350132 4:0.303886 5:0.694694 6:0.27281 7:0.353483 8:0.677109 
-0.6288956492395703 1:0.809335 2:0.191855 3:0.248242 4:0.543208 5:0.547551 6:0.174759 7:0.129747 8:0.865194 
-0.6416527399012746 1:0.71945 2:0.151015 3:0.262587 4:0.394031 5:0.767254 6:0.375613 7:0.178155 8:0.677109 
-0.6634026143927998 1:0.707718 2:0.171555 3:0.469992 4:0.724869 5:0.316041 6:0.403097 7:0.393605 8:0.51945 
-0.6646995433893681 1:0.756106 2:0.191855 3:0.212851 4:0.290002 5:0.786611 6:0.403097 7:0.393605 8:0.51945 
-0.6063593441932162 1:0.862775 2:0.908975 3:0.264063 4:0.177877 5:0.780012 6:0.319583 7:0.381718 8:0.616054 
-1.1892482037804515 1:0.845861 2:0.908975 3:0.40621 4:0.372874 5:0.557839 6:0.366283 7:0.353483 8:0.616054 
-0.6598539795405146 1:0.754371 2:0.868454 3:0.53713 4:0.742816 5:0.240093 6:0.3603 7:0.401984 8:0.451184 
-0.39322077560275004 1:0.851732 2:0.908975 3:0.25532 4:0.298475 5:0.746821 6:0.366283 7:0.353483 8:0.616054 
-0.45253844421431294 1:0.818775 2:0.882066 3:0.25532 4:0.405593 5:0.656022 6:0.235494 7:0.30895 8:0.693646 
-0.7443846752316554 1:0.779815 2:0.171555 3:0.354287 4:0.374621 5:0.547551 6:0.263444 7:0.449439 8:0.628271 
-0.4347155163490175 1:0.828293 2:0.908975 3:0.367235 4:0.378847 5:0.686299 6:0.27281 7:0.353483 8:0.677109 
-0.09300400346317125 1:0.795363 2:0.191855 3:0.318962 4:0.247614 5:0.643268 6:0.225958 7:0.388361 8:0.648391 
-0.43995013949715794 1:0.830992 2:0.908975 3:0.344869 4:0.352079 5:0.656022 6:0.429841 7:0.375187 8:0.578159 
-1.2591434907630976 1:0.824144 2:0.364596 3:0.0969281 4:0.298475 5:0.755717 6:0.225958 7:0.381718 8:0.636418 
-3.181009258971038 1:0.901799 2:0.908975 3:0.300114 4:0.217906 5:0.716565 6:0.221307 7:0.291136 8:0.729505 
-0.14658792419370567 1:0.770814 2:0.191855 3:0.248242 4:0.290002 5:0.69108 6:0.218552 7:0.349023 8:0.616054 
-0.6100616222454545 1:0.748423 2:0.171555 3:0.25532 4:0.384199 5:0.752868 6:0.255556 7:0.393605 8:0.567783 
-0.41826536006739434 1:0.809725 2:0.364596 3:0.25532 4:0.336323 5:0.67027 6:0.192839 7:0.388361 8:0.648391 
-0.7268303759846291 1:0.770814 2:0.191855 3:0.206411 4:0.57322 5:0.583614 6:0.292513 7:0.393605 8:0.567783 
-0.6454143514087551 1:0.758387 2:0.191855 3:0.318962 4:0.247614 5:0.643268 6:0.255556 7:0.482682 8:0.51945 
-0.6564522152892052 1:0.745971 2:0.191855 3:0.283614 4:0.543208 5:0.403742 6:0.307194 7:0.325914 8:0.582912 
-0.22096886922279507 1:0.826579 2:0.882066 3:0.344869 4:0.325287 5:0.625728 6:0.283122 7:0.366408 8:0.66263 
-0.20730586187687977 1:0.85202 2:0.882066 3:0.309978 4:0.282103 5:0.734004 6:0.207037 7:0.188817 8:0.808114 
-0.6624444491697791 1:0.819866 2:0.191855 3:0.206411 4:0.156037 5:0.866535 6:0.107255 7:0.259772 8:0.760495 
-0.6174338779307579 1:0.80697 2:0.882066 3:0.110854 4:0.724869 5:0.454829 6:0.306908 7:0.251447 8:0.755608 
-0.5214952030429748 1:0.790522 2:0.191855 3:0.318546 4:0.336323 5:0.627513 6:0.181503 7:0.304412 8:0.664263 
-0.6605379896409602 1:0.809725 2:0.191855 3:0.0965237 4:0.232381 5:0.944331 6:0.292513 7:0.393605 8:0.567783 
-0.6173929128271871 1:0.758951 2:0.211919 3:0.415706 4:0.614648 5:0.441745 6:0.320797 7:0.339176 8:0.746761 
-0.704158501889459 1:0.820227 2:0.882066 3:0.469084 4:0.769717 5:0.240093 6:0.319583 7:0.325236 8:0.677109 
-0.7059755529687889 1:0.791859 2:0.191855 3:0.212851 4:0.205168 5:0.977298 6:0.107255 7:0.12568 8:0.90438 
-1.5916280886428869 1:0.879495 2:0.895573 3:0.317501 4:0.0796113 5:0.768067 6:0.254314 7:0.331406 8:0.68531 
-0.6634422827948616 1:0.769777 2:0.171555 3:0.136467 4:0.323547 5:0.772349 6:0.375613 7:0.0874905 8:0.774586 
-0.6233043007090431 1:0.781259 2:0.191855 3:0.354287 4:0.374621 5:0.547551 6:0.174759 7:0.0745267 8:0.983252 
-1.8775168034464453 1:0.885249 2:0.908975 3:0.312589 4:0.155694 5:0.610329 6:0.296206 7:0.325236 8:0.677109 
-0.3056940276160717 1:0.791415 2:0.840904 3:0.39542 4:0.410245 5:0.603332 6:0.283122 7:0.337685 8:0.66263 
-0.3117939095322363 1:0.812427 2:0.854733 3:0.366462 4:0.348384 5:0.658108 6:0.296206 7:0.353483 8:0.707597 
-0.5396232886610974 1:0.863305 2:0.882066 3:0.378224 4:0.0905035 5:0.88767 6:0.27281 7:0.296974 8:0.707597 
-0.6103560014018748 1:0.829311 2:0.211919 3:0.206411 4:0.281749 5:0.772349 6:0.358418 7:0.31444 8:0.646936 
-0.7476007895958434 1:0.84526 2:0.191855 3:0.283614 4:0.374621 5:0.69108 6:0.0595599 7:0.242597 8:0.920333 
-0.57802515620543 1:0.75668 2:0.211919 3:0.276266 4:0.490206 5:0.536355 6:0.284358 7:0.339176 8:0.699283 
-0.9064557732150693 1:0.870513 2:0.895573 3:0.259839 4:0.276828 5:0.786208 6:0.27281 7:0.212124 8:0.798918 
-0.5443698829457236 1:0.836877 2:0.882066 3:0.40621 4:0.372874 5:0.58791 6:0.211648 7:0.222679 8:0.817465 
-0.2946859693837366 1:0.837834 2:0.895573 3:0.389589 4:0.352079 5:0.686299 6:0.230687 7:0.274407 8:0.777452 
-0.5328592815004303 1:0.801702 2:0.191855 3:0.415706 4:0.490206 5:0.489065 6:0.144403 7:0.0809238 8:0.95222 
-0.6600135855862537 1:0.685633 2:0.109192 3:0.464041 4:0.547879 5:0.645925 6:0.218552 7:0.393605 8:0.616054 
-0.6404543711067366 1:0.867982 2:0.895573 3:0.327574 4:0.222652 5:0.755717 6:0.216731 7:0.118345 8:0.930271 
-0.662934965584512 1:0.799621 2:0.191855 3:0.283614 4:0.543208 5:0.403742 6:0.211339 7:0.118706 8:0.936073 
-0.6431953119206294 1:0.786891 2:0.191855 3:0.318962 4:0.543208 5:0.547551 6:0.0595599 7:0.242597 8:0.920333 
-0.05508842910142195 1:0.790073 2:0.171555 3:0.318962 4:0.247614 5:0.643268 6:0.188422 7:0.4043 8:0.628271 
-0.456560746494398 1:0.851732 2:0.854733 3:0.273861 4:0.292925 5:0.689431 6:0.283122 7:0.251447 8:0.786548 
-1.2291507344277932 1:0.887928 2:0.882066 3:0.309978 4:0.282103 5:0.734004 6:0.283122 7:0.251447 8:0.755608 
-0.6240947099072678 1:0.732326 2:0.151015 3:0.371463 4:0.567059 5:0.570844 6:0.213019 7:0.370037 8:0.584434 
-0.6921635078417095 1:0.849414 2:0.922274 3:0.384048 4:0.372874 5:0.557839 6:0.261379 7:0.391498 8:0.738543 
-0.6503141220617807 1:0.752023 2:0.826964 3:0.471872 4:0.444971 5:0.547551 6:0.425535 7:0.280206 8:0.693646 
-0.6983374536118281 1:0.794059 2:0.191855 3:0.283614 4:0.290002 5:0.595425 6:0.309913 7:0.253099 8:0.668693 
-1.1867698721521533 1:0.896915 2:0.882066 3:0.309978 4:0.282103 5:0.70323 6:0.330672 7:0.280206 8:0.72464 
-0.0908830327202598 1:0.851732 2:0.908975 3:0.344869 4:0.325287 5:0.686299 6:0.249392 7:0.325236 8:0.677109 
-0.48519992439809784 1:0.789171 2:0.231755 3:0.200138 4:0.356199 5:0.804965 6:0.312392 7:0.329582 8:0.686492 
-0.6632679414765065 1:0.648476 2:0.109192 3:0.575524 4:0.68071 5:0.443717 6:0.159685 7:0.507811 8:0.60527 
-0.65550986577906 1:0.728868 2:0.171555 3:0.415706 4:0.490206 5:0.489065 6:0.375613 7:0.494551 8:0.579374 
-0.17534429257270218 1:0.813189 2:0.908975 3:0.344869 4:0.405593 5:0.656022 6:0.389603 7:0.353483 8:0.5549 
-0.6625023715384805 1:0.742208 2:0.171555 3:0.219459 4:0.212527 5:0.946188 6:0.357191 7:0.383185 8:0.651746 
-0.5967584023070531 1:0.832322 2:0.882066 3:0.241646 4:0.282103 5:0.764761 6:0.221307 7:0.515043 8:0.517451 
-0.6608736373628749 1:0.783634 2:0.211919 3:0.206411 4:0.156037 5:0.866535 6:0.284358 7:0.515043 8:0.460992 
-0.6061635754483784 1:0.795795 2:0.191855 3:0.10653 4:0.416849 5:0.738861 6:0.244301 7:0.327691 8:0.655884 
-0.6022973496536086 1:0.790073 2:0.191855 3:0.389589 4:0.416849 5:0.547551 6:0.0599844 7:0.268704 8:0.777452 
-0.6505914635117467 1:0.80537 2:0.191855 3:0.354287 4:0.543208 5:0.451709 6:0.0700592 7:0.259772 8:0.856478 
-0.6628397913782821 2:0.0663361 3:0.75237 4:0.57322 5:0.465411 6:0.292513 7:0.393605 8:0.760495 
-0.472538123941872 1:0.849414 2:0.895573 3:0.389589 4:0.352079 5:0.625728 6:0.325082 7:0.274407 8:0.716048 
-0.5171906734230161 1:0.887263 2:0.854733 3:0.273861 4:0.209561 5:0.783317 6:0.30362 7:0.0863814 8:0.801884 
-0.9800531038477065 1:0.850288 2:0.171555 3:0.0969281 4:0.298475 5:0.755717 6:0.263444 7:0.449439 8:0.628271 
-0.6423690366503423 1:0.805772 2:0.770054 3:0.230871 4:0.560782 5:0.578892 6:0.259316 7:0.337685 8:0.693646 
-0.5072098841692538 1:0.832652 2:0.895573 3:0.282426 4:0.357928 5:0.664166 6:0.429841 7:0.375187 8:0.578159 
-0.48172497945790693 1:0.775388 2:0.191855 3:0.318962 4:0.247614 5:0.643268 6:0.144403 7:0.393605 8:0.616054 
-0.6633719683983685 1:0.687536 2:0.109192 3:0.10653 4:0.416849 5:0.738861 6:0.752514 7:1.0 
-0.5701916388250035 1:0.860366 2:0.868454 3:0.292075 4:0.177201 5:0.77396 6:0.301513 7:0.274407 8:0.716048 
-0.6611963712147658 1:0.804968 2:0.922274 3:0.373231 4:0.569514 5:0.514059 6:0.314176 7:0.40318 8:0.608479 
-0.6671687781424148 1:0.751429 2:0.171555 3:0.469992 4:0.597531 5:0.461938 6:0.144403 7:0.304412 8:0.760495 
-0.6088382471665742 1:0.842522 2:0.895573 3:0.361874 4:0.399407 5:0.557839 6:0.277922 7:0.188817 8:0.838752 
-1.3210386501008935 1:0.873491 2:0.908975 3:0.339693 4:0.425915 5:0.58791 6:0.296206 7:0.381718 8:0.616054 
-0.40568903174616944 1:0.81841 2:0.908975 3:0.25532 4:0.405593 5:0.656022 6:0.366283 7:0.353483 8:0.677109 
-0.3273961702263047 1:0.851445 2:0.882066 3:0.289181 4:0.414854 5:0.717044 6:0.330672 7:0.366408 8:0.631584 
-0.20974438862369507 1:0.825888 2:0.882066 3:0.400952 4:0.41828 5:0.549174 6:0.306908 7:0.337685 8:0.66263 
-0.5821028076532199 1:0.79878 2:0.191855 3:0.283614 4:0.247614 5:0.738861 6:0.225958 7:0.308614 8:0.691458 
-0.6525775090252318 1:0.783162 2:0.191855 3:0.354287 4:0.290002 5:0.595425 6:0.0595599 7:0.242597 8:0.920333 
-0.6632598272692707 1:0.799201 2:0.171555 3:0.291156 4:0.083182 5:0.849591 6:0.263444 7:0.0421098 8:0.871815 
-0.39202845341974407 1:0.849414 2:0.908975 3:0.317501 4:0.0796113 5:0.768067 6:0.319583 7:0.325236 8:0.616054 
-0.6634118335595105 1:0.725321 2:0.109192 3:0.0969281 4:0.298475 5:0.755717 6:0.790853 7:0.344068 8:0.5651 
-0.6628313536121553 1:0.735699 2:0.171555 3:0.183572 4:0.469697 5:0.607547 6:0.45015 7:0.719653 8:0.333922 
-0.6817662551544176 1:0.800874 2:0.171555 3:0.333011 4:0.352722 5:0.562552 6:0.375613 7:0.0874905 8:0.774586 
-0.15471956813916918 1:0.854577 2:0.908975 3:0.264063 4:0.177877 5:0.780012 6:0.296206 7:0.325236 8:0.707597 
-0.6618098257835785 1:0.839728 2:0.191855 3:0.177434 4:0.162666 5:0.738861 6:0.238742 7:0.206979 8:0.699283 
-0.44113742852187565 1:0.777865 2:0.211919 3:0.160341 4:0.374124 5:0.67027 6:0.357191 7:0.383185 8:0.651746 
-0.6386295271161788 1:0.753202 2:0.171555 3:0.25532 4:0.469697 5:0.656022 6:0.0595599 7:0.242597 8:0.920333 
-0.30758275506073857 1:0.850867 2:0.895573 3:0.344869 4:0.352079 5:0.656022 6:0.348631 7:0.359892 8:0.623756 
-0.5653829706381567 1:0.878552 2:0.908975 3:0.300114 4:0.217906 5:0.625728 6:0.225958 7:0.353483 8:0.677109 
-0.19418042384054968 1:0.804968 2:0.895573 3:0.259839 4:0.303886 5:0.72521 6:0.372165 7:0.41682 8:0.592939 
-0.7089311839096415 1:0.927948 2:0.854733 3:0.273861 4:0.403751 5:0.564062 6:0.245355 7:0.379774 8:0.584434 
-0.6334283954066383 1:0.745351 2:0.171555 3:0.326972 4:0.512366 5:0.607547 6:0.165606 7:0.276782 8:0.833649 
-0.45107085178682094 1:0.783162 2:0.171555 3:0.283614 4:0.374621 5:0.69108 6:0.375613 7:0.0874905 8:0.774586 
-0.4778559645412301 1:0.781259 2:0.211919 3:0.206411 4:0.323547 5:0.772349 6:0.299546 7:0.397849 8:0.616054 
-0.6283550095685564 1:0.778843 2:0.191855 3:0.141993 4:0.290002 5:0.786611 6:0.213019 7:0.40897 8:0.584434 
-0.6569439158743045 1:0.747814 2:0.191855 3:0.424868 4:0.416849 5:0.499646 6:0.247871 7:0.162857 8:0.936073 
-0.15993671867096412 1:0.856256 2:0.882066 3:0.327574 4:0.384919 5:0.633621 6:0.306908 7:0.251447 8:0.755608 
-0.5499503265710026 1:0.731641 2:0.171555 3:0.326972 4:0.512366 5:0.607547 6:0.284358 7:0.339176 8:0.699283 
-0.3901505001162121 1:0.840042 2:0.895573 3:0.367235 4:0.459023 5:0.595425 6:0.230687 7:0.274407 8:0.777452 
-0.6522704025681475 1:0.86171 2:0.895573 3:0.327574 4:0.384919 5:0.633621 6:0.27281 7:0.296974 8:0.707597 
-0.6632302845728207 1:0.762289 2:0.151015 3:0.660742 4:0.696232 5:0.275244 6:0.165606 7:0.276782 8:0.833649 
-0.43003506910804856 1:0.770814 2:0.191855 3:0.389589 4:0.374621 5:0.595425 6:0.107255 7:0.259772 8:0.808519 
-0.24471555289269964 1:0.822732 2:0.908975 3:0.367235 4:0.459023 5:0.595425 6:0.314176 7:0.375187 8:0.608479 
-0.6093644292058478 1:0.717942 2:0.171555 3:0.219459 4:0.512366 5:0.607547 6:0.320797 7:0.339176 8:0.746761 
-0.48002754023894356 1:0.820588 2:0.191855 3:0.212851 4:0.290002 5:0.69108 6:0.144403 7:0.393605 8:0.616054 
-0.08656995765774336 1:0.870262 2:0.895573 3:0.27772 4:0.325287 5:0.686299 6:0.207037 7:0.16026 8:0.838752 
-0.6625170409651056 1:0.723877 2:0.191855 3:0.318962 4:0.247614 5:0.882014 6:0.312392 7:0.199062 8:0.780204 
-0.5383710057049875 1:0.855419 2:0.895573 3:0.327574 4:0.222652 5:0.755717 6:0.254314 7:0.188817 8:0.838752 
-0.6418315801967296 1:0.855139 2:0.908975 3:0.356603 4:0.0495271 5:0.759216 6:0.319583 7:0.438158 8:0.585491 
-0.6759589340156524 1:0.668302 2:0.0878964 3:0.200138 4:0.356199 5:0.804965 6:0.689765 7:0.782932 8:0.317965 
-0.6988528044498525 1:0.790522 2:0.191855 3:0.248242 4:0.543208 5:0.547551 6:0.107255 7:0.259772 8:0.808519 
-0.44427454032188485 1:0.826579 2:0.868454 3:0.360926 4:0.342463 5:0.494321 6:0.348631 7:0.359892 8:0.623756 
-0.7209957647607227 1:0.785968 2:0.191855 3:0.354287 4:0.374621 5:0.547551 6:0.132026 7:0.242597 8:0.873683 
-0.6681284302616112 1:0.789623 2:0.191855 3:0.382055 4:0.341846 5:0.62607 6:0.144403 7:0.393605 8:0.616054 
-0.7709885285351903 1:0.78735 2:0.171555 3:0.354287 4:0.543208 5:0.499646 6:0.300884 7:0.494551 8:0.628271 
-1.573513259219798 1:0.889029 2:0.882066 3:0.355484 4:0.309385 5:0.70323 6:0.348631 7:0.359892 8:0.623756 
-0.6128747374422675 1:0.790522 2:0.211919 3:0.206411 4:0.57322 5:0.583614 6:0.2078 7:0.137224 8:0.80284 
-0.6557371293048562 1:0.791415 2:0.171555 3:0.206411 4:0.166532 5:0.843001 6:0.300884 7:0.268704 8:0.823234 
-0.6270998520468122 1:0.852592 2:0.908975 3:0.322496 4:0.325287 5:0.80729 6:0.221307 7:0.515043 8:0.517451 
-0.6553419762723685 1:0.747203 2:0.171555 3:0.111733 4:0.426976 5:0.801248 6:0.247871 7:0.251073 8:0.746761 
-0.667941624270523 1:0.790969 2:0.191855 3:0.354287 4:0.374621 5:0.547551 6:0.247871 7:0.339176 8:0.604148 
-0.7302443653643632 1:0.808944 2:0.191855 3:0.248242 4:0.290002 5:0.738861 6:0.144403 7:0.12568 8:0.90438 
-0.5538728787761222 1:0.829311 2:0.231755 3:0.25532 4:0.411884 5:0.627513 6:0.0595599 7:0.242597 8:0.920333 
-0.6302104759587698 1:0.87973 2:0.191855 3:0.141993 4:0.247614 5:0.834326 6:0.107255 7:0.215106 8:0.856478 
-0.24117525554680658 1:0.81841 2:0.908975 3:0.389589 4:0.383862 5:0.623834 6:0.342944 7:0.325236 8:0.616054 
-0.6791687631577839 1:0.824144 2:0.211919 3:0.101461 4:0.365291 5:0.72521 6:0.2078 7:0.137224 8:0.80284 
-0.5548306547463354 1:0.834943 2:0.868454 3:0.200138 4:0.397366 5:0.742941 6:0.330672 7:0.366408 8:0.631584 
-0.6627510015256368 1:0.830992 2:0.882066 3:0.400952 4:0.200128 5:0.764761 6:0.283122 7:0.251447 8:0.755608 
-0.7108283193026419 1:0.861977 2:0.895573 3:0.259839 4:0.303886 5:0.755717 6:0.202504 7:0.296974 8:0.768503 
-0.6528863148797667 1:0.754952 2:0.191855 3:0.141993 4:0.247614 5:0.834326 6:0.49326 7:0.399681 8:0.574368 
-0.7833796135108538 1:0.817307 2:0.191855 3:0.212851 4:0.290002 5:0.69108 6:0.225958 7:0.381718 8:0.636418 
-0.6626213023322703 1:0.705247 2:0.191855 3:0.511366 4:0.422602 5:0.55408 6:0.255556 7:0.438158 8:0.71241 
-0.6633157322428088 1:0.575896 2:0.0223949 3:0.398528 4:0.724869 5:0.413339 6:0.530499 7:0.58733 8:0.45396 
-0.6634336243295085 1:0.697557 2:0.191855 3:0.507788 4:0.524902 5:0.370429 6:0.292513 7:0.393605 8:0.760495 
-0.044386897106113876 1:0.857088 2:0.922274 3:0.317501 4:0.0796113 5:0.768067 6:0.221307 7:0.291136 8:0.729505 
-0.5045523243503971 1:0.856256 2:0.908975 3:0.110854 4:0.724869 5:0.454829 6:0.319583 7:0.268704 8:0.677109 
-0.5755628351117139 1:0.890989 2:0.908975 3:0.322496 4:0.271642 5:0.746821 6:0.249392 7:0.296974 8:0.677109 
-0.4761853255731741 1:0.857088 2:0.868454 3:0.246126 4:0.149577 5:0.804965 6:0.325082 7:0.274407 8:0.716048 
-0.6634156865639387 1:0.7069 2:0.151015 3:0.248242 4:0.247614 5:0.69108 6:0.648638 7:0.689277 8:0.292635 
-0.6539341419325412 1:0.802526 2:0.895573 3:0.110854 4:0.724869 5:0.454829 6:0.325082 7:0.445269 8:0.592939 
-0.6615121421830092 1:0.79493 2:0.364596 3:0.128644 4:0.336323 5:0.67027 6:0.12649 7:0.348498 8:0.691458 
-0.6857099342079094 1:0.750833 2:0.171555 3:0.291156 4:0.384199 5:0.801248 6:0.393539 7:0.471119 8:0.508771 
-0.6631520881300246 1:0.644661 2:0.171555 3:0.183572 4:0.469697 5:0.849591 6:0.598644 7:0.546562 8:0.545483 
-0.6595579846029801 1:0.820588 2:0.34623 3:0.325691 4:0.420868 5:0.595425 6:0.159685 7:0.507811 8:0.60527 
-0.6628804707932525 1:0.564854 2:0.109192 3:0.415706 4:0.490206 5:0.489065 6:0.752514 7:0.625952 8:0.257919 
-1.0276815458680286 1:0.869253 2:0.882066 3:0.350132 4:0.384919 5:0.633621 6:0.259316 7:0.251447 8:0.786548 
-0.6602662794157914 1:0.760072 2:0.151015 3:0.371463 4:0.739179 5:0.521662 6:0.181503 7:0.304412 8:0.664263 
-0.2800161663974257 1:0.778355 2:0.211919 3:0.160341 4:0.411884 5:0.627513 6:0.320797 7:0.427166 8:0.651746 
-0.01955958356160201 1:0.855139 2:0.908975 3:0.23291 4:0.325287 5:0.716565 6:0.221307 7:0.291136 8:0.729505 
-0.596398520060112 1:0.878315 2:0.868454 3:0.246126 4:0.149577 5:0.804965 6:0.174759 7:0.347179 8:0.699283 
-0.663868016540947 1:0.723149 2:0.151015 3:0.200138 4:0.356199 5:0.804965 6:0.460711 7:0.643689 8:0.442253 
-0.7001208585883172 1:0.817676 2:0.908975 3:0.273094 4:0.425915 5:0.648011 6:0.389603 7:0.240422 8:0.677109 
-0.632407932198283 1:0.820948 2:0.868454 3:0.46279 4:0.411884 5:0.511325 6:0.312392 7:0.430924 8:0.514076 
-0.6377963158581907 1:0.815451 2:0.770054 3:0.230871 4:0.560782 5:0.578892 6:0.225958 7:0.268704 8:0.768503 
-0.7722227959631469 1:0.806172 2:0.191855 3:0.318962 4:0.247614 5:0.643268 6:0.225958 7:0.381718 8:0.636418 
-0.5771059110377044 1:0.770296 2:0.191855 3:0.269106 4:0.397366 5:0.804965 6:0.255556 7:0.349023 8:0.71241 
-2.8499653702580163 1:0.912934 2:0.895573 3:0.282426 4:0.357928 5:0.664166 6:0.254314 7:0.331406 8:0.68531 
-0.6327452979672408 1:0.729567 2:0.151015 3:0.262587 4:0.307175 5:0.767254 6:0.338273 7:0.132838 8:0.725879 
-0.6632351562343289 1:0.635327 2:0.109192 3:0.177434 4:0.162666 5:0.882014 6:0.443947 7:0.532119 8:0.666939 
-0.6409310540489502 1:0.744728 2:0.171555 3:0.424868 4:0.459023 5:0.547551 6:0.375613 7:0.0874905 8:0.774586 
-0.6026277343665647 1:0.822021 2:0.868454 3:0.42969 4:0.424783 5:0.494321 6:0.429841 7:0.375187 8:0.578159 
-0.3993145078726685 1:0.858737 2:0.854733 3:0.273861 4:0.292925 5:0.689431 6:0.296206 7:0.466358 8:0.5549 
-0.24007440572850097 1:0.86251 2:0.922274 3:0.273094 4:0.133127 5:0.768067 6:0.314176 7:0.375187 8:0.608479 
-0.5740259623333742 1:0.803752 2:0.171555 3:0.206411 4:0.281749 5:0.772349 6:0.225958 7:0.268704 8:0.725879 
-0.6629216749508904 1:0.758387 2:0.418557 3:0.382055 4:0.341846 5:0.62607 6:0.49326 7:0.399681 8:0.574368 
-0.3281443690460473 1:0.85819 2:0.854733 3:0.292075 4:0.177201 5:0.77396 6:0.245355 7:0.292103 8:0.67921 
-0.5795558036292131 1:0.81166 2:0.868454 3:0.383857 4:0.424783 5:0.432035 6:0.325082 7:0.445269 8:0.592939 
-0.5454408513687106 1:0.80004 2:0.895573 3:0.367235 4:0.405593 5:0.686299 6:0.489533 7:0.388361 8:0.500343 
-0.6566336513048471 1:0.834292 2:0.211919 3:0.206411 4:0.281749 5:0.772349 6:0.138133 7:0.339176 8:0.746761 
-0.619210505693597 1:0.721681 2:0.191855 3:0.177434 4:0.459023 5:0.738861 6:0.320797 7:0.427166 8:0.651746 
-0.6584381465983121 1:0.74903 2:0.231755 3:0.269106 4:0.397366 5:0.804965 6:0.277652 7:0.135966 8:0.836642 
-0.6160830316159506 1:0.787808 2:0.211919 3:0.136467 4:0.448621 5:0.630843 6:0.168189 7:0.199062 8:0.920333 
-0.6583349619594503 1:0.863305 2:0.908975 3:0.295302 4:0.133127 5:0.678042 6:0.296206 7:0.466358 8:0.5549 
-0.7129706765838485 1:0.81166 2:0.151015 3:0.212851 4:0.290002 5:0.69108 6:0.34736 7:0.552418 8:0.591273 
-0.6067588797949636 1:0.77933 2:0.171555 3:0.219459 4:0.212527 5:0.946188 6:0.138133 7:0.206979 8:0.888834 
-0.6254023706106699 1:0.805772 2:0.191855 3:0.354287 4:0.290002 5:0.595425 6:0.107255 7:0.259772 8:0.760495 
-0.3986837084443267 1:0.760072 2:0.191855 3:0.177434 4:0.416849 5:0.595425 6:0.320797 7:0.427166 8:0.651746 
-0.5098534805237804 1:0.841906 2:0.882066 3:0.411934 4:0.378847 5:0.595425 6:0.283122 7:0.366408 8:0.66263 
-0.39761832635329103 1:0.766617 2:0.191855 3:0.354287 4:0.374621 5:0.547551 6:0.284358 7:0.339176 8:0.699283 
-0.5840187913133226 1:0.721681 2:0.211919 3:0.45051 4:0.53174 5:0.489065 6:0.225958 7:0.388361 8:0.648391 
-0.25631109972734417 1:0.769255 2:0.191855 3:0.249065 4:0.440395 5:0.616569 6:0.292513 7:0.304412 8:0.71241 
-0.6636152665792077 1:0.743474 2:0.191855 3:0.374685 4:0.795402 5:0.291699 6:0.255556 7:0.393605 8:0.567783 
-0.7149951521194975 1:0.856811 2:0.882066 3:0.322496 4:0.378847 5:0.625728 6:0.187786 7:0.193895 8:0.848354 
-0.29841279103821217 1:0.840042 2:0.908975 3:0.295302 4:0.399407 5:0.648011 6:0.296206 7:0.353483 8:0.707597 
-0.6309086453850797 1:0.783634 2:0.151015 3:0.262587 4:0.567059 5:0.669115 6:0.138133 7:0.339176 8:0.746761 
-0.6166026744869034 1:0.76501 2:0.211919 3:0.223678 4:0.449601 5:0.541917 6:0.357191 7:0.383185 8:0.651746 
-0.8300442032275339 1:0.826924 2:0.840904 3:0.0859277 4:0.690689 5:0.536737 6:0.323649 7:0.357167 8:0.624023 
-1.1889558919469734 1:0.881826 2:0.908975 3:0.339693 4:0.106382 5:0.768067 6:0.202504 7:0.296974 8:0.768503 
-0.37799670517136963 1:0.76501 2:0.191855 3:0.318962 4:0.332339 5:0.595425 6:0.211339 7:0.427166 8:0.55649 
-0.07406877532269293 1:0.825541 2:0.882066 3:0.4566 4:0.405593 5:0.534779 6:0.306908 7:0.280206 8:0.693646 
-0.4313681567689431 1:0.851156 2:0.908975 3:0.322496 4:0.0291398 5:0.777062 6:0.221307 7:0.291136 8:0.729505 
-0.32596436867164885 1:0.86462 2:0.895573 3:0.282426 4:0.222652 5:0.786208 6:0.27281 7:0.353483 8:0.677109 
-0.6632021026623578 1:0.675704 3:0.291156 4:0.255531 5:0.752868 6:0.584824 7:0.803459 8:0.355233 
-0.6568792249376346 1:0.717182 2:0.171555 3:0.206411 4:0.57322 5:0.583614 6:0.225958 7:0.313931 8:0.823234 
-0.6468335683161404 1:0.861442 2:0.854733 3:0.366462 4:0.431397 5:0.532689 6:0.225958 7:0.325236 8:0.707597 
-0.37038581068358495 1:0.85819 2:0.908975 3:0.25532 4:0.325287 5:0.716565 6:0.170559 7:0.257576 8:0.721086 
-0.8162451875046894 1:0.864095 2:0.908975 3:0.411934 4:0.271642 5:0.656022 6:0.239791 7:0.28539 8:0.84076 
-0.6432729307713443 1:0.832652 2:0.882066 3:0.400952 4:0.41828 5:0.549174 6:0.389603 7:0.240422 8:0.677109 
-0.665903520635002 1:0.838152 2:0.895573 3:0.327574 4:0.384919 5:0.633621 6:0.489533 7:0.41682 8:0.500343 
-0.6637200729029544 1:0.750235 2:0.400756 3:0.304745 4:0.172442 5:0.814587 6:0.49326 7:0.361186 8:0.574368 
-0.3785725473672996 1:0.758951 2:0.191855 3:0.248242 4:0.416849 5:0.643268 6:0.312392 7:0.242597 8:0.733376 
-0.5196758438399787 1:0.850578 2:0.868454 3:0.383857 4:0.424783 5:0.432035 6:0.348631 7:0.359892 8:0.623756 
-0.3789311892310161 1:0.830992 2:0.908975 3:0.322496 4:0.325287 5:0.656022 6:0.296206 7:0.466358 8:0.5549 
-0.8450573418243945 1:0.85202 2:0.854733 3:0.273861 4:0.292925 5:0.689431 6:0.261379 7:0.391498 8:0.738543 
-0.6313080046872727 1:0.864881 2:0.211919 3:0.0664322 4:0.281749 5:0.819457 6:0.0279739 7:0.251073 8:0.841536 
-4.468098276168184 1:0.785504 2:0.171555 3:0.291156 4:0.469697 5:0.656022 6:0.270681 7:0.206979 8:0.699283 
-0.6754228504967252 1:0.849997 2:0.826964 3:0.471872 4:0.444971 5:0.547551 6:0.30362 7:0.0863814 8:0.801884 
-0.6633801771296248 1:0.716418 2:0.211919 3:0.511366 4:0.422602 5:0.55408 6:0.429841 7:0.515043 8:0.460992 
-0.7101069989742536 1:0.790969 2:0.211919 3:0.276266 4:0.156037 5:0.819457 6:0.174759 7:0.55894 8:0.604148 
-0.6559074862372221 1:0.885249 2:0.882066 3:0.131083 5:1.0 6:0.259316 7:0.337685 8:0.693646 
-0.038236675851248694 1:0.850288 2:0.895573 3:0.282426 4:0.330918 5:0.694694 6:0.314176 7:0.375187 8:0.608479 
-0.5762013847537322 1:0.730953 2:0.211919 3:0.415706 4:0.490206 5:0.489065 6:0.213019 7:0.40897 8:0.584434 
-0.7812583242092801 1:0.796654 2:0.191855 3:0.248242 4:0.332339 5:0.738861 6:0.284358 7:0.339176 8:0.699283 
-0.8071509202254462 1:0.874225 2:0.895573 3:0.25532 4:0.378847 5:0.656022 6:0.207037 7:0.16026 8:0.838752 
-0.49614594208726676 1:0.767149 2:0.191855 3:0.283614 4:0.374621 5:0.69108 6:0.204309 7:0.459852 8:0.592546 
-1.1056181141671233 1:0.898357 2:0.895573 3:0.202733 4:0.114025 5:0.91606 6:0.230687 7:0.274407 8:0.777452 
-0.6635059654698687 1:0.852592 2:0.908975 3:0.0954423 4:0.633729 5:0.538572 6:0.436189 7:0.550894 8:0.432296 
-0.6029262506514911 1:0.885024 2:0.882066 3:0.25532 4:0.325287 5:0.746821 6:0.235494 7:0.30895 8:0.693646 
-0.6519115462009883 1:0.642058 2:0.0663361 3:0.177434 4:0.332339 5:0.738861 6:0.704245 7:0.413975 8:0.537409 
-0.5525700410699572 1:0.694895 2:0.171555 3:0.147665 4:0.341364 5:0.752868 6:0.598644 7:0.546562 8:0.545483 
-0.3544291935914391 1:0.871014 2:0.854733 3:0.273861 4:0.209561 5:0.783317 6:0.230687 7:0.245887 8:0.777452 
-0.29563161545079863 1:0.835914 2:0.908975 3:0.300114 4:0.217906 5:0.716565 6:0.27281 7:0.353483 8:0.616054 
-0.6748121203087651 1:0.851732 2:0.882066 3:0.309978 4:0.282103 5:0.734004 6:0.366283 7:0.353483 8:0.677109 
-0.7336723650811773 1:0.871762 2:0.935473 3:0.0661651 4:0.708696 5:0.519033 6:0.262832 7:0.0625712 8:0.780971 
-0.662877548425291 1:0.564854 2:0.171555 3:0.38088 4:0.406982 5:0.678042 6:0.487345 7:0.449439 8:0.481385 
-0.4751547660374722 1:0.799621 2:0.38277 3:0.272853 4:0.354406 5:0.634951 6:0.219413 7:0.418475 8:0.637363 
-0.4883625448997039 1:0.894195 2:0.882066 3:0.309978 4:0.282103 5:0.764761 6:0.139612 8:0.969181 
-0.4285412750342192 1:0.812044 2:0.191855 3:0.248242 4:0.290002 5:0.69108 6:0.213019 7:0.40897 8:0.584434 
-0.7569412251057731 1:0.834292 2:0.895573 3:0.273094 4:0.133127 5:0.768067 6:0.489533 7:0.41682 8:0.500343 
-0.34131880169545437 1:0.784572 2:0.171555 3:0.276266 4:0.323547 5:0.678042 6:0.375613 7:0.0874905 8:0.774586 
-0.5460465952331097 1:0.811275 2:0.191855 3:0.389589 4:0.374621 5:0.595425 6:0.168189 7:0.329582 8:0.780204 
-0.6629628482157078 1:0.8391 2:0.882066 3:0.309978 4:0.309385 5:0.734004 6:0.151458 7:0.375187 8:0.729505 
-0.11300901706210698 1:0.847649 2:0.854733 3:0.227498 4:0.376079 5:0.689431 6:0.254314 7:0.331406 8:0.68531 
-0.5051872537535829 1:0.856256 2:0.895573 3:0.237969 4:0.199686 5:0.829711 6:0.325082 7:0.274407 8:0.716048 
-0.6633204709439662 1:0.819866 2:0.908975 3:0.131083 4:0.911717 5:0.357221 6:0.389603 7:0.353483 8:0.5549 
-0.6546132298783475 1:0.747814 2:0.191855 3:0.283614 4:0.543208 5:0.403742 6:0.247871 7:0.471119 8:0.55649 
-0.5471790987869676 1:0.884798 2:0.895573 3:0.305003 4:0.195527 5:0.755717 6:0.139612 8:0.969181 
-0.7538892703351006 1:0.777865 2:0.191855 3:0.354287 4:0.374621 5:0.547551 6:0.138133 7:0.339176 8:0.699283 
-0.703259133739698 1:0.763928 2:0.171555 3:0.326972 4:0.341364 5:0.752868 6:0.255556 7:0.215106 8:0.760495 
-0.15646261390670693 1:0.778355 2:0.171555 3:0.25532 4:0.469697 5:0.656022 6:0.305357 7:0.217049 8:0.735415 
-0.6350895202205594 1:0.832322 2:0.882066 3:0.485292 4:0.330918 5:0.603067 6:0.211648 7:0.251447 8:0.786548 
-0.6531749803224953 1:0.803345 2:0.171555 3:0.111733 4:0.426976 5:0.801248 6:0.307194 7:0.325914 8:0.582912 
-0.20763569817942448 1:0.832982 2:0.908975 3:0.289181 4:0.414854 5:0.717044 6:0.319583 7:0.381718 8:0.616054 
-0.6546376156232963 1:0.748423 2:0.191855 3:0.24135 4:0.490206 5:0.678042 6:0.255556 7:0.393605 8:0.567783 
-0.6489679545008197 1:0.809335 2:0.191855 3:0.141993 4:0.290002 5:0.786611 6:0.40648 7:0.447885 8:0.542236 
-0.6429452925259032 1:0.827952 2:0.895573 3:0.110854 4:0.724869 5:0.454829 6:0.277922 7:0.188817 8:0.838752 
-0.6526717407871516 1:0.779815 2:0.191855 3:0.354287 4:0.374621 5:0.547551 6:0.174759 7:0.118706 8:0.888834 
-0.6589745859615341 1:0.814324 2:0.211919 3:0.31116 4:0.53174 5:0.441745 6:0.284358 7:0.515043 8:0.460992 
-0.6631409734735498 1:0.802936 2:0.364596 3:0.25532 4:0.600035 5:0.456225 6:0.142716 7:0.129747 8:0.989148 
-0.6396606469747839 1:0.774887 2:0.231755 3:0.381701 4:0.374124 5:0.67027 6:0.204309 7:0.286102 8:0.826971 
-0.6670500291656221 1:0.784104 2:0.191855 3:0.242956 4:0.431397 5:0.564062 6:0.403097 7:0.527177 8:0.471055 
-0.6764192740178279 1:0.63394 2:0.0878964 3:0.812912 4:0.829121 5:0.197331 6:0.188422 7:0.4043 8:0.628271 
-0.33501473793907455 1:0.859282 2:0.854733 3:0.273861 4:0.292925 5:0.689431 6:0.254314 7:0.302913 8:0.716048 
-0.6690462377959915 1:0.846758 2:0.882066 3:0.344869 4:0.405593 5:0.56511 6:0.259316 7:0.337685 8:0.693646 
-0.6602913703434522 1:0.782689 2:0.191855 3:0.177434 4:0.205168 5:0.977298 6:0.329422 7:0.527177 8:0.51945 
-0.6629114664254314 1:0.689413 2:0.0878964 3:0.925242 4:0.425171 5:0.300271 6:0.188422 7:0.223446 8:0.774586 
-0.666934455743009 1:0.780779 2:0.191855 3:0.177434 4:0.205168 5:0.977298 6:0.181503 7:0.349023 8:0.664263 
-0.6627992450913246 1:0.808158 2:0.151015 3:0.117076 4:0.394031 5:0.816277 6:0.0811229 7:0.369512 8:0.83834 
-0.44579712839295216 1:0.81841 2:0.895573 3:0.25532 4:0.325287 5:0.746821 6:0.325082 7:0.445269 8:0.592939 
-0.2302457148991593 1:0.81914 2:0.908975 3:0.389589 4:0.352079 5:0.686299 6:0.225958 7:0.268704 8:0.768503 
-0.46425207190811846 1:0.77388 2:0.191855 3:0.354287 4:0.374621 5:0.547551 6:0.403097 7:0.393605 8:0.51945 
-0.680970986456288 1:0.81841 2:0.171555 3:0.219459 4:0.212527 5:0.752868 6:0.211339 7:0.118706 8:0.936073 
-0.615820990918728 1:0.865403 2:0.868454 3:0.200138 4:0.397366 5:0.742941 6:0.225958 7:0.353483 8:0.677109 
-0.7948488107998541 1:0.875924 2:0.882066 3:0.241646 4:0.282103 5:0.764761 6:0.277922 7:0.188817 8:0.838752 
-0.48143597870265137 1:0.769777 2:0.191855 3:0.354287 4:0.374621 5:0.547551 6:0.403097 7:0.438158 8:0.567783 
-0.5089304344938095 1:0.740287 2:0.191855 3:0.354287 4:0.374621 5:0.547551 6:0.211339 7:0.427166 8:0.55649 
-0.4185382370837013 1:0.746588 2:0.171555 3:0.354287 4:0.374621 5:0.547551 6:0.375613 7:0.0874905 8:0.774586 
-0.6104955752343963 1:0.795363 2:0.171555 3:0.25532 4:0.469697 5:0.656022 6:0.144403 7:0.304412 8:0.760495 
-0.6637387578982402 1:0.58612 2:0.109192 3:0.219459 4:0.212527 5:0.946188 6:0.790853 7:0.85997 8:0.154963 
-0.6147459277827703 1:0.753788 2:0.882066 3:0.469084 4:0.769717 5:0.240093 6:0.360498 7:0.347179 8:0.578159 
-0.6714712872751749 1:0.792743 2:0.171555 3:0.424868 4:0.374621 5:0.595425 6:0.225958 7:0.223446 8:0.774586 
-0.5881133095514067 1:0.831325 2:0.191855 3:0.0664322 4:0.281749 5:0.819457 6:0.107255 7:0.215106 8:0.808519 
-0.662488773914554 1:0.788718 2:0.171555 3:0.291156 4:0.640034 5:0.510509 6:0.225958 7:0.268704 8:0.677109 
-0.6354468605060112 1:0.802936 2:0.191855 3:0.10653 4:0.205168 5:0.882014 6:0.270681 7:0.245564 8:0.865194 
-0.6629027080874905 1:0.771844 2:0.171555 3:0.111733 4:0.554976 5:0.559044 6:0.375613 7:0.0874905 8:0.774586 
-0.5529400331780308 1:0.79878 2:0.908975 3:0.322496 4:0.325287 5:0.80729 6:0.366283 7:0.353483 8:0.616054 
-0.6051698133504897 1:0.690342 2:0.191855 3:0.38088 4:0.448621 5:0.630843 6:0.255556 7:0.349023 8:0.71241 
-0.1959123178320798 1:0.841597 2:0.840904 3:0.39542 4:0.410245 5:0.603332 6:0.27281 7:0.212124 8:0.798918 
-0.6632784849804623 1:0.522065 3:0.424868 4:0.543208 5:0.451709 6:0.584824 7:0.803459 8:0.355233 
-0.7055465633996356 1:0.834618 2:0.854733 3:0.273861 4:0.209561 5:0.783317 6:0.325082 7:0.388361 8:0.623756 
-0.6633531389722412 1:0.717182 2:0.364596 3:0.570721 4:0.411884 5:0.456225 6:0.284781 7:0.339688 8:0.637363 
-0.7712182431145267 1:0.816938 2:0.191855 3:0.311565 4:0.365776 5:0.616569 6:0.218552 7:0.259772 8:0.71241 
-0.5757335518997524 1:0.792302 2:0.13023 3:0.196356 4:0.44805 5:0.682569 6:0.138133 7:0.339176 8:0.746761 
-0.09239110171843799 1:0.847352 2:0.854733 3:0.273861 4:0.292925 5:0.689431 6:0.230687 7:0.245887 8:0.808114 
-0.8783813166756127 1:0.739641 2:0.191855 3:0.354287 4:0.374621 5:0.547551 6:0.49326 7:0.399681 8:0.574368 
-0.661180625977716 1:0.833311 2:0.191855 3:0.206411 4:0.166532 5:0.843001 6:0.403097 7:0.393605 8:0.51945 
-0.5285922447018889 1:0.871264 2:0.895573 3:0.339693 4:0.346323 5:0.617965 6:0.207037 7:0.16026 8:0.838752 
-0.6663710309703504 1:0.818775 2:0.191855 3:0.071043 4:0.374621 5:0.786611 6:0.270681 7:0.245564 8:0.865194 
-0.5655275902490965 1:0.712531 2:0.191855 3:0.346031 4:0.323547 5:0.678042 6:0.329422 7:0.438158 8:0.567783 
-0.6143265195604901 1:0.762837 2:0.171555 3:0.147665 4:0.469697 5:0.607547 6:0.225958 7:0.188817 8:0.863246 
-0.6487025639868991 1:0.812427 2:0.191855 3:0.276266 4:0.156037 5:0.819457 6:0.329422 7:0.349023 8:0.71241 
-0.641390406913612 1:0.782214 2:0.231755 3:0.160341 4:0.374124 5:0.67027 6:0.204309 7:0.373032 8:0.733376 
-0.4383024884884905 1:0.838152 2:0.854733 3:0.273861 4:0.292925 5:0.689431 6:0.319583 7:0.325236 8:0.616054 
-0.7029762013582564 1:0.864358 2:0.868454 3:0.292075 4:0.177201 5:0.77396 6:0.319583 7:0.381718 8:0.677109 
-0.4367326341239012 1:0.851732 2:0.882066 3:0.305003 4:0.357928 5:0.664166 6:0.378143 7:0.165103 8:0.786548 
-0.5648585469011379 1:0.779815 2:0.895573 3:0.417754 4:0.330918 5:0.541917 6:0.412907 7:0.381718 8:0.646592 
-0.4996885906386064 1:0.813568 2:0.38277 3:0.331252 4:0.249458 5:0.713936 6:0.219413 7:0.418475 8:0.637363 
-0.6540848164703955 1:0.837516 2:0.922274 3:0.110854 4:0.724869 5:0.454829 6:0.429841 7:0.375187 8:0.578159 
-0.5702476092027694 1:0.882517 2:0.895573 3:0.440278 4:0.411884 5:0.511325 6:0.0615576 7:0.0706983 8:0.939421 
-0.9142026191837774 1:0.855419 2:0.854733 3:0.273861 4:0.320668 5:0.658108 6:0.296206 7:0.240422 8:0.768503 
-0.9073210817457119 1:0.87926 2:0.908975 3:0.25532 4:0.325287 5:0.746821 6:0.249392 7:0.325236 8:0.677109 
-0.5151330884663526 1:0.838468 2:0.211919 3:0.38088 4:0.365291 5:0.536355 6:0.357191 7:0.339176 8:0.55649 
-0.5393483099222786 1:0.774887 2:0.171555 3:0.147665 4:0.469697 5:0.607547 6:0.255556 7:0.393605 8:0.567783 
-0.43441478994811533 1:0.792302 2:0.191855 3:0.283614 4:0.332339 5:0.69108 6:0.144403 7:0.393605 8:0.616054 
-0.5877162347488852 1:0.767678 2:0.171555 3:0.248242 4:0.290002 5:0.69108 6:0.263444 7:0.449439 8:0.677109 
-0.6276324096852741 1:0.79493 2:0.151015 3:0.248242 4:0.290002 5:0.69108 6:0.233561 7:0.277875 8:0.789055 
-0.2039930375612297 1:0.821664 2:0.908975 3:0.384048 4:0.372874 5:0.557839 6:0.225958 7:0.353483 8:0.677109 
-0.017160752508298613 1:0.84526 2:0.895573 3:0.259839 4:0.222652 5:0.786208 6:0.296206 7:0.268704 8:0.738061 
-0.6249854643877885 1:0.802936 2:0.191855 3:0.141993 4:0.247614 5:0.834326 6:0.284781 7:0.339688 8:0.637363 
-0.6121087217093071 1:0.89228 2:0.895573 3:0.327574 4:0.411884 5:0.603067 6:0.0615576 7:0.0706983 8:0.939421 
-0.6580387010281734 1:0.765548 2:0.171555 3:0.183572 4:0.469697 5:0.849591 6:0.263444 7:0.449439 8:0.677109 
-0.7124092938293807 1:0.862775 2:0.191855 3:0.177434 4:0.332339 5:0.738861 6:0.107255 7:0.215106 8:0.808519 
-0.67135459982074 1:0.841287 2:0.840904 3:0.39542 4:0.410245 5:0.603332 6:0.216731 7:0.118345 8:0.930271 
-0.24567307719028283 1:0.85819 2:0.882066 3:0.327574 4:0.303886 5:0.72521 6:0.259316 7:0.337685 8:0.693646 
-0.6632854292757056 1:0.515647 2:0.0878964 3:1.0 4:0.739783 5:0.145808 6:0.2078 7:0.137224 8:0.80284 
-0.5285380865703386 1:0.889686 2:0.908975 3:0.300114 4:0.217906 5:0.716565 6:0.30362 7:0.0863814 8:0.801884 
-0.5157248699014003 1:0.881363 2:0.908975 3:0.322496 4:0.298475 5:0.716565 6:0.170559 7:0.257576 8:0.721086 
-0.6078418074263419 1:0.885249 2:0.882066 3:0.206411 4:0.372874 5:0.678042 6:0.163901 7:0.222679 8:0.817465 
-0.6117937254474977 1:0.830992 2:0.191855 3:0.181098 4:0.357619 5:0.689431 6:0.181503 7:0.304412 8:0.664263 
-0.6624776081089039 1:0.675704 2:0.171555 3:0.790417 4:0.426976 5:0.364708 6:0.192839 7:0.348498 8:0.691458 
-0.6779544244736369 1:0.86747 2:0.882066 3:0.400952 4:0.200128 5:0.764761 6:0.151458 7:0.375187 8:0.729505 
-0.6260037453003899 1:0.715649 2:0.171555 3:0.354287 4:0.459023 5:0.595425 6:0.338273 7:0.132838 8:0.725879 
-0.6188592353882579 1:0.788718 2:0.191855 3:0.354287 4:0.543208 5:0.499646 6:0.213019 7:0.40897 8:0.584434 
-0.5167193520036444 1:0.887041 2:0.882066 3:0.241646 4:0.254802 5:0.795509 6:0.139612 8:0.969181 
-0.6208370012906241 1:0.750833 2:0.171555 3:0.147665 4:0.341364 5:0.752868 6:0.263444 7:0.494551 8:0.628271 
-0.6221657716157271 1:0.882747 2:0.854733 3:0.227498 4:0.376079 5:0.689431 6:0.319583 7:0.296974 8:0.707597 
-0.20054105328148866 1:0.842522 2:0.908975 3:0.250875 4:0.319751 5:0.708064 6:0.296206 7:0.353483 8:0.646592 
-0.2632506363973395 1:0.79493 2:0.895573 3:0.395224 4:0.438827 5:0.572496 6:0.225958 7:0.353483 8:0.677109 
-0.30494263464933513 1:0.81166 2:0.191855 3:0.17145 4:0.365291 5:0.72521 6:0.181503 7:0.349023 8:0.664263 
-0.552399986250573 1:0.686588 2:0.191855 3:0.177434 4:0.374621 5:0.69108 6:0.598644 7:0.546562 8:0.545483 
-1.0589334495336216 1:0.84526 2:0.868454 3:0.383857 4:0.397366 5:0.432035 6:0.225958 7:0.296974 8:0.768503 
-0.6619422683908633 1:0.756106 2:0.191855 3:0.177434 4:0.332339 5:0.738861 6:0.192839 7:0.46802 8:0.518881 
-0.6042858734217195 1:0.784572 2:0.826964 3:0.471872 4:0.444971 5:0.547551 6:0.314176 7:0.375187 8:0.608479 
-0.578217530613248 1:0.856534 2:0.868454 3:0.269106 4:0.149577 5:0.804965 6:0.342944 7:0.296974 8:0.616054 
-0.5213908556649606 1:0.844353 2:0.895573 3:0.4566 4:0.43232 5:0.595425 6:0.325082 7:0.274407 8:0.716048 
-0.4098223397281933 1:0.822377 2:0.868454 3:0.42969 4:0.424783 5:0.494321 6:0.283122 7:0.251447 8:0.755608 
-0.6651572554808345 1:0.807763 2:0.171555 3:0.248242 4:0.290002 5:0.69108 6:0.263444 7:0.0421098 8:0.871815 
-0.6609358096646306 1:0.564854 2:0.109192 3:0.834773 4:0.768969 5:0.139364 6:0.188422 7:0.223446 8:0.774586 
-0.652619754033581 1:0.686588 2:0.109192 3:0.834773 4:0.768969 5:0.139364 6:0.255556 7:0.349023 8:0.71241 
-0.6540037076075074 1:0.783162 2:0.211919 3:0.206411 4:0.323547 5:0.772349 6:0.211339 7:0.162857 8:0.888834 
-0.47917229182320265 1:0.849997 2:0.854733 3:0.250684 4:0.376079 5:0.626775 6:0.296206 7:0.381718 8:0.646592 
-0.660949487743599 1:0.783162 2:0.191855 3:0.10653 4:0.205168 5:0.882014 6:0.292513 7:0.215106 8:0.664263 
-0.7802375152140989 1:0.871513 2:0.882066 3:0.322496 4:0.0291398 5:0.777062 6:0.283122 7:0.366408 8:0.66263 
-0.7450409492029583 1:0.775388 2:0.882066 3:0.559792 4:0.742816 5:0.240093 6:0.406746 7:0.347179 8:0.578159 
-0.016917915135694274 1:0.833639 2:0.882066 3:0.332737 4:0.309385 5:0.672443 6:0.296206 7:0.325236 8:0.707597 
-0.643649331818407 1:0.895247 2:0.895573 3:0.327574 4:0.384919 5:0.633621 6:0.139612 8:0.969181 
-0.6630716843981931 1:0.718698 2:0.171555 3:0.658868 4:0.862126 5:0.204688 6:0.263444 7:0.449439 8:0.677109 
-0.6630532361012726 1:0.654608 2:0.171555 3:0.57701 4:0.724869 5:0.316041 6:0.357191 7:0.427166 8:0.651746 
-0.6688240223098624 1:0.79493 2:0.171555 3:0.291156 4:0.426976 5:0.656022 6:0.487345 7:0.268704 8:0.579374 
-0.6626978812649289 1:0.693997 2:0.191855 3:0.636061 4:0.752728 5:0.307716 6:0.284358 7:0.339176 8:0.746761 
-0.6811312980395977 1:0.774384 2:0.151015 3:0.262587 4:0.653232 5:0.570844 6:0.366283 7:0.349023 8:0.567783 
-0.6633808103532081 1:0.648476 2:0.109192 3:0.686782 4:0.768969 5:0.342408 6:0.675682 7:0.766457 8:0.360593 
-0.7053511972133889 1:0.829986 2:0.882066 3:0.46279 4:0.411884 5:0.511325 6:0.259316 7:0.337685 8:0.693646 
-0.6377916011793083 1:0.806172 2:0.191855 3:0.10653 4:0.205168 5:0.882014 6:0.181503 7:0.170408 8:0.856478 
-1.0308444000224937 1:0.775887 2:0.191855 3:0.354287 4:0.290002 5:0.595425 6:0.329422 7:0.438158 8:0.616054 
-0.6626127233809845 1:0.696676 2:0.171555 3:0.790417 4:0.426976 5:0.364708 6:0.225958 7:0.494551 8:0.628271 
-0.4126117896875333 1:0.869759 2:0.908975 3:0.290571 4:0.102652 5:0.759216 6:0.436189 7:0.325236 8:0.585491 
-0.5290227142598672 1:0.891205 2:0.895573 3:0.282426 4:0.222652 5:0.786208 6:0.225958 7:0.268704 8:0.738061 
-0.14282083909023513 1:0.854013 2:0.854733 3:0.384048 4:0.372874 5:0.557839 6:0.26958 7:0.262853 8:0.71075 
-0.6628972657604096 1:0.667211 2:0.13023 3:0.196356 4:0.44805 5:0.682569 6:0.487345 7:0.268704 8:0.579374 
-0.6256203852048544 1:0.739641 2:0.34623 3:0.35765 4:0.344427 5:0.595425 6:0.225958 7:0.46802 8:0.5621 
-0.4587220593641256 1:0.773374 2:0.191855 3:0.212851 4:0.416849 5:0.69108 6:0.357191 7:0.383185 8:0.651746 
-0.8322496721915139 1:0.871762 2:0.882066 3:0.378224 4:0.309385 5:0.610834 6:0.225958 7:0.353483 8:0.677109 
-0.5207044602385 1:0.771844 2:0.171555 3:0.272853 4:0.354406 5:0.634951 6:0.225958 7:0.4043 8:0.579374 
-0.5139753169015123 1:0.792302 2:0.826964 3:0.471872 4:0.444971 5:0.547551 6:0.301513 7:0.274407 8:0.716048 
-0.9967096622394966 1:0.862775 2:0.882066 3:0.309978 4:0.282103 5:0.70323 6:0.296206 7:0.466358 8:0.5549 
-0.8978356983026569 1:0.872258 2:0.908975 3:0.344869 4:0.43232 5:0.595425 6:0.221307 7:0.291136 8:0.729505 
-0.4846092415014277 1:0.801288 2:0.895573 3:0.361874 4:0.399407 5:0.557839 6:0.372165 7:0.41682 8:0.592939 
-1.5714870537902357 1:0.871264 2:0.895573 3:0.259839 4:0.276828 5:0.755717 6:0.337345 7:0.40318 8:0.578159 
-0.6532382567493775 1:0.832982 2:0.191855 3:0.337986 4:0.602439 5:0.572107 6:0.181503 7:0.438158 8:0.616054 
-0.46355504724748225 1:0.860636 2:0.882066 3:0.332737 4:0.363878 5:0.641647 6:0.225958 7:0.296974 8:0.738061 
-0.5146018203712777 1:0.791415 2:0.868454 3:0.315035 4:0.369926 5:0.494321 6:0.337345 7:0.375187 8:0.578159 
-0.4469217444879251 1:0.715649 2:0.191855 3:0.346031 4:0.323547 5:0.678042 6:0.255556 7:0.393605 8:0.567783 
-1.5930084104516868 1:0.844353 2:0.191855 3:0.248242 4:0.416849 5:0.643268 6:0.218552 7:0.393605 8:0.616054 
-0.3505875553446093 1:0.803752 2:0.882066 3:0.355484 4:0.391091 5:0.610834 6:0.436189 7:0.325236 8:0.585491 
-0.6759344231202922 1:0.846459 2:0.784457 3:0.202003 4:0.495073 5:0.603616 6:0.348631 7:0.359892 8:0.623756 
-0.711476405555582 1:0.834618 2:0.868454 3:0.383857 4:0.424783 5:0.400872 6:0.254314 7:0.188817 8:0.838752 
-0.6636339829135447 1:0.747814 2:0.151015 3:0.262587 4:0.307175 5:0.767254 6:0.760808 7:0.461026 8:0.392445 
-0.6636373142344293 1:0.808944 2:0.868454 3:0.131083 4:0.911717 5:0.357221 6:0.168189 7:0.373032 8:0.7646 
-0.6631599804641334 1:0.639405 2:0.191855 3:0.389589 4:0.501142 5:0.499646 6:0.659481 7:0.79354 8:0.179373 
-0.6564950513176652 1:0.921341 2:0.895573 3:0.131083 5:1.0 6:0.230687 7:0.245887 8:0.777452 
-1.0208014031609147 1:0.871014 2:0.882066 3:0.241646 4:0.254802 5:0.795509 6:0.296206 7:0.353483 8:0.646592 
-0.673741038809169 1:0.841597 2:0.882066 3:0.53713 4:0.742816 5:0.240093 6:0.225958 7:0.353483 8:0.677109 
-0.663433046224396 1:0.697557 2:0.109192 3:0.501228 4:0.856991 5:0.190177 6:0.225958 7:0.308614 8:0.691458 
-0.6679183869932815 1:0.779815 2:0.171555 3:0.206411 4:0.166532 5:0.843001 6:0.263444 7:0.449439 8:0.628271 
-0.41573721584618756 1:0.813568 2:0.840904 3:0.39542 4:0.410245 5:0.603332 6:0.254314 7:0.188817 8:0.838752 
-1.9209812164165245 1:0.888149 2:0.882066 3:0.287209 4:0.282103 5:0.734004 6:0.27281 7:0.353483 8:0.616054 
-0.6570353493928927 1:0.855419 2:0.868454 3:0.40621 4:0.372874 5:0.557839 6:0.3603 7:0.401984 8:0.451184 
-0.6629261617222111 1:0.683703 3:0.599345 4:0.803812 5:0.337108 6:0.225958 7:0.381718 8:0.636418 
-0.0730542624751535 1:0.838152 2:0.882066 3:0.309978 4:0.363878 5:0.641647 6:0.296206 7:0.381718 8:0.616054 
-0.27850498849207933 1:0.758951 2:0.211919 3:0.206411 4:0.323547 5:0.772349 6:0.211339 7:0.383185 8:0.604148 
-1.6879225758480259 1:0.866182 2:0.908975 3:0.312589 4:0.155694 5:0.610329 6:0.366283 7:0.353483 8:0.616054 
-0.6620258383771918 1:0.776879 2:0.151015 3:0.248242 4:0.543208 5:0.547551 6:0.0811229 7:0.323707 8:0.690294 
-0.6626013520578895 1:0.730953 2:0.171555 3:0.206411 4:0.57322 5:0.583614 6:0.487345 7:0.268704 8:0.579374 
-0.6952142480899137 1:0.771844 2:0.191855 3:0.354287 4:0.459023 5:0.595425 6:0.225958 7:0.188817 8:0.863246 
-0.33232936384151857 1:0.844656 2:0.908975 3:0.339693 4:0.106382 5:0.768067 6:0.342944 7:0.296974 8:0.616054 
-0.37277249742888563 1:0.794059 2:0.191855 3:0.354287 4:0.374621 5:0.547551 6:0.329422 7:0.349023 8:0.567783 
-0.6325610246351466 1:0.860366 2:0.895573 3:0.305003 4:0.195527 5:0.755717 6:0.221307 7:0.515043 8:0.517451 
-0.5902909921658009 1:0.783162 2:0.151015 3:0.354287 4:0.374621 5:0.547551 6:0.233561 7:0.323707 8:0.789055 
-0.7680704935262239 1:0.768206 2:0.171555 3:0.0397957 4:0.554976 5:0.656022 6:0.225958 7:0.4043 8:0.579374 
-0.5733396637355842 1:0.856256 2:0.882066 3:0.202402 4:0.287919 5:0.699699 6:0.306908 7:0.280206 8:0.693646 
-0.48958897853565747 1:0.733007 2:0.171555 3:0.326972 4:0.512366 5:0.607547 6:0.255556 7:0.215106 8:0.760495 
-0.6633465020390872 1:0.406213 2:0.0663361 3:0.223678 4:0.449601 5:0.541917 6:0.704245 7:0.413975 8:0.537409 
-0.7456147084250148 1:0.857364 2:0.854733 3:0.0661651 4:0.708696 5:0.519033 6:0.245355 7:0.292103 8:0.67921 
-0.6600105797650515 1:0.914219 2:0.987285 3:0.272388 4:0.242226 5:0.78282 6:0.0615576 7:0.0706983 8:0.939421 
-0.6432097098295018 1:0.810114 2:0.364596 3:0.242956 4:0.394529 5:0.564062 6:0.12649 7:0.348498 8:0.691458 
-0.46420464546667684 1:0.872258 2:0.854733 3:0.273861 4:0.292925 5:0.689431 6:0.187786 7:0.193895 8:0.848354 
-0.6104892250967564 1:0.769255 2:0.151015 3:0.262587 4:0.35063 5:0.767254 6:0.181503 7:0.393605 8:0.71241 
-0.6167772767585942 1:0.767149 2:0.191855 3:0.248242 4:0.332339 5:0.643268 6:0.357191 7:0.383185 8:0.699283 
-0.6166165139930332 1:0.854858 2:0.908975 3:0.237969 4:0.199686 5:0.829711 6:0.27281 7:0.240422 8:0.616054 
-0.4775353393993035 1:0.76501 2:0.171555 3:0.147665 4:0.341364 5:0.752868 6:0.284358 7:0.339176 8:0.746761 
-0.5327378718624118 1:0.884117 2:0.922274 3:0.428366 4:0.425915 5:0.58791 6:0.0615576 7:0.0706983 8:0.939421 
-1.1677311627677271 1:0.799201 2:0.191855 3:0.318962 4:0.290002 5:0.738861 6:0.307194 7:0.325914 8:0.582912 
-0.08300339094936154 1:0.855978 2:0.882066 3:0.287209 4:0.282103 5:0.764761 6:0.301513 7:0.331406 8:0.623756 
-0.6668129021481969 1:0.838152 2:0.922274 3:0.428366 4:0.372874 5:0.557839 6:0.349206 7:0.555017 8:0.533996 
-0.6415060284301901 1:0.789623 2:0.327668 3:0.333011 4:0.313983 5:0.562552 6:0.284781 7:0.418475 8:0.552054 
-0.4690661694296856 1:0.803345 2:0.895573 3:0.282426 4:0.276828 5:0.786208 6:0.412907 7:0.381718 8:0.646592 
-0.5287702727916539 1:0.745351 2:0.191855 3:0.381701 4:0.374124 5:0.67027 6:0.218552 7:0.438158 8:0.567783 
-0.40184175741208034 1:0.866698 2:0.908975 3:0.242203 4:0.151601 5:0.780012 6:0.342944 7:0.296974 8:0.616054 
-0.6628312910395335 1:0.754371 2:0.191855 3:0.354287 4:0.543208 5:0.451709 6:0.305357 7:0.217049 8:0.735415 
-0.6664538975416883 1:0.834292 2:0.868454 3:0.373231 4:0.569514 5:0.514059 6:0.336356 7:0.170024 8:0.7646 
-0.3868723218212874 1:0.831325 2:0.882066 3:0.327574 4:0.384919 5:0.633621 6:0.378143 7:0.165103 8:0.786548 
-5.310701691299281 1:0.876646 2:0.882066 3:0.40621 4:0.372874 5:0.557839 6:0.283122 7:0.251447 8:0.755608 
-0.46309624939533023 1:0.783162 2:0.895573 3:0.367235 4:0.378847 5:0.686299 6:0.372165 7:0.41682 8:0.592939 
-0.22877870442266687 1:0.820227 2:0.895573 3:0.305003 4:0.357928 5:0.664166 6:0.412907 7:0.381718 8:0.646592 
-0.6921616617630661 1:0.843135 2:0.895573 3:0.305003 4:0.303886 5:0.694694 6:0.389603 7:0.240422 8:0.677109 
-0.19488835497896154 1:0.815824 2:0.908975 3:0.322496 4:0.378847 5:0.625728 6:0.436189 7:0.325236 8:0.585491 
-0.5548580059879542 1:0.865403 2:0.868454 3:0.383857 4:0.424783 5:0.400872 6:0.296206 7:0.381718 8:0.646592 
-0.5463342699647574 1:0.874713 2:0.895573 3:0.350132 4:0.303886 5:0.694694 6:0.221493 7:0.155502 8:0.862565 
-0.5370219677351239 1:0.782689 2:0.211919 3:0.45051 4:0.53174 5:0.489065 6:0.174759 7:0.0745267 8:0.983252 
-0.6378676341094482 1:0.763384 2:0.191855 3:0.354287 4:0.58522 5:0.403742 6:0.312392 7:0.329582 8:0.686492 
-0.5952295101344387 1:0.813189 2:0.908975 3:0.0859277 4:0.690689 5:0.536737 6:0.296206 7:0.325236 8:0.707597 
-0.3636771266821505 1:0.784572 2:0.191855 3:0.206411 4:0.281749 5:0.772349 6:0.292513 7:0.393605 8:0.664263 
-0.6611663797258992 1:0.622316 2:0.151015 3:0.389589 4:0.332339 5:0.547551 6:0.835344 7:0.871333 8:0.0922168 
-0.633563732409756 1:0.820227 2:0.895573 3:0.507788 4:0.411884 5:0.480716 6:0.319583 7:0.381718 8:0.616054 
-0.5968038450948103 1:0.885924 2:0.868454 3:0.269106 4:0.149577 5:0.804965 6:0.202504 7:0.296974 8:0.768503 
-0.6632560668965406 1:0.667211 2:0.0878964 3:1.0 4:0.739783 5:0.145808 6:0.181503 7:0.259772 8:0.71241 
-0.9350311345773827 1:0.929919 2:0.908975 3:0.300114 4:0.217906 5:0.716565 6:0.27281 7:0.183819 8:0.738061 
-5.417590751392738 1:0.806172 2:0.191855 3:0.181098 4:0.357619 5:0.689431 6:0.218552 7:0.393605 8:0.616054 
-0.6451707503839874 1:0.829986 2:0.826964 3:0.471872 4:0.444971 5:0.547551 6:0.211648 7:0.251447 8:0.786548 
-0.6636083216373916 1:0.75553 2:0.109192 3:0.147665 4:0.298475 5:0.849591 6:0.405141 7:0.625952 8:0.309291 
-0.08071711786839082 1:0.809725 2:0.908975 3:0.344869 4:0.352079 5:0.656022 6:0.337345 7:0.40318 8:0.578159 
-0.6648711348164105 1:0.881131 2:0.364596 3:0.286943 4:0.449601 5:0.541917 6:0.259038 7:0.428202 8:0.5621 
-1.0552989475544599 1:0.877602 2:0.882066 3:0.287209 4:0.282103 5:0.734004 6:0.230687 7:0.245887 8:0.777452 
-0.6525673004786023 1:0.665004 2:0.0663361 3:0.298902 4:0.35063 5:0.718203 6:0.704245 7:0.413975 8:0.537409 
-0.5576335333953606 1:0.828973 2:0.868454 3:0.337986 4:0.452177 5:0.494321 6:0.38363 7:0.347179 8:0.608479 
-0.38845492689639083 1:0.72746 2:0.191855 3:0.354287 4:0.374621 5:0.547551 6:0.247871 7:0.339176 8:0.699283 
-1.4062149523877288 1:0.859554 2:0.191855 3:0.248242 4:0.332339 5:0.738861 6:0.218552 7:0.304412 8:0.760495 
-0.3543228932005495 1:0.845861 2:0.882066 3:0.378224 4:0.0905035 5:0.88767 6:0.27281 7:0.325236 8:0.677109 
-0.5112465917922392 1:0.865923 2:0.922274 3:0.264063 4:0.177877 5:0.780012 6:0.314176 7:0.066492 8:0.789872 
-1.15136729271924 1:0.871014 2:0.882066 3:0.273094 4:0.133127 5:0.768067 6:0.283122 7:0.251447 8:0.786548 
-0.7085116508822905 1:0.895038 2:0.882066 3:0.202733 4:0.114025 5:0.91606 6:0.187786 7:0.193895 8:0.848354 
-0.7757966295944903 1:0.85373 2:0.211919 3:0.206411 4:0.114025 5:0.960601 6:0.211339 7:0.118706 8:0.936073 
-0.48049732032423575 1:0.765548 2:0.171555 3:0.248242 4:0.332339 5:0.643268 6:0.375613 7:0.0874905 8:0.774586 
-0.5579617933520672 1:0.835267 2:0.364596 3:0.223678 4:0.411884 5:0.627513 6:0.192839 7:0.388361 8:0.648391 
-0.662786684238891 1:0.873245 2:0.908975 3:0.131083 5:1.0 6:0.412907 7:0.381718 8:0.646592 
-0.6914014229424045 1:0.784572 2:0.171555 3:0.398528 4:0.126356 5:0.752868 6:0.218552 7:0.393605 8:0.616054 
-0.665145571839233 1:0.805772 2:0.171555 3:0.0397957 4:0.384199 5:0.849591 6:0.211339 7:0.427166 8:0.55649 
-0.6642192251669017 1:0.726751 2:0.109192 3:0.834773 4:0.768969 5:0.139364 6:0.12649 7:0.348498 8:0.691458 
-0.6982197628528017 1:0.854858 2:0.895573 3:0.305003 4:0.222652 5:0.755717 6:0.319583 7:0.296974 8:0.707597 
-0.6889746373668433 1:0.823792 2:0.895573 3:0.350132 4:0.411884 5:0.603067 6:0.325082 7:0.445269 8:0.592939 
-0.6522775297268334 1:0.858464 2:0.908975 3:0.0954423 4:0.633729 5:0.538572 6:0.27281 7:0.240422 8:0.616054 
-0.6638769778962779 1:0.728166 2:0.191855 3:0.354287 4:0.374621 5:0.547551 6:0.312392 7:0.589877 8:0.592546 
-0.6738535982912517 1:0.802526 2:0.151015 3:0.262587 4:0.653232 5:0.570844 6:0.233561 7:0.643689 8:0.591273 
-0.3582347702518903 1:0.833639 2:0.868454 3:0.42969 4:0.397366 5:0.525445 6:0.225958 7:0.296974 8:0.677109 
-0.5963504531569837 1:0.827952 2:0.882066 3:0.446382 4:0.309385 5:0.672443 6:0.235494 7:0.30895 8:0.693646 
-0.4683818728779832 1:0.841906 2:0.882066 3:0.332737 4:0.336641 5:0.672443 6:0.389603 7:0.353483 8:0.5549 
-0.663220968490493 1:0.653404 2:0.171555 3:0.200138 4:0.356199 5:0.804965 6:0.263444 7:0.629702 8:0.530413 
-0.7890851770906497 1:0.886148 2:0.908975 3:0.25532 4:0.378847 5:0.656022 6:0.314176 7:0.375187 8:0.608479 
-0.6637087464104771 1:0.702731 2:0.151015 3:0.0397957 4:0.512366 5:0.704461 6:0.835344 7:0.871333 8:0.0922168 
-0.5409073280710727 1:0.825541 2:0.840904 3:0.39542 4:0.410245 5:0.603332 6:0.174759 7:0.347179 8:0.699283 
-0.24743143312818527 1:0.838468 2:0.895573 3:0.350132 4:0.384919 5:0.633621 6:0.301513 7:0.188817 8:0.777452 
-0.7179526347056162 1:0.807763 2:0.191855 3:0.283614 4:0.290002 5:0.595425 6:0.174759 7:0.129747 8:0.865194 
