svm_type c_svc
kernel_type rbf
gamma 256.0
nr_class 2
total_sv 774
rho 0.3586535455758607
label 1 -1
nr_sv 253 521
SV
1.3652755064619486 1:0.73834 2:0.0878964 3:0.812912 4:0.829121 5:0.197331 6:0.263444 7:0.449439 8:0.628271 
1.2221971048508204 1:0.830992 2:0.191855 3:0.248242 4:0.290002 5:0.738861 6:0.403097 7:0.438158 8:0.567783 
0.3952038048393006 1:0.935355 2:0.908975 3:0.344869 4:0.405593 5:0.56511 6:0.225958 7:0.325236 8:0.707597 
3.230789063908192 1:0.833311 2:0.191855 3:0.354287 4:0.374621 5:0.547551 6:0.329422 7:0.349023 8:0.567783 
1.1720776749376989 1:0.929101 2:0.882066 3:0.282426 4:0.222652 5:0.816686 6:0.163901 7:0.222679 8:0.817465 
1.3221069898648972 1:0.888149 2:0.882066 3:0.423673 4:0.282103 5:0.610834 6:0.436189 7:0.409946 8:0.524287 
1.3584467879550388 1:0.794495 2:0.151015 3:0.732821 4:0.567059 5:0.275244 6:0.292513 7:0.304412 8:0.71241 
1.1365158712588486 1:0.854858 2:0.171555 3:0.267538 4:0.276522 5:0.636747 6:0.375613 7:0.0874905 8:0.774586 
1.2406980898075077 1:0.921341 2:0.882066 3:0.312589 4:0.155694 5:0.610329 6:0.283122 7:0.251447 8:0.755608 
0.8556383318309531 1:0.838785 2:0.171555 3:0.223678 4:0.449601 5:0.541917 6:0.225958 7:0.4043 8:0.579374 
0.17720441169739695 1:0.927617 2:0.908975 3:0.344869 4:0.352079 5:0.595425 6:0.296206 7:0.353483 8:0.646592 
1.3583217748591365 1:0.680758 2:0.0663361 3:0.570721 4:0.411884 5:0.456225 6:0.743742 7:0.55894 8:0.484891 
2.120765577419186 1:0.85764 2:0.191855 3:0.248242 4:0.332339 5:0.738861 6:0.255556 7:0.304412 8:0.71241 
1.3175742323692434 1:1.0 2:0.961572 3:0.237969 4:0.199686 5:0.829711 6:0.2078 7:0.164638 8:0.851841 
0.26099371210246003 1:0.901999 2:0.908975 3:0.411934 4:0.352079 5:0.56511 6:0.366283 7:0.353483 8:0.677109 
1.3569613511959755 1:0.855419 2:0.171555 3:0.25532 4:0.212527 5:0.801248 6:0.338273 7:0.132838 8:0.725879 
1.274253222129088 1:0.873245 2:0.868454 3:0.223137 4:0.369926 5:0.742941 6:0.429841 7:0.375187 8:0.578159 
1.3585458065251765 1:0.775887 2:0.109192 3:0.219459 4:0.512366 5:0.559044 6:0.790853 7:0.766457 8:0.103379 
1.1945426341949428 1:0.919066 2:0.895573 3:0.40621 4:0.372874 5:0.557839 6:0.277922 7:0.16026 8:0.777452 
1.5607739906300437 1:0.856256 2:0.191855 3:0.141993 4:0.290002 5:0.738861 6:0.320797 7:0.427166 8:0.651746 
1.0196819262489965 1:0.911077 2:0.895573 3:0.327574 4:0.357928 5:0.603067 6:0.254314 7:0.331406 8:0.68531 
1.7244901489072115 1:0.88389 2:0.882066 3:0.332737 4:0.336641 5:0.672443 6:0.330672 7:0.280206 8:0.72464 
0.11086771077811602 1:0.91089 2:0.895573 3:0.40621 4:0.372874 5:0.58791 6:0.230687 7:0.274407 8:0.746761 
0.4225069963473184 1:0.917648 2:0.908975 3:0.367235 4:0.378847 5:0.595425 6:0.225958 7:0.296974 8:0.768503 
0.4406735037754172 1:0.910515 2:0.895573 3:0.372681 4:0.411884 5:0.572496 6:0.296206 7:0.268704 8:0.738061 
1.1138427536056896 1:0.913853 2:0.868454 3:0.269106 4:0.149577 5:0.804965 6:0.306908 7:0.30895 8:0.66263 
1.3169503230088913 1:0.823792 2:0.171555 3:0.285186 4:0.33422 5:0.736737 6:0.300884 7:0.494551 8:0.579374 
1.3534067626532222 1:0.837834 2:0.191855 3:0.177434 4:0.459023 5:0.738861 6:0.284358 7:0.515043 8:0.460992 
1.3583827759923297 1:0.763384 2:0.109192 3:0.318962 4:0.332339 5:0.595425 6:0.790853 7:0.85997 8:0.154963 
0.9110133317637246 1:0.920121 2:0.882066 3:0.378224 4:0.309385 5:0.610834 6:0.296206 7:0.353483 8:0.646592 
1.3613471803298658 1:0.826924 2:0.191855 3:0.354287 4:0.374621 5:0.547551 6:0.329422 7:0.527177 8:0.471055 
1.7996895188193902 1:0.86171 2:0.171555 3:0.141993 4:0.374621 5:0.738861 6:0.263444 7:0.584679 8:0.530413 
1.358817279722817 1:0.85764 2:0.171555 3:0.177434 4:0.162666 5:0.738861 6:0.263444 7:0.359132 8:0.823234 
1.24921910100983 1:0.944747 2:0.895573 3:0.440278 4:0.411884 5:0.511325 6:0.0615576 7:0.0706983 8:0.939421 
1.3584737683770096 1:0.824844 2:0.191855 3:0.530569 4:0.543208 5:0.403742 6:0.320797 7:0.427166 8:0.651746 
1.482378185062583 1:0.857364 2:0.211919 3:0.333011 4:0.352722 5:0.562552 6:0.174759 7:0.0745267 8:0.983252 
2.112048752592948 1:0.77933 2:0.109192 3:0.871707 4:0.813009 5:0.0885151 6:0.255556 7:0.482682 8:0.51945 
1.3107210875455995 1:0.838468 2:0.191855 3:0.415706 4:0.490206 5:0.489065 6:0.144403 7:0.304412 8:0.760495 
1.368254122450912 1:0.884571 2:0.895573 3:0.507788 4:0.411884 5:0.480716 6:0.249392 7:0.325236 8:0.677109 
1.2272671471303935 1:0.913302 2:0.882066 3:0.300114 4:0.352079 5:0.686299 6:0.283122 7:0.366408 8:0.66263 
1.400740129371709 1:0.903389 2:0.895573 3:0.417754 4:0.465752 5:0.450099 6:0.319583 7:0.325236 8:0.616054 
0.36252141544389904 1:0.917469 2:0.882066 3:0.350132 4:0.411884 5:0.603067 6:0.235494 7:0.30895 8:0.693646 
1.3684820685179406 1:0.871014 2:0.191855 3:0.071043 4:0.247614 5:0.929672 6:0.0700592 7:0.259772 8:0.856478 
1.0980921196146385 1:0.917291 2:0.908975 3:0.344869 4:0.352079 5:0.656022 6:0.151458 7:0.375187 8:0.729505 
1.5095053181051572 1:0.902596 2:0.882066 3:0.0859277 4:0.690689 5:0.536737 6:0.330672 7:0.366408 8:0.631584 
1.0666057780727858 1:0.932983 2:0.895573 3:0.259839 4:0.0868138 5:0.786208 6:0.249392 7:0.353483 8:0.677109 
1.2890957686915658 1:0.946059 2:0.882066 3:0.400952 4:0.41828 5:0.549174 6:0.221493 7:0.155502 8:0.862565 
1.2481184443672684 1:0.874956 2:0.171555 3:0.25532 4:0.298475 5:0.656022 6:0.225958 7:0.268704 8:0.677109 
1.3544393171756843 1:0.868237 2:0.191855 3:0.318962 4:0.332339 5:0.69108 6:0.144403 7:0.0809238 8:0.95222 
0.564001668400115 1:0.918181 2:0.908975 3:0.367235 4:0.405593 5:0.595425 6:0.319583 7:0.325236 8:0.616054 
1.348464218201032 1:0.922722 2:0.895573 3:0.339693 4:0.106382 5:0.768067 6:0.207037 7:0.188817 8:0.808114 
1.2204237919310497 1:0.837516 2:0.191855 3:0.212851 4:0.416849 5:0.69108 6:0.270681 7:0.206979 8:0.699283 
1.3486134252376496 1:0.860905 2:0.171555 3:0.206411 4:0.57322 5:0.583614 6:0.263444 7:0.494551 8:0.628271 
1.4136467785507967 1:0.856256 2:0.191855 3:0.165623 4:0.273707 5:0.851451 6:0.403097 7:0.393605 8:0.51945 
1.3589724167907213 1:0.799621 2:0.109192 3:0.501228 4:0.856991 5:0.190177 6:0.150835 7:0.449439 8:0.871815 
1.363017191232187 1:0.872505 2:0.798742 3:0.360926 4:0.204803 5:0.742941 6:0.215909 7:0.407927 8:0.681464 
1.2111842838972833 1:0.877125 2:0.854733 3:0.273861 4:0.403751 5:0.564062 6:0.283122 7:0.251447 8:0.755608 
1.0446823223185755 1:0.860096 2:0.171555 3:0.25532 4:0.298475 5:0.704461 6:0.375613 7:0.0874905 8:0.774586 
1.1784038525446252 1:0.828633 2:0.191855 3:0.354287 4:0.374621 5:0.547551 6:0.192839 7:0.388361 8:0.648391 
0.7152328990448575 1:0.912194 2:0.908975 3:0.40621 4:0.372874 5:0.557839 6:0.225958 7:0.353483 8:0.677109 
0.869237644859979 1:0.887928 2:0.854733 3:0.478917 4:0.405593 5:0.625728 6:0.245355 7:0.262853 8:0.71075 
1.3698898562900763 1:0.863305 2:0.171555 3:0.25532 4:0.512366 5:0.607547 6:0.107255 7:0.259772 8:0.760495 
1.312029069273232 1:0.84526 2:0.191855 3:0.248242 4:0.247614 5:0.69108 6:0.174759 7:0.55894 8:0.604148 
0.3242544343169084 1:0.913669 2:0.895573 3:0.327574 4:0.384919 5:0.633621 6:0.230687 7:0.274407 8:0.777452 
0.9764708546994716 1:0.896084 2:0.895573 3:0.327574 4:0.303886 5:0.72521 6:0.27281 7:0.381718 8:0.707597 
1.5129535919852952 1:0.872999 2:0.895573 3:0.46279 4:0.411884 5:0.511325 6:0.27281 7:0.381718 8:0.707597 
1.2687848553437489 1:0.776384 2:0.0878964 3:0.206411 4:0.365291 5:0.72521 6:0.689765 7:0.782932 8:0.317965 
1.8234215910279241 1:0.883662 2:0.908975 3:0.367235 4:0.459023 5:0.595425 6:0.296206 7:0.466358 8:0.5549 
1.3333496302535717 1:0.847945 2:0.191855 3:0.212851 4:0.416849 5:0.69108 6:0.255556 7:0.393605 8:0.567783 
1.3597389488135756 1:0.873981 2:0.882066 3:0.559792 4:0.742816 5:0.240093 6:0.406746 7:0.347179 8:0.578159 
1.2807464693614738 1:0.867982 2:0.191855 3:0.283614 4:0.332339 5:0.738861 6:0.138133 7:0.206979 8:0.888834 
1.3388414652306329 1:0.914401 2:0.868454 3:0.360926 4:0.342463 5:0.494321 6:0.27281 7:0.0704771 8:0.798918 
1.4713110613434317 1:0.849706 2:0.191855 3:0.354287 4:0.374621 5:0.547551 6:0.168189 7:0.199062 8:0.920333 
0.413251284886715 1:0.898971 2:0.895573 3:0.40621 4:0.372874 5:0.557839 6:0.372165 7:0.41682 8:0.592939 
0.37796420771913253 1:0.933301 2:0.895573 3:0.23291 4:0.325287 5:0.746821 6:0.348631 7:0.359892 8:0.623756 
0.8131004194025335 1:0.922033 2:0.895573 3:0.282426 4:0.222652 5:0.786208 6:0.342944 7:0.325236 8:0.616054 
0.7609974196658595 1:0.899785 2:0.882066 3:0.355484 4:0.363878 5:0.672443 6:0.330672 7:0.337685 8:0.693646 
1.3586026947551428 1:0.689413 2:0.0663361 3:0.374685 4:0.795402 5:0.291699 6:0.704245 7:0.413975 8:0.537409 
1.2964350593344267 1:0.90457 2:0.882066 3:0.434273 4:0.325287 5:0.534779 6:0.211648 7:0.222679 8:0.817465 
1.2393101482588982 1:0.92047 2:0.908975 3:0.339693 4:0.106382 5:0.768067 6:0.225958 7:0.353483 8:0.677109 
0.9311802164171045 1:0.922033 2:0.882066 3:0.378224 4:0.309385 5:0.610834 6:0.342944 7:0.296974 8:0.616054 
1.2754119484110664 1:0.919066 2:0.895573 3:0.259839 4:0.276828 5:0.786208 6:0.254314 7:0.188817 8:0.808114 
1.3512138171191432 1:0.842214 2:0.191855 3:0.318962 4:0.543208 5:0.547551 6:0.255556 7:0.438158 8:0.71241 
1.496635147179916 1:0.917648 2:0.908975 3:0.322496 4:0.0291398 5:0.777062 6:0.319583 7:0.325236 8:0.616054 
1.3699918026233764 1:0.945914 2:0.922274 3:0.339693 4:0.0796113 5:0.708064 6:0.314176 7:0.0383579 8:0.729505 
1.3583618392999686 1:0.826579 2:0.171555 3:0.0397957 4:0.384199 5:0.849591 6:0.225958 7:0.58733 8:0.475615 
1.3563324311218128 1:0.827952 2:0.171555 3:0.0397957 4:0.384199 5:0.849591 6:0.49326 7:0.361186 8:0.574368 
1.0826191605779656 1:0.842522 2:0.191855 3:0.389589 4:0.416849 5:0.547551 6:0.159685 7:0.388361 8:0.691458 
1.3979291310783972 1:0.825541 2:0.171555 3:0.318962 4:0.332339 5:0.738861 6:0.300884 7:0.268704 8:0.823234 
1.0343655268330956 1:0.884571 2:0.908975 3:0.40621 4:0.372874 5:0.557839 6:0.366283 7:0.353483 8:0.677109 
1.402762679563249 1:0.922206 2:0.908975 3:0.290571 4:0.102652 5:0.759216 6:0.202504 7:0.296974 8:0.768503 
1.3382449987479308 1:0.909762 2:0.882066 3:0.0859277 4:0.690689 5:0.536737 6:0.283122 7:0.251447 8:0.755608 
1.371577000020475 1:0.806572 2:0.191855 3:0.354287 4:0.58522 5:0.403742 6:0.192839 7:0.348498 8:0.691458 
1.3622179349786414 1:0.835267 2:0.171555 3:0.0397957 4:0.512366 5:0.704461 6:0.218552 7:0.438158 8:0.567783 
1.428469443108081 1:0.900594 2:0.908975 3:0.300114 4:0.405593 5:0.686299 6:0.249392 7:0.325236 8:0.677109 
1.3399139924998156 1:0.875683 2:0.364596 3:0.0969281 4:0.298475 5:0.755717 6:0.159685 7:0.507811 8:0.60527 
0.517775359976868 1:0.824844 2:0.191855 3:0.223678 4:0.449601 5:0.541917 6:0.255556 7:0.393605 8:0.567783 
1.3586191679084048 1:0.842522 2:0.171555 3:0.0397957 4:0.384199 5:0.849591 6:0.357191 7:0.383185 8:0.651746 
1.3710503780027645 1:0.858464 2:0.171555 3:0.25532 4:0.426976 5:0.559044 6:0.375613 7:0.0874905 8:0.774586 
1.3457255703675526 1:0.912379 2:0.908975 3:0.300114 4:0.459023 5:0.56511 6:0.436189 7:0.409946 8:0.524287 
1.358304169527648 1:0.891421 2:0.400756 3:0.335612 4:0.283672 5:0.647666 6:0.2078 7:0.137224 8:0.80284 
1.3726160663184657 1:0.86171 2:0.171555 3:0.362762 4:0.083182 5:0.801248 6:0.255556 7:0.393605 8:0.567783 
1.477177633263437 1:0.900594 2:0.895573 3:0.350132 4:0.303886 5:0.694694 6:0.239791 7:0.28539 8:0.84076 
1.2249424053504754 1:0.937686 2:0.908975 3:0.25532 4:0.325287 5:0.746821 6:0.225958 7:0.353483 8:0.677109 
1.120986711004088 1:0.929265 2:0.908975 3:0.25532 4:0.298475 5:0.716565 6:0.314176 7:0.319163 8:0.729505 
1.2435360886648 1:0.906322 2:0.854733 3:0.273861 4:0.209561 5:0.783317 6:0.319583 7:0.296974 8:0.707597 
1.2953508371257287 1:0.868237 2:0.151015 3:0.262587 4:0.394031 5:0.767254 6:0.107255 7:0.259772 8:0.808519 
1.357999872166383 1:0.812808 2:0.151015 3:0.371463 4:0.567059 5:0.570844 6:0.429841 7:0.515043 8:0.460992 
0.7877443677929366 1:0.903587 2:0.882066 3:0.40621 4:0.372874 5:0.557839 6:0.283122 7:0.251447 8:0.755608 
0.7895148324025014 1:0.919945 2:0.895573 3:0.305003 4:0.303886 5:0.694694 6:0.249392 7:0.353483 8:0.677109 
0.7951117105130722 1:0.940131 2:0.908975 3:0.322496 4:0.352079 5:0.625728 6:0.221307 7:0.291136 8:0.729505 
1.358283803765542 1:0.797934 2:0.191855 3:0.671181 4:0.794473 5:0.163438 6:0.284358 7:0.515043 8:0.460992 
1.106211756061214 1:0.926952 2:0.895573 3:0.259839 4:0.0868138 5:0.786208 6:0.314176 7:0.319163 8:0.729505 
1.3098274124947613 1:0.804968 2:0.171555 3:0.291156 4:0.469697 5:0.656022 6:0.263444 7:0.449439 8:0.677109 
1.374353866383841 1:0.844656 2:0.327668 3:0.333011 4:0.352722 5:0.562552 6:0.225958 7:0.388361 8:0.648391 
1.0021248626229462 1:0.90019 2:0.882066 3:0.289181 4:0.414854 5:0.717044 6:0.235494 7:0.30895 8:0.693646 
0.5804922833377967 1:0.892922 2:0.895573 3:0.40621 4:0.372874 5:0.557839 6:0.254314 7:0.302913 8:0.716048 
1.2382153270785534 1:0.825888 2:0.171555 3:0.291156 4:0.384199 5:0.607547 6:0.188422 7:0.4043 8:0.628271 
1.510912262695834 1:0.815076 2:0.191855 3:0.354287 4:0.374621 5:0.547551 6:0.49326 7:0.361186 8:0.574368 
1.3583141726935528 1:0.859825 2:0.191855 3:0.0965237 4:0.273707 5:0.897903 6:0.292513 7:0.393605 8:0.760495 
1.263053638106483 1:0.816938 2:0.109192 3:0.262587 4:0.394031 5:0.767254 6:0.675682 7:0.766457 8:0.360593 
0.6052996885654185 1:0.909573 2:0.854733 3:0.297024 4:0.292925 5:0.689431 6:0.348631 7:0.359892 8:0.623756 
2.2394661426585194 1:0.917469 2:0.908975 3:0.312589 4:0.155694 5:0.610329 6:0.366283 7:0.353483 8:0.616054 
1.1775159354001246 1:0.925275 2:0.882066 3:0.259839 4:0.276828 5:0.755717 6:0.235494 7:0.30895 8:0.693646 
0.8359755810804816 1:0.915673 2:0.854733 3:0.40621 4:0.372874 5:0.557839 6:0.245355 7:0.262853 8:0.71075 
1.260417678200187 1:0.900392 2:0.895573 3:0.327574 4:0.384919 5:0.633621 6:0.389603 7:0.240422 8:0.677109 
0.9703325421188901 1:0.960508 2:0.908975 3:0.300114 4:0.244783 5:0.777062 6:0.27281 7:0.212124 8:0.798918 
1.3516273431087877 1:0.837197 2:0.171555 3:0.318962 4:0.332339 5:0.69108 6:0.375613 7:0.0874905 8:0.774586 
1.358623755399138 1:0.93598 2:1.0 3:0.131083 4:0.911717 5:0.357221 6:0.0615576 7:0.0706983 8:0.939421 
1.3677310681752743 1:0.949498 2:0.922274 3:0.317501 4:0.0796113 5:0.768067 6:0.0615576 7:0.0706983 8:0.939421 
1.2708274936955164 1:0.902596 2:0.908975 3:0.300114 4:0.271642 5:0.595425 6:0.314176 7:0.319163 8:0.729505 
1.3083587917334398 1:0.891636 2:0.895573 3:0.384048 4:0.425915 5:0.557839 6:0.325082 7:0.445269 8:0.592939 
1.1615908694453356 1:0.920121 2:0.908975 3:0.344869 4:0.298475 5:0.656022 6:0.366283 7:0.353483 8:0.616054 
1.273107655965875 1:0.869 2:0.868454 3:0.223137 4:0.369926 5:0.742941 6:0.489533 7:0.388361 8:0.500343 
1.2966490544517224 1:0.847649 2:0.171555 3:0.25532 4:0.298475 5:0.656022 6:0.403097 7:0.482682 8:0.51945 
1.3540922639101582 1:0.827952 2:0.151015 3:0.298902 4:0.35063 5:0.718203 6:0.329422 7:0.349023 8:0.567783 
1.259574100977683 1:0.905157 2:0.868454 3:0.337986 4:0.452177 5:0.494321 6:0.296206 7:0.325236 8:0.707597 
1.486110662060679 1:0.851732 2:0.34623 3:0.261721 4:0.420868 5:0.595425 6:0.225958 7:0.46802 8:0.5621 
1.0741587603532117 1:0.906902 2:0.868454 3:0.327574 4:0.357928 5:0.603067 6:0.168189 7:0.373032 8:0.7646 
0.20944331036116678 1:0.900997 2:0.908975 3:0.400579 4:0.367 5:0.550692 6:0.319583 7:0.381718 8:0.677109 
1.3976789205095528 1:0.864095 2:0.211919 3:0.276266 4:0.323547 5:0.630843 6:0.225958 7:0.188817 8:0.863246 
1.4061736626852999 1:0.924768 2:0.908975 3:0.295302 4:0.399407 5:0.648011 6:0.27281 7:0.353483 8:0.616054 
1.0372094189649441 1:0.901599 2:0.895573 3:0.389589 4:0.378847 5:0.656022 6:0.207037 7:0.188817 8:0.808114 
1.501673274558037 1:0.915129 2:0.854733 3:0.273861 4:0.320668 5:0.658108 6:0.225958 7:0.353483 8:0.677109 
1.3584650134392786 1:0.79493 2:0.109192 3:0.797813 4:0.768969 5:0.0885151 6:0.2078 7:0.137224 8:0.80284 
1.2705369345506705 1:0.86171 2:0.171555 3:0.25532 4:0.298475 5:0.656022 6:0.312392 7:0.242597 8:0.733376 
2.25732425669651 1:0.908815 2:0.882066 3:0.287209 4:0.309385 5:0.734004 6:0.348631 7:0.359892 8:0.623756 
0.9358555192039371 1:0.829986 2:0.191855 3:0.261721 4:0.420868 5:0.595425 6:0.255556 7:0.393605 8:0.567783 
1.4207138914659054 1:0.86644 2:0.908975 3:0.4566 4:0.43232 5:0.595425 6:0.436189 7:0.550894 8:0.432296 
1.4155680091059069 1:0.82761 2:0.191855 3:0.354287 4:0.543208 5:0.451709 6:0.320797 7:0.427166 8:0.651746 
0.8763706053787865 1:0.895038 2:0.882066 3:0.367235 4:0.405593 5:0.686299 6:0.211648 7:0.222679 8:0.817465 
1.3414727356153635 1:0.870011 2:0.171555 3:0.0397957 4:0.384199 5:0.849591 6:0.218552 7:0.304412 8:0.71241 
1.4093088460917222 1:0.871513 2:0.191855 3:0.141993 4:0.162666 5:0.882014 6:0.192839 7:0.388361 8:0.648391 
0.7635873308137793 1:0.91089 2:0.908975 3:0.322496 4:0.405593 5:0.595425 6:0.314176 7:0.319163 8:0.729505 
0.5007520011183599 1:0.917826 2:0.908975 3:0.411934 4:0.378847 5:0.534779 6:0.27281 7:0.353483 8:0.646592 
1.3594169349751064 1:0.789171 2:0.109192 3:0.464041 4:0.547879 5:0.645925 6:0.375613 7:0.0874905 8:0.774586 
0.9107174714875645 1:0.885249 2:0.882066 3:0.478917 4:0.405593 5:0.625728 6:0.235494 7:0.30895 8:0.693646 
1.2184076749401904 1:0.832322 2:0.191855 3:0.318962 4:0.332339 5:0.738861 6:0.403097 7:0.393605 8:0.51945 
1.3588655549917696 1:0.766617 2:0.191855 3:0.507788 4:0.524902 5:0.370429 6:0.403097 7:0.527177 8:0.471055 
1.312314600750475 1:0.90019 2:0.908975 3:0.322496 4:0.325287 5:0.80729 6:0.249392 7:0.325236 8:0.677109 
1.3680649651737535 1:0.825541 2:0.171555 3:0.219459 4:0.512366 5:0.559044 6:0.329422 7:0.349023 8:0.567783 
0.6989258575878183 1:0.921514 2:0.882066 3:0.322496 4:0.405593 5:0.625728 6:0.163901 7:0.222679 8:0.817465 
1.2268142750836504 1:0.880898 2:0.770054 3:0.230871 4:0.560782 5:0.578892 6:0.319583 7:0.296974 8:0.707597 
1.340386246189132 1:0.826234 2:0.13023 3:0.196356 4:0.44805 5:0.682569 6:0.366283 7:0.180126 8:0.655884 
1.366648475501689 1:0.863569 2:0.798742 3:0.250684 4:0.376079 5:0.626775 6:0.215909 7:0.407927 8:0.681464 
1.3685500420510734 1:0.899378 2:0.854733 3:0.110854 4:0.724869 5:0.454829 6:0.245355 7:0.262853 8:0.71075 
1.3540177606924404 1:0.829311 2:0.151015 3:0.262587 4:0.653232 5:0.570844 6:0.233561 7:0.552418 8:0.690294 
1.3585976050263324 1:0.869506 2:0.364596 3:0.206411 4:0.166532 5:0.843001 6:0.225958 7:0.58733 8:0.475615 
0.13355418634371374 1:0.913118 2:0.882066 3:0.287209 4:0.282103 5:0.764761 6:0.319583 7:0.325236 8:0.616054 
1.3565356727982538 1:0.928772 2:0.882066 3:0.423673 4:0.0905035 5:0.856964 6:0.221307 7:0.291136 8:0.729505 
1.3490033441877984 1:0.790969 2:0.151015 3:0.248242 4:0.416849 5:0.643268 6:0.648638 7:0.689277 8:0.292635 
0.4577745932802226 1:0.915673 2:0.882066 3:0.350132 4:0.411884 5:0.603067 6:0.283122 7:0.280206 8:0.755608 
1.3557101101564573 1:0.823792 2:0.171555 3:0.291156 4:0.597531 5:0.510509 6:0.403097 7:0.393605 8:0.51945 
4.897545750017942 1:0.815451 2:0.171555 3:0.291156 4:0.469697 5:0.656022 6:0.270681 7:0.206979 8:0.699283 
0.7917103645050815 1:0.892708 2:0.922274 3:0.384048 4:0.425915 5:0.557839 6:0.337345 7:0.375187 8:0.578159 
1.3163580646384874 1:0.915129 2:0.882066 3:0.290571 4:0.102652 5:0.759216 6:0.283122 7:0.251447 8:0.755608 
1.2144394639474547 1:0.820227 2:0.191855 3:0.428111 4:0.468227 5:0.522226 6:0.144403 7:0.393605 8:0.616054 
1.3587616932322255 1:0.777865 2:0.109192 3:0.0355331 4:0.416849 5:0.69108 6:0.443947 7:0.532119 8:0.666939 
0.7179891472458579 1:0.940584 2:0.895573 3:0.23724 4:0.222652 5:0.786208 6:0.207037 7:0.188817 8:0.808114 
1.3418719026957722 1:0.862243 2:0.191855 3:0.177434 4:0.374621 5:0.738861 6:0.0599844 7:0.268704 8:0.777452 
0.9109721252295395 1:0.910139 2:0.908975 3:0.367235 4:0.378847 5:0.686299 6:0.249392 7:0.296974 8:0.677109 
1.291508489163692 1:0.841597 2:0.191855 3:0.424868 4:0.459023 5:0.547551 6:0.218552 7:0.438158 8:0.567783 
1.3986055242103512 1:0.947215 2:0.908975 3:0.389589 4:0.405593 5:0.595425 6:0.0615576 7:0.0706983 8:0.939421 
1.2852912486370534 1:0.847055 2:0.151015 3:0.413251 4:0.449601 5:0.499081 6:0.0811229 7:0.323707 8:0.690294 
1.358807941347238 1:0.808944 2:0.171555 3:0.398528 4:0.724869 5:0.413339 6:0.329422 7:0.349023 8:0.567783 
1.3650212907645523 1:0.855978 2:0.868454 3:0.315035 4:0.369926 5:0.494321 6:0.489533 7:0.388361 8:0.500343 
1.3649574186103135 1:0.821664 2:0.171555 3:0.38088 4:0.406982 5:0.630843 6:0.300884 7:0.494551 8:0.628271 
1.358801589116667 1:0.757251 2:0.171555 3:0.57701 4:0.724869 5:0.316041 6:0.561593 7:0.719653 8:0.333922 
1.2954865491514804 1:0.849414 2:0.171555 3:0.291156 4:0.255531 5:0.752868 6:0.329422 7:0.527177 8:0.51945 
1.1623679526684505 1:0.903784 2:0.908975 3:0.27772 4:0.378847 5:0.656022 6:0.239791 7:0.28539 8:0.84076 
1.1921624274041633 1:0.853446 2:0.784457 3:0.202003 4:0.495073 5:0.603616 6:0.330672 7:0.280206 8:0.72464 
1.2641037572033025 1:0.881826 2:0.191855 3:0.276266 4:0.281749 5:0.72521 6:0.107255 7:0.349023 8:0.760495 
1.358553135061996 1:0.77933 2:0.0445045 3:0.959925 4:1.0 6:0.174759 7:0.0745267 8:0.983252 
1.3173558115207 1:0.844656 2:0.171555 3:0.25532 4:0.469697 5:0.656022 6:0.181503 7:0.393605 8:0.71241 
1.3093790806517638 1:0.865923 2:0.151015 3:0.262587 4:0.35063 5:0.767254 6:0.338273 7:0.0421098 8:0.823234 
0.8687869362361474 1:0.928772 2:0.908975 3:0.23291 4:0.298475 5:0.746821 6:0.342944 7:0.296974 8:0.616054 
1.3619301227173204 1:0.870764 2:0.171555 3:0.0965237 4:0.232381 5:0.944331 6:0.225958 7:0.223446 8:0.774586 
1.3512763508280365 1:0.851445 2:0.191855 4:0.374621 5:0.738861 6:0.247871 7:0.339176 8:0.699283 
2.1061928695821526 1:0.907286 2:0.854733 3:0.273861 4:0.292925 5:0.689431 6:0.296206 7:0.240422 8:0.768503 
1.7304550417624474 1:0.887041 2:0.826964 3:0.471872 4:0.444971 5:0.547551 6:0.225958 7:0.268704 8:0.768503 
1.908195353922349 1:0.909573 2:0.882066 3:0.309978 4:0.282103 5:0.764761 6:0.225958 7:0.268704 8:0.768503 
0.4145065959127875 1:0.919419 2:0.908975 3:0.411934 4:0.378847 5:0.595425 6:0.314176 7:0.40318 8:0.608479 
1.4726310001818734 1:0.828293 2:0.191855 3:0.177434 4:0.332339 5:0.738861 6:0.292513 7:0.393605 8:0.760495 
2.230946998227573 1:0.89356 2:0.854733 3:0.273861 4:0.209561 5:0.783317 6:0.314176 7:0.375187 8:0.608479 
1.5676853510000623 1:0.889029 2:0.882066 3:0.339693 4:0.239898 5:0.798048 6:0.330672 7:0.280206 8:0.72464 
1.3732108617568417 1:0.961419 2:0.882066 3:0.202733 4:0.114025 5:0.91606 6:0.259316 7:0.337685 8:0.693646 
1.5195886543163315 1:0.842522 2:0.171555 3:0.291156 4:0.255531 5:0.752868 6:0.329422 7:0.349023 8:0.567783 
1.1924532481338725 1:0.92409 2:0.908975 3:0.312589 4:0.155694 5:0.610329 6:0.296206 7:0.325236 8:0.707597 
1.2217080369399318 1:0.889467 2:0.854733 3:0.273861 4:0.403751 5:0.564062 6:0.211648 7:0.222679 8:0.817465 
1.3589339330600438 1:0.78643 2:0.68103 3:0.646871 4:0.304664 5:0.560445 6:0.38363 7:0.347179 8:0.608479 
1.2149654236517535 1:0.90767 2:0.908975 3:0.40621 4:0.372874 5:0.557839 6:0.436189 7:0.325236 8:0.585491 
0.8680933646765416 1:0.938761 2:0.908975 3:0.264063 4:0.177877 5:0.780012 6:0.296206 7:0.325236 8:0.677109 
0.885377968274887 1:0.920819 2:0.854733 3:0.273861 4:0.292925 5:0.689431 6:0.174759 7:0.347179 8:0.699283 
1.1369454774559051 1:0.880898 2:0.171555 3:0.219459 4:0.341364 5:0.704461 6:0.107255 7:0.349023 8:0.760495 
3.8813567953765182 1:0.911264 2:0.882066 3:0.309978 4:0.282103 5:0.764761 6:0.301513 7:0.331406 8:0.623756 
1.699092171825263 1:0.838468 2:0.191855 3:0.248242 4:0.247614 5:0.643268 6:0.225958 7:0.388361 8:0.648391 
1.3590817001476723 1:0.838468 2:0.191855 3:0.248242 4:0.290002 5:0.834326 6:0.218552 7:0.259772 8:0.856478 
1.358198014917388 1:0.854577 2:0.191855 3:0.318962 4:0.543208 5:0.547551 6:0.312392 7:0.242597 8:0.733376 
1.2804608560812625 1:0.921341 2:0.868454 3:0.223137 4:0.149577 5:0.835958 6:0.296206 7:0.381718 8:0.646592 
0.44381928554689143 1:0.903587 2:0.882066 3:0.327574 4:0.384919 5:0.603067 6:0.211648 7:0.251447 8:0.786548 
1.2911094294492609 1:0.885249 2:0.191855 3:0.10653 4:0.374621 5:0.738861 6:0.0700592 7:0.349023 8:0.760495 
1.357001160742453 1:0.884345 2:0.171555 3:0.248242 4:0.247614 5:0.643268 6:0.188422 7:0.178155 8:0.968793 
0.9663514114193374 1:0.910139 2:0.882066 3:0.378224 4:0.309385 5:0.610834 6:0.436189 7:0.325236 8:0.585491 
1.0910358880879172 1:0.92409 2:0.908975 3:0.273094 4:0.425915 5:0.648011 6:0.296206 7:0.268704 8:0.738061 
0.2879147344015132 1:0.92409 2:0.895573 3:0.259839 4:0.303886 5:0.72521 6:0.319583 7:0.381718 8:0.616054 
0.9960517064413545 1:0.907862 2:0.908975 3:0.361874 4:0.425915 5:0.557839 6:0.342944 7:0.296974 8:0.616054 
0.9070248037302026 1:0.931379 2:0.882066 3:0.300114 4:0.352079 5:0.656022 6:0.306908 7:0.280206 8:0.693646 
1.8318001902592467 1:0.834618 2:0.191855 3:0.318962 4:0.247614 5:0.643268 6:0.213019 7:0.40897 8:0.584434 
2.8826081331616207 1:0.906902 2:0.882066 3:0.287209 4:0.282103 5:0.764761 6:0.319583 7:0.381718 8:0.677109 
1.3827851001392057 1:0.836236 2:0.171555 3:0.326972 4:0.512366 5:0.607547 6:0.2078 7:0.137224 8:0.80284 
0.46882012507052784 1:0.915311 2:0.908975 3:0.389589 4:0.383862 5:0.623834 6:0.249392 7:0.353483 8:0.677109 
0.9217583403214977 1:0.883205 2:0.895573 3:0.361874 4:0.399407 5:0.557839 6:0.372165 7:0.41682 8:0.592939 
1.278665666081119 1:0.893984 2:0.868454 3:0.315035 4:0.369926 5:0.494321 6:0.249392 7:0.325236 8:0.677109 
1.61831430521427 1:0.889904 2:0.882066 3:0.332737 4:0.363878 5:0.641647 6:0.436189 7:0.381718 8:0.5549 
0.37420156137975413 1:0.911077 2:0.882066 3:0.309978 4:0.282103 5:0.70323 6:0.296206 7:0.353483 8:0.707597 
1.350532045713333 1:0.75553 2:0.151015 3:0.24135 4:0.490206 5:0.678042 6:0.611152 7:0.780365 8:0.242633 
0.4283666108669739 1:0.904961 2:0.882066 3:0.384048 4:0.372874 5:0.557839 6:0.330672 7:0.366408 8:0.631584 
1.0736473442441892 1:0.905935 2:0.882066 3:0.372681 4:0.411884 5:0.572496 6:0.163901 7:0.222679 8:0.817465 
1.3831956803165264 1:0.848534 2:0.854733 3:0.469084 4:0.769717 5:0.240093 6:0.245355 7:0.262853 8:0.71075 
1.325599493931275 1:0.862775 2:0.191855 3:0.283614 4:0.332339 5:0.69108 6:0.0647407 7:0.206979 8:0.841536 
1.3585411360523776 1:0.784572 2:0.151015 3:0.354287 4:0.374621 5:0.547551 6:0.760808 7:0.461026 8:0.392445 
1.3589718029759608 1:0.78643 2:0.191855 3:0.177434 4:0.374621 5:0.738861 6:0.609406 7:0.85019 8:0.122581 
1.2032928972913102 1:0.907094 2:0.895573 3:0.327574 4:0.222652 5:0.755717 6:0.348631 7:0.388361 8:0.592939 
1.3587804469475164 1:0.86462 2:0.171555 3:0.206411 4:0.114025 5:0.960601 6:0.338273 7:0.132838 8:0.725879 
2.208982527464028 1:0.916574 2:0.882066 3:0.264434 4:0.309385 5:0.734004 6:0.235494 7:0.280206 8:0.755608 
3.4051019235885907 1:0.920819 2:0.908975 3:0.322496 4:0.271642 5:0.746821 6:0.319583 7:0.381718 8:0.616054 
1.4487675402584672 1:0.842829 2:0.151015 3:0.153489 4:0.35063 5:0.767254 6:0.218552 7:0.438158 8:0.567783 
1.321906704541501 1:0.846459 2:0.171555 3:0.219459 4:0.341364 5:0.704461 6:0.159685 7:0.507811 8:0.60527 
0.7714508330179815 1:0.892708 2:0.908975 3:0.45051 4:0.399407 5:0.557839 6:0.319583 7:0.381718 8:0.616054 
0.9267187291266445 1:0.923919 2:0.882066 3:0.322496 4:0.352079 5:0.656022 6:0.211648 7:0.222679 8:0.817465 
1.7644314270041543 1:0.878315 2:0.364596 3:0.0969281 4:0.298475 5:0.755717 6:0.192839 7:0.388361 8:0.648391 
0.8198775099535928 1:0.892708 2:0.854733 3:0.273861 4:0.292925 5:0.689431 6:0.38363 7:0.347179 8:0.608479 
1.493712217781542 1:0.914401 2:0.854733 3:0.273861 4:0.209561 5:0.783317 6:0.240381 7:0.111911 8:0.826971 
-0.6332538825778143 1:0.644661 2:0.109192 3:0.797813 4:0.768969 5:0.0885151 6:0.168189 7:0.329582 8:0.780204 
-0.3782595345702283 1:0.833966 2:0.895573 3:0.259839 4:0.276828 5:0.755717 6:0.366283 7:0.353483 8:0.677109 
-0.5434566287372167 1:0.826579 2:0.784457 3:0.298902 4:0.37957 5:0.636372 6:0.348631 7:0.359892 8:0.623756 
-0.6414061532193934 1:0.836236 2:0.935473 3:0.131083 4:0.911717 5:0.357221 6:0.262832 7:0.0625712 8:0.780971 
-0.24111710012050977 1:0.848534 2:0.854733 3:0.297024 4:0.292925 5:0.689431 6:0.330672 7:0.366408 8:0.631584 
-1.279449498632838 1:0.797934 2:0.171555 3:0.141993 4:0.374621 5:0.738861 6:0.263444 7:0.584679 8:0.530413 
-0.6516201208378359 1:0.880898 2:0.922274 3:0.317501 4:0.0796113 5:0.768067 6:0.30362 7:0.0863814 8:0.801884 
-0.639403067580741 1:0.768732 2:0.171555 3:0.25532 4:0.512366 5:0.607547 6:0.263444 7:0.0421098 8:0.871815 
-0.41309199356750753 1:0.783634 2:0.191855 3:0.17145 4:0.365291 5:0.72521 6:0.292513 7:0.304412 8:0.71241 
-0.5448416278150766 1:0.791415 2:0.171555 3:0.111733 4:0.426976 5:0.656022 6:0.255556 7:0.393605 8:0.567783 
-0.6562584841335419 1:0.86644 2:0.882066 3:0.356603 4:0.0495271 5:0.759216 6:0.211648 7:0.251447 8:0.786548 
-0.5331458965437157 1:0.801702 2:0.191855 3:0.19202 4:0.449601 5:0.627513 6:0.292513 7:0.304412 8:0.71241 
-0.29076499985234516 1:0.797508 2:0.908975 3:0.339693 4:0.346323 5:0.708064 6:0.436189 7:0.381718 8:0.5549 
-0.22612938022491416 1:0.857915 2:0.922274 3:0.273094 4:0.425915 5:0.648011 6:0.314176 7:0.40318 8:0.608479 
-0.6413760355335967 1:0.829986 2:0.68103 3:0.356603 4:0.0495271 5:0.759216 6:0.634227 7:0.275229 8:0.580787 
-0.12661796807444323 1:0.826579 2:0.908975 3:0.389589 4:0.405593 5:0.595425 6:0.389603 7:0.353483 8:0.5549 
-0.5073276724387159 1:0.75553 2:0.191855 3:0.354287 4:0.459023 5:0.595425 6:0.218552 7:0.259772 8:0.71241 
-0.6217686887132983 1:0.889467 2:0.908975 3:0.300114 4:0.217906 5:0.625728 6:0.202504 7:0.296974 8:0.768503 
-0.641674621558576 1:0.515647 2:0.0663361 3:0.389589 4:0.332339 5:0.595425 6:0.822581 7:0.847955 8:0.115177 
-0.4505348890548657 1:0.789623 2:0.191855 3:0.248242 4:0.247614 5:0.786611 6:0.292513 7:0.304412 8:0.71241 
-0.47701127145211597 1:0.79493 2:0.191855 3:0.141993 4:0.290002 5:0.786611 6:0.284358 7:0.339176 8:0.699283 
-0.641324194380841 1:0.688478 2:0.171555 3:0.612636 4:0.561526 5:0.525445 6:0.375613 7:0.0874905 8:0.774586 
-0.6293556483260125 1:0.81166 2:0.854733 3:0.227498 4:0.376079 5:0.689431 6:0.412907 7:0.381718 8:0.646592 
-0.6578752896220179 1:0.879495 2:0.948572 3:0.395041 4:0.151601 5:0.780012 6:0.0615576 7:0.0706983 8:0.939421 
-0.6290834220152794 1:0.845561 2:0.882066 3:0.110854 4:0.724869 5:0.454829 6:0.354419 7:0.280206 8:0.631584 
-0.6363823739449441 1:0.837516 2:0.882066 3:0.300114 4:0.110173 5:0.777062 6:0.283122 7:0.251447 8:0.755608 
-0.590496294396483 1:0.856811 2:0.895573 3:0.350132 4:0.303886 5:0.694694 6:0.27281 7:0.353483 8:0.677109 
-0.6040032240962705 1:0.809335 2:0.191855 3:0.248242 4:0.543208 5:0.547551 6:0.174759 7:0.129747 8:0.865194 
-0.6415536378913931 1:0.707718 2:0.171555 3:0.469992 4:0.724869 5:0.316041 6:0.403097 7:0.393605 8:0.51945 
-0.595672754180808 1:0.872999 2:0.868454 3:0.339693 4:0.106382 5:0.768067 6:0.288409 7:0.344068 8:0.514076 
-0.6598007353158282 1:0.756106 2:0.191855 3:0.212851 4:0.290002 5:0.786611 6:0.403097 7:0.393605 8:0.51945 
-1.1182599010175533 1:0.845861 2:0.908975 3:0.40621 4:0.372874 5:0.557839 6:0.366283 7:0.353483 8:0.616054 
-0.6115608591724311 1:0.773374 2:0.191855 3:0.160341 4:0.411884 5:0.627513 6:0.255556 7:0.438158 8:0.71241 
-0.6400600588991952 1:0.754371 2:0.868454 3:0.53713 4:0.742816 5:0.240093 6:0.3603 7:0.401984 8:0.451184 
-0.52057845962123 1:0.818775 2:0.882066 3:0.25532 4:0.405593 5:0.656022 6:0.235494 7:0.30895 8:0.693646 
-0.41114611206574747 1:0.846459 2:0.854733 3:0.273861 4:0.292925 5:0.689431 6:0.312392 7:0.430924 8:0.514076 
-0.6748658742381674 1:0.779815 2:0.171555 3:0.354287 4:0.374621 5:0.547551 6:0.263444 7:0.449439 8:0.628271 
-0.44408019452482017 1:0.866698 2:0.895573 3:0.327574 4:0.330918 5:0.664166 6:0.27281 7:0.212124 8:0.798918 
-0.5214557889722922 1:0.830992 2:0.908975 3:0.344869 4:0.352079 5:0.656022 6:0.429841 7:0.375187 8:0.578159 
-1.2429378055549885 1:0.824144 2:0.364596 3:0.0969281 4:0.298475 5:0.755717 6:0.225958 7:0.381718 8:0.636418 
-0.44205286023108853 1:0.901799 2:0.908975 3:0.300114 4:0.217906 5:0.716565 6:0.221307 7:0.291136 8:0.729505 
-0.24326563627470493 1:0.770814 2:0.191855 3:0.248242 4:0.290002 5:0.69108 6:0.218552 7:0.349023 8:0.616054 
-0.5007208427227932 1:0.748423 2:0.171555 3:0.25532 4:0.384199 5:0.752868 6:0.255556 7:0.393605 8:0.567783 
-0.5322229746839897 1:0.808158 2:0.191855 3:0.272853 4:0.354406 5:0.634951 6:0.329422 7:0.349023 8:0.71241 
-0.4166334171332808 1:0.809725 2:0.364596 3:0.25532 4:0.336323 5:0.67027 6:0.192839 7:0.388361 8:0.648391 
-0.7113414043758106 1:0.770814 2:0.191855 3:0.206411 4:0.57322 5:0.583614 6:0.292513 7:0.393605 8:0.567783 
-0.6344173203536876 1:0.745971 2:0.191855 3:0.283614 4:0.543208 5:0.403742 6:0.307194 7:0.325914 8:0.582912 
-0.05850177587383956 1:0.85202 2:0.882066 3:0.309978 4:0.282103 5:0.734004 6:0.207037 7:0.188817 8:0.808114 
-0.6438238215001932 1:0.861977 2:0.784457 3:0.298902 4:0.37957 5:0.636372 6:0.225958 7:0.268704 8:0.768503 
-0.6403416497078919 1:0.819866 2:0.191855 3:0.206411 4:0.156037 5:0.866535 6:0.107255 7:0.259772 8:0.760495 
-0.45731103831269276 1:0.790522 2:0.191855 3:0.318546 4:0.336323 5:0.627513 6:0.181503 7:0.304412 8:0.664263 
-0.39782251079452835 1:0.830322 2:0.882066 3:0.411934 4:0.378847 5:0.595425 6:0.378143 7:0.395115 8:0.56942 
-0.635136275208623 1:0.809725 2:0.191855 3:0.0965237 4:0.232381 5:0.944331 6:0.292513 7:0.393605 8:0.567783 
-0.1105436613309175 1:0.829649 2:0.908975 3:0.344869 4:0.298475 5:0.656022 6:0.27281 7:0.353483 8:0.646592 
-0.528871466734466 1:0.820227 2:0.882066 3:0.469084 4:0.769717 5:0.240093 6:0.319583 7:0.325236 8:0.677109 
-0.5875918053187947 1:0.791859 2:0.191855 3:0.212851 4:0.205168 5:0.977298 6:0.107255 7:0.12568 8:0.90438 
-0.6353083436033659 1:0.769777 2:0.171555 3:0.136467 4:0.323547 5:0.772349 6:0.375613 7:0.0874905 8:0.774586 
-0.8128090510846069 1:0.866956 2:0.908975 3:0.339693 4:0.239898 5:0.798048 6:0.296206 7:0.353483 8:0.707597 
-0.8289209143914252 1:0.781259 2:0.191855 3:0.354287 4:0.374621 5:0.547551 6:0.174759 7:0.0745267 8:0.983252 
-0.3681689213795977 1:0.791415 2:0.840904 3:0.39542 4:0.410245 5:0.603332 6:0.283122 7:0.337685 8:0.66263 
-0.479539794250214 1:0.920296 2:0.908975 3:0.131083 5:1.0 6:0.225958 7:0.296974 8:0.677109 
-0.3429703572205275 1:0.812427 2:0.854733 3:0.366462 4:0.348384 5:0.658108 6:0.296206 7:0.353483 8:0.707597 
-0.3701845942945282 1:0.850288 2:0.922274 3:0.273094 4:0.133127 5:0.768067 6:0.337345 7:0.40318 8:0.608479 
-0.6083381925248312 1:0.829311 2:0.211919 3:0.206411 4:0.281749 5:0.772349 6:0.358418 7:0.31444 8:0.646936 
-0.7207001450293352 1:0.84526 2:0.191855 3:0.283614 4:0.374621 5:0.69108 6:0.0595599 7:0.242597 8:0.920333 
-1.6231368178677517 1:0.724601 2:0.109192 3:0.871707 4:0.813009 5:0.0885151 6:0.255556 7:0.482682 8:0.51945 
-0.5608621553533524 1:0.75668 2:0.211919 3:0.276266 4:0.490206 5:0.536355 6:0.284358 7:0.339176 8:0.699283 
-0.30514581327491475 1:0.836877 2:0.882066 3:0.40621 4:0.372874 5:0.58791 6:0.211648 7:0.222679 8:0.817465 
-0.12707122859920933 1:0.837834 2:0.895573 3:0.389589 4:0.352079 5:0.686299 6:0.230687 7:0.274407 8:0.777452 
-0.6372235210130178 1:0.685633 2:0.109192 3:0.464041 4:0.547879 5:0.645925 6:0.218552 7:0.393605 8:0.616054 
-0.630412278874245 1:0.867982 2:0.895573 3:0.327574 4:0.222652 5:0.755717 6:0.216731 7:0.118345 8:0.930271 
-0.6411086708985407 1:0.799621 2:0.191855 3:0.283614 4:0.543208 5:0.403742 6:0.211339 7:0.118706 8:0.936073 
-0.6412558200062811 1:0.737684 2:0.151015 3:0.552444 4:0.567059 5:0.324595 6:0.53603 7:0.552418 8:0.342575 
-0.36231769708960365 1:0.790073 2:0.171555 3:0.318962 4:0.247614 5:0.643268 6:0.188422 7:0.4043 8:0.628271 
-0.24060578556661377 1:0.851732 2:0.854733 3:0.273861 4:0.292925 5:0.689431 6:0.283122 7:0.251447 8:0.786548 
-0.19170513619047833 1:0.801702 2:0.770054 3:0.230871 4:0.560782 5:0.578892 6:0.225958 7:0.325236 8:0.707597 
-0.5732804861096533 1:0.732326 2:0.151015 3:0.371463 4:0.567059 5:0.570844 6:0.213019 7:0.370037 8:0.584434 
-0.4369801821785883 1:0.817307 2:0.854733 3:0.366462 4:0.431397 5:0.532689 6:0.319583 7:0.296974 8:0.707597 
-0.7172626916192683 1:0.849414 2:0.922274 3:0.384048 4:0.372874 5:0.557839 6:0.261379 7:0.391498 8:0.738543 
-0.6288437988772758 1:0.752023 2:0.826964 3:0.471872 4:0.444971 5:0.547551 6:0.425535 7:0.280206 8:0.693646 
-1.5952802048123402 1:0.896915 2:0.882066 3:0.309978 4:0.282103 5:0.70323 6:0.330672 7:0.280206 8:0.72464 
-0.29586472772988065 1:0.844958 2:0.854733 3:0.273861 4:0.292925 5:0.689431 6:0.325082 7:0.388361 8:0.623756 
-0.07234812751322904 1:0.851732 2:0.908975 3:0.344869 4:0.325287 5:0.686299 6:0.249392 7:0.325236 8:0.677109 
-0.6409937243600813 1:0.772866 2:0.211919 3:0.206411 4:0.57322 5:0.583614 6:0.10146 7:0.295139 8:0.794178 
-0.6411981662283033 1:0.648476 2:0.109192 3:0.575524 4:0.68071 5:0.443717 6:0.159685 7:0.507811 8:0.60527 
-0.6403960427368507 1:0.802115 2:0.171555 3:0.267538 4:0.239898 5:0.678042 6:0.263444 7:0.0421098 8:0.871815 
-0.6339826611239066 1:0.728868 2:0.171555 3:0.415706 4:0.490206 5:0.489065 6:0.375613 7:0.494551 8:0.579374 
-0.1854048821346699 1:0.813189 2:0.908975 3:0.344869 4:0.405593 5:0.656022 6:0.389603 7:0.353483 8:0.5549 
-0.5727606249184519 1:0.832322 2:0.882066 3:0.241646 4:0.282103 5:0.764761 6:0.221307 7:0.515043 8:0.517451 
-0.6370799204667978 1:0.783634 2:0.211919 3:0.206411 4:0.156037 5:0.866535 6:0.284358 7:0.515043 8:0.460992 
-0.5910832076089474 1:0.872752 2:0.882066 3:0.27772 4:0.378847 5:0.625728 6:0.187786 7:0.193895 8:0.848354 
-0.5875363629125914 1:0.795795 2:0.191855 3:0.10653 4:0.416849 5:0.738861 6:0.244301 7:0.327691 8:0.655884 
-0.5930275322297773 1:0.790073 2:0.191855 3:0.389589 4:0.416849 5:0.547551 6:0.0599844 7:0.268704 8:0.777452 
-0.3616063636778962 1:0.837834 2:0.868454 3:0.383857 4:0.424783 5:0.432035 6:0.277922 7:0.188817 8:0.838752 
-0.9850287558878462 1:0.876885 2:0.908975 3:0.242203 4:0.151601 5:0.780012 6:0.296206 7:0.325236 8:0.677109 
-0.641420047577284 2:0.0663361 3:0.75237 4:0.57322 5:0.465411 6:0.292513 7:0.393605 8:0.760495 
-0.7738180369157788 1:0.849414 2:0.895573 3:0.389589 4:0.352079 5:0.625728 6:0.325082 7:0.274407 8:0.716048 
-0.7814834088246717 1:0.887263 2:0.854733 3:0.273861 4:0.209561 5:0.783317 6:0.30362 7:0.0863814 8:0.801884 
-0.8657710224484445 1:0.850288 2:0.171555 3:0.0969281 4:0.298475 5:0.755717 6:0.263444 7:0.449439 8:0.628271 
-0.5440902587495002 1:0.805772 2:0.770054 3:0.230871 4:0.560782 5:0.578892 6:0.259316 7:0.337685 8:0.693646 
-0.41462726422005625 1:0.775388 2:0.191855 3:0.318962 4:0.247614 5:0.643268 6:0.144403 7:0.393605 8:0.616054 
-0.641697327392483 1:0.612906 2:0.0663361 3:0.298902 4:0.437372 5:0.718203 6:0.822581 7:0.847955 8:0.115177 
-0.6413289472487711 1:0.687536 2:0.109192 3:0.10653 4:0.416849 5:0.738861 6:0.752514 7:1.0 
-0.49627868156442384 1:0.860366 2:0.868454 3:0.292075 4:0.177201 5:0.77396 6:0.301513 7:0.274407 8:0.716048 
-0.6442914569583712 1:0.751429 2:0.171555 3:0.469992 4:0.597531 5:0.461938 6:0.144403 7:0.304412 8:0.760495 
-0.8327055539898349 1:0.873491 2:0.908975 3:0.339693 4:0.425915 5:0.58791 6:0.296206 7:0.381718 8:0.616054 
-0.4480840515729176 1:0.81841 2:0.908975 3:0.25532 4:0.405593 5:0.656022 6:0.366283 7:0.353483 8:0.677109 
-0.22008338379037212 1:0.866182 2:0.854733 3:0.273861 4:0.292925 5:0.689431 6:0.202504 7:0.268704 8:0.768503 
-0.4539181143786082 1:0.851445 2:0.882066 3:0.289181 4:0.414854 5:0.717044 6:0.330672 7:0.366408 8:0.631584 
-0.4369349358902993 1:0.717182 2:0.191855 3:0.354287 4:0.374621 5:0.547551 6:0.255556 7:0.393605 8:0.567783 
-0.5376114106503309 1:0.79878 2:0.191855 3:0.283614 4:0.247614 5:0.738861 6:0.225958 7:0.308614 8:0.691458 
-0.5672486014548522 1:0.783162 2:0.191855 3:0.354287 4:0.290002 5:0.595425 6:0.0595599 7:0.242597 8:0.920333 
-0.9303603936619594 1:0.883205 2:0.908975 3:0.27772 4:0.271642 5:0.746821 6:0.225958 7:0.381718 8:0.677109 
-0.6410802417122449 1:0.799201 2:0.171555 3:0.291156 4:0.083182 5:0.849591 6:0.263444 7:0.0421098 8:0.871815 
-0.6411962603240061 1:0.725321 2:0.109192 3:0.0969281 4:0.298475 5:0.755717 6:0.790853 7:0.344068 8:0.5651 
-0.5984106190022573 1:0.693092 2:0.191855 3:0.19202 4:0.449601 5:0.627513 6:0.218552 7:0.438158 8:0.567783 
-0.6412930703053873 1:0.735699 2:0.171555 3:0.183572 4:0.469697 5:0.607547 6:0.45015 7:0.719653 8:0.333922 
-0.5330485879541099 1:0.800874 2:0.171555 3:0.333011 4:0.352722 5:0.562552 6:0.375613 7:0.0874905 8:0.774586 
-0.6411956842528883 1:0.839728 2:0.191855 3:0.177434 4:0.162666 5:0.738861 6:0.238742 7:0.206979 8:0.699283 
-0.49913638674213295 1:0.777865 2:0.211919 3:0.160341 4:0.374124 5:0.67027 6:0.357191 7:0.383185 8:0.651746 
-0.616787990684317 1:0.753202 2:0.171555 3:0.25532 4:0.469697 5:0.656022 6:0.0595599 7:0.242597 8:0.920333 
-0.663076758695158 1:0.878552 2:0.908975 3:0.300114 4:0.217906 5:0.625728 6:0.225958 7:0.353483 8:0.677109 
-0.2926180485680527 1:0.804968 2:0.895573 3:0.259839 4:0.303886 5:0.72521 6:0.372165 7:0.41682 8:0.592939 
-0.6817543422241928 1:0.927948 2:0.854733 3:0.273861 4:0.403751 5:0.564062 6:0.245355 7:0.379774 8:0.584434 
-0.6707908330834826 1:0.783162 2:0.171555 3:0.283614 4:0.374621 5:0.69108 6:0.375613 7:0.0874905 8:0.774586 
-0.35119627797408154 1:0.781259 2:0.211919 3:0.206411 4:0.323547 5:0.772349 6:0.299546 7:0.397849 8:0.616054 
-0.5278347135059541 1:0.811275 2:0.191855 3:0.206411 4:0.281749 5:0.772349 6:0.218552 7:0.304412 8:0.71241 
-0.6365726904864487 1:0.747814 2:0.191855 3:0.424868 4:0.416849 5:0.499646 6:0.247871 7:0.162857 8:0.936073 
-0.5196907853300301 1:0.731641 2:0.171555 3:0.326972 4:0.512366 5:0.607547 6:0.284358 7:0.339176 8:0.699283 
-0.4252334504851796 1:0.840042 2:0.895573 3:0.367235 4:0.459023 5:0.595425 6:0.230687 7:0.274407 8:0.777452 
-0.6476719851405851 1:0.843441 2:0.826964 3:0.471872 4:0.444971 5:0.547551 6:0.325082 7:0.388361 8:0.623756 
-1.1504314322092302 1:0.86171 2:0.895573 3:0.327574 4:0.384919 5:0.633621 6:0.27281 7:0.296974 8:0.707597 
-0.3194597762395175 1:0.770814 2:0.191855 3:0.389589 4:0.374621 5:0.595425 6:0.107255 7:0.259772 8:0.808519 
-1.3251247375236812 1:0.873245 2:0.895573 3:0.282426 4:0.222652 5:0.786208 6:0.314176 7:0.40318 8:0.608479 
-0.2632628980887095 1:0.822732 2:0.908975 3:0.367235 4:0.459023 5:0.595425 6:0.314176 7:0.375187 8:0.608479 
-0.43912216657704756 1:0.820588 2:0.191855 3:0.212851 4:0.290002 5:0.69108 6:0.144403 7:0.393605 8:0.616054 
-0.16716118370673877 1:0.870262 2:0.895573 3:0.27772 4:0.325287 5:0.686299 6:0.207037 7:0.16026 8:0.838752 
-0.5948289049961686 1:0.855419 2:0.895573 3:0.327574 4:0.222652 5:0.755717 6:0.254314 7:0.188817 8:0.838752 
-0.6021847086874046 1:0.792743 2:0.191855 3:0.141993 4:0.290002 5:0.738861 6:0.259038 7:0.428202 8:0.5621 
-0.6058284312304687 1:0.855139 2:0.908975 3:0.356603 4:0.0495271 5:0.759216 6:0.319583 7:0.438158 8:0.585491 
-0.6540799508431938 1:0.668302 2:0.0878964 3:0.200138 4:0.356199 5:0.804965 6:0.689765 7:0.782932 8:0.317965 
-0.5859686317727059 1:0.777865 2:0.191855 3:0.269106 4:0.397366 5:0.804965 6:0.329422 7:0.438158 8:0.616054 
-0.21206326722906993 1:0.826579 2:0.868454 3:0.360926 4:0.342463 5:0.494321 6:0.348631 7:0.359892 8:0.623756 
-0.6635405562792293 1:0.785968 2:0.191855 3:0.354287 4:0.374621 5:0.547551 6:0.132026 7:0.242597 8:0.873683 
-0.6276186140574864 1:0.80697 2:0.231755 3:0.133551 4:0.382668 5:0.768422 6:0.312392 7:0.199062 8:0.780204 
-0.6443597153841457 1:0.789623 2:0.191855 3:0.382055 4:0.341846 5:0.62607 6:0.144403 7:0.393605 8:0.616054 
-0.740861907784813 1:0.78735 2:0.171555 3:0.354287 4:0.543208 5:0.499646 6:0.300884 7:0.494551 8:0.628271 
-1.5260248507447454 1:0.889029 2:0.882066 3:0.355484 4:0.309385 5:0.70323 6:0.348631 7:0.359892 8:0.623756 
-0.5931726297146771 1:0.790522 2:0.211919 3:0.206411 4:0.57322 5:0.583614 6:0.2078 7:0.137224 8:0.80284 
-0.5846193164057572 1:0.852592 2:0.908975 3:0.322496 4:0.325287 5:0.80729 6:0.221307 7:0.515043 8:0.517451 
-0.11197982099356735 1:0.834618 2:0.882066 3:0.389589 4:0.383862 5:0.623834 6:0.283122 7:0.337685 8:0.66263 
-0.5989008718185717 1:0.790969 2:0.191855 3:0.354287 4:0.374621 5:0.547551 6:0.247871 7:0.339176 8:0.604148 
-0.681841867707041 1:0.808944 2:0.191855 3:0.248242 4:0.290002 5:0.738861 6:0.144403 7:0.12568 8:0.90438 
-0.5286143387518455 1:0.829311 2:0.231755 3:0.25532 4:0.411884 5:0.627513 6:0.0595599 7:0.242597 8:0.920333 
-0.7550600378100562 1:0.835914 2:0.840904 3:0.39542 4:0.410245 5:0.603332 6:0.436189 7:0.550894 8:0.432296 
-0.6068918400502616 1:0.87973 2:0.191855 3:0.141993 4:0.247614 5:0.834326 6:0.107255 7:0.215106 8:0.856478 
-0.6399550208151658 1:0.828973 2:0.868454 3:0.327574 4:0.357928 5:0.603067 6:0.408127 7:0.401984 8:0.514076 
-0.24657360240658802 1:0.81841 2:0.908975 3:0.389589 4:0.383862 5:0.623834 6:0.342944 7:0.325236 8:0.616054 
-0.6203497875538746 1:0.824144 2:0.211919 3:0.101461 4:0.365291 5:0.72521 6:0.2078 7:0.137224 8:0.80284 
-0.621781635543615 1:0.830992 2:0.882066 3:0.400952 4:0.200128 5:0.764761 6:0.283122 7:0.251447 8:0.755608 
-0.5853363464861572 1:0.840666 2:0.868454 3:0.300114 4:0.217906 5:0.716565 6:0.408127 7:0.401984 8:0.514076 
-0.6339616533325425 1:0.754952 2:0.191855 3:0.141993 4:0.247614 5:0.834326 6:0.49326 7:0.399681 8:0.574368 
-0.545900135323678 1:0.817307 2:0.191855 3:0.212851 4:0.290002 5:0.69108 6:0.225958 7:0.381718 8:0.636418 
-0.6227216696715079 1:0.75782 2:0.151015 3:0.153489 4:0.35063 5:0.767254 6:0.204309 7:0.286102 8:0.826971 
-0.6230602295095455 1:0.705247 2:0.191855 3:0.511366 4:0.422602 5:0.55408 6:0.255556 7:0.438158 8:0.71241 
-0.6413292578802621 1:0.575896 2:0.0223949 3:0.398528 4:0.724869 5:0.413339 6:0.530499 7:0.58733 8:0.45396 
-0.32407554215319156 1:0.837197 2:0.908975 3:0.389589 4:0.352079 5:0.625728 6:0.225958 7:0.296974 8:0.738061 
-0.6418485779238747 1:0.697557 2:0.191855 3:0.507788 4:0.524902 5:0.370429 6:0.292513 7:0.393605 8:0.760495 
-0.6643362219938415 1:0.857088 2:0.922274 3:0.317501 4:0.0796113 5:0.768067 6:0.221307 7:0.291136 8:0.729505 
-0.9482358197540766 1:0.890989 2:0.908975 3:0.322496 4:0.271642 5:0.746821 6:0.249392 7:0.296974 8:0.677109 
-0.5769579267880752 1:0.776384 2:0.191855 3:0.381701 4:0.374124 5:0.67027 6:0.107255 7:0.215106 8:0.808519 
-0.40095628315085097 1:0.857088 2:0.868454 3:0.246126 4:0.149577 5:0.804965 6:0.325082 7:0.274407 8:0.716048 
-0.6417182556999705 1:0.7069 2:0.151015 3:0.248242 4:0.247614 5:0.69108 6:0.648638 7:0.689277 8:0.292635 
-0.6191042994795122 1:0.761738 2:0.211919 3:0.38088 4:0.406982 5:0.678042 6:0.0595599 7:0.242597 8:0.920333 
-0.6325606271127543 1:0.802526 2:0.895573 3:0.110854 4:0.724869 5:0.454829 6:0.325082 7:0.445269 8:0.592939 
-0.6410133925935573 1:0.750833 2:0.171555 3:0.291156 4:0.384199 5:0.801248 6:0.393539 7:0.471119 8:0.508771 
-0.6411857915289485 1:0.644661 2:0.171555 3:0.183572 4:0.469697 5:0.849591 6:0.598644 7:0.546562 8:0.545483 
-0.695063159951699 1:0.820588 2:0.34623 3:0.325691 4:0.420868 5:0.595425 6:0.159685 7:0.507811 8:0.60527 
-0.9888308326248338 1:0.869253 2:0.882066 3:0.350132 4:0.384919 5:0.633621 6:0.259316 7:0.251447 8:0.786548 
-0.6377861745828834 1:0.760072 2:0.151015 3:0.371463 4:0.739179 5:0.521662 6:0.181503 7:0.304412 8:0.664263 
-0.6418101874217389 1:0.822377 2:0.798742 3:0.378224 4:0.0905035 5:0.88767 6:0.215909 7:0.407927 8:0.681464 
-0.6409012572683253 1:0.723149 2:0.151015 3:0.200138 4:0.356199 5:0.804965 6:0.460711 7:0.643689 8:0.442253 
-0.6212858390917722 1:0.802526 2:0.171555 3:0.25532 4:0.411884 5:0.627513 6:0.188422 7:0.223446 8:0.774586 
-0.6823333949908083 1:0.817676 2:0.908975 3:0.273094 4:0.425915 5:0.648011 6:0.389603 7:0.240422 8:0.677109 
-0.6160620952196054 1:0.820948 2:0.868454 3:0.46279 4:0.411884 5:0.511325 6:0.312392 7:0.430924 8:0.514076 
-0.6021828069573725 1:0.815451 2:0.770054 3:0.230871 4:0.560782 5:0.578892 6:0.225958 7:0.268704 8:0.768503 
-0.6266879481529817 1:0.750235 2:0.171555 3:0.326972 4:0.554976 5:0.607547 6:0.300884 7:0.53963 8:0.628271 
-0.6404777128324453 1:0.629695 2:0.151015 3:0.371463 4:0.739179 5:0.521662 6:0.255556 7:0.349023 8:0.71241 
-1.25323956273149 1:0.806172 2:0.191855 3:0.318962 4:0.247614 5:0.643268 6:0.225958 7:0.381718 8:0.636418 
-3.2899790275714818 1:0.912934 2:0.895573 3:0.282426 4:0.357928 5:0.664166 6:0.254314 7:0.331406 8:0.68531 
-0.4646700674163305 1:0.714876 2:0.151015 3:0.262587 4:0.394031 5:0.767254 6:0.299546 7:0.397849 8:0.616054 
-0.6193897043609472 1:0.729567 2:0.151015 3:0.262587 4:0.307175 5:0.767254 6:0.338273 7:0.132838 8:0.725879 
-0.6413570188311496 1:0.635327 2:0.109192 3:0.177434 4:0.162666 5:0.882014 6:0.443947 7:0.532119 8:0.666939 
-0.0995459652837941 1:0.765548 2:0.191855 3:0.248242 4:0.332339 5:0.69108 6:0.225958 7:0.381718 8:0.636418 
-0.43696408558784927 1:0.851156 2:0.908975 3:0.344869 4:0.43232 5:0.595425 6:0.221307 7:0.291136 8:0.729505 
-0.6063301907828091 1:0.744728 2:0.171555 3:0.424868 4:0.459023 5:0.547551 6:0.375613 7:0.0874905 8:0.774586 
-0.5056837701409826 1:0.822021 2:0.868454 3:0.42969 4:0.424783 5:0.494321 6:0.429841 7:0.375187 8:0.578159 
-0.6071525229962205 1:0.73436 2:0.151015 3:0.371463 4:0.567059 5:0.570844 6:0.12649 7:0.388361 8:0.648391 
-0.18566799033775908 1:0.858737 2:0.854733 3:0.273861 4:0.292925 5:0.689431 6:0.296206 7:0.466358 8:0.5549 
-0.07486616191094926 1:0.86251 2:0.922274 3:0.273094 4:0.133127 5:0.768067 6:0.314176 7:0.375187 8:0.608479 
-0.6417212983642184 1:0.758387 2:0.418557 3:0.382055 4:0.341846 5:0.62607 6:0.49326 7:0.399681 8:0.574368 
-0.3881128877423615 1:0.85819 2:0.854733 3:0.292075 4:0.177201 5:0.77396 6:0.245355 7:0.292103 8:0.67921 
-0.5617097204353143 1:0.81166 2:0.868454 3:0.383857 4:0.424783 5:0.432035 6:0.325082 7:0.445269 8:0.592939 
-0.6061975239335256 1:0.80004 2:0.895573 3:0.367235 4:0.405593 5:0.686299 6:0.489533 7:0.388361 8:0.500343 
-0.595834590150538 1:0.721681 2:0.191855 3:0.177434 4:0.459023 5:0.738861 6:0.320797 7:0.427166 8:0.651746 
-0.5632588800412298 1:0.783634 2:0.191855 3:0.354287 4:0.290002 5:0.595425 6:0.181503 7:0.393605 8:0.71241 
-0.6398676158169785 1:0.74903 2:0.231755 3:0.269106 4:0.397366 5:0.804965 6:0.277652 7:0.135966 8:0.836642 
-0.5903278640748668 1:0.787808 2:0.211919 3:0.136467 4:0.448621 5:0.630843 6:0.168189 7:0.199062 8:0.920333 
-0.6801327784118966 1:0.81166 2:0.151015 3:0.212851 4:0.290002 5:0.69108 6:0.34736 7:0.552418 8:0.591273 
-0.7066831453741571 1:0.800457 2:0.191855 3:0.354287 4:0.374621 5:0.547551 6:0.174759 7:0.118706 8:0.888834 
-0.5860805950385983 1:0.77933 2:0.171555 3:0.219459 4:0.212527 5:0.946188 6:0.138133 7:0.206979 8:0.888834 
-0.5815372151138096 1:0.805772 2:0.191855 3:0.354287 4:0.290002 5:0.595425 6:0.107255 7:0.259772 8:0.760495 
-0.6412255890374009 1:0.768732 2:0.171555 3:0.362762 4:0.083182 5:0.801248 6:0.225958 7:0.188817 8:0.863246 
-0.2892823350606761 1:0.766617 2:0.191855 3:0.354287 4:0.374621 5:0.547551 6:0.284358 7:0.339176 8:0.699283 
-0.633934672869713 1:0.828293 2:0.171555 3:0.217791 4:0.178487 5:0.82767 6:0.113201 7:0.449439 8:0.628271 
-0.5612729397928998 1:0.721681 2:0.211919 3:0.45051 4:0.53174 5:0.489065 6:0.225958 7:0.388361 8:0.648391 
-0.3074716307150098 1:0.769255 2:0.191855 3:0.249065 4:0.440395 5:0.616569 6:0.292513 7:0.304412 8:0.71241 
-0.6326244119197496 1:0.791415 2:0.151015 3:0.0806358 4:0.263658 5:0.865263 6:0.204309 7:0.459852 8:0.592546 
-0.36897979973213174 1:0.856811 2:0.882066 3:0.322496 4:0.378847 5:0.625728 6:0.187786 7:0.193895 8:0.848354 
-0.6492161591281637 1:0.783634 2:0.151015 3:0.262587 4:0.567059 5:0.669115 6:0.138133 7:0.339176 8:0.746761 
-0.6472901832896475 1:0.774384 2:0.191855 3:0.354287 4:0.58522 5:0.403742 6:0.0700592 7:0.349023 8:0.760495 
-0.6347690020725868 1:0.76501 2:0.211919 3:0.223678 4:0.449601 5:0.541917 6:0.357191 7:0.383185 8:0.651746 
-0.7775932023862829 1:0.826924 2:0.840904 3:0.0859277 4:0.690689 5:0.536737 6:0.323649 7:0.357167 8:0.624023 
-0.6019156835794974 1:0.76501 2:0.191855 3:0.318962 4:0.332339 5:0.595425 6:0.211339 7:0.427166 8:0.55649 
-0.02121028586365599 1:0.825541 2:0.882066 3:0.4566 4:0.405593 5:0.534779 6:0.306908 7:0.280206 8:0.693646 
-0.6361838618388889 1:0.730262 2:0.171555 3:0.326972 4:0.341364 5:0.752868 6:0.218552 7:0.259772 8:0.856478 
-0.26947935707226744 1:0.851156 2:0.908975 3:0.322496 4:0.0291398 5:0.777062 6:0.221307 7:0.291136 8:0.729505 
-0.030679513635259677 1:0.86462 2:0.895573 3:0.282426 4:0.222652 5:0.786208 6:0.27281 7:0.353483 8:0.677109 
-0.6254962801839945 1:0.81841 2:0.191855 4:0.374621 5:0.738861 6:0.181503 7:0.170408 8:0.856478 
-0.6413792446212859 1:0.675704 3:0.291156 4:0.255531 5:0.752868 6:0.584824 7:0.803459 8:0.355233 
-0.6377886731319321 1:0.717182 2:0.171555 3:0.206411 4:0.57322 5:0.583614 6:0.225958 7:0.313931 8:0.823234 
-0.3218394417516785 1:0.85819 2:0.908975 3:0.25532 4:0.325287 5:0.716565 6:0.170559 7:0.257576 8:0.721086 
-0.8905112524381731 1:0.890339 2:0.908975 3:0.242203 4:0.0989829 5:0.809502 6:0.319583 7:0.381718 8:0.677109 
-0.8016633746616704 1:0.864095 2:0.908975 3:0.411934 4:0.271642 5:0.656022 6:0.239791 7:0.28539 8:0.84076 
-0.5950635928646995 1:0.832652 2:0.882066 3:0.400952 4:0.41828 5:0.549174 6:0.389603 7:0.240422 8:0.677109 
-0.48355285483935556 1:0.847352 2:0.854733 3:0.366462 4:0.431397 5:0.532689 6:0.225958 7:0.325236 8:0.707597 
-0.6263296469821203 1:0.704414 2:0.191855 3:0.248242 4:0.416849 5:0.643268 6:0.403097 7:0.482682 8:0.51945 
-0.6416350745948183 1:0.750235 2:0.400756 3:0.304745 4:0.172442 5:0.814587 6:0.49326 7:0.361186 8:0.574368 
-0.16777231464346307 1:0.88389 2:0.895573 3:0.305003 4:0.222652 5:0.755717 6:0.30362 7:0.0863814 8:0.801884 
-0.5136511194151723 1:0.850578 2:0.868454 3:0.383857 4:0.424783 5:0.432035 6:0.348631 7:0.359892 8:0.623756 
-0.42077203269602337 1:0.799621 2:0.882066 3:0.469084 4:0.769717 5:0.240093 6:0.319583 7:0.381718 8:0.677109 
-1.8332276650647985 1:0.897741 2:0.908975 3:0.25532 4:0.325287 5:0.746821 6:0.225958 7:0.296974 8:0.768503 
-0.7143482950275104 1:0.85202 2:0.854733 3:0.273861 4:0.292925 5:0.689431 6:0.261379 7:0.391498 8:0.738543 
-4.4121896037796295 1:0.785504 2:0.171555 3:0.291156 4:0.469697 5:0.656022 6:0.270681 7:0.206979 8:0.699283 
-0.6385472811499232 1:0.780779 2:0.171555 3:0.177434 4:0.459023 5:0.738861 6:0.188422 7:0.223446 8:0.774586 
-0.6412330857311517 1:0.849997 2:0.826964 3:0.471872 4:0.444971 5:0.547551 6:0.30362 7:0.0863814 8:0.801884 
-0.6408172260873642 1:0.716418 2:0.211919 3:0.511366 4:0.422602 5:0.55408 6:0.429841 7:0.515043 8:0.460992 
-0.6403749686803382 1:0.790969 2:0.211919 3:0.276266 4:0.156037 5:0.819457 6:0.174759 7:0.55894 8:0.604148 
-0.46452767711942317 1:0.829986 2:0.38277 3:0.311565 4:0.440395 5:0.531957 6:0.284781 7:0.418475 8:0.552054 
-0.501500959195186 1:0.885249 2:0.882066 3:0.131083 5:1.0 6:0.259316 7:0.337685 8:0.693646 
-0.5478049601436537 1:0.730953 2:0.211919 3:0.415706 4:0.490206 5:0.489065 6:0.213019 7:0.40897 8:0.584434 
-0.6389653501248784 1:0.799201 2:0.191855 3:0.071043 4:0.247614 5:0.929672 6:0.403097 7:0.482682 8:0.51945 
-0.842563990406191 1:0.796654 2:0.191855 3:0.248242 4:0.332339 5:0.738861 6:0.284358 7:0.339176 8:0.699283 
-0.2426654687003677 1:0.874225 2:0.895573 3:0.25532 4:0.378847 5:0.656022 6:0.207037 7:0.16026 8:0.838752 
-0.6188040862150291 1:0.781737 2:0.191855 3:0.141993 4:0.162666 5:0.882014 6:0.329422 7:0.482682 8:0.567783 
-0.6039903420020152 1:0.767149 2:0.191855 3:0.283614 4:0.374621 5:0.69108 6:0.204309 7:0.459852 8:0.592546 
-0.639480152493545 1:0.898357 2:0.895573 3:0.202733 4:0.114025 5:0.91606 6:0.230687 7:0.274407 8:0.777452 
-0.986332174699612 1:0.885024 2:0.882066 3:0.25532 4:0.325287 5:0.746821 6:0.235494 7:0.30895 8:0.693646 
-0.6302369429074545 1:0.642058 2:0.0663361 3:0.177434 4:0.332339 5:0.738861 6:0.704245 7:0.413975 8:0.537409 
-0.5342669854145315 1:0.694895 2:0.171555 3:0.147665 4:0.341364 5:0.752868 6:0.598644 7:0.546562 8:0.545483 
-0.6416075998058041 1:0.817307 2:0.908975 3:0.4566 4:0.565619 5:0.413339 6:0.239791 7:0.28539 8:0.84076 
-0.4061429834622709 1:0.871014 2:0.854733 3:0.273861 4:0.209561 5:0.783317 6:0.230687 7:0.245887 8:0.777452 
-0.2310510818900848 1:0.835914 2:0.908975 3:0.300114 4:0.217906 5:0.716565 6:0.27281 7:0.353483 8:0.616054 
-0.3437522415916033 1:0.851732 2:0.882066 3:0.309978 4:0.282103 5:0.734004 6:0.366283 7:0.353483 8:0.677109 
-0.6114987655158454 1:0.787808 2:0.868454 3:0.42969 4:0.424783 5:0.494321 6:0.489533 7:0.388361 8:0.500343 
-0.641137448588673 1:0.871762 2:0.935473 3:0.0661651 4:0.708696 5:0.519033 6:0.262832 7:0.0625712 8:0.780971 
-0.4756671633942701 1:0.799621 2:0.38277 3:0.272853 4:0.354406 5:0.634951 6:0.219413 7:0.418475 8:0.637363 
-0.4722546282856366 1:0.894195 2:0.882066 3:0.309978 4:0.282103 5:0.764761 6:0.139612 8:0.969181 
-0.5260627953135162 1:0.812044 2:0.191855 3:0.248242 4:0.290002 5:0.69108 6:0.213019 7:0.40897 8:0.584434 
-0.3715019180599863 1:0.784572 2:0.171555 3:0.276266 4:0.323547 5:0.678042 6:0.375613 7:0.0874905 8:0.774586 
-0.540679993217996 1:0.811275 2:0.191855 3:0.389589 4:0.374621 5:0.595425 6:0.168189 7:0.329582 8:0.780204 
-0.6063231227736496 1:0.773374 2:0.191855 3:0.389589 4:0.332339 5:0.547551 6:0.357191 7:0.383185 8:0.699283 
-0.21557287730533642 1:0.834618 2:0.895573 3:0.305003 4:0.303886 5:0.694694 6:0.325082 7:0.274407 8:0.716048 
-0.6091712400162793 1:0.8391 2:0.882066 3:0.309978 4:0.309385 5:0.734004 6:0.151458 7:0.375187 8:0.729505 
-0.5036152793298492 1:0.856256 2:0.895573 3:0.237969 4:0.199686 5:0.829711 6:0.325082 7:0.274407 8:0.716048 
-0.22701468205164568 1:0.815824 2:0.882066 3:0.45051 4:0.399407 5:0.557839 6:0.306908 7:0.251447 8:0.755608 
-0.6415472608273972 1:0.819866 2:0.908975 3:0.131083 4:0.911717 5:0.357221 6:0.389603 7:0.353483 8:0.5549 
-0.6330892087630965 1:0.747814 2:0.191855 3:0.283614 4:0.543208 5:0.403742 6:0.247871 7:0.471119 8:0.55649 
-0.5289933075669921 1:0.884798 2:0.895573 3:0.305003 4:0.195527 5:0.755717 6:0.139612 8:0.969181 
-0.6840688326596579 1:0.813189 2:0.191855 3:0.248242 4:0.332339 5:0.69108 6:0.247871 7:0.162857 8:0.936073 
-0.6855046865418768 1:0.777865 2:0.191855 3:0.354287 4:0.374621 5:0.547551 6:0.138133 7:0.339176 8:0.699283 
-0.6636540748259475 1:0.763928 2:0.171555 3:0.326972 4:0.341364 5:0.752868 6:0.255556 7:0.215106 8:0.760495 
-0.5944052006070599 1:0.785968 2:0.171555 3:0.10653 4:0.374621 5:0.738861 6:0.263444 7:0.494551 8:0.628271 
-0.3163713831861867 1:0.778355 2:0.171555 3:0.25532 4:0.469697 5:0.656022 6:0.305357 7:0.217049 8:0.735415 
-0.7413484299995348 1:0.80537 2:0.171555 3:0.291156 4:0.255531 5:0.752868 6:0.0647407 7:0.339176 8:0.746761 
-0.6285227928617928 1:0.803345 2:0.171555 3:0.111733 4:0.426976 5:0.801248 6:0.307194 7:0.325914 8:0.582912 
-0.5606886037990704 1:0.770296 2:0.191855 3:0.136467 4:0.323547 5:0.772349 6:0.329422 7:0.438158 8:0.616054 
-0.18781196206752626 1:0.832982 2:0.908975 3:0.289181 4:0.414854 5:0.717044 6:0.319583 7:0.381718 8:0.616054 
-0.6244010260689331 1:0.748423 2:0.191855 3:0.24135 4:0.490206 5:0.678042 6:0.255556 7:0.393605 8:0.567783 
-0.7044055665193028 1:0.809335 2:0.191855 3:0.141993 4:0.290002 5:0.786611 6:0.40648 7:0.447885 8:0.542236 
-0.6433416913632588 1:0.827952 2:0.895573 3:0.110854 4:0.724869 5:0.454829 6:0.277922 7:0.188817 8:0.838752 
-0.6368908408933214 1:0.814324 2:0.211919 3:0.31116 4:0.53174 5:0.441745 6:0.284358 7:0.515043 8:0.460992 
-0.641502748448092 1:0.802936 2:0.364596 3:0.25532 4:0.600035 5:0.456225 6:0.142716 7:0.129747 8:0.989148 
-0.7448050977025503 1:0.852592 2:0.908975 3:0.25532 4:0.378847 5:0.656022 6:0.436189 7:0.409946 8:0.524287 
-0.6375568046988158 1:0.784104 2:0.191855 3:0.242956 4:0.431397 5:0.564062 6:0.403097 7:0.527177 8:0.471055 
-0.6521437532743339 1:0.63394 2:0.0878964 3:0.812912 4:0.829121 5:0.197331 6:0.188422 7:0.4043 8:0.628271 
-0.11716720899706687 1:0.859282 2:0.854733 3:0.273861 4:0.292925 5:0.689431 6:0.254314 7:0.302913 8:0.716048 
-0.27443339254782906 1:0.846758 2:0.882066 3:0.344869 4:0.405593 5:0.56511 6:0.259316 7:0.337685 8:0.693646 
-0.3385553479160751 1:0.839414 2:0.895573 3:0.305003 4:0.357928 5:0.664166 6:0.27281 7:0.381718 8:0.707597 
-0.6410594462245293 1:0.689413 2:0.0878964 3:0.925242 4:0.425171 5:0.300271 6:0.188422 7:0.223446 8:0.774586 
-0.6484142266735078 1:0.808158 2:0.151015 3:0.117076 4:0.394031 5:0.816277 6:0.0811229 7:0.369512 8:0.83834 
-0.2509466741312486 1:0.88837 2:0.908975 3:0.23291 4:0.325287 5:0.746821 6:0.249392 7:0.296974 8:0.677109 
-0.3745612006960336 1:0.81841 2:0.895573 3:0.25532 4:0.325287 5:0.746821 6:0.325082 7:0.445269 8:0.592939 
-0.6267352945322552 1:0.855419 2:0.854733 3:0.273861 4:0.403751 5:0.564062 6:0.436189 7:0.325236 8:0.585491 
-0.2860856041976096 1:0.81914 2:0.908975 3:0.389589 4:0.352079 5:0.686299 6:0.225958 7:0.268704 8:0.768503 
-0.6831802666813063 1:0.84405 2:0.191855 3:0.177434 4:0.416849 5:0.595425 6:0.144403 7:0.393605 8:0.616054 
-0.41517880508235827 1:0.77388 2:0.191855 3:0.354287 4:0.374621 5:0.547551 6:0.403097 7:0.393605 8:0.51945 
-0.6047677154834004 1:0.865403 2:0.868454 3:0.200138 4:0.397366 5:0.742941 6:0.225958 7:0.353483 8:0.677109 
-0.5939938276910176 1:0.668302 2:0.171555 3:0.57701 4:0.724869 5:0.316041 6:0.312392 7:0.329582 8:0.686492 
-1.0375082064947982 1:0.875924 2:0.882066 3:0.241646 4:0.282103 5:0.764761 6:0.277922 7:0.188817 8:0.838752 
-0.4337015916360063 1:0.769777 2:0.191855 3:0.354287 4:0.374621 5:0.547551 6:0.403097 7:0.438158 8:0.567783 
-0.5399913010436258 1:0.885924 2:0.908975 3:0.300114 4:0.217906 5:0.716565 6:0.262832 7:0.0625712 8:0.780971 
-0.4194118709768178 1:0.746588 2:0.171555 3:0.354287 4:0.374621 5:0.547551 6:0.375613 7:0.0874905 8:0.774586 
-0.6409034718397354 1:0.58612 2:0.109192 3:0.219459 4:0.212527 5:0.946188 6:0.790853 7:0.85997 8:0.154963 
-0.6245797444592767 1:0.753788 2:0.882066 3:0.469084 4:0.769717 5:0.240093 6:0.360498 7:0.347179 8:0.578159 
-0.6118345553905472 1:0.831325 2:0.191855 3:0.0664322 4:0.281749 5:0.819457 6:0.107255 7:0.215106 8:0.808519 
-1.9213211982237912 1:0.880665 2:0.895573 3:0.350132 4:0.465752 5:0.572496 6:0.325082 7:0.445269 8:0.592939 
-0.6399971954722533 1:0.788718 2:0.171555 3:0.291156 4:0.640034 5:0.510509 6:0.225958 7:0.268704 8:0.677109 
-0.6412097953432419 1:0.771844 2:0.171555 3:0.111733 4:0.554976 5:0.559044 6:0.375613 7:0.0874905 8:0.774586 
-0.523207697771564 1:0.79878 2:0.908975 3:0.322496 4:0.325287 5:0.80729 6:0.366283 7:0.353483 8:0.616054 
-0.5432872377342804 1:0.690342 2:0.191855 3:0.38088 4:0.448621 5:0.630843 6:0.255556 7:0.349023 8:0.71241 
-0.195334672575617 1:0.841597 2:0.840904 3:0.39542 4:0.410245 5:0.603332 6:0.27281 7:0.212124 8:0.798918 
-0.6410842473352991 1:0.522065 3:0.424868 4:0.543208 5:0.451709 6:0.584824 7:0.803459 8:0.355233 
-0.5799401328351115 1:0.834618 2:0.854733 3:0.273861 4:0.209561 5:0.783317 6:0.325082 7:0.388361 8:0.623756 
-0.6416912311937751 1:0.717182 2:0.364596 3:0.570721 4:0.411884 5:0.456225 6:0.284781 7:0.339688 8:0.637363 
-0.5471795238613791 1:0.730953 2:0.191855 3:0.248242 4:0.332339 5:0.69108 6:0.357191 7:0.383185 8:0.699283 
-0.5299123060985587 1:0.816938 2:0.191855 3:0.311565 4:0.365776 5:0.616569 6:0.218552 7:0.259772 8:0.71241 
-0.6404776752239721 1:0.738992 2:0.171555 3:0.248242 4:0.247614 5:0.643268 6:0.375613 7:0.494551 8:0.579374 
-0.8350024398825988 1:0.739641 2:0.191855 3:0.354287 4:0.374621 5:0.547551 6:0.49326 7:0.399681 8:0.574368 
-0.48562269892360443 1:0.871264 2:0.895573 3:0.339693 4:0.346323 5:0.617965 6:0.207037 7:0.16026 8:0.838752 
-0.3946909904399625 1:0.837834 2:0.895573 3:0.389589 4:0.352079 5:0.625728 6:0.301513 7:0.188817 8:0.777452 
-0.6258644208717249 1:0.818775 2:0.191855 3:0.071043 4:0.374621 5:0.786611 6:0.270681 7:0.245564 8:0.865194 
-0.5904361723240964 1:0.762837 2:0.171555 3:0.147665 4:0.469697 5:0.607547 6:0.225958 7:0.188817 8:0.863246 
-0.5664388969455636 1:0.836236 2:0.908975 3:0.0954423 4:0.633729 5:0.538572 6:0.342944 7:0.296974 8:0.616054 
-0.626356625701571 1:0.812427 2:0.191855 3:0.276266 4:0.156037 5:0.819457 6:0.329422 7:0.349023 8:0.71241 
-0.5754255410457576 1:0.782214 2:0.231755 3:0.160341 4:0.374124 5:0.67027 6:0.204309 7:0.373032 8:0.733376 
-0.32113738864786234 1:0.838152 2:0.854733 3:0.273861 4:0.292925 5:0.689431 6:0.319583 7:0.325236 8:0.616054 
-0.722059491221598 1:0.813947 2:0.151015 3:0.153489 4:0.176455 5:0.91422 6:0.12649 7:0.388361 8:0.648391 
-0.5786759097998007 1:0.864358 2:0.868454 3:0.292075 4:0.177201 5:0.77396 6:0.319583 7:0.381718 8:0.677109 
-0.41524676464971166 1:0.851732 2:0.882066 3:0.305003 4:0.357928 5:0.664166 6:0.378143 7:0.165103 8:0.786548 
-0.5482823661212783 1:0.779815 2:0.895573 3:0.417754 4:0.330918 5:0.541917 6:0.412907 7:0.381718 8:0.646592 
-0.6342969009871129 1:0.813568 2:0.38277 3:0.331252 4:0.249458 5:0.713936 6:0.219413 7:0.418475 8:0.637363 
-0.630824143192359 1:0.837516 2:0.922274 3:0.110854 4:0.724869 5:0.454829 6:0.429841 7:0.375187 8:0.578159 
-0.44763722065429923 1:0.859825 2:0.882066 3:0.355484 4:0.309385 5:0.70323 6:0.202504 7:0.296974 8:0.768503 
-0.7149505318619824 1:0.855419 2:0.854733 3:0.273861 4:0.320668 5:0.658108 6:0.296206 7:0.240422 8:0.768503 
-0.24303999575216056 1:0.87926 2:0.908975 3:0.25532 4:0.325287 5:0.746821 6:0.249392 7:0.325236 8:0.677109 
-0.5286326405576677 1:0.774887 2:0.171555 3:0.147665 4:0.469697 5:0.607547 6:0.255556 7:0.393605 8:0.567783 
-0.4823478163662659 1:0.80537 2:0.191855 3:0.318962 4:0.332339 5:0.595425 6:0.0700592 7:0.259772 8:0.856478 
-0.4408645104134673 1:0.792302 2:0.191855 3:0.283614 4:0.332339 5:0.69108 6:0.144403 7:0.393605 8:0.616054 
-0.5768887076984204 1:0.767678 2:0.171555 3:0.248242 4:0.290002 5:0.69108 6:0.263444 7:0.449439 8:0.677109 
-0.6014062296650149 1:0.894617 2:0.840904 3:0.290571 4:0.102652 5:0.759216 6:0.323649 7:0.357167 8:0.624023 
-0.614724564042887 1:0.79493 2:0.151015 3:0.248242 4:0.290002 5:0.69108 6:0.233561 7:0.277875 8:0.789055 
-0.2770106913540132 1:0.821664 2:0.908975 3:0.384048 4:0.372874 5:0.557839 6:0.225958 7:0.353483 8:0.677109 
-0.5819582974375744 1:0.847055 2:0.784457 3:0.298902 4:0.37957 5:0.636372 6:0.296206 7:0.353483 8:0.707597 
-0.30568553818236366 1:0.791859 2:0.191855 3:0.177434 4:0.332339 5:0.738861 6:0.218552 7:0.393605 8:0.664263 
-0.6332545675026504 1:0.702731 2:0.151015 3:0.262587 4:0.567059 5:0.669115 6:0.329422 7:0.482682 8:0.567783 
-0.8495950644945105 1:0.89228 2:0.895573 3:0.327574 4:0.411884 5:0.603067 6:0.0615576 7:0.0706983 8:0.939421 
-0.7476915848827674 1:0.891421 2:0.882066 3:0.350132 4:0.303886 5:0.694694 6:0.163901 7:0.222679 8:0.817465 
-0.8677813689163881 1:0.862775 2:0.191855 3:0.177434 4:0.332339 5:0.738861 6:0.107255 7:0.215106 8:0.808519 
-1.1720078537518783 1:0.869 2:0.895573 3:0.367235 4:0.352079 5:0.56511 6:0.301513 7:0.331406 8:0.623756 
-0.27024523003696294 1:0.85819 2:0.882066 3:0.327574 4:0.303886 5:0.72521 6:0.259316 7:0.337685 8:0.693646 
-0.6412126463296857 1:0.515647 2:0.0878964 3:1.0 4:0.739783 5:0.145808 6:0.2078 7:0.137224 8:0.80284 
-0.5960388174774479 1:0.744728 2:0.191855 3:0.354287 4:0.459023 5:0.595425 6:0.218552 7:0.393605 8:0.664263 
-0.3817123814690877 1:0.881363 2:0.908975 3:0.322496 4:0.298475 5:0.716565 6:0.170559 7:0.257576 8:0.721086 
-0.5866224292569445 1:0.885249 2:0.882066 3:0.206411 4:0.372874 5:0.678042 6:0.163901 7:0.222679 8:0.817465 
-0.5344946673036801 1:0.830992 2:0.191855 3:0.181098 4:0.357619 5:0.689431 6:0.181503 7:0.304412 8:0.664263 
-0.6408459529334707 1:0.675704 2:0.171555 3:0.790417 4:0.426976 5:0.364708 6:0.192839 7:0.348498 8:0.691458 
-0.6049611380930606 1:0.715649 2:0.171555 3:0.354287 4:0.459023 5:0.595425 6:0.338273 7:0.132838 8:0.725879 
-0.10399306268219995 1:0.847352 2:0.882066 3:0.344869 4:0.43232 5:0.595425 6:0.259316 7:0.337685 8:0.693646 
-0.576450098521254 1:0.788718 2:0.191855 3:0.354287 4:0.543208 5:0.499646 6:0.213019 7:0.40897 8:0.584434 
-0.4997520062665553 1:0.887041 2:0.882066 3:0.241646 4:0.254802 5:0.795509 6:0.139612 8:0.969181 
-0.5845087516930301 1:0.823792 2:0.908975 3:0.4566 4:0.405593 5:0.534779 6:0.239791 7:0.28539 8:0.84076 
-0.6379535048944547 1:0.882747 2:0.854733 3:0.227498 4:0.376079 5:0.689431 6:0.319583 7:0.296974 8:0.707597 
-0.6979612905596919 1:0.85202 2:0.895573 3:0.440278 4:0.411884 5:0.511325 6:0.207037 7:0.16026 8:0.838752 
-0.1304189494824081 1:0.842522 2:0.908975 3:0.250875 4:0.319751 5:0.708064 6:0.296206 7:0.353483 8:0.646592 
-0.3193226811388602 1:0.79493 2:0.895573 3:0.395224 4:0.438827 5:0.572496 6:0.225958 7:0.353483 8:0.677109 
-0.6494686826520312 1:0.874225 2:0.882066 3:0.220334 4:0.49156 5:0.454829 6:0.306908 7:0.280206 8:0.693646 
-0.24778179738093453 1:0.81166 2:0.191855 3:0.17145 4:0.365291 5:0.72521 6:0.181503 7:0.349023 8:0.664263 
-0.5348341591370704 1:0.686588 2:0.191855 3:0.177434 4:0.374621 5:0.69108 6:0.598644 7:0.546562 8:0.545483 
-0.6172304632689664 1:0.84526 2:0.868454 3:0.383857 4:0.397366 5:0.432035 6:0.225958 7:0.296974 8:0.768503 
-0.5080709191677993 1:0.785039 2:0.895573 3:0.507788 4:0.411884 5:0.480716 6:0.38363 7:0.347179 8:0.608479 
-0.640613199680602 1:0.756106 2:0.191855 3:0.177434 4:0.332339 5:0.738861 6:0.192839 7:0.46802 8:0.518881 
-0.7446953254694307 1:0.890989 2:0.908975 3:0.202733 4:0.114025 5:0.91606 6:0.27281 7:0.353483 8:0.616054 
-0.5586772795938043 1:0.856534 2:0.868454 3:0.269106 4:0.149577 5:0.804965 6:0.342944 7:0.296974 8:0.616054 
-0.554532498887514 1:0.844353 2:0.895573 3:0.4566 4:0.43232 5:0.595425 6:0.325082 7:0.274407 8:0.716048 
-0.6346387796579265 1:0.753788 2:0.211919 3:0.206411 4:0.156037 5:0.866535 6:0.312392 7:0.242597 8:0.733376 
-0.3970903368407495 1:0.822377 2:0.868454 3:0.42969 4:0.424783 5:0.494321 6:0.283122 7:0.251447 8:0.755608 
-0.6388030394143518 1:0.564854 2:0.109192 3:0.834773 4:0.768969 5:0.139364 6:0.188422 7:0.223446 8:0.774586 
-0.6357041594035119 1:0.686588 2:0.109192 3:0.834773 4:0.768969 5:0.139364 6:0.255556 7:0.349023 8:0.71241 
-0.3975282919857235 1:0.849997 2:0.854733 3:0.250684 4:0.376079 5:0.626775 6:0.296206 7:0.381718 8:0.646592 
-0.6379390817719288 1:0.783162 2:0.191855 3:0.10653 4:0.205168 5:0.882014 6:0.292513 7:0.215106 8:0.664263 
-0.8248634061656585 1:0.871513 2:0.882066 3:0.322496 4:0.0291398 5:0.777062 6:0.283122 7:0.366408 8:0.66263 
-0.09757027853101012 1:0.833639 2:0.882066 3:0.332737 4:0.309385 5:0.672443 6:0.296206 7:0.325236 8:0.707597 
-0.6224707885037465 1:0.895247 2:0.895573 3:0.327574 4:0.384919 5:0.633621 6:0.139612 8:0.969181 
-0.6415146101905607 1:0.718698 2:0.171555 3:0.658868 4:0.862126 5:0.204688 6:0.263444 7:0.449439 8:0.677109 
-0.6419312539475039 1:0.79493 2:0.171555 3:0.291156 4:0.426976 5:0.656022 6:0.487345 7:0.268704 8:0.579374 
-0.5941723606809453 1:0.693997 2:0.191855 3:0.636061 4:0.752728 5:0.307716 6:0.284358 7:0.339176 8:0.746761 
-0.6417329383343415 1:0.648476 2:0.109192 3:0.686782 4:0.768969 5:0.342408 6:0.675682 7:0.766457 8:0.360593 
-0.622009096125798 1:0.742208 2:0.211919 3:0.511366 4:0.386145 5:0.55408 6:0.284358 7:0.339176 8:0.699283 
-1.2507375025975656 1:0.829986 2:0.882066 3:0.46279 4:0.411884 5:0.511325 6:0.259316 7:0.337685 8:0.693646 
-0.6377872929345587 1:0.806172 2:0.191855 3:0.10653 4:0.205168 5:0.882014 6:0.181503 7:0.170408 8:0.856478 
-0.6408506355679918 1:0.696676 2:0.171555 3:0.790417 4:0.426976 5:0.364708 6:0.225958 7:0.494551 8:0.628271 
-0.5957946459152629 1:0.85901 2:0.854733 3:0.0954423 4:0.633729 5:0.538572 6:0.221107 7:0.350562 8:0.647647 
-0.6075318121272084 1:0.869759 2:0.908975 3:0.290571 4:0.102652 5:0.759216 6:0.436189 7:0.325236 8:0.585491 
-0.5913486631160697 1:0.891205 2:0.895573 3:0.282426 4:0.222652 5:0.786208 6:0.225958 7:0.268704 8:0.738061 
-0.9637064151984938 1:0.854013 2:0.854733 3:0.384048 4:0.372874 5:0.557839 6:0.26958 7:0.262853 8:0.71075 
-0.6412772674148929 1:0.667211 2:0.13023 3:0.196356 4:0.44805 5:0.682569 6:0.487345 7:0.268704 8:0.579374 
-0.4373666317830349 1:0.773374 2:0.191855 3:0.212851 4:0.416849 5:0.69108 6:0.357191 7:0.383185 8:0.651746 
-0.8965467199276377 1:0.871762 2:0.882066 3:0.378224 4:0.309385 5:0.610834 6:0.225958 7:0.353483 8:0.677109 
-0.46137018475954933 1:0.792302 2:0.826964 3:0.471872 4:0.444971 5:0.547551 6:0.301513 7:0.274407 8:0.716048 
-0.6316784316388735 1:0.76447 2:0.231755 3:0.165623 4:0.273707 5:0.851451 6:0.350724 7:0.794526 8:0.309291 
-0.364829447543079 1:0.862775 2:0.882066 3:0.309978 4:0.282103 5:0.70323 6:0.296206 7:0.466358 8:0.5549 
-0.35492591401434365 1:0.801288 2:0.895573 3:0.361874 4:0.399407 5:0.557839 6:0.372165 7:0.41682 8:0.592939 
-0.6269866883285953 1:0.864881 2:0.882066 3:0.309978 4:0.282103 5:0.764761 6:0.225958 7:0.296974 8:0.738061 
-0.430959217859026 1:0.871264 2:0.895573 3:0.259839 4:0.276828 5:0.755717 6:0.337345 7:0.40318 8:0.578159 
-0.6295038890876862 1:0.832982 2:0.191855 3:0.337986 4:0.602439 5:0.572107 6:0.181503 7:0.438158 8:0.616054 
-0.5063247253067311 1:0.791415 2:0.868454 3:0.315035 4:0.369926 5:0.494321 6:0.337345 7:0.375187 8:0.578159 
-0.5903618573745198 1:0.715649 2:0.191855 3:0.346031 4:0.323547 5:0.678042 6:0.255556 7:0.393605 8:0.567783 
-0.2404119873157853 1:0.803752 2:0.882066 3:0.355484 4:0.391091 5:0.610834 6:0.436189 7:0.325236 8:0.585491 
-0.6210562893035377 1:0.825888 2:0.770054 3:0.230871 4:0.560782 5:0.578892 6:0.245355 7:0.379774 8:0.584434 
-0.6565621110916281 1:0.846459 2:0.784457 3:0.202003 4:0.495073 5:0.603616 6:0.348631 7:0.359892 8:0.623756 
-0.3877283206651656 1:0.834618 2:0.868454 3:0.383857 4:0.424783 5:0.400872 6:0.254314 7:0.188817 8:0.838752 
-0.6411056020923195 1:0.747814 2:0.151015 3:0.262587 4:0.307175 5:0.767254 6:0.760808 7:0.461026 8:0.392445 
-0.641541312249194 1:0.639405 2:0.191855 3:0.389589 4:0.501142 5:0.499646 6:0.659481 7:0.79354 8:0.179373 
-0.6156157538491764 1:0.775887 2:0.191855 3:0.333011 4:0.313983 5:0.562552 6:0.218552 7:0.215106 8:0.808519 
-0.6174457681742795 1:0.921341 2:0.895573 3:0.131083 5:1.0 6:0.230687 7:0.245887 8:0.777452 
-0.8128022491398847 1:0.871014 2:0.882066 3:0.241646 4:0.254802 5:0.795509 6:0.296206 7:0.353483 8:0.646592 
-0.5465287642870202 1:0.846758 2:0.882066 3:0.309978 4:0.282103 5:0.70323 6:0.389603 7:0.353483 8:0.5549 
-0.6417200788125699 1:0.697557 2:0.109192 3:0.501228 4:0.856991 5:0.190177 6:0.225958 7:0.308614 8:0.691458 
-0.6287004731381337 1:0.779815 2:0.171555 3:0.206411 4:0.166532 5:0.843001 6:0.263444 7:0.449439 8:0.628271 
-0.30852673582363216 1:0.842214 2:0.840904 3:0.339693 4:0.106382 5:0.768067 6:0.323649 7:0.357167 8:0.624023 
-0.38703743226880494 1:0.813568 2:0.840904 3:0.39542 4:0.410245 5:0.603332 6:0.254314 7:0.188817 8:0.838752 
-1.9306965109013445 1:0.888149 2:0.882066 3:0.287209 4:0.282103 5:0.734004 6:0.27281 7:0.353483 8:0.616054 
-0.616163128311499 1:0.855419 2:0.868454 3:0.40621 4:0.372874 5:0.557839 6:0.3603 7:0.401984 8:0.451184 
-0.6410760890556246 1:0.683703 3:0.599345 4:0.803812 5:0.337108 6:0.225958 7:0.381718 8:0.636418 
-0.6415561039638853 1:0.72746 2:0.0223949 3:0.547131 4:0.600035 5:0.434783 6:0.144403 7:0.393605 8:0.616054 
-0.13326849764493115 1:0.838152 2:0.882066 3:0.309978 4:0.363878 5:0.641647 6:0.296206 7:0.381718 8:0.616054 
-0.6150726222772617 1:0.850288 2:0.191855 3:0.141993 4:0.290002 5:0.786611 6:0.144403 7:0.12568 8:0.90438 
-1.7825939254237908 1:0.866182 2:0.908975 3:0.312589 4:0.155694 5:0.610329 6:0.366283 7:0.353483 8:0.616054 
-0.6391744476453525 1:0.776879 2:0.151015 3:0.248242 4:0.543208 5:0.547551 6:0.0811229 7:0.323707 8:0.690294 
-0.6574778939937149 1:0.771844 2:0.191855 3:0.354287 4:0.459023 5:0.595425 6:0.225958 7:0.188817 8:0.863246 
-0.5372705032787395 1:0.844656 2:0.908975 3:0.339693 4:0.106382 5:0.768067 6:0.342944 7:0.296974 8:0.616054 
-2.6816510987021154 1:0.794059 2:0.191855 3:0.354287 4:0.374621 5:0.547551 6:0.329422 7:0.349023 8:0.567783 
-0.6065939454364743 1:0.860366 2:0.895573 3:0.305003 4:0.195527 5:0.755717 6:0.221307 7:0.515043 8:0.517451 
-0.5398015056416675 1:0.861977 2:0.854733 3:0.344869 4:0.083182 5:0.716565 6:0.245355 7:0.379774 8:0.584434 
-0.55876352728376 1:0.783162 2:0.151015 3:0.354287 4:0.374621 5:0.547551 6:0.233561 7:0.323707 8:0.789055 
-0.5405228832879228 1:0.856256 2:0.882066 3:0.202402 4:0.287919 5:0.699699 6:0.306908 7:0.280206 8:0.693646 
-0.500446294748426 1:0.74903 2:0.211919 3:0.304745 4:0.394529 5:0.605878 6:0.320797 7:0.339176 8:0.746761 
-0.47308220821778574 1:0.733007 2:0.171555 3:0.326972 4:0.512366 5:0.607547 6:0.255556 7:0.215106 8:0.760495 
-0.6410629972958846 1:0.406213 2:0.0663361 3:0.223678 4:0.449601 5:0.541917 6:0.704245 7:0.413975 8:0.537409 
-0.7081239389491483 1:0.857364 2:0.854733 3:0.0661651 4:0.708696 5:0.519033 6:0.245355 7:0.292103 8:0.67921 
-0.6337321334079944 1:0.746588 2:0.191855 3:0.177434 4:0.459023 5:0.738861 6:0.403097 7:0.482682 8:0.51945 
-0.6386233122795029 1:0.914219 2:0.987285 3:0.272388 4:0.242226 5:0.78282 6:0.0615576 7:0.0706983 8:0.939421 
-0.6220511472639025 1:0.810114 2:0.364596 3:0.242956 4:0.394529 5:0.564062 6:0.12649 7:0.348498 8:0.691458 
-0.5279113744673261 1:0.84824 2:0.882066 3:0.372681 4:0.384919 5:0.603067 6:0.211648 7:0.222679 8:0.817465 
-0.3778568699470993 1:0.872258 2:0.854733 3:0.273861 4:0.292925 5:0.689431 6:0.187786 7:0.193895 8:0.848354 
-0.6068445023653404 1:0.769255 2:0.151015 3:0.262587 4:0.35063 5:0.767254 6:0.181503 7:0.393605 8:0.71241 
-0.5928724132989989 1:0.854858 2:0.908975 3:0.237969 4:0.199686 5:0.829711 6:0.27281 7:0.240422 8:0.616054 
-0.6263576469303908 1:0.75553 2:0.211919 3:0.223678 4:0.449601 5:0.541917 6:0.138133 7:0.206979 8:0.888834 
-0.5544969517085397 1:0.76501 2:0.171555 3:0.147665 4:0.341364 5:0.752868 6:0.284358 7:0.339176 8:0.746761 
-1.1436931827120804 1:0.799201 2:0.191855 3:0.318962 4:0.290002 5:0.738861 6:0.307194 7:0.325914 8:0.582912 
-0.49264551800954154 1:0.791415 2:0.211919 3:0.276266 4:0.365291 5:0.583614 6:0.138133 7:0.295139 8:0.699283 
-0.4729031211104871 1:0.855978 2:0.882066 3:0.287209 4:0.282103 5:0.764761 6:0.301513 7:0.331406 8:0.623756 
-0.6465388149327926 1:0.838152 2:0.922274 3:0.428366 4:0.372874 5:0.557839 6:0.349206 7:0.555017 8:0.533996 
-0.6515730735822634 1:0.789623 2:0.327668 3:0.333011 4:0.313983 5:0.562552 6:0.284781 7:0.418475 8:0.552054 
-0.5350468949996198 1:0.864358 2:0.854733 3:0.360926 4:0.121929 5:0.742941 6:0.26958 7:0.262853 8:0.71075 
-0.42428297300098483 1:0.803345 2:0.895573 3:0.282426 4:0.276828 5:0.786208 6:0.412907 7:0.381718 8:0.646592 
-0.3139074245427555 1:0.866698 2:0.908975 3:0.242203 4:0.151601 5:0.780012 6:0.342944 7:0.296974 8:0.616054 
-0.6421433096174977 1:0.754371 2:0.191855 3:0.354287 4:0.543208 5:0.451709 6:0.305357 7:0.217049 8:0.735415 
-0.6415011266057018 1:0.834292 2:0.868454 3:0.373231 4:0.569514 5:0.514059 6:0.336356 7:0.170024 8:0.7646 
-0.6414827907445351 1:0.373601 2:0.0445045 3:0.959925 4:1.0 6:0.752514 7:1.0 
-0.3894529138752977 1:0.831325 2:0.882066 3:0.327574 4:0.384919 5:0.633621 6:0.378143 7:0.165103 8:0.786548 
-0.41583125825556866 1:0.783162 2:0.895573 3:0.367235 4:0.378847 5:0.686299 6:0.372165 7:0.41682 8:0.592939 
-0.6138868452746196 1:0.843135 2:0.895573 3:0.305003 4:0.303886 5:0.694694 6:0.389603 7:0.240422 8:0.677109 
-0.718550441358761 1:0.864358 2:0.854733 3:0.297024 4:0.292925 5:0.689431 6:0.283122 7:0.251447 8:0.755608 
-0.2735576879150275 1:0.815824 2:0.908975 3:0.322496 4:0.378847 5:0.625728 6:0.436189 7:0.325236 8:0.585491 
-0.3822897328720003 1:0.818775 2:0.895573 3:0.372681 4:0.411884 5:0.572496 6:0.436189 7:0.381718 8:0.5549 
-0.5384195443651751 1:0.865403 2:0.868454 3:0.383857 4:0.424783 5:0.400872 6:0.296206 7:0.381718 8:0.646592 
-0.47902144303009175 1:0.874713 2:0.895573 3:0.350132 4:0.303886 5:0.694694 6:0.221493 7:0.155502 8:0.862565 
-0.6604988151105109 1:0.763384 2:0.191855 3:0.354287 4:0.58522 5:0.403742 6:0.312392 7:0.329582 8:0.686492 
-7.386622415249155 1:0.916394 2:0.882066 3:0.309978 4:0.282103 5:0.764761 6:0.330672 7:0.366408 8:0.631584 
-0.5790912430733633 1:0.813189 2:0.908975 3:0.0859277 4:0.690689 5:0.536737 6:0.296206 7:0.325236 8:0.707597 
-0.35192085216428803 1:0.784572 2:0.191855 3:0.206411 4:0.281749 5:0.772349 6:0.292513 7:0.393605 8:0.664263 
-0.5404421217316331 1:0.820227 2:0.895573 3:0.507788 4:0.411884 5:0.480716 6:0.319583 7:0.381718 8:0.616054 
-0.6412976180446173 1:0.701882 2:0.109192 3:0.354287 4:0.374621 5:0.547551 6:0.560047 7:0.672817 8:0.462984 
-0.7233775008256257 1:0.885924 2:0.868454 3:0.269106 4:0.149577 5:0.804965 6:0.202504 7:0.296974 8:0.768503 
-0.6416976172346467 1:0.667211 2:0.0878964 3:1.0 4:0.739783 5:0.145808 6:0.181503 7:0.259772 8:0.71241 
-0.7484647191015293 1:0.929919 2:0.908975 3:0.300114 4:0.217906 5:0.716565 6:0.27281 7:0.183819 8:0.738061 
-1.1882514895992515 1:0.829986 2:0.826964 3:0.471872 4:0.444971 5:0.547551 6:0.211648 7:0.251447 8:0.786548 
-0.6509143185607891 1:0.801702 2:0.191855 4:0.374621 5:0.738861 6:0.218552 7:0.215106 8:0.71241 
-0.6415073822436872 1:0.75553 2:0.109192 3:0.147665 4:0.298475 5:0.849591 6:0.405141 7:0.625952 8:0.309291 
-0.17807676818693638 1:0.809725 2:0.908975 3:0.344869 4:0.352079 5:0.656022 6:0.337345 7:0.40318 8:0.578159 
-0.6812479012969238 1:0.881131 2:0.364596 3:0.286943 4:0.449601 5:0.541917 6:0.259038 7:0.428202 8:0.5621 
-1.507219628366066 1:0.877602 2:0.882066 3:0.287209 4:0.282103 5:0.734004 6:0.230687 7:0.245887 8:0.777452 
-0.6310768493609539 1:0.665004 2:0.0663361 3:0.298902 4:0.35063 5:0.718203 6:0.704245 7:0.413975 8:0.537409 
-0.5343392786350518 1:0.828973 2:0.868454 3:0.337986 4:0.452177 5:0.494321 6:0.38363 7:0.347179 8:0.608479 
-0.14722997771073787 1:0.822021 2:0.882066 3:0.40621 4:0.372874 5:0.557839 6:0.283122 7:0.251447 8:0.755608 
-0.38931873660772215 1:0.72746 2:0.191855 3:0.354287 4:0.374621 5:0.547551 6:0.247871 7:0.339176 8:0.699283 
-1.4217584557723457 1:0.859554 2:0.191855 3:0.248242 4:0.332339 5:0.738861 6:0.218552 7:0.304412 8:0.760495 
-0.42681024735961304 1:0.865923 2:0.922274 3:0.264063 4:0.177877 5:0.780012 6:0.314176 7:0.066492 8:0.789872 
-0.6222365545178776 1:0.895038 2:0.882066 3:0.202733 4:0.114025 5:0.91606 6:0.187786 7:0.193895 8:0.848354 
-0.35892485688196146 1:0.840666 2:0.868454 3:0.360926 4:0.342463 5:0.494321 6:0.301513 7:0.331406 8:0.623756 
-0.6402904982457998 1:0.85373 2:0.211919 3:0.206411 4:0.114025 5:0.960601 6:0.211339 7:0.118706 8:0.936073 
-0.15469910915769322 1:0.765548 2:0.171555 3:0.248242 4:0.332339 5:0.643268 6:0.375613 7:0.0874905 8:0.774586 
-0.6316941650871183 1:0.736364 2:0.191855 3:0.141993 4:0.162666 5:0.882014 6:0.350724 7:0.794526 8:0.309291 
-0.5524300918850509 1:0.835267 2:0.364596 3:0.223678 4:0.411884 5:0.627513 6:0.192839 7:0.388361 8:0.648391 
-0.5926341807989992 1:0.870011 2:0.882066 3:0.355484 4:0.309385 5:0.70323 6:0.221307 7:0.515043 8:0.517451 
-0.6695537974899484 1:0.784572 2:0.171555 3:0.398528 4:0.126356 5:0.752868 6:0.218552 7:0.393605 8:0.616054 
-0.6403776371722879 1:0.805772 2:0.171555 3:0.0397957 4:0.384199 5:0.849591 6:0.211339 7:0.427166 8:0.55649 
-0.6116063635446891 1:0.854858 2:0.895573 3:0.305003 4:0.222652 5:0.755717 6:0.319583 7:0.296974 8:0.707597 
-0.5557200430120011 1:0.870011 2:0.908975 3:0.295302 4:0.133127 5:0.678042 6:0.27281 7:0.353483 8:0.616054 
-0.4925276777449424 1:0.823792 2:0.895573 3:0.350132 4:0.411884 5:0.603067 6:0.325082 7:0.445269 8:0.592939 
-0.5650233802828075 1:0.858464 2:0.908975 3:0.0954423 4:0.633729 5:0.538572 6:0.27281 7:0.240422 8:0.616054 
-0.6522104937973653 1:0.802526 2:0.151015 3:0.262587 4:0.653232 5:0.570844 6:0.233561 7:0.643689 8:0.591273 
-0.22480183520959776 1:0.833639 2:0.868454 3:0.42969 4:0.397366 5:0.525445 6:0.225958 7:0.296974 8:0.677109 
-0.32802960244462975 1:0.841906 2:0.882066 3:0.332737 4:0.336641 5:0.672443 6:0.389603 7:0.353483 8:0.5549 
-0.7983410543901942 1:0.886148 2:0.908975 3:0.25532 4:0.378847 5:0.656022 6:0.314176 7:0.375187 8:0.608479 
-0.641244862282637 1:0.702731 2:0.151015 3:0.0397957 4:0.512366 5:0.704461 6:0.835344 7:0.871333 8:0.0922168 
-0.08010648504346368 1:0.838468 2:0.895573 3:0.350132 4:0.384919 5:0.633621 6:0.301513 7:0.188817 8:0.777452 
-0.8897625781531768 1:0.791415 2:0.171555 3:0.248242 4:0.290002 5:0.69108 6:0.375613 7:0.0874905 8:0.774586 
-0.6867554665843777 1:0.807763 2:0.191855 3:0.283614 4:0.290002 5:0.595425 6:0.174759 7:0.129747 8:0.865194 
