svm_type c_svc
kernel_type rbf
gamma 256.0
nr_class 2
total_sv 764
rho 0.34908514538930235
label 1 -1
nr_sv 253 511
SV
1.2821739362300542 1:0.73834 2:0.0878964 3:0.812912 4:0.829121 5:0.197331 6:0.263444 7:0.449439 8:0.628271 
1.2484248335293493 1:0.830992 2:0.191855 3:0.248242 4:0.290002 5:0.738861 6:0.403097 7:0.438158 8:0.567783 
0.8928470016791034 1:0.850867 2:0.171555 3:0.25532 4:0.405593 5:0.615631 6:0.375613 7:0.0874905 8:0.774586 
4.487586658002951 1:0.833311 2:0.191855 3:0.354287 4:0.374621 5:0.547551 6:0.329422 7:0.349023 8:0.567783 
1.309918527712394 1:0.888149 2:0.882066 3:0.423673 4:0.282103 5:0.610834 6:0.436189 7:0.409946 8:0.524287 
1.5137571564443515 1:0.916394 2:0.882066 3:0.332737 4:0.309385 5:0.672443 6:0.296206 7:0.240422 8:0.768503 
1.7735826665424743 1:0.903981 2:0.895573 3:0.23724 4:0.303886 5:0.755717 6:0.27281 7:0.353483 8:0.616054 
1.3487261263185886 1:0.794495 2:0.151015 3:0.732821 4:0.567059 5:0.275244 6:0.292513 7:0.304412 8:0.71241 
1.167704239853467 1:0.921341 2:0.882066 3:0.312589 4:0.155694 5:0.610329 6:0.283122 7:0.251447 8:0.755608 
0.07621511548351459 1:0.927617 2:0.908975 3:0.344869 4:0.352079 5:0.595425 6:0.296206 7:0.353483 8:0.646592 
2.0902392111396195 1:0.85764 2:0.191855 3:0.248242 4:0.332339 5:0.738861 6:0.255556 7:0.304412 8:0.71241 
1.4122316706333227 1:0.850867 2:0.151015 3:0.153489 4:0.35063 5:0.767254 6:0.312392 7:0.199062 8:0.780204 
1.304457447574356 1:1.0 2:0.961572 3:0.237969 4:0.199686 5:0.829711 6:0.2078 7:0.164638 8:0.851841 
0.09651461712082259 1:0.901999 2:0.908975 3:0.411934 4:0.352079 5:0.56511 6:0.366283 7:0.353483 8:0.677109 
1.346034068773243 1:0.855419 2:0.171555 3:0.25532 4:0.212527 5:0.801248 6:0.338273 7:0.132838 8:0.725879 
1.3015250642139964 1:0.873245 2:0.868454 3:0.223137 4:0.369926 5:0.742941 6:0.429841 7:0.375187 8:0.578159 
1.3490895996142231 1:0.775887 2:0.109192 3:0.219459 4:0.512366 5:0.559044 6:0.790853 7:0.766457 8:0.103379 
1.292028955079639 1:0.919066 2:0.895573 3:0.40621 4:0.372874 5:0.557839 6:0.277922 7:0.16026 8:0.777452 
1.3815809566888708 1:0.856256 2:0.191855 3:0.141993 4:0.290002 5:0.738861 6:0.320797 7:0.427166 8:0.651746 
1.3487703574093026 1:0.856256 2:0.171555 3:0.234634 4:0.479548 5:0.572107 6:0.263444 7:0.0421098 8:0.871815 
1.6117950014112463 1:0.88389 2:0.882066 3:0.332737 4:0.336641 5:0.672443 6:0.330672 7:0.280206 8:0.72464 
1.4246720023765422 1:0.85901 2:0.211919 3:0.206411 4:0.281749 5:0.772349 6:0.142716 7:0.129747 8:0.989148 
0.8190045203200109 1:0.91089 2:0.895573 3:0.40621 4:0.372874 5:0.58791 6:0.230687 7:0.274407 8:0.746761 
0.44094780673534223 1:0.917648 2:0.908975 3:0.367235 4:0.378847 5:0.595425 6:0.225958 7:0.296974 8:0.768503 
1.3435642991700312 1:0.837834 2:0.191855 3:0.177434 4:0.459023 5:0.738861 6:0.284358 7:0.515043 8:0.460992 
0.9093039926318744 1:0.920121 2:0.882066 3:0.378224 4:0.309385 5:0.610834 6:0.296206 7:0.353483 8:0.646592 
1.3498122064607883 1:0.826924 2:0.191855 3:0.354287 4:0.374621 5:0.547551 6:0.329422 7:0.527177 8:0.471055 
1.7925888134271342 1:0.86171 2:0.171555 3:0.141993 4:0.374621 5:0.738861 6:0.263444 7:0.584679 8:0.530413 
0.6718843410277628 1:0.918359 2:0.895573 3:0.259839 4:0.303886 5:0.755717 6:0.27281 7:0.353483 8:0.677109 
1.3496962276370463 1:0.85764 2:0.171555 3:0.177434 4:0.162666 5:0.738861 6:0.263444 7:0.359132 8:0.823234 
1.722138116846506 1:0.944747 2:0.895573 3:0.440278 4:0.411884 5:0.511325 6:0.0615576 7:0.0706983 8:0.939421 
1.3453913385414815 1:0.824844 2:0.191855 3:0.530569 4:0.543208 5:0.403742 6:0.320797 7:0.427166 8:0.651746 
1.486321136339673 1:0.857364 2:0.211919 3:0.333011 4:0.352722 5:0.562552 6:0.174759 7:0.0745267 8:0.983252 
2.1062309068379563 1:0.77933 2:0.109192 3:0.871707 4:0.813009 5:0.0885151 6:0.255556 7:0.482682 8:0.51945 
1.319933450485866 1:0.838468 2:0.191855 3:0.415706 4:0.490206 5:0.489065 6:0.144403 7:0.304412 8:0.760495 
1.236832697056883 1:0.913302 2:0.882066 3:0.300114 4:0.352079 5:0.686299 6:0.283122 7:0.366408 8:0.66263 
1.3577034796910494 1:0.917648 2:0.922274 3:0.428366 4:0.372874 5:0.557839 6:0.216731 7:0.118345 8:0.930271 
0.6788931153355712 1:0.917469 2:0.882066 3:0.350132 4:0.411884 5:0.603067 6:0.235494 7:0.30895 8:0.693646 
1.3069453536369415 1:0.917291 2:0.908975 3:0.344869 4:0.352079 5:0.656022 6:0.151458 7:0.375187 8:0.729505 
1.354147250538258 1:0.903981 2:0.882066 3:0.339693 4:0.0796113 5:0.708064 6:0.378143 7:0.165103 8:0.786548 
1.4959956081201944 1:0.902596 2:0.882066 3:0.0859277 4:0.690689 5:0.536737 6:0.330672 7:0.366408 8:0.631584 
1.2202753107838944 1:0.932983 2:0.895573 3:0.259839 4:0.0868138 5:0.786208 6:0.249392 7:0.353483 8:0.677109 
0.6657118068849515 1:0.892066 2:0.908975 3:0.361874 4:0.399407 5:0.557839 6:0.27281 7:0.353483 8:0.677109 
1.2490652330497367 1:0.874956 2:0.171555 3:0.25532 4:0.298475 5:0.656022 6:0.225958 7:0.268704 8:0.677109 
1.282871153768598 1:0.783634 2:0.0878964 3:0.812912 4:0.829121 5:0.197331 6:0.192839 7:0.388361 8:0.648391 
0.37203187009959354 1:0.918181 2:0.908975 3:0.367235 4:0.405593 5:0.595425 6:0.319583 7:0.325236 8:0.616054 
1.3769241615722456 1:0.922722 2:0.895573 3:0.339693 4:0.106382 5:0.768067 6:0.207037 7:0.188817 8:0.808114 
1.434836408793767 1:0.887928 2:0.882066 3:0.309978 4:0.282103 5:0.764761 6:0.425535 7:0.280206 8:0.693646 
1.3757122814597134 1:0.837516 2:0.191855 3:0.212851 4:0.416849 5:0.69108 6:0.270681 7:0.206979 8:0.699283 
1.3493924137346684 1:0.860905 2:0.171555 3:0.206411 4:0.57322 5:0.583614 6:0.263444 7:0.494551 8:0.628271 
1.3700758645914957 1:0.856256 2:0.191855 3:0.165623 4:0.273707 5:0.851451 6:0.403097 7:0.393605 8:0.51945 
1.3496188306500194 1:0.799621 2:0.109192 3:0.501228 4:0.856991 5:0.190177 6:0.150835 7:0.449439 8:0.871815 
1.400948719303798 1:0.870262 2:0.191855 3:0.175824 4:0.166532 5:0.966478 6:0.144403 7:0.12568 8:0.90438 
1.357528648435139 1:0.872505 2:0.798742 3:0.360926 4:0.204803 5:0.742941 6:0.215909 7:0.407927 8:0.681464 
1.2625623864287705 1:0.877125 2:0.854733 3:0.273861 4:0.403751 5:0.564062 6:0.283122 7:0.251447 8:0.755608 
1.300887178843119 1:0.860096 2:0.171555 3:0.25532 4:0.298475 5:0.704461 6:0.375613 7:0.0874905 8:0.774586 
1.2011417005132778 1:0.828633 2:0.191855 3:0.354287 4:0.374621 5:0.547551 6:0.192839 7:0.388361 8:0.648391 
0.6617967667774073 1:0.912194 2:0.908975 3:0.40621 4:0.372874 5:0.557839 6:0.225958 7:0.353483 8:0.677109 
1.4105788679238884 1:0.863305 2:0.171555 3:0.25532 4:0.512366 5:0.607547 6:0.107255 7:0.259772 8:0.760495 
1.5729158889583124 1:0.82344 2:0.211919 3:0.19202 4:0.411884 5:0.67027 6:0.284358 7:0.339176 8:0.746761 
1.204838752100173 1:0.896084 2:0.895573 3:0.327574 4:0.303886 5:0.72521 6:0.27281 7:0.381718 8:0.707597 
1.2962726002654983 1:0.872999 2:0.895573 3:0.46279 4:0.411884 5:0.511325 6:0.27281 7:0.381718 8:0.707597 
1.2600824660514849 1:0.776384 2:0.0878964 3:0.206411 4:0.365291 5:0.72521 6:0.689765 7:0.782932 8:0.317965 
1.8649306070760925 1:0.883662 2:0.908975 3:0.367235 4:0.459023 5:0.595425 6:0.296206 7:0.466358 8:0.5549 
1.2506020749950861 1:0.847945 2:0.191855 3:0.212851 4:0.416849 5:0.69108 6:0.255556 7:0.393605 8:0.567783 
1.4109240992426768 1:0.873981 2:0.882066 3:0.559792 4:0.742816 5:0.240093 6:0.406746 7:0.347179 8:0.578159 
1.170323774100906 1:0.861442 2:0.191855 3:0.234634 4:0.314977 5:0.758454 6:0.255556 7:0.393605 8:0.567783 
1.2971936457199007 1:0.867982 2:0.191855 3:0.283614 4:0.332339 5:0.738861 6:0.138133 7:0.206979 8:0.888834 
0.8486605303592119 1:0.898971 2:0.895573 3:0.40621 4:0.372874 5:0.557839 6:0.372165 7:0.41682 8:0.592939 
0.3301104120852783 1:0.933301 2:0.895573 3:0.23291 4:0.325287 5:0.746821 6:0.348631 7:0.359892 8:0.623756 
0.37603779799527537 1:0.909573 2:0.908975 3:0.367235 4:0.405593 5:0.595425 6:0.225958 7:0.325236 8:0.707597 
0.8755410790478084 1:0.922033 2:0.895573 3:0.282426 4:0.222652 5:0.786208 6:0.342944 7:0.325236 8:0.616054 
1.341741310513075 1:0.836877 2:0.171555 3:0.45051 4:0.53174 5:0.441745 6:0.225958 7:0.4043 8:0.579374 
1.349124291573435 1:0.689413 2:0.0663361 3:0.374685 4:0.795402 5:0.291699 6:0.704245 7:0.413975 8:0.537409 
1.3501936444365719 1:0.92047 2:0.908975 3:0.339693 4:0.106382 5:0.768067 6:0.225958 7:0.353483 8:0.677109 
0.9180051450546941 1:0.922033 2:0.882066 3:0.378224 4:0.309385 5:0.610834 6:0.342944 7:0.296974 8:0.616054 
0.646379537852116 1:0.941187 2:0.922274 3:0.40621 4:0.372874 5:0.557839 6:0.38363 7:0.347179 8:0.578159 
1.4491431014551153 1:0.919066 2:0.895573 3:0.259839 4:0.276828 5:0.786208 6:0.254314 7:0.188817 8:0.808114 
1.6126977501279118 1:0.896084 2:0.868454 3:0.383857 4:0.397366 5:0.432035 6:0.230687 7:0.245887 8:0.777452 
1.346794305401528 1:0.842214 2:0.191855 3:0.318962 4:0.543208 5:0.547551 6:0.255556 7:0.438158 8:0.71241 
1.3487000633129924 1:0.545112 2:0.0445045 3:0.959925 4:1.0 6:0.835344 7:0.871333 8:0.0922168 
1.056050297521404 1:0.907478 2:0.882066 3:0.322496 4:0.325287 5:0.80729 6:0.306908 7:0.30895 8:0.66263 
1.2035557637163585 1:0.889904 2:0.882066 3:0.287209 4:0.282103 5:0.734004 6:0.319583 7:0.438158 8:0.585491 
1.4388313908669843 1:0.917648 2:0.908975 3:0.322496 4:0.0291398 5:0.777062 6:0.319583 7:0.325236 8:0.616054 
1.3558610740783528 1:0.945914 2:0.922274 3:0.339693 4:0.0796113 5:0.708064 6:0.314176 7:0.0383579 8:0.729505 
1.3488897297465727 1:0.826579 2:0.171555 3:0.0397957 4:0.384199 5:0.849591 6:0.225958 7:0.58733 8:0.475615 
1.3471114020745047 1:0.827952 2:0.171555 3:0.0397957 4:0.384199 5:0.849591 6:0.49326 7:0.361186 8:0.574368 
1.1006651715086821 1:0.884571 2:0.908975 3:0.40621 4:0.372874 5:0.557839 6:0.366283 7:0.353483 8:0.677109 
0.5552298665692212 1:0.847649 2:0.211919 3:0.17145 4:0.365291 5:0.72521 6:0.211339 7:0.427166 8:0.55649 
1.329743107020604 1:0.909762 2:0.882066 3:0.0859277 4:0.690689 5:0.536737 6:0.283122 7:0.251447 8:0.755608 
0.8560987880432307 1:0.8965 2:0.895573 3:0.305003 4:0.222652 5:0.755717 6:0.319583 7:0.438158 8:0.585491 
1.36038991134576 1:0.806572 2:0.191855 3:0.354287 4:0.58522 5:0.403742 6:0.192839 7:0.348498 8:0.691458 
1.4106979548571974 1:0.835267 2:0.171555 3:0.0397957 4:0.512366 5:0.704461 6:0.218552 7:0.438158 8:0.567783 
1.228887173027108 1:0.849121 2:0.171555 3:0.276266 4:0.365291 5:0.583614 6:0.338273 7:0.132838 8:0.725879 
1.4417618543822288 1:0.900594 2:0.908975 3:0.300114 4:0.405593 5:0.686299 6:0.249392 7:0.325236 8:0.677109 
1.3375439112890342 1:0.836877 2:0.211919 3:0.381701 4:0.449601 5:0.541917 6:0.211339 7:0.251073 8:0.794178 
1.330268932838539 1:0.875683 2:0.364596 3:0.0969281 4:0.298475 5:0.755717 6:0.159685 7:0.507811 8:0.60527 
1.049416804634896 1:0.824844 2:0.191855 3:0.223678 4:0.449601 5:0.541917 6:0.255556 7:0.393605 8:0.567783 
1.3492480457040532 1:0.842522 2:0.171555 3:0.0397957 4:0.384199 5:0.849591 6:0.357191 7:0.383185 8:0.651746 
1.7109499197566493 1:0.907286 2:0.908975 3:0.322496 4:0.0291398 5:0.777062 6:0.389603 7:0.353483 8:0.5549 
0.9438768565216716 1:0.858464 2:0.171555 3:0.25532 4:0.426976 5:0.559044 6:0.375613 7:0.0874905 8:0.774586 
1.4447100102645554 1:0.899582 2:0.868454 3:0.273094 4:0.133127 5:0.768067 6:0.408127 7:0.401984 8:0.514076 
1.3497187701042055 1:0.912379 2:0.908975 3:0.300114 4:0.459023 5:0.56511 6:0.436189 7:0.409946 8:0.524287 
1.3488122640023505 1:0.891421 2:0.400756 3:0.335612 4:0.283672 5:0.647666 6:0.2078 7:0.137224 8:0.80284 
1.4217776750994497 1:0.900594 2:0.895573 3:0.350132 4:0.303886 5:0.694694 6:0.239791 7:0.28539 8:0.84076 
1.1138666620901307 1:0.929265 2:0.908975 3:0.25532 4:0.298475 5:0.716565 6:0.314176 7:0.319163 8:0.729505 
1.425579480776615 1:0.906322 2:0.854733 3:0.273861 4:0.209561 5:0.783317 6:0.319583 7:0.296974 8:0.707597 
1.3485261627056908 1:0.812808 2:0.151015 3:0.371463 4:0.567059 5:0.570844 6:0.429841 7:0.515043 8:0.460992 
0.8511351388894551 1:0.919945 2:0.895573 3:0.305003 4:0.303886 5:0.694694 6:0.249392 7:0.353483 8:0.677109 
0.9427443433559729 1:0.940131 2:0.908975 3:0.322496 4:0.352079 5:0.625728 6:0.221307 7:0.291136 8:0.729505 
1.3487629872521034 1:0.797934 2:0.191855 3:0.671181 4:0.794473 5:0.163438 6:0.284358 7:0.515043 8:0.460992 
2.05415232303138 1:0.850288 2:0.191855 3:0.248242 4:0.290002 5:0.69108 6:0.247871 7:0.162857 8:0.936073 
0.7219910640178732 1:0.90457 2:0.854733 3:0.273861 4:0.292925 5:0.689431 6:0.296206 7:0.353483 8:0.707597 
1.3650960396487193 1:0.844656 2:0.327668 3:0.333011 4:0.352722 5:0.562552 6:0.225958 7:0.388361 8:0.648391 
3.8373470718932 1:0.900997 2:0.908975 3:0.339693 4:0.239898 5:0.798048 6:0.296206 7:0.353483 8:0.707597 
1.0100542550853702 1:0.90019 2:0.882066 3:0.289181 4:0.414854 5:0.717044 6:0.235494 7:0.30895 8:0.693646 
1.5535129082471435 1:0.825888 2:0.171555 3:0.291156 4:0.384199 5:0.607547 6:0.188422 7:0.4043 8:0.628271 
1.3494604896784292 1:0.859825 2:0.191855 3:0.0965237 4:0.273707 5:0.897903 6:0.292513 7:0.393605 8:0.760495 
1.2542552827261306 1:0.816938 2:0.109192 3:0.262587 4:0.394031 5:0.767254 6:0.675682 7:0.766457 8:0.360593 
1.3497307497035869 1:0.917112 2:0.868454 3:0.0661651 4:0.708696 5:0.519033 6:0.240381 7:0.111911 8:0.826971 
0.5195619893280324 1:0.909573 2:0.854733 3:0.297024 4:0.292925 5:0.689431 6:0.348631 7:0.359892 8:0.623756 
1.3230425170716102 1:0.877364 2:0.895573 3:0.4566 4:0.43232 5:0.595425 6:0.230687 7:0.188817 8:0.808114 
1.1251195395881932 1:0.925275 2:0.882066 3:0.259839 4:0.276828 5:0.755717 6:0.235494 7:0.30895 8:0.693646 
1.133630528014013 1:0.915673 2:0.854733 3:0.40621 4:0.372874 5:0.557839 6:0.245355 7:0.262853 8:0.71075 
1.7081742500269772 1:0.833966 2:0.171555 3:0.31116 4:0.406982 5:0.630843 6:0.225958 7:0.223446 8:0.774586 
1.529123043354179 1:0.905741 2:0.854733 3:0.250684 4:0.376079 5:0.626775 6:0.216337 7:0.111911 8:0.826971 
1.2340578253090726 1:0.900392 2:0.895573 3:0.327574 4:0.384919 5:0.633621 6:0.389603 7:0.240422 8:0.677109 
0.6885485024252117 1:0.960508 2:0.908975 3:0.300114 4:0.244783 5:0.777062 6:0.27281 7:0.212124 8:0.798918 
1.3696951501129857 1:0.837197 2:0.171555 3:0.318962 4:0.332339 5:0.69108 6:0.375613 7:0.0874905 8:0.774586 
1.3582637404208975 1:0.949498 2:0.922274 3:0.317501 4:0.0796113 5:0.768067 6:0.0615576 7:0.0706983 8:0.939421 
1.348498069690512 1:0.837516 2:0.151015 3:0.298902 4:0.437372 5:0.718203 6:0.393539 7:0.471119 8:0.508771 
1.2448457065322462 1:0.902596 2:0.908975 3:0.300114 4:0.271642 5:0.595425 6:0.314176 7:0.319163 8:0.729505 
1.2578585769128445 1:0.925444 2:0.908975 3:0.322496 4:0.485704 5:0.534779 6:0.225958 7:0.353483 8:0.677109 
1.1440285424235535 1:0.920121 2:0.908975 3:0.344869 4:0.298475 5:0.656022 6:0.366283 7:0.353483 8:0.616054 
1.2608854411930333 1:0.869 2:0.868454 3:0.223137 4:0.369926 5:0.742941 6:0.489533 7:0.388361 8:0.500343 
1.6685411765698828 1:0.895875 2:0.908975 3:0.317501 4:0.0796113 5:0.768067 6:0.27281 7:0.381718 8:0.707597 
1.1996369097427524 1:0.827952 2:0.151015 3:0.298902 4:0.35063 5:0.718203 6:0.329422 7:0.349023 8:0.567783 
1.173232747611137 1:0.905157 2:0.868454 3:0.337986 4:0.452177 5:0.494321 6:0.296206 7:0.325236 8:0.707597 
1.470330705273847 1:0.851732 2:0.34623 3:0.261721 4:0.420868 5:0.595425 6:0.225958 7:0.46802 8:0.5621 
1.378616100542096 1:0.809725 2:0.171555 3:0.291156 4:0.384199 5:0.607547 6:0.49326 7:0.399681 8:0.574368 
0.062488560722828795 1:0.900997 2:0.908975 3:0.400579 4:0.367 5:0.550692 6:0.319583 7:0.381718 8:0.677109 
1.3541638003136456 1:0.924768 2:0.908975 3:0.295302 4:0.399407 5:0.648011 6:0.27281 7:0.353483 8:0.616054 
1.8745511078255086 1:0.87973 2:0.211919 3:0.136467 4:0.323547 5:0.772349 6:0.174759 7:0.118706 8:0.888834 
1.134595370902985 1:0.901599 2:0.895573 3:0.389589 4:0.378847 5:0.656022 6:0.207037 7:0.188817 8:0.808114 
1.703643929692896 1:0.915129 2:0.854733 3:0.273861 4:0.320668 5:0.658108 6:0.225958 7:0.353483 8:0.677109 
1.3491658947548237 1:0.79493 2:0.109192 3:0.797813 4:0.768969 5:0.0885151 6:0.2078 7:0.137224 8:0.80284 
1.2723075780851976 1:0.86171 2:0.171555 3:0.25532 4:0.298475 5:0.656022 6:0.312392 7:0.242597 8:0.733376 
2.4213123580325773 1:0.908815 2:0.882066 3:0.287209 4:0.309385 5:0.734004 6:0.348631 7:0.359892 8:0.623756 
1.4116033411400069 1:0.86644 2:0.908975 3:0.4566 4:0.43232 5:0.595425 6:0.436189 7:0.550894 8:0.432296 
1.1284937162413538 1:0.850578 2:0.211919 3:0.242956 4:0.431397 5:0.564062 6:0.211339 7:0.427166 8:0.55649 
1.404070213887518 1:0.82761 2:0.191855 3:0.354287 4:0.543208 5:0.451709 6:0.320797 7:0.427166 8:0.651746 
1.3316776122146023 1:0.870011 2:0.171555 3:0.0397957 4:0.384199 5:0.849591 6:0.218552 7:0.304412 8:0.71241 
0.5639154305508371 1:0.905935 2:0.908975 3:0.361874 4:0.346323 5:0.617965 6:0.366283 7:0.353483 8:0.677109 
1.4014250770509813 1:0.871513 2:0.191855 3:0.141993 4:0.162666 5:0.882014 6:0.192839 7:0.388361 8:0.648391 
0.9094452813087942 1:0.91089 2:0.908975 3:0.322496 4:0.405593 5:0.595425 6:0.314176 7:0.319163 8:0.729505 
0.5061966447235947 1:0.917826 2:0.908975 3:0.411934 4:0.378847 5:0.534779 6:0.27281 7:0.353483 8:0.646592 
1.349840381271125 1:0.789171 2:0.109192 3:0.464041 4:0.547879 5:0.645925 6:0.375613 7:0.0874905 8:0.774586 
1.1971081185100447 1:0.832322 2:0.191855 3:0.318962 4:0.332339 5:0.738861 6:0.403097 7:0.393605 8:0.51945 
1.3490791473268782 1:0.766617 2:0.191855 3:0.507788 4:0.524902 5:0.370429 6:0.403097 7:0.527177 8:0.471055 
1.3443710340902166 1:0.825541 2:0.171555 3:0.219459 4:0.512366 5:0.559044 6:0.329422 7:0.349023 8:0.567783 
0.9242638387364757 1:0.921514 2:0.882066 3:0.322496 4:0.405593 5:0.625728 6:0.163901 7:0.222679 8:0.817465 
1.219765066672846 1:0.880898 2:0.770054 3:0.230871 4:0.560782 5:0.578892 6:0.319583 7:0.296974 8:0.707597 
0.8427194742195567 1:0.913486 2:0.868454 3:0.360926 4:0.204803 5:0.742941 6:0.314176 7:0.40318 8:0.608479 
1.3354744279911317 1:0.826234 2:0.13023 3:0.196356 4:0.44805 5:0.682569 6:0.366283 7:0.180126 8:0.655884 
1.4938388620132386 1:0.84824 2:0.191855 3:0.212851 4:0.205168 5:0.834326 6:0.159685 7:0.507811 8:0.60527 
1.4061040003458527 1:0.899378 2:0.854733 3:0.110854 4:0.724869 5:0.454829 6:0.245355 7:0.262853 8:0.71075 
1.0079361813901282 1:0.850578 2:0.151015 3:0.117076 4:0.35063 5:0.669115 6:0.225958 7:0.381718 8:0.636418 
1.5983168784021207 1:0.82344 2:0.191855 3:0.318962 4:0.332339 5:0.595425 6:0.329422 7:0.438158 8:0.616054 
1.3491823602455175 1:0.869506 2:0.364596 3:0.206411 4:0.166532 5:0.843001 6:0.225958 7:0.58733 8:0.475615 
1.3928686700446453 1:0.928772 2:0.882066 3:0.423673 4:0.0905035 5:0.856964 6:0.221307 7:0.291136 8:0.729505 
1.2381439105181324 1:0.93598 2:0.908975 3:0.300114 4:0.217906 5:0.716565 6:0.221307 7:0.291136 8:0.729505 
1.3390208121342544 1:0.790969 2:0.151015 3:0.248242 4:0.416849 5:0.643268 6:0.648638 7:0.689277 8:0.292635 
1.3571129035166543 1:0.823792 2:0.171555 3:0.291156 4:0.597531 5:0.510509 6:0.403097 7:0.393605 8:0.51945 
0.40414545264871216 1:0.892708 2:0.922274 3:0.384048 4:0.425915 5:0.557839 6:0.337345 7:0.375187 8:0.578159 
1.2714814458553974 1:0.820227 2:0.191855 3:0.428111 4:0.468227 5:0.522226 6:0.144403 7:0.393605 8:0.616054 
0.9024055891694901 1:0.940584 2:0.895573 3:0.23724 4:0.222652 5:0.786208 6:0.207037 7:0.188817 8:0.808114 
1.3764392567057908 1:0.862243 2:0.191855 3:0.177434 4:0.374621 5:0.738861 6:0.0599844 7:0.268704 8:0.777452 
0.9498668488860916 1:0.910139 2:0.908975 3:0.367235 4:0.378847 5:0.686299 6:0.249392 7:0.296974 8:0.677109 
1.2710593880125645 1:0.841597 2:0.191855 3:0.424868 4:0.459023 5:0.547551 6:0.218552 7:0.438158 8:0.567783 
0.7688416374448209 1:0.904961 2:0.895573 3:0.327574 4:0.384919 5:0.603067 6:0.319583 7:0.381718 8:0.677109 
1.5561038777532092 1:0.947215 2:0.908975 3:0.389589 4:0.405593 5:0.595425 6:0.0615576 7:0.0706983 8:0.939421 
5.746380825093745 1:0.832322 2:0.191855 3:0.181098 4:0.357619 5:0.689431 6:0.218552 7:0.393605 8:0.616054 
1.3239613635907097 1:0.95409 2:0.922274 3:0.273094 4:0.133127 5:0.768067 6:0.244554 7:0.0946111 8:0.789872 
1.2335525726577408 1:0.873491 2:0.922274 3:0.361874 4:0.399407 5:0.557839 6:0.337345 7:0.40318 8:0.578159 
1.3491142476090736 1:0.757251 2:0.171555 3:0.57701 4:0.724869 5:0.316041 6:0.561593 7:0.719653 8:0.333922 
1.345430835712903 1:0.849414 2:0.171555 3:0.291156 4:0.255531 5:0.752868 6:0.329422 7:0.527177 8:0.51945 
1.1833693811495458 1:0.853446 2:0.784457 3:0.202003 4:0.495073 5:0.603616 6:0.330672 7:0.280206 8:0.72464 
1.2946581105355237 1:0.881826 2:0.191855 3:0.276266 4:0.281749 5:0.72521 6:0.107255 7:0.349023 8:0.760495 
1.348895413764295 1:0.77933 2:0.0445045 3:0.959925 4:1.0 6:0.174759 7:0.0745267 8:0.983252 
1.4039936115713467 1:0.844656 2:0.171555 3:0.25532 4:0.469697 5:0.656022 6:0.181503 7:0.393605 8:0.71241 
1.292520456087777 1:0.865923 2:0.151015 3:0.262587 4:0.35063 5:0.767254 6:0.338273 7:0.0421098 8:0.823234 
0.7888489759330461 1:0.928772 2:0.908975 3:0.23291 4:0.298475 5:0.746821 6:0.342944 7:0.296974 8:0.616054 
0.47147884294265885 1:0.927118 2:0.868454 3:0.269106 4:0.149577 5:0.804965 6:0.296206 7:0.353483 8:0.646592 
1.3488053775026174 1:0.823792 2:0.109192 3:0.262587 4:0.394031 5:0.767254 6:0.560047 7:0.672817 8:0.462984 
1.3551715644100895 1:0.870764 2:0.171555 3:0.0965237 4:0.232381 5:0.944331 6:0.225958 7:0.223446 8:0.774586 
1.3365475576692714 1:0.851445 2:0.191855 4:0.374621 5:0.738861 6:0.247871 7:0.339176 8:0.699283 
1.7530282575958536 1:0.887041 2:0.826964 3:0.471872 4:0.444971 5:0.547551 6:0.225958 7:0.268704 8:0.768503 
1.8773385790739103 1:0.909573 2:0.882066 3:0.309978 4:0.282103 5:0.764761 6:0.225958 7:0.268704 8:0.768503 
1.4604823036522891 1:0.882517 2:0.854733 3:0.366462 4:0.431397 5:0.532689 6:0.283122 7:0.251447 8:0.786548 
1.427948051454892 1:0.828293 2:0.191855 3:0.177434 4:0.332339 5:0.738861 6:0.292513 7:0.393605 8:0.760495 
2.2117730632102948 1:0.89356 2:0.854733 3:0.273861 4:0.209561 5:0.783317 6:0.314176 7:0.375187 8:0.608479 
1.3422757714842952 1:0.899582 2:0.854733 3:0.373231 4:0.569514 5:0.514059 6:0.245355 7:0.262853 8:0.71075 
1.3596905584098213 1:0.961419 2:0.882066 3:0.202733 4:0.114025 5:0.91606 6:0.259316 7:0.337685 8:0.693646 
1.4847380904296243 1:0.842522 2:0.171555 3:0.291156 4:0.255531 5:0.752868 6:0.329422 7:0.349023 8:0.567783 
1.3981976539992615 1:0.896707 2:0.895573 3:0.300114 4:0.217906 5:0.716565 6:0.489533 7:0.41682 8:0.500343 
2.1834990868536117 1:0.92409 2:0.908975 3:0.312589 4:0.155694 5:0.610329 6:0.296206 7:0.325236 8:0.707597 
1.3486812480913797 1:0.78643 2:0.68103 3:0.646871 4:0.304664 5:0.560445 6:0.38363 7:0.347179 8:0.608479 
1.013290652390954 1:0.90767 2:0.908975 3:0.40621 4:0.372874 5:0.557839 6:0.436189 7:0.325236 8:0.585491 
0.944272864145422 1:0.938761 2:0.908975 3:0.264063 4:0.177877 5:0.780012 6:0.296206 7:0.325236 8:0.677109 
1.3390318483495798 1:0.895038 2:0.882066 3:0.46279 4:0.411884 5:0.511325 6:0.378143 7:0.165103 8:0.786548 
1.1551086585995283 1:0.880898 2:0.171555 3:0.219459 4:0.341364 5:0.704461 6:0.107255 7:0.349023 8:0.760495 
3.2989236018833283 1:0.911264 2:0.882066 3:0.309978 4:0.282103 5:0.764761 6:0.301513 7:0.331406 8:0.623756 
1.398954947331606 1:0.834292 2:0.171555 3:0.424868 4:0.374621 5:0.595425 6:0.375613 7:0.0874905 8:0.774586 
1.650983983645441 1:0.838468 2:0.191855 3:0.248242 4:0.247614 5:0.643268 6:0.225958 7:0.388361 8:0.648391 
1.3491725762384645 1:0.758951 3:0.718843 4:0.470972 5:0.445984 6:0.12649 7:0.308614 8:0.734479 
1.34871622734356 1:0.76447 2:0.0663361 3:0.354287 4:0.374621 5:0.547551 6:0.704245 7:0.413975 8:0.537409 
1.1950075472585608 1:0.921341 2:0.868454 3:0.223137 4:0.149577 5:0.835958 6:0.296206 7:0.381718 8:0.646592 
0.9868169057830569 1:0.903587 2:0.882066 3:0.327574 4:0.384919 5:0.603067 6:0.211648 7:0.251447 8:0.786548 
1.290048469874528 1:0.885249 2:0.191855 3:0.10653 4:0.374621 5:0.738861 6:0.0700592 7:0.349023 8:0.760495 
1.2998128271083258 1:0.927948 2:0.895573 3:0.305003 4:0.195527 5:0.755717 6:0.296206 7:0.240422 8:0.768503 
0.9494859273778502 1:0.910139 2:0.882066 3:0.378224 4:0.309385 5:0.610834 6:0.436189 7:0.325236 8:0.585491 
1.1537065509266506 1:0.92409 2:0.908975 3:0.273094 4:0.425915 5:0.648011 6:0.296206 7:0.268704 8:0.738061 
1.2393758154113592 1:0.819503 2:0.171555 3:0.291156 4:0.384199 5:0.801248 6:0.329422 7:0.349023 8:0.567783 
1.0337442226426596 1:0.907862 2:0.908975 3:0.361874 4:0.425915 5:0.557839 6:0.342944 7:0.296974 8:0.616054 
0.9315361443727647 1:0.931379 2:0.882066 3:0.300114 4:0.352079 5:0.656022 6:0.306908 7:0.280206 8:0.693646 
1.528234039349879 1:0.834618 2:0.191855 3:0.318962 4:0.247614 5:0.643268 6:0.213019 7:0.40897 8:0.584434 
1.3642551127347178 1:0.836236 2:0.171555 3:0.326972 4:0.512366 5:0.607547 6:0.2078 7:0.137224 8:0.80284 
1.3489852611653 1:0.80537 2:0.191855 3:0.354287 4:0.374621 5:0.547551 6:0.319583 7:0.757098 8:0.391339 
0.4226326036910504 1:0.915311 2:0.908975 3:0.389589 4:0.383862 5:0.623834 6:0.249392 7:0.353483 8:0.677109 
1.2506648975322168 1:0.893984 2:0.868454 3:0.315035 4:0.369926 5:0.494321 6:0.249392 7:0.325236 8:0.677109 
0.9636756691751557 1:0.919419 2:0.895573 3:0.389589 4:0.383862 5:0.623834 6:0.254314 7:0.188817 8:0.838752 
1.639090660798357 1:0.889904 2:0.882066 3:0.332737 4:0.363878 5:0.641647 6:0.436189 7:0.381718 8:0.5549 
1.3322504719866877 1:0.882057 2:0.868454 3:0.360926 4:0.342463 5:0.494321 6:0.330672 7:0.280206 8:0.72464 
0.0659003207758696 1:0.911077 2:0.882066 3:0.309978 4:0.282103 5:0.70323 6:0.296206 7:0.353483 8:0.707597 
1.34080770571758 1:0.75553 2:0.151015 3:0.24135 4:0.490206 5:0.678042 6:0.611152 7:0.780365 8:0.242633 
0.38463483161309037 1:0.904961 2:0.882066 3:0.384048 4:0.372874 5:0.557839 6:0.330672 7:0.366408 8:0.631584 
1.6818909559771114 1:0.960246 2:0.882066 3:0.202733 4:0.114025 5:0.91606 6:0.211648 7:0.251447 8:0.786548 
1.029815909953854 1:0.905935 2:0.882066 3:0.372681 4:0.411884 5:0.572496 6:0.163901 7:0.222679 8:0.817465 
0.9427423816814104 1:0.926451 2:0.908975 3:0.27772 4:0.271642 5:0.746821 6:0.296206 7:0.466358 8:0.5549 
1.3306182756713565 1:0.862775 2:0.191855 3:0.283614 4:0.332339 5:0.69108 6:0.0647407 7:0.206979 8:0.841536 
1.348901439883658 1:0.784572 2:0.151015 3:0.354287 4:0.374621 5:0.547551 6:0.760808 7:0.461026 8:0.392445 
1.34883966724752 1:0.78643 2:0.191855 3:0.177434 4:0.374621 5:0.738861 6:0.609406 7:0.85019 8:0.122581 
0.4891403294199627 1:0.907094 2:0.895573 3:0.327574 4:0.222652 5:0.755717 6:0.348631 7:0.388361 8:0.592939 
2.383604106662591 1:0.916574 2:0.882066 3:0.264434 4:0.309385 5:0.734004 6:0.235494 7:0.280206 8:0.755608 
2.9625382939650735 1:0.920819 2:0.908975 3:0.322496 4:0.271642 5:0.746821 6:0.319583 7:0.381718 8:0.616054 
0.7171487082117596 1:0.845861 2:0.171555 3:0.147665 4:0.341364 5:0.752868 6:0.255556 7:0.393605 8:0.567783 
0.9618824051376719 1:0.842829 2:0.151015 3:0.153489 4:0.35063 5:0.767254 6:0.218552 7:0.438158 8:0.567783 
1.3271123380228034 1:0.846459 2:0.171555 3:0.219459 4:0.341364 5:0.704461 6:0.159685 7:0.507811 8:0.60527 
0.9823266342051069 1:0.892708 2:0.908975 3:0.45051 4:0.399407 5:0.557839 6:0.319583 7:0.381718 8:0.616054 
1.7582225748588325 1:0.878315 2:0.364596 3:0.0969281 4:0.298475 5:0.755717 6:0.192839 7:0.388361 8:0.648391 
0.8825049151209808 1:0.892708 2:0.854733 3:0.273861 4:0.292925 5:0.689431 6:0.38363 7:0.347179 8:0.608479 
0.2147382437133408 1:0.925275 2:0.882066 3:0.344869 4:0.352079 5:0.595425 6:0.235494 7:0.30895 8:0.693646 
1.420976069769392 1:0.914401 2:0.854733 3:0.273861 4:0.209561 5:0.783317 6:0.240381 7:0.111911 8:0.826971 
-0.5588443695614778 1:0.822021 2:0.882066 3:0.289181 4:0.414854 5:0.717044 6:0.283122 7:0.251447 8:0.755608 
-0.6416460319913262 1:0.644661 2:0.109192 3:0.797813 4:0.768969 5:0.0885151 6:0.168189 7:0.329582 8:0.780204 
-0.14484844988546233 1:0.833966 2:0.895573 3:0.259839 4:0.276828 5:0.755717 6:0.366283 7:0.353483 8:0.677109 
-0.6512611926673326 1:0.836236 2:0.935473 3:0.131083 4:0.911717 5:0.357221 6:0.262832 7:0.0625712 8:0.780971 
-0.6426683789949726 1:0.791859 2:0.364596 3:0.298078 4:0.239898 5:0.678042 6:0.225958 7:0.388361 8:0.648391 
-0.063866271207765 1:0.848534 2:0.854733 3:0.297024 4:0.292925 5:0.689431 6:0.330672 7:0.366408 8:0.631584 
-1.2850569359058934 1:0.797934 2:0.171555 3:0.141993 4:0.374621 5:0.738861 6:0.263444 7:0.584679 8:0.530413 
-0.710154569443102 1:0.880898 2:0.922274 3:0.317501 4:0.0796113 5:0.768067 6:0.30362 7:0.0863814 8:0.801884 
-0.5386063633236842 1:0.783634 2:0.191855 3:0.17145 4:0.365291 5:0.72521 6:0.292513 7:0.304412 8:0.71241 
-0.6355450415244259 1:0.810503 2:0.211919 3:0.101461 4:0.365291 5:0.72521 6:0.168189 7:0.329582 8:0.780204 
-0.5438967938944306 1:0.791415 2:0.171555 3:0.111733 4:0.426976 5:0.656022 6:0.255556 7:0.393605 8:0.567783 
-0.5713074919990281 1:0.86644 2:0.882066 3:0.356603 4:0.0495271 5:0.759216 6:0.211648 7:0.251447 8:0.786548 
-0.8253112776086095 1:0.801702 2:0.191855 3:0.19202 4:0.449601 5:0.627513 6:0.292513 7:0.304412 8:0.71241 
-0.3025480271765163 1:0.797508 2:0.908975 3:0.339693 4:0.346323 5:0.708064 6:0.436189 7:0.381718 8:0.5549 
-0.6511714201990128 1:0.829986 2:0.68103 3:0.356603 4:0.0495271 5:0.759216 6:0.634227 7:0.275229 8:0.580787 
-0.15693824781862234 1:0.826579 2:0.908975 3:0.389589 4:0.405593 5:0.595425 6:0.389603 7:0.353483 8:0.5549 
-0.6087976564274618 1:0.75553 2:0.191855 3:0.354287 4:0.459023 5:0.595425 6:0.218552 7:0.259772 8:0.71241 
-0.21632249550355545 1:0.809335 2:0.882066 3:0.367235 4:0.378847 5:0.686299 6:0.283122 7:0.251447 8:0.755608 
-0.7200519125790554 1:0.889467 2:0.908975 3:0.300114 4:0.217906 5:0.625728 6:0.202504 7:0.296974 8:0.768503 
-0.6487134346800556 1:0.515647 2:0.0663361 3:0.389589 4:0.332339 5:0.595425 6:0.822581 7:0.847955 8:0.115177 
-0.47719031073474705 1:0.789623 2:0.191855 3:0.248242 4:0.247614 5:0.786611 6:0.292513 7:0.304412 8:0.71241 
-0.3993832513708399 1:0.79493 2:0.191855 3:0.141993 4:0.290002 5:0.786611 6:0.284358 7:0.339176 8:0.699283 
-0.5728861589590136 1:0.81166 2:0.854733 3:0.227498 4:0.376079 5:0.689431 6:0.412907 7:0.381718 8:0.646592 
-0.4246180406381853 1:0.82761 2:0.908975 3:0.339693 4:0.0796113 5:0.708064 6:0.389603 7:0.353483 8:0.5549 
-0.6673177732081177 1:0.879495 2:0.948572 3:0.395041 4:0.151601 5:0.780012 6:0.0615576 7:0.0706983 8:0.939421 
-1.2415930248547482 1:0.873245 2:0.908975 3:0.317501 4:0.0796113 5:0.768067 6:0.389603 7:0.353483 8:0.5549 
-0.18990502060847375 1:0.837516 2:0.882066 3:0.300114 4:0.110173 5:0.777062 6:0.283122 7:0.251447 8:0.755608 
-0.616897096206226 1:0.809335 2:0.191855 3:0.248242 4:0.543208 5:0.547551 6:0.174759 7:0.129747 8:0.865194 
-0.6510922987312682 1:0.71945 2:0.151015 3:0.262587 4:0.394031 5:0.767254 6:0.375613 7:0.178155 8:0.677109 
-0.6507485021690624 1:0.707718 2:0.171555 3:0.469992 4:0.724869 5:0.316041 6:0.403097 7:0.393605 8:0.51945 
-0.5864660869692427 1:0.872999 2:0.868454 3:0.339693 4:0.106382 5:0.768067 6:0.288409 7:0.344068 8:0.514076 
-0.1561277903247039 1:0.862775 2:0.908975 3:0.264063 4:0.177877 5:0.780012 6:0.319583 7:0.381718 8:0.616054 
-1.2002398927984659 1:0.845861 2:0.908975 3:0.40621 4:0.372874 5:0.557839 6:0.366283 7:0.353483 8:0.616054 
-0.5569404834377273 1:0.773374 2:0.191855 3:0.160341 4:0.411884 5:0.627513 6:0.255556 7:0.438158 8:0.71241 
-0.9457708868384045 1:0.851732 2:0.908975 3:0.25532 4:0.298475 5:0.746821 6:0.366283 7:0.353483 8:0.616054 
-0.47462874559678153 1:0.818775 2:0.882066 3:0.25532 4:0.405593 5:0.656022 6:0.235494 7:0.30895 8:0.693646 
-0.4712604595774189 1:0.846459 2:0.854733 3:0.273861 4:0.292925 5:0.689431 6:0.312392 7:0.430924 8:0.514076 
-0.4433829850450683 1:0.828293 2:0.908975 3:0.367235 4:0.378847 5:0.686299 6:0.27281 7:0.353483 8:0.677109 
-1.1507438692563945 1:0.795363 2:0.191855 3:0.318962 4:0.247614 5:0.643268 6:0.225958 7:0.388361 8:0.648391 
-0.7207821038156117 1:0.866698 2:0.895573 3:0.327574 4:0.330918 5:0.664166 6:0.27281 7:0.212124 8:0.798918 
-0.47843738996106855 1:0.830992 2:0.908975 3:0.344869 4:0.352079 5:0.656022 6:0.429841 7:0.375187 8:0.578159 
-1.2495884364201943 1:0.824144 2:0.364596 3:0.0969281 4:0.298475 5:0.755717 6:0.225958 7:0.381718 8:0.636418 
-0.15925078656488587 1:0.770814 2:0.191855 3:0.248242 4:0.290002 5:0.69108 6:0.218552 7:0.349023 8:0.616054 
-0.5106800988227265 1:0.748423 2:0.171555 3:0.25532 4:0.384199 5:0.752868 6:0.255556 7:0.393605 8:0.567783 
-0.491802820658873 1:0.808158 2:0.191855 3:0.272853 4:0.354406 5:0.634951 6:0.329422 7:0.349023 8:0.71241 
-0.7158038118094897 1:0.770814 2:0.191855 3:0.206411 4:0.57322 5:0.583614 6:0.292513 7:0.393605 8:0.567783 
-0.6498992154074935 1:0.758387 2:0.191855 3:0.318962 4:0.247614 5:0.643268 6:0.255556 7:0.482682 8:0.51945 
-0.6455692393103927 1:0.745971 2:0.191855 3:0.283614 4:0.543208 5:0.403742 6:0.307194 7:0.325914 8:0.582912 
-0.12829431603936364 1:0.826579 2:0.882066 3:0.344869 4:0.325287 5:0.625728 6:0.283122 7:0.366408 8:0.66263 
-0.16801523729237922 1:0.85202 2:0.882066 3:0.309978 4:0.282103 5:0.734004 6:0.207037 7:0.188817 8:0.808114 
-0.6363440001778566 1:0.861977 2:0.784457 3:0.298902 4:0.37957 5:0.636372 6:0.225958 7:0.268704 8:0.768503 
-0.6504641812175768 1:0.819866 2:0.191855 3:0.206411 4:0.156037 5:0.866535 6:0.107255 7:0.259772 8:0.760495 
-0.6029357419145083 1:0.80697 2:0.882066 3:0.110854 4:0.724869 5:0.454829 6:0.306908 7:0.251447 8:0.755608 
-0.485210159031401 1:0.790522 2:0.191855 3:0.318546 4:0.336323 5:0.627513 6:0.181503 7:0.304412 8:0.664263 
-0.419344001708748 1:0.830322 2:0.882066 3:0.411934 4:0.378847 5:0.595425 6:0.378143 7:0.395115 8:0.56942 
-0.6424327689524043 1:0.809725 2:0.191855 3:0.0965237 4:0.232381 5:0.944331 6:0.292513 7:0.393605 8:0.567783 
-0.6073223860164144 1:0.758951 2:0.211919 3:0.415706 4:0.614648 5:0.441745 6:0.320797 7:0.339176 8:0.746761 
-0.15322967159001954 1:0.829649 2:0.908975 3:0.344869 4:0.298475 5:0.656022 6:0.27281 7:0.353483 8:0.646592 
-0.7456564984431564 1:0.791859 2:0.191855 3:0.212851 4:0.205168 5:0.977298 6:0.107255 7:0.12568 8:0.90438 
-1.5543658159496132 1:0.879495 2:0.895573 3:0.317501 4:0.0796113 5:0.768067 6:0.254314 7:0.331406 8:0.68531 
-0.6490612941113292 1:0.769777 2:0.171555 3:0.136467 4:0.323547 5:0.772349 6:0.375613 7:0.0874905 8:0.774586 
-3.3969098626328558 1:0.866956 2:0.908975 3:0.339693 4:0.239898 5:0.798048 6:0.296206 7:0.353483 8:0.707597 
-0.8387910121253189 1:0.781259 2:0.191855 3:0.354287 4:0.374621 5:0.547551 6:0.174759 7:0.0745267 8:0.983252 
-1.791738119312103 1:0.885249 2:0.908975 3:0.312589 4:0.155694 5:0.610329 6:0.296206 7:0.325236 8:0.677109 
-0.28808174238606116 1:0.791415 2:0.840904 3:0.39542 4:0.410245 5:0.603332 6:0.283122 7:0.337685 8:0.66263 
-0.6511970508136653 1:0.920296 2:0.908975 3:0.131083 5:1.0 6:0.225958 7:0.296974 8:0.677109 
-0.5370831857577102 1:0.863305 2:0.882066 3:0.378224 4:0.0905035 5:0.88767 6:0.27281 7:0.296974 8:0.707597 
-0.36246867531383364 1:0.850288 2:0.922274 3:0.273094 4:0.133127 5:0.768067 6:0.337345 7:0.40318 8:0.608479 
-0.7271198482619224 1:0.84526 2:0.191855 3:0.283614 4:0.374621 5:0.69108 6:0.0595599 7:0.242597 8:0.920333 
-1.6302425052954466 1:0.724601 2:0.109192 3:0.871707 4:0.813009 5:0.0885151 6:0.255556 7:0.482682 8:0.51945 
-1.1403210728930668 1:0.870513 2:0.895573 3:0.259839 4:0.276828 5:0.786208 6:0.27281 7:0.212124 8:0.798918 
-0.15903807038796755 1:0.836877 2:0.882066 3:0.40621 4:0.372874 5:0.58791 6:0.211648 7:0.222679 8:0.817465 
-0.5228753247167768 1:0.801702 2:0.191855 3:0.415706 4:0.490206 5:0.489065 6:0.144403 7:0.0809238 8:0.95222 
-0.6469369365354329 1:0.685633 2:0.109192 3:0.464041 4:0.547879 5:0.645925 6:0.218552 7:0.393605 8:0.616054 
-0.6507724011324849 1:0.799621 2:0.191855 3:0.283614 4:0.543208 5:0.403742 6:0.211339 7:0.118706 8:0.936073 
-0.6312985725375982 1:0.786891 2:0.191855 3:0.318962 4:0.543208 5:0.547551 6:0.0595599 7:0.242597 8:0.920333 
-0.6505041649181615 1:0.737684 2:0.151015 3:0.552444 4:0.567059 5:0.324595 6:0.53603 7:0.552418 8:0.342575 
-0.03580089229660021 1:0.851732 2:0.854733 3:0.273861 4:0.292925 5:0.689431 6:0.283122 7:0.251447 8:0.786548 
-0.841806704939256 1:0.887928 2:0.882066 3:0.309978 4:0.282103 5:0.734004 6:0.283122 7:0.251447 8:0.755608 
-0.1956206673913081 1:0.801702 2:0.770054 3:0.230871 4:0.560782 5:0.578892 6:0.225958 7:0.325236 8:0.707597 
-0.5818571433099566 1:0.732326 2:0.151015 3:0.371463 4:0.567059 5:0.570844 6:0.213019 7:0.370037 8:0.584434 
-0.5284435913387707 1:0.817307 2:0.854733 3:0.366462 4:0.431397 5:0.532689 6:0.319583 7:0.296974 8:0.707597 
-0.6374250141452901 1:0.752023 2:0.826964 3:0.471872 4:0.444971 5:0.547551 6:0.425535 7:0.280206 8:0.693646 
-0.6812617156984667 1:0.794059 2:0.191855 3:0.283614 4:0.290002 5:0.595425 6:0.309913 7:0.253099 8:0.668693 
-1.4902233278066739 1:0.896915 2:0.882066 3:0.309978 4:0.282103 5:0.70323 6:0.330672 7:0.280206 8:0.72464 
-0.5064693831255435 1:0.844958 2:0.854733 3:0.273861 4:0.292925 5:0.689431 6:0.325082 7:0.388361 8:0.623756 
-0.4939305996734198 1:0.789171 2:0.231755 3:0.200138 4:0.356199 5:0.804965 6:0.312392 7:0.329582 8:0.686492 
-0.5302501794762408 1:0.772866 2:0.211919 3:0.206411 4:0.57322 5:0.583614 6:0.10146 7:0.295139 8:0.794178 
-0.6510998774577239 1:0.648476 2:0.109192 3:0.575524 4:0.68071 5:0.443717 6:0.159685 7:0.507811 8:0.60527 
-0.4442435111435009 1:0.802115 2:0.171555 3:0.267538 4:0.239898 5:0.678042 6:0.263444 7:0.0421098 8:0.871815 
-0.2544501236942773 1:0.813189 2:0.908975 3:0.344869 4:0.405593 5:0.656022 6:0.389603 7:0.353483 8:0.5549 
-0.6493281970581162 1:0.742208 2:0.171555 3:0.219459 4:0.212527 5:0.946188 6:0.357191 7:0.383185 8:0.651746 
-0.5856838056682411 1:0.832322 2:0.882066 3:0.241646 4:0.282103 5:0.764761 6:0.221307 7:0.515043 8:0.517451 
-0.6440572397589202 1:0.783634 2:0.211919 3:0.206411 4:0.156037 5:0.866535 6:0.284358 7:0.515043 8:0.460992 
-0.32139977224144806 1:0.872752 2:0.882066 3:0.27772 4:0.378847 5:0.625728 6:0.187786 7:0.193895 8:0.848354 
-0.5986975074666383 1:0.790073 2:0.191855 3:0.389589 4:0.416849 5:0.547551 6:0.0599844 7:0.268704 8:0.777452 
-0.6838036845641404 1:0.837834 2:0.868454 3:0.383857 4:0.424783 5:0.432035 6:0.277922 7:0.188817 8:0.838752 
-0.6366199570231221 1:0.80537 2:0.191855 3:0.354287 4:0.543208 5:0.451709 6:0.0700592 7:0.259772 8:0.856478 
-0.7840953348067232 1:0.876885 2:0.908975 3:0.242203 4:0.151601 5:0.780012 6:0.296206 7:0.325236 8:0.677109 
-0.6504072868277413 1:0.849414 2:0.895573 3:0.389589 4:0.352079 5:0.625728 6:0.325082 7:0.274407 8:0.716048 
-0.8201773462713352 1:0.887263 2:0.854733 3:0.273861 4:0.209561 5:0.783317 6:0.30362 7:0.0863814 8:0.801884 
-0.5495922083417091 1:0.805772 2:0.770054 3:0.230871 4:0.560782 5:0.578892 6:0.259316 7:0.337685 8:0.693646 
-0.38080800392512226 1:0.832652 2:0.895573 3:0.282426 4:0.357928 5:0.664166 6:0.429841 7:0.375187 8:0.578159 
-0.6512569911917427 1:0.612906 2:0.0663361 3:0.298902 4:0.437372 5:0.718203 6:0.822581 7:0.847955 8:0.115177 
-0.5724232555647556 1:0.860366 2:0.868454 3:0.292075 4:0.177201 5:0.77396 6:0.301513 7:0.274407 8:0.716048 
-0.6447645244202005 1:0.804968 2:0.922274 3:0.373231 4:0.569514 5:0.514059 6:0.314176 7:0.40318 8:0.608479 
-0.5924083911269962 1:0.842522 2:0.895573 3:0.361874 4:0.399407 5:0.557839 6:0.277922 7:0.188817 8:0.838752 
-0.3796915584922947 1:0.827268 2:0.908975 3:0.344869 4:0.43232 5:0.595425 6:0.314176 7:0.375187 8:0.608479 
-0.42001442251794985 1:0.81841 2:0.908975 3:0.25532 4:0.405593 5:0.656022 6:0.366283 7:0.353483 8:0.677109 
-0.3735362253313436 1:0.866182 2:0.854733 3:0.273861 4:0.292925 5:0.689431 6:0.202504 7:0.268704 8:0.768503 
-0.5105178369027227 1:0.851445 2:0.882066 3:0.289181 4:0.414854 5:0.717044 6:0.330672 7:0.366408 8:0.631584 
-0.127016762837554 1:0.825888 2:0.882066 3:0.400952 4:0.41828 5:0.549174 6:0.306908 7:0.337685 8:0.66263 
-0.38021315413600243 1:0.717182 2:0.191855 3:0.354287 4:0.374621 5:0.547551 6:0.255556 7:0.393605 8:0.567783 
-0.5585541618083485 1:0.79878 2:0.191855 3:0.283614 4:0.247614 5:0.738861 6:0.225958 7:0.308614 8:0.691458 
-0.5756963446381539 1:0.783162 2:0.191855 3:0.354287 4:0.290002 5:0.595425 6:0.0595599 7:0.242597 8:0.920333 
-0.8053040497164863 1:0.883205 2:0.908975 3:0.27772 4:0.271642 5:0.746821 6:0.225958 7:0.381718 8:0.677109 
-0.6508304112837056 1:0.799201 2:0.171555 3:0.291156 4:0.083182 5:0.849591 6:0.263444 7:0.0421098 8:0.871815 
-0.44395683298009564 1:0.849414 2:0.908975 3:0.317501 4:0.0796113 5:0.768067 6:0.319583 7:0.325236 8:0.616054 
-0.6511686498645485 1:0.725321 2:0.109192 3:0.0969281 4:0.298475 5:0.755717 6:0.790853 7:0.344068 8:0.5651 
-0.6046701842602626 1:0.693092 2:0.191855 3:0.19202 4:0.449601 5:0.627513 6:0.218552 7:0.438158 8:0.567783 
-0.8317874678392101 1:0.800874 2:0.171555 3:0.333011 4:0.352722 5:0.562552 6:0.375613 7:0.0874905 8:0.774586 
-0.6494168932239549 1:0.839728 2:0.191855 3:0.177434 4:0.162666 5:0.738861 6:0.238742 7:0.206979 8:0.699283 
-0.6232729879829411 1:0.753202 2:0.171555 3:0.25532 4:0.469697 5:0.656022 6:0.0595599 7:0.242597 8:0.920333 
-0.29845507038348773 1:0.850867 2:0.895573 3:0.344869 4:0.352079 5:0.656022 6:0.348631 7:0.359892 8:0.623756 
-0.6036935028877237 1:0.878552 2:0.908975 3:0.300114 4:0.217906 5:0.625728 6:0.225958 7:0.353483 8:0.677109 
-0.709210190364752 1:0.927948 2:0.854733 3:0.273861 4:0.403751 5:0.564062 6:0.245355 7:0.379774 8:0.584434 
-0.626043810177512 1:0.745351 2:0.171555 3:0.326972 4:0.512366 5:0.607547 6:0.165606 7:0.276782 8:0.833649 
-0.7600376098828467 1:0.783162 2:0.171555 3:0.283614 4:0.374621 5:0.69108 6:0.375613 7:0.0874905 8:0.774586 
-0.47091245280872424 1:0.778843 2:0.191855 3:0.141993 4:0.290002 5:0.786611 6:0.213019 7:0.40897 8:0.584434 
-0.220536356494625 1:0.811275 2:0.191855 3:0.206411 4:0.281749 5:0.772349 6:0.218552 7:0.304412 8:0.71241 
-0.5743180798987856 1:0.856256 2:0.882066 3:0.327574 4:0.384919 5:0.633621 6:0.306908 7:0.251447 8:0.755608 
-0.5588205782808188 1:0.731641 2:0.171555 3:0.326972 4:0.512366 5:0.607547 6:0.284358 7:0.339176 8:0.699283 
-0.503512099585305 1:0.843441 2:0.826964 3:0.471872 4:0.444971 5:0.547551 6:0.325082 7:0.388361 8:0.623756 
-0.646369089179368 1:0.86171 2:0.895573 3:0.327574 4:0.384919 5:0.633621 6:0.27281 7:0.296974 8:0.707597 
-0.6511181353309727 1:0.762289 2:0.151015 3:0.660742 4:0.696232 5:0.275244 6:0.165606 7:0.276782 8:0.833649 
-0.3284554584312571 1:0.770814 2:0.191855 3:0.389589 4:0.374621 5:0.595425 6:0.107255 7:0.259772 8:0.808519 
-1.7256809107674216 1:0.873245 2:0.895573 3:0.282426 4:0.222652 5:0.786208 6:0.314176 7:0.40318 8:0.608479 
-0.30445113705275223 1:0.822732 2:0.908975 3:0.367235 4:0.459023 5:0.595425 6:0.314176 7:0.375187 8:0.608479 
-0.6094566843158231 1:0.717942 2:0.171555 3:0.219459 4:0.512366 5:0.607547 6:0.320797 7:0.339176 8:0.746761 
-0.2036460677137646 1:0.870262 2:0.895573 3:0.27772 4:0.325287 5:0.686299 6:0.207037 7:0.16026 8:0.838752 
-0.6502123194268457 1:0.723877 2:0.191855 3:0.318962 4:0.247614 5:0.882014 6:0.312392 7:0.199062 8:0.780204 
-0.6179505184289176 1:0.855419 2:0.895573 3:0.327574 4:0.222652 5:0.755717 6:0.254314 7:0.188817 8:0.838752 
-0.6264898137075545 1:0.792743 2:0.191855 3:0.141993 4:0.290002 5:0.738861 6:0.259038 7:0.428202 8:0.5621 
-0.6635719372749733 1:0.668302 2:0.0878964 3:0.200138 4:0.356199 5:0.804965 6:0.689765 7:0.782932 8:0.317965 
-0.5744660199528003 1:0.790522 2:0.191855 3:0.248242 4:0.543208 5:0.547551 6:0.107255 7:0.259772 8:0.808519 
-0.6270383739517931 1:0.777865 2:0.191855 3:0.269106 4:0.397366 5:0.804965 6:0.329422 7:0.438158 8:0.616054 
-0.5441647233407183 1:0.785968 2:0.191855 3:0.354287 4:0.374621 5:0.547551 6:0.132026 7:0.242597 8:0.873683 
-0.7447013240108477 1:0.80697 2:0.231755 3:0.133551 4:0.382668 5:0.768422 6:0.312392 7:0.199062 8:0.780204 
-0.7564197704577159 1:0.78735 2:0.171555 3:0.354287 4:0.543208 5:0.499646 6:0.300884 7:0.494551 8:0.628271 
-1.525381941668871 1:0.889029 2:0.882066 3:0.355484 4:0.309385 5:0.70323 6:0.348631 7:0.359892 8:0.623756 
-0.6610203024404003 1:0.739641 2:0.191855 3:0.354287 4:0.374621 5:0.547551 6:0.49326 7:0.399681 8:0.574368 
-0.6026775636145556 1:0.790522 2:0.211919 3:0.206411 4:0.57322 5:0.583614 6:0.2078 7:0.137224 8:0.80284 
-0.6183007862197426 1:0.791415 2:0.171555 3:0.206411 4:0.166532 5:0.843001 6:0.300884 7:0.268704 8:0.823234 
-0.5956943020304992 1:0.852592 2:0.908975 3:0.322496 4:0.325287 5:0.80729 6:0.221307 7:0.515043 8:0.517451 
-0.6212933039751862 1:0.747203 2:0.171555 3:0.111733 4:0.426976 5:0.801248 6:0.247871 7:0.251073 8:0.746761 
-0.673001072534928 1:0.808944 2:0.191855 3:0.248242 4:0.290002 5:0.738861 6:0.144403 7:0.12568 8:0.90438 
-0.5365704278938551 1:0.829311 2:0.231755 3:0.25532 4:0.411884 5:0.627513 6:0.0595599 7:0.242597 8:0.920333 
-0.7634116635662557 1:0.835914 2:0.840904 3:0.39542 4:0.410245 5:0.603332 6:0.436189 7:0.550894 8:0.432296 
-0.6110628101090976 1:0.828973 2:0.868454 3:0.327574 4:0.357928 5:0.603067 6:0.408127 7:0.401984 8:0.514076 
-0.6526942203181351 1:0.824144 2:0.211919 3:0.101461 4:0.365291 5:0.72521 6:0.2078 7:0.137224 8:0.80284 
-0.5501510605457541 1:0.834943 2:0.868454 3:0.200138 4:0.397366 5:0.742941 6:0.330672 7:0.366408 8:0.631584 
-0.597035423856424 1:0.830992 2:0.882066 3:0.400952 4:0.200128 5:0.764761 6:0.283122 7:0.251447 8:0.755608 
-0.7135879076414008 1:0.840666 2:0.868454 3:0.300114 4:0.217906 5:0.716565 6:0.408127 7:0.401984 8:0.514076 
-0.6546172678914232 1:0.754952 2:0.191855 3:0.141993 4:0.247614 5:0.834326 6:0.49326 7:0.399681 8:0.574368 
-0.7687984751592563 1:0.817307 2:0.191855 3:0.212851 4:0.290002 5:0.69108 6:0.225958 7:0.381718 8:0.636418 
-0.6168957342486705 1:0.75782 2:0.151015 3:0.153489 4:0.35063 5:0.767254 6:0.204309 7:0.286102 8:0.826971 
-0.6326987876483101 1:0.705247 2:0.191855 3:0.511366 4:0.422602 5:0.55408 6:0.255556 7:0.438158 8:0.71241 
-0.6510124657865493 1:0.575896 2:0.0223949 3:0.398528 4:0.724869 5:0.413339 6:0.530499 7:0.58733 8:0.45396 
-0.3136357763777897 1:0.837197 2:0.908975 3:0.389589 4:0.352079 5:0.625728 6:0.225958 7:0.296974 8:0.738061 
-0.6673518079385027 1:0.856256 2:0.908975 3:0.110854 4:0.724869 5:0.454829 6:0.319583 7:0.268704 8:0.677109 
-0.97728332217569 1:0.890989 2:0.908975 3:0.322496 4:0.271642 5:0.746821 6:0.249392 7:0.296974 8:0.677109 
-0.5759200067892997 1:0.776384 2:0.191855 3:0.381701 4:0.374124 5:0.67027 6:0.107255 7:0.215106 8:0.808519 
-0.651221227338233 1:0.7069 2:0.151015 3:0.248242 4:0.247614 5:0.69108 6:0.648638 7:0.689277 8:0.292635 
-0.6288065824747064 1:0.761738 2:0.211919 3:0.38088 4:0.406982 5:0.678042 6:0.0595599 7:0.242597 8:0.920333 
-0.6505237548189436 1:0.79493 2:0.364596 3:0.128644 4:0.336323 5:0.67027 6:0.12649 7:0.348498 8:0.691458 
-0.6667320924700201 1:0.750833 2:0.171555 3:0.291156 4:0.384199 5:0.801248 6:0.393539 7:0.471119 8:0.508771 
-0.7010136463548199 1:0.820588 2:0.34623 3:0.325691 4:0.420868 5:0.595425 6:0.159685 7:0.507811 8:0.60527 
-0.651001012598033 1:0.564854 2:0.109192 3:0.415706 4:0.490206 5:0.489065 6:0.752514 7:0.625952 8:0.257919 
-0.45238853380105754 1:0.869253 2:0.882066 3:0.350132 4:0.384919 5:0.633621 6:0.259316 7:0.251447 8:0.786548 
-0.6506062548288184 1:0.760072 2:0.151015 3:0.371463 4:0.739179 5:0.521662 6:0.181503 7:0.304412 8:0.664263 
-0.2884199406399819 1:0.778355 2:0.211919 3:0.160341 4:0.411884 5:0.627513 6:0.320797 7:0.427166 8:0.651746 
-0.6460107587255078 1:0.822377 2:0.798742 3:0.378224 4:0.0905035 5:0.88767 6:0.215909 7:0.407927 8:0.681464 
-0.660909049790221 1:0.878315 2:0.868454 3:0.246126 4:0.149577 5:0.804965 6:0.174759 7:0.347179 8:0.699283 
-0.6519639756501979 1:0.723149 2:0.151015 3:0.200138 4:0.356199 5:0.804965 6:0.460711 7:0.643689 8:0.442253 
-0.9980069182781175 1:0.802526 2:0.171555 3:0.25532 4:0.411884 5:0.627513 6:0.188422 7:0.223446 8:0.774586 
-0.6232608552558223 1:0.820948 2:0.868454 3:0.46279 4:0.411884 5:0.511325 6:0.312392 7:0.430924 8:0.514076 
-0.610688778370156 1:0.815451 2:0.770054 3:0.230871 4:0.560782 5:0.578892 6:0.225958 7:0.268704 8:0.768503 
-0.6329467341804568 1:0.750235 2:0.171555 3:0.326972 4:0.554976 5:0.607547 6:0.300884 7:0.53963 8:0.628271 
-0.650141095529198 1:0.629695 2:0.151015 3:0.371463 4:0.739179 5:0.521662 6:0.255556 7:0.349023 8:0.71241 
-0.5602717091563699 1:0.770296 2:0.191855 3:0.269106 4:0.397366 5:0.804965 6:0.255556 7:0.349023 8:0.71241 
-3.196638142567294 1:0.912934 2:0.895573 3:0.282426 4:0.357928 5:0.664166 6:0.254314 7:0.331406 8:0.68531 
-0.476514808449778 1:0.714876 2:0.151015 3:0.262587 4:0.394031 5:0.767254 6:0.299546 7:0.397849 8:0.616054 
-0.650917718278066 1:0.635327 2:0.109192 3:0.177434 4:0.162666 5:0.882014 6:0.443947 7:0.532119 8:0.666939 
-0.6488791869521942 1:0.744728 2:0.171555 3:0.424868 4:0.459023 5:0.547551 6:0.375613 7:0.0874905 8:0.774586 
-0.5106064950615687 1:0.822021 2:0.868454 3:0.42969 4:0.424783 5:0.494321 6:0.429841 7:0.375187 8:0.578159 
-0.6166094028110217 1:0.73436 2:0.151015 3:0.371463 4:0.567059 5:0.570844 6:0.12649 7:0.388361 8:0.648391 
-0.4353259329232831 1:0.803752 2:0.171555 3:0.206411 4:0.281749 5:0.772349 6:0.225958 7:0.268704 8:0.725879 
-0.34038924671131077 1:0.85819 2:0.854733 3:0.292075 4:0.177201 5:0.77396 6:0.245355 7:0.292103 8:0.67921 
-0.5270320570130144 1:0.80004 2:0.895573 3:0.367235 4:0.405593 5:0.686299 6:0.489533 7:0.388361 8:0.500343 
-0.6917911268895472 1:0.834292 2:0.211919 3:0.206411 4:0.281749 5:0.772349 6:0.138133 7:0.339176 8:0.746761 
-0.5942408806769783 1:0.721681 2:0.191855 3:0.177434 4:0.459023 5:0.738861 6:0.320797 7:0.427166 8:0.651746 
-0.6019358023415129 1:0.783634 2:0.191855 3:0.354287 4:0.290002 5:0.595425 6:0.181503 7:0.393605 8:0.71241 
-0.5994874357517959 1:0.787808 2:0.211919 3:0.136467 4:0.448621 5:0.630843 6:0.168189 7:0.199062 8:0.920333 
-0.6415260292345932 1:0.863305 2:0.908975 3:0.295302 4:0.133127 5:0.678042 6:0.296206 7:0.466358 8:0.5549 
-0.6515436950849365 1:0.81166 2:0.151015 3:0.212851 4:0.290002 5:0.69108 6:0.34736 7:0.552418 8:0.591273 
-0.4177671763083164 1:0.800457 2:0.191855 3:0.354287 4:0.374621 5:0.547551 6:0.174759 7:0.118706 8:0.888834 
-0.5911966491857953 1:0.805772 2:0.191855 3:0.354287 4:0.290002 5:0.595425 6:0.107255 7:0.259772 8:0.760495 
-0.4029724850172402 1:0.760072 2:0.191855 3:0.177434 4:0.416849 5:0.595425 6:0.320797 7:0.427166 8:0.651746 
-0.6506072645897804 1:0.768732 2:0.171555 3:0.362762 4:0.083182 5:0.801248 6:0.225958 7:0.188817 8:0.863246 
-0.547710721614451 1:0.841906 2:0.882066 3:0.411934 4:0.378847 5:0.595425 6:0.283122 7:0.366408 8:0.66263 
-0.5533721051759614 1:0.766617 2:0.191855 3:0.354287 4:0.374621 5:0.547551 6:0.284358 7:0.339176 8:0.699283 
-0.8519262493730944 1:0.828293 2:0.171555 3:0.217791 4:0.178487 5:0.82767 6:0.113201 7:0.449439 8:0.628271 
-0.2090709190791261 1:0.769255 2:0.191855 3:0.249065 4:0.440395 5:0.616569 6:0.292513 7:0.304412 8:0.71241 
-0.6509791335161783 1:0.743474 2:0.191855 3:0.374685 4:0.795402 5:0.291699 6:0.255556 7:0.393605 8:0.567783 
-0.6354288987779128 1:0.791415 2:0.151015 3:0.0806358 4:0.263658 5:0.865263 6:0.204309 7:0.459852 8:0.592546 
-0.28161262763539957 1:0.856811 2:0.882066 3:0.322496 4:0.378847 5:0.625728 6:0.187786 7:0.193895 8:0.848354 
-0.252990103770926 1:0.840042 2:0.908975 3:0.295302 4:0.399407 5:0.648011 6:0.296206 7:0.353483 8:0.707597 
-0.6245930863464176 1:0.783634 2:0.151015 3:0.262587 4:0.567059 5:0.669115 6:0.138133 7:0.339176 8:0.746761 
-0.6556325627351307 1:0.774384 2:0.191855 3:0.354287 4:0.58522 5:0.403742 6:0.0700592 7:0.349023 8:0.760495 
-0.8102064112652638 1:0.826924 2:0.840904 3:0.0859277 4:0.690689 5:0.536737 6:0.323649 7:0.357167 8:0.624023 
-0.5134213607551259 1:0.881826 2:0.908975 3:0.339693 4:0.106382 5:0.768067 6:0.202504 7:0.296974 8:0.768503 
-0.45004250366983906 1:0.76501 2:0.191855 3:0.318962 4:0.332339 5:0.595425 6:0.211339 7:0.427166 8:0.55649 
-0.21370851101909566 1:0.825541 2:0.882066 3:0.4566 4:0.405593 5:0.534779 6:0.306908 7:0.280206 8:0.693646 
-0.6259033135785267 1:0.730262 2:0.171555 3:0.326972 4:0.341364 5:0.752868 6:0.218552 7:0.259772 8:0.856478 
-0.357801697765179 1:0.851156 2:0.908975 3:0.322496 4:0.0291398 5:0.777062 6:0.221307 7:0.291136 8:0.729505 
-0.635083737092781 1:0.81841 2:0.191855 4:0.374621 5:0.738861 6:0.181503 7:0.170408 8:0.856478 
-0.6426331011651473 1:0.717182 2:0.171555 3:0.206411 4:0.57322 5:0.583614 6:0.225958 7:0.313931 8:0.823234 
-0.6760485336971043 1:0.861442 2:0.854733 3:0.366462 4:0.431397 5:0.532689 6:0.225958 7:0.325236 8:0.707597 
-0.41979813894943946 1:0.85819 2:0.908975 3:0.25532 4:0.325287 5:0.716565 6:0.170559 7:0.257576 8:0.721086 
-0.9136258889932587 1:0.890339 2:0.908975 3:0.242203 4:0.0989829 5:0.809502 6:0.319583 7:0.381718 8:0.677109 
-0.6059700159267396 1:0.832652 2:0.882066 3:0.400952 4:0.41828 5:0.549174 6:0.389603 7:0.240422 8:0.677109 
-0.5381206844323154 1:0.838152 2:0.895573 3:0.327574 4:0.384919 5:0.633621 6:0.489533 7:0.41682 8:0.500343 
-0.6437312673083497 1:0.704414 2:0.191855 3:0.248242 4:0.416849 5:0.643268 6:0.403097 7:0.482682 8:0.51945 
-0.0027621789414361596 1:0.88389 2:0.895573 3:0.305003 4:0.222652 5:0.755717 6:0.30362 7:0.0863814 8:0.801884 
-0.4375709535807764 1:0.758951 2:0.191855 3:0.248242 4:0.416849 5:0.643268 6:0.312392 7:0.242597 8:0.733376 
-0.5736402244194209 1:0.850578 2:0.868454 3:0.383857 4:0.424783 5:0.432035 6:0.348631 7:0.359892 8:0.623756 
-0.6273968394463892 1:0.799621 2:0.882066 3:0.469084 4:0.769717 5:0.240093 6:0.319583 7:0.381718 8:0.677109 
-0.3835639553105459 1:0.830992 2:0.908975 3:0.322496 4:0.325287 5:0.656022 6:0.296206 7:0.466358 8:0.5549 
-1.8971040364558414 1:0.897741 2:0.908975 3:0.25532 4:0.325287 5:0.746821 6:0.225958 7:0.296974 8:0.768503 
-0.6067606452746214 1:0.864881 2:0.211919 3:0.0664322 4:0.281749 5:0.819457 6:0.0279739 7:0.251073 8:0.841536 
-0.5340847586433948 1:0.785504 2:0.171555 3:0.291156 4:0.469697 5:0.656022 6:0.270681 7:0.206979 8:0.699283 
-0.6303699001059287 1:0.780779 2:0.171555 3:0.177434 4:0.459023 5:0.738861 6:0.188422 7:0.223446 8:0.774586 
-0.6508598931697187 1:0.716418 2:0.211919 3:0.511366 4:0.422602 5:0.55408 6:0.429841 7:0.515043 8:0.460992 
-0.6992373302209043 1:0.790969 2:0.211919 3:0.276266 4:0.156037 5:0.819457 6:0.174759 7:0.55894 8:0.604148 
-0.4721403549072198 1:0.829986 2:0.38277 3:0.311565 4:0.440395 5:0.531957 6:0.284781 7:0.418475 8:0.552054 
-0.0504269342764981 1:0.850288 2:0.895573 3:0.282426 4:0.330918 5:0.694694 6:0.314176 7:0.375187 8:0.608479 
-0.6462538338719827 1:0.730953 2:0.211919 3:0.415706 4:0.490206 5:0.489065 6:0.213019 7:0.40897 8:0.584434 
-0.6473766675698542 1:0.799201 2:0.191855 3:0.071043 4:0.247614 5:0.929672 6:0.403097 7:0.482682 8:0.51945 
-0.8005773733154425 1:0.796654 2:0.191855 3:0.248242 4:0.332339 5:0.738861 6:0.284358 7:0.339176 8:0.699283 
-0.6340570236734011 1:0.874225 2:0.895573 3:0.25532 4:0.378847 5:0.656022 6:0.207037 7:0.16026 8:0.838752 
-0.6172731581886447 1:0.781737 2:0.191855 3:0.141993 4:0.162666 5:0.882014 6:0.329422 7:0.482682 8:0.567783 
-1.1204992962392444 1:0.898357 2:0.895573 3:0.202733 4:0.114025 5:0.91606 6:0.230687 7:0.274407 8:0.777452 
-0.65083048116284 1:0.852592 2:0.908975 3:0.0954423 4:0.633729 5:0.538572 6:0.436189 7:0.550894 8:0.432296 
-0.7460098085372476 1:0.885024 2:0.882066 3:0.25532 4:0.325287 5:0.746821 6:0.235494 7:0.30895 8:0.693646 
-0.542449927158392 1:0.694895 2:0.171555 3:0.147665 4:0.341364 5:0.752868 6:0.598644 7:0.546562 8:0.545483 
-0.6511759100706189 1:0.817307 2:0.908975 3:0.4566 4:0.565619 5:0.413339 6:0.239791 7:0.28539 8:0.84076 
-0.21583526186429647 1:0.835914 2:0.908975 3:0.300114 4:0.217906 5:0.716565 6:0.27281 7:0.353483 8:0.616054 
-0.25124094635343963 1:0.851732 2:0.882066 3:0.309978 4:0.282103 5:0.734004 6:0.366283 7:0.353483 8:0.677109 
-0.6153613787072307 1:0.787808 2:0.868454 3:0.42969 4:0.424783 5:0.494321 6:0.489533 7:0.388361 8:0.500343 
-0.6508260668404973 1:0.564854 2:0.171555 3:0.38088 4:0.406982 5:0.678042 6:0.487345 7:0.449439 8:0.481385 
-0.6789506436571006 1:0.799621 2:0.38277 3:0.272853 4:0.354406 5:0.634951 6:0.219413 7:0.418475 8:0.637363 
-0.6687550934234575 1:0.812044 2:0.191855 3:0.248242 4:0.290002 5:0.69108 6:0.213019 7:0.40897 8:0.584434 
-0.74240596909294 1:0.834292 2:0.895573 3:0.273094 4:0.133127 5:0.768067 6:0.489533 7:0.41682 8:0.500343 
-0.3116404889777661 1:0.784572 2:0.171555 3:0.276266 4:0.323547 5:0.678042 6:0.375613 7:0.0874905 8:0.774586 
-0.5924628275753678 1:0.811275 2:0.191855 3:0.389589 4:0.374621 5:0.595425 6:0.168189 7:0.329582 8:0.780204 
-0.5937291415172079 1:0.773374 2:0.191855 3:0.389589 4:0.332339 5:0.547551 6:0.357191 7:0.383185 8:0.699283 
-0.5987599728999207 1:0.8391 2:0.882066 3:0.309978 4:0.309385 5:0.734004 6:0.151458 7:0.375187 8:0.729505 
-0.09690864167450788 1:0.847649 2:0.854733 3:0.227498 4:0.376079 5:0.689431 6:0.254314 7:0.331406 8:0.68531 
-0.5982607037028677 1:0.856256 2:0.895573 3:0.237969 4:0.199686 5:0.829711 6:0.325082 7:0.274407 8:0.716048 
-0.0645980021872377 1:0.815824 2:0.882066 3:0.45051 4:0.399407 5:0.557839 6:0.306908 7:0.251447 8:0.755608 
-0.6503975521515455 1:0.819866 2:0.908975 3:0.131083 4:0.911717 5:0.357221 6:0.389603 7:0.353483 8:0.5549 
-0.36898278757564573 1:0.851156 2:0.895573 3:0.350132 4:0.303886 5:0.694694 6:0.249392 7:0.353483 8:0.677109 
-0.5947166661055707 1:0.884798 2:0.895573 3:0.305003 4:0.195527 5:0.755717 6:0.139612 8:0.969181 
-1.5365998436093773 1:0.813189 2:0.191855 3:0.248242 4:0.332339 5:0.69108 6:0.247871 7:0.162857 8:0.936073 
-0.6310499603602371 1:0.763928 2:0.171555 3:0.326972 4:0.341364 5:0.752868 6:0.255556 7:0.215106 8:0.760495 
-0.5000518610094179 1:0.785968 2:0.171555 3:0.10653 4:0.374621 5:0.738861 6:0.263444 7:0.494551 8:0.628271 
-0.357721365416362 1:0.778355 2:0.171555 3:0.25532 4:0.469697 5:0.656022 6:0.305357 7:0.217049 8:0.735415 
-0.7415863371995539 1:0.80537 2:0.171555 3:0.291156 4:0.255531 5:0.752868 6:0.0647407 7:0.339176 8:0.746761 
-0.616131306039755 1:0.832322 2:0.882066 3:0.485292 4:0.330918 5:0.603067 6:0.211648 7:0.251447 8:0.786548 
-0.6594223220074464 1:0.803345 2:0.171555 3:0.111733 4:0.426976 5:0.801248 6:0.307194 7:0.325914 8:0.582912 
-0.6142118542253762 1:0.770296 2:0.191855 3:0.136467 4:0.323547 5:0.772349 6:0.329422 7:0.438158 8:0.616054 
-0.609110475339535 1:0.748423 2:0.191855 3:0.24135 4:0.490206 5:0.678042 6:0.255556 7:0.393605 8:0.567783 
-0.63154912668258 1:0.827952 2:0.895573 3:0.110854 4:0.724869 5:0.454829 6:0.277922 7:0.188817 8:0.838752 
-0.22121184758846354 1:0.779815 2:0.191855 3:0.354287 4:0.374621 5:0.547551 6:0.174759 7:0.118706 8:0.888834 
-0.37494452860643257 1:0.831658 2:0.854733 3:0.273861 4:0.320668 5:0.658108 6:0.283122 7:0.251447 8:0.755608 
-0.6510031929645899 1:0.802936 2:0.364596 3:0.25532 4:0.600035 5:0.456225 6:0.142716 7:0.129747 8:0.989148 
-0.6117541875599672 1:0.774887 2:0.231755 3:0.381701 4:0.374124 5:0.67027 6:0.204309 7:0.286102 8:0.826971 
-0.6387991501864858 1:0.852592 2:0.908975 3:0.25532 4:0.378847 5:0.656022 6:0.436189 7:0.409946 8:0.524287 
-0.015657362450487558 1:0.826579 2:0.908975 3:0.361874 4:0.425915 5:0.58791 6:0.296206 7:0.353483 8:0.646592 
-0.6638718169861231 1:0.63394 2:0.0878964 3:0.812912 4:0.829121 5:0.197331 6:0.188422 7:0.4043 8:0.628271 
-0.48407414384071623 1:0.846758 2:0.882066 3:0.344869 4:0.405593 5:0.56511 6:0.259316 7:0.337685 8:0.693646 
-0.6372003045191158 1:0.782689 2:0.191855 3:0.177434 4:0.205168 5:0.977298 6:0.329422 7:0.527177 8:0.51945 
-0.297617497665069 1:0.839414 2:0.895573 3:0.305003 4:0.357928 5:0.664166 6:0.27281 7:0.381718 8:0.707597 
-0.6509509022810201 1:0.689413 2:0.0878964 3:0.925242 4:0.425171 5:0.300271 6:0.188422 7:0.223446 8:0.774586 
-0.6298093881690137 1:0.780779 2:0.191855 3:0.177434 4:0.205168 5:0.977298 6:0.181503 7:0.349023 8:0.664263 
-0.6571416164865921 1:0.808158 2:0.151015 3:0.117076 4:0.394031 5:0.816277 6:0.0811229 7:0.369512 8:0.83834 
-0.41185400316993204 1:0.88837 2:0.908975 3:0.23291 4:0.325287 5:0.746821 6:0.249392 7:0.296974 8:0.677109 
-0.6361540921965818 1:0.855419 2:0.854733 3:0.273861 4:0.403751 5:0.564062 6:0.436189 7:0.325236 8:0.585491 
-0.31312471861236835 1:0.81914 2:0.908975 3:0.389589 4:0.352079 5:0.686299 6:0.225958 7:0.268704 8:0.768503 
-0.670311788687105 1:0.84405 2:0.191855 3:0.177434 4:0.416849 5:0.595425 6:0.144403 7:0.393605 8:0.616054 
-0.67172688398448 1:0.81841 2:0.171555 3:0.219459 4:0.212527 5:0.752868 6:0.211339 7:0.118706 8:0.936073 
-0.5765242375495837 1:0.865403 2:0.868454 3:0.200138 4:0.397366 5:0.742941 6:0.225958 7:0.353483 8:0.677109 
-0.6278737699355786 1:0.668302 2:0.171555 3:0.57701 4:0.724869 5:0.316041 6:0.312392 7:0.329582 8:0.686492 
-0.5790583111700436 1:0.769777 2:0.191855 3:0.354287 4:0.374621 5:0.547551 6:0.403097 7:0.438158 8:0.567783 
-0.403024274242296 1:0.740287 2:0.191855 3:0.354287 4:0.374621 5:0.547551 6:0.211339 7:0.427166 8:0.55649 
-0.468302792991122 1:0.885924 2:0.908975 3:0.300114 4:0.217906 5:0.716565 6:0.262832 7:0.0625712 8:0.780971 
-0.5930396502602626 1:0.795363 2:0.171555 3:0.25532 4:0.469697 5:0.656022 6:0.144403 7:0.304412 8:0.760495 
-0.6509295299507212 1:0.58612 2:0.109192 3:0.219459 4:0.212527 5:0.946188 6:0.790853 7:0.85997 8:0.154963 
-0.6002897907833648 1:0.753788 2:0.882066 3:0.469084 4:0.769717 5:0.240093 6:0.360498 7:0.347179 8:0.578159 
-0.6559337652726365 1:0.792743 2:0.171555 3:0.424868 4:0.374621 5:0.595425 6:0.225958 7:0.223446 8:0.774586 
-0.599405599239363 1:0.831325 2:0.191855 3:0.0664322 4:0.281749 5:0.819457 6:0.107255 7:0.215106 8:0.808519 
-1.5354228922598911 1:0.880665 2:0.895573 3:0.350132 4:0.465752 5:0.572496 6:0.325082 7:0.445269 8:0.592939 
-0.6307711716161135 1:0.802936 2:0.191855 3:0.10653 4:0.205168 5:0.882014 6:0.270681 7:0.245564 8:0.865194 
-0.650631158388766 1:0.771844 2:0.171555 3:0.111733 4:0.554976 5:0.559044 6:0.375613 7:0.0874905 8:0.774586 
-0.5565483016789996 1:0.690342 2:0.191855 3:0.38088 4:0.448621 5:0.630843 6:0.255556 7:0.349023 8:0.71241 
-0.47890715314007565 1:0.841597 2:0.840904 3:0.39542 4:0.410245 5:0.603332 6:0.27281 7:0.212124 8:0.798918 
-0.6160308562253823 1:0.834618 2:0.854733 3:0.273861 4:0.209561 5:0.783317 6:0.325082 7:0.388361 8:0.623756 
-0.6509994916254346 1:0.717182 2:0.364596 3:0.570721 4:0.411884 5:0.456225 6:0.284781 7:0.339688 8:0.637363 
-0.45152414417607784 1:0.730953 2:0.191855 3:0.248242 4:0.332339 5:0.69108 6:0.357191 7:0.383185 8:0.699283 
-0.7232987570407071 1:0.816938 2:0.191855 3:0.311565 4:0.365776 5:0.616569 6:0.218552 7:0.259772 8:0.71241 
-0.5920364809049266 1:0.792302 2:0.13023 3:0.196356 4:0.44805 5:0.682569 6:0.138133 7:0.339176 8:0.746761 
-0.020509440116169002 1:0.847352 2:0.854733 3:0.273861 4:0.292925 5:0.689431 6:0.230687 7:0.245887 8:0.808114 
-0.6362790164699471 1:0.738992 2:0.171555 3:0.248242 4:0.247614 5:0.643268 6:0.375613 7:0.494551 8:0.579374 
-0.6904834378659088 1:0.833311 2:0.191855 3:0.206411 4:0.166532 5:0.843001 6:0.403097 7:0.393605 8:0.51945 
-0.5265586198800629 1:0.871264 2:0.895573 3:0.339693 4:0.346323 5:0.617965 6:0.207037 7:0.16026 8:0.838752 
-0.3761094189765051 1:0.837834 2:0.895573 3:0.389589 4:0.352079 5:0.625728 6:0.301513 7:0.188817 8:0.777452 
-0.6386201192127483 1:0.818775 2:0.191855 3:0.071043 4:0.374621 5:0.786611 6:0.270681 7:0.245564 8:0.865194 
-0.6127624987475362 1:0.712531 2:0.191855 3:0.346031 4:0.323547 5:0.678042 6:0.329422 7:0.438158 8:0.567783 
-0.5989322329159084 1:0.762837 2:0.171555 3:0.147665 4:0.469697 5:0.607547 6:0.225958 7:0.188817 8:0.863246 
-0.5892217251698366 1:0.836236 2:0.908975 3:0.0954423 4:0.633729 5:0.538572 6:0.342944 7:0.296974 8:0.616054 
-0.6302753246816645 1:0.782214 2:0.231755 3:0.160341 4:0.374124 5:0.67027 6:0.204309 7:0.373032 8:0.733376 
-0.31766798920328976 1:0.838152 2:0.854733 3:0.273861 4:0.292925 5:0.689431 6:0.319583 7:0.325236 8:0.616054 
-0.7054017809417271 1:0.813947 2:0.151015 3:0.153489 4:0.176455 5:0.91422 6:0.12649 7:0.388361 8:0.648391 
-0.6290015117058576 1:0.851732 2:0.882066 3:0.305003 4:0.357928 5:0.664166 6:0.378143 7:0.165103 8:0.786548 
-0.556638952999774 1:0.779815 2:0.895573 3:0.417754 4:0.330918 5:0.541917 6:0.412907 7:0.381718 8:0.646592 
-0.6514448359328604 1:0.837516 2:0.922274 3:0.110854 4:0.724869 5:0.454829 6:0.429841 7:0.375187 8:0.578159 
-1.1860769562858187 1:0.882517 2:0.895573 3:0.440278 4:0.411884 5:0.511325 6:0.0615576 7:0.0706983 8:0.939421 
-0.5346704290753482 1:0.859825 2:0.882066 3:0.355484 4:0.309385 5:0.70323 6:0.202504 7:0.296974 8:0.768503 
-0.30063857057869486 1:0.87926 2:0.908975 3:0.25532 4:0.325287 5:0.746821 6:0.249392 7:0.325236 8:0.677109 
-2.126702409435284 1:0.838468 2:0.211919 3:0.38088 4:0.365291 5:0.536355 6:0.357191 7:0.339176 8:0.55649 
-0.518682587261324 1:0.774887 2:0.171555 3:0.147665 4:0.469697 5:0.607547 6:0.255556 7:0.393605 8:0.567783 
-0.4963425958340225 1:0.80537 2:0.191855 3:0.318962 4:0.332339 5:0.595425 6:0.0700592 7:0.259772 8:0.856478 
-0.5589960773771907 1:0.767678 2:0.171555 3:0.248242 4:0.290002 5:0.69108 6:0.263444 7:0.449439 8:0.677109 
-0.601889473303507 1:0.894617 2:0.840904 3:0.290571 4:0.102652 5:0.759216 6:0.323649 7:0.357167 8:0.624023 
-0.3635751013335569 1:0.821664 2:0.908975 3:0.384048 4:0.372874 5:0.557839 6:0.225958 7:0.353483 8:0.677109 
-0.05844203561478123 1:0.84526 2:0.895573 3:0.259839 4:0.222652 5:0.786208 6:0.296206 7:0.268704 8:0.738061 
-0.5994555486617905 1:0.847055 2:0.784457 3:0.298902 4:0.37957 5:0.636372 6:0.296206 7:0.353483 8:0.707597 
-0.00767874385745132 1:0.791859 2:0.191855 3:0.177434 4:0.332339 5:0.738861 6:0.218552 7:0.393605 8:0.664263 
-0.5717633074533963 1:0.802936 2:0.191855 3:0.141993 4:0.247614 5:0.834326 6:0.284781 7:0.339688 8:0.637363 
-0.6421365878132003 1:0.702731 2:0.151015 3:0.262587 4:0.567059 5:0.669115 6:0.329422 7:0.482682 8:0.567783 
-0.8537364300063485 1:0.89228 2:0.895573 3:0.327574 4:0.411884 5:0.603067 6:0.0615576 7:0.0706983 8:0.939421 
-0.6555708959076809 1:0.891421 2:0.882066 3:0.350132 4:0.303886 5:0.694694 6:0.163901 7:0.222679 8:0.817465 
-0.6435535938532689 1:0.765548 2:0.171555 3:0.183572 4:0.469697 5:0.849591 6:0.263444 7:0.449439 8:0.677109 
-0.8618363667647281 1:0.862775 2:0.191855 3:0.177434 4:0.332339 5:0.738861 6:0.107255 7:0.215106 8:0.808519 
-1.2204189554261007 1:0.869 2:0.895573 3:0.367235 4:0.352079 5:0.56511 6:0.301513 7:0.331406 8:0.623756 
-0.6639345961310309 1:0.841287 2:0.840904 3:0.39542 4:0.410245 5:0.603332 6:0.216731 7:0.118345 8:0.930271 
-0.35481016748315475 1:0.85819 2:0.882066 3:0.327574 4:0.303886 5:0.72521 6:0.259316 7:0.337685 8:0.693646 
-0.30276061424271133 1:0.889686 2:0.908975 3:0.300114 4:0.217906 5:0.716565 6:0.30362 7:0.0863814 8:0.801884 
-0.603498967053847 1:0.744728 2:0.191855 3:0.354287 4:0.459023 5:0.595425 6:0.218552 7:0.393605 8:0.664263 
-0.5672261508969383 1:0.885249 2:0.882066 3:0.206411 4:0.372874 5:0.678042 6:0.163901 7:0.222679 8:0.817465 
-0.7255492055217558 1:0.830992 2:0.191855 3:0.181098 4:0.357619 5:0.689431 6:0.181503 7:0.304412 8:0.664263 
-0.6505505629185622 1:0.675704 2:0.171555 3:0.790417 4:0.426976 5:0.364708 6:0.192839 7:0.348498 8:0.691458 
-0.6672671519540695 1:0.86747 2:0.882066 3:0.400952 4:0.200128 5:0.764761 6:0.151458 7:0.375187 8:0.729505 
-0.6303288624938268 1:0.715649 2:0.171555 3:0.354287 4:0.459023 5:0.595425 6:0.338273 7:0.132838 8:0.725879 
-0.10016793139832432 1:0.847352 2:0.882066 3:0.344869 4:0.43232 5:0.595425 6:0.259316 7:0.337685 8:0.693646 
-0.6095104101579658 1:0.788718 2:0.191855 3:0.354287 4:0.543208 5:0.499646 6:0.213019 7:0.40897 8:0.584434 
-0.5951081045238398 1:0.887041 2:0.882066 3:0.241646 4:0.254802 5:0.795509 6:0.139612 8:0.969181 
-0.591319241394991 1:0.823792 2:0.908975 3:0.4566 4:0.405593 5:0.534779 6:0.239791 7:0.28539 8:0.84076 
-0.3847261096267476 1:0.750833 2:0.171555 3:0.147665 4:0.341364 5:0.752868 6:0.263444 7:0.494551 8:0.628271 
-0.6397853015379669 1:0.882747 2:0.854733 3:0.227498 4:0.376079 5:0.689431 6:0.319583 7:0.296974 8:0.707597 
-0.723114929057418 1:0.85202 2:0.895573 3:0.440278 4:0.411884 5:0.511325 6:0.207037 7:0.16026 8:0.838752 
-0.1683815041361701 1:0.842522 2:0.908975 3:0.250875 4:0.319751 5:0.708064 6:0.296206 7:0.353483 8:0.646592 
-0.2657684807925358 1:0.79493 2:0.895573 3:0.395224 4:0.438827 5:0.572496 6:0.225958 7:0.353483 8:0.677109 
-0.6594422722811368 1:0.874225 2:0.882066 3:0.220334 4:0.49156 5:0.454829 6:0.306908 7:0.280206 8:0.693646 
-0.5425778526477463 1:0.686588 2:0.191855 3:0.177434 4:0.374621 5:0.69108 6:0.598644 7:0.546562 8:0.545483 
-1.0531294622874774 1:0.84526 2:0.868454 3:0.383857 4:0.397366 5:0.432035 6:0.225958 7:0.296974 8:0.768503 
-0.5128780880615436 1:0.785039 2:0.895573 3:0.507788 4:0.411884 5:0.480716 6:0.38363 7:0.347179 8:0.608479 
-0.629997197433193 1:0.756106 2:0.191855 3:0.177434 4:0.332339 5:0.738861 6:0.192839 7:0.46802 8:0.518881 
-0.4185397593420652 1:0.784572 2:0.826964 3:0.471872 4:0.444971 5:0.547551 6:0.314176 7:0.375187 8:0.608479 
-0.7506106896341902 1:0.890989 2:0.908975 3:0.202733 4:0.114025 5:0.91606 6:0.27281 7:0.353483 8:0.616054 
-0.44330034207133745 1:0.844353 2:0.895573 3:0.4566 4:0.43232 5:0.595425 6:0.325082 7:0.274407 8:0.716048 
-0.624102948219544 1:0.753788 2:0.211919 3:0.206411 4:0.156037 5:0.866535 6:0.312392 7:0.242597 8:0.733376 
-0.5109525710346241 1:0.822377 2:0.868454 3:0.42969 4:0.424783 5:0.494321 6:0.283122 7:0.251447 8:0.755608 
-0.4532023632588309 1:0.807763 2:0.171555 3:0.248242 4:0.290002 5:0.69108 6:0.263444 7:0.0421098 8:0.871815 
-0.6412484065939998 1:0.686588 2:0.109192 3:0.834773 4:0.768969 5:0.139364 6:0.255556 7:0.349023 8:0.71241 
-0.5838573936300976 1:0.783162 2:0.211919 3:0.206411 4:0.323547 5:0.772349 6:0.211339 7:0.162857 8:0.888834 
-0.37092254964817867 1:0.849997 2:0.854733 3:0.250684 4:0.376079 5:0.626775 6:0.296206 7:0.381718 8:0.646592 
-0.7491719192089303 1:0.871513 2:0.882066 3:0.322496 4:0.0291398 5:0.777062 6:0.283122 7:0.366408 8:0.66263 
-0.7366138560737051 1:0.775388 2:0.882066 3:0.559792 4:0.742816 5:0.240093 6:0.406746 7:0.347179 8:0.578159 
-0.3667715001424255 1:0.833639 2:0.882066 3:0.332737 4:0.309385 5:0.672443 6:0.296206 7:0.325236 8:0.707597 
-0.651037644888943 1:0.718698 2:0.171555 3:0.658868 4:0.862126 5:0.204688 6:0.263444 7:0.449439 8:0.677109 
-0.6278584376989639 1:0.654608 2:0.171555 3:0.57701 4:0.724869 5:0.316041 6:0.357191 7:0.427166 8:0.651746 
-0.6560751124723515 1:0.79493 2:0.171555 3:0.291156 4:0.426976 5:0.656022 6:0.487345 7:0.268704 8:0.579374 
-0.6688041578728703 1:0.774384 2:0.151015 3:0.262587 4:0.653232 5:0.570844 6:0.366283 7:0.349023 8:0.567783 
-0.6513010519744723 1:0.648476 2:0.109192 3:0.686782 4:0.768969 5:0.342408 6:0.675682 7:0.766457 8:0.360593 
-0.6315063420434921 1:0.742208 2:0.211919 3:0.511366 4:0.386145 5:0.55408 6:0.284358 7:0.339176 8:0.699283 
-0.6375127263021896 1:0.806172 2:0.191855 3:0.10653 4:0.205168 5:0.882014 6:0.181503 7:0.170408 8:0.856478 
-1.0100125623807772 1:0.775887 2:0.191855 3:0.354287 4:0.290002 5:0.595425 6:0.329422 7:0.438158 8:0.616054 
-0.6497036030964077 1:0.696676 2:0.171555 3:0.790417 4:0.426976 5:0.364708 6:0.225958 7:0.494551 8:0.628271 
-0.6082502344496213 1:0.85901 2:0.854733 3:0.0954423 4:0.633729 5:0.538572 6:0.221107 7:0.350562 8:0.647647 
-1.0485034211717283 1:0.891205 2:0.895573 3:0.282426 4:0.222652 5:0.786208 6:0.225958 7:0.268704 8:0.738061 
-0.6501307015378739 1:0.667211 2:0.13023 3:0.196356 4:0.44805 5:0.682569 6:0.487345 7:0.268704 8:0.579374 
-0.6135530232764895 1:0.739641 2:0.34623 3:0.35765 4:0.344427 5:0.595425 6:0.225958 7:0.46802 8:0.5621 
-0.5378651860060153 1:0.773374 2:0.191855 3:0.212851 4:0.416849 5:0.69108 6:0.357191 7:0.383185 8:0.651746 
-0.5360302538713848 1:0.771844 2:0.171555 3:0.272853 4:0.354406 5:0.634951 6:0.225958 7:0.4043 8:0.579374 
-0.484273229380904 1:0.792302 2:0.826964 3:0.471872 4:0.444971 5:0.547551 6:0.301513 7:0.274407 8:0.716048 
-0.6407230943538904 1:0.76447 2:0.231755 3:0.165623 4:0.273707 5:0.851451 6:0.350724 7:0.794526 8:0.309291 
-0.9818623193797336 1:0.862775 2:0.882066 3:0.309978 4:0.282103 5:0.70323 6:0.296206 7:0.466358 8:0.5549 
-1.0595701560521988 1:0.872258 2:0.908975 3:0.344869 4:0.43232 5:0.595425 6:0.221307 7:0.291136 8:0.729505 
-0.4272562418854511 1:0.801288 2:0.895573 3:0.361874 4:0.399407 5:0.557839 6:0.372165 7:0.41682 8:0.592939 
-0.5734199884014168 1:0.864881 2:0.882066 3:0.309978 4:0.282103 5:0.764761 6:0.225958 7:0.296974 8:0.738061 
-0.6375040113513708 1:0.832982 2:0.191855 3:0.337986 4:0.602439 5:0.572107 6:0.181503 7:0.438158 8:0.616054 
-0.3229167453535701 1:0.860636 2:0.882066 3:0.332737 4:0.363878 5:0.641647 6:0.225958 7:0.296974 8:0.738061 
-0.5571696389627174 1:0.791415 2:0.868454 3:0.315035 4:0.369926 5:0.494321 6:0.337345 7:0.375187 8:0.578159 
-1.357057198975339 1:0.844353 2:0.191855 3:0.248242 4:0.416849 5:0.643268 6:0.218552 7:0.393605 8:0.616054 
-0.3938219412169806 1:0.803752 2:0.882066 3:0.355484 4:0.391091 5:0.610834 6:0.436189 7:0.325236 8:0.585491 
-0.6309819768413645 1:0.825888 2:0.770054 3:0.230871 4:0.560782 5:0.578892 6:0.245355 7:0.379774 8:0.584434 
-0.667474937069183 1:0.846459 2:0.784457 3:0.202003 4:0.495073 5:0.603616 6:0.348631 7:0.359892 8:0.623756 
-0.6508515571501798 1:0.747814 2:0.151015 3:0.262587 4:0.307175 5:0.767254 6:0.760808 7:0.461026 8:0.392445 
-0.6512278976781802 1:0.808944 2:0.868454 3:0.131083 4:0.911717 5:0.357221 6:0.168189 7:0.373032 8:0.7646 
-0.6509032128824542 1:0.639405 2:0.191855 3:0.389589 4:0.501142 5:0.499646 6:0.659481 7:0.79354 8:0.179373 
-0.6265628686010637 1:0.775887 2:0.191855 3:0.333011 4:0.313983 5:0.562552 6:0.218552 7:0.215106 8:0.808519 
-0.8544063280434799 1:0.871014 2:0.882066 3:0.241646 4:0.254802 5:0.795509 6:0.296206 7:0.353483 8:0.646592 
-0.6420513680003023 1:0.841597 2:0.882066 3:0.53713 4:0.742816 5:0.240093 6:0.225958 7:0.353483 8:0.677109 
-0.6212400713384447 1:0.846758 2:0.882066 3:0.309978 4:0.282103 5:0.70323 6:0.389603 7:0.353483 8:0.5549 
-0.6508400220008788 1:0.697557 2:0.109192 3:0.501228 4:0.856991 5:0.190177 6:0.225958 7:0.308614 8:0.691458 
-0.6425102154559152 1:0.779815 2:0.171555 3:0.206411 4:0.166532 5:0.843001 6:0.263444 7:0.449439 8:0.628271 
-0.31687942405804037 1:0.842214 2:0.840904 3:0.339693 4:0.106382 5:0.768067 6:0.323649 7:0.357167 8:0.624023 
-2.5474350192700483 1:0.888149 2:0.882066 3:0.287209 4:0.282103 5:0.734004 6:0.27281 7:0.353483 8:0.616054 
-0.6277551138900604 1:0.855419 2:0.868454 3:0.40621 4:0.372874 5:0.557839 6:0.3603 7:0.401984 8:0.451184 
-0.6511793983324079 1:0.72746 2:0.0223949 3:0.547131 4:0.600035 5:0.434783 6:0.144403 7:0.393605 8:0.616054 
-0.1355246996738661 1:0.838152 2:0.882066 3:0.309978 4:0.363878 5:0.641647 6:0.296206 7:0.381718 8:0.616054 
-0.33449686048476923 1:0.758951 2:0.211919 3:0.206411 4:0.323547 5:0.772349 6:0.211339 7:0.383185 8:0.604148 
-1.3868098306156706 1:0.850288 2:0.191855 3:0.141993 4:0.290002 5:0.786611 6:0.144403 7:0.12568 8:0.90438 
-0.6458915424545286 1:0.776879 2:0.151015 3:0.248242 4:0.543208 5:0.547551 6:0.0811229 7:0.323707 8:0.690294 
-0.650950918699917 1:0.730953 2:0.171555 3:0.206411 4:0.57322 5:0.583614 6:0.487345 7:0.268704 8:0.579374 
-0.6863070424505223 1:0.771844 2:0.191855 3:0.354287 4:0.459023 5:0.595425 6:0.225958 7:0.188817 8:0.863246 
-2.9496459358871343 1:0.794059 2:0.191855 3:0.354287 4:0.374621 5:0.547551 6:0.329422 7:0.349023 8:0.567783 
-0.6159474710762113 1:0.860366 2:0.895573 3:0.305003 4:0.195527 5:0.755717 6:0.221307 7:0.515043 8:0.517451 
-0.5499236377868835 1:0.861977 2:0.854733 3:0.344869 4:0.083182 5:0.716565 6:0.245355 7:0.379774 8:0.584434 
-0.7568928284309805 1:0.768206 2:0.171555 3:0.0397957 4:0.554976 5:0.656022 6:0.225958 7:0.4043 8:0.579374 
-0.5704852315586134 1:0.856256 2:0.882066 3:0.202402 4:0.287919 5:0.699699 6:0.306908 7:0.280206 8:0.693646 
-0.5078525578668424 1:0.74903 2:0.211919 3:0.304745 4:0.394529 5:0.605878 6:0.320797 7:0.339176 8:0.746761 
-0.6512740911448769 1:0.406213 2:0.0663361 3:0.223678 4:0.449601 5:0.541917 6:0.704245 7:0.413975 8:0.537409 
-0.7453990466156311 1:0.857364 2:0.854733 3:0.0661651 4:0.708696 5:0.519033 6:0.245355 7:0.292103 8:0.67921 
-0.6445996656857619 1:0.746588 2:0.191855 3:0.177434 4:0.459023 5:0.738861 6:0.403097 7:0.482682 8:0.51945 
-0.6486757202770533 1:0.914219 2:0.987285 3:0.272388 4:0.242226 5:0.78282 6:0.0615576 7:0.0706983 8:0.939421 
-0.6503222595602752 1:0.810114 2:0.364596 3:0.242956 4:0.394529 5:0.564062 6:0.12649 7:0.348498 8:0.691458 
-0.7873252987398022 1:0.84824 2:0.882066 3:0.372681 4:0.384919 5:0.603067 6:0.211648 7:0.222679 8:0.817465 
-0.6041819510269073 1:0.769255 2:0.151015 3:0.262587 4:0.35063 5:0.767254 6:0.181503 7:0.393605 8:0.71241 
-0.2891224999645729 1:0.767149 2:0.191855 3:0.248242 4:0.332339 5:0.643268 6:0.357191 7:0.383185 8:0.699283 
-0.6023416264654293 1:0.854858 2:0.908975 3:0.237969 4:0.199686 5:0.829711 6:0.27281 7:0.240422 8:0.616054 
-0.632220375197333 1:0.75553 2:0.211919 3:0.223678 4:0.449601 5:0.541917 6:0.138133 7:0.206979 8:0.888834 
-0.5411891065748938 1:0.76501 2:0.171555 3:0.147665 4:0.341364 5:0.752868 6:0.284358 7:0.339176 8:0.746761 
-0.8414866459447414 1:0.884117 2:0.922274 3:0.428366 4:0.425915 5:0.58791 6:0.0615576 7:0.0706983 8:0.939421 
-1.164960779251092 1:0.799201 2:0.191855 3:0.318962 4:0.290002 5:0.738861 6:0.307194 7:0.325914 8:0.582912 
-0.5388930187949862 1:0.791415 2:0.211919 3:0.276266 4:0.365291 5:0.583614 6:0.138133 7:0.295139 8:0.699283 
-0.6551200716817989 1:0.838152 2:0.922274 3:0.428366 4:0.372874 5:0.557839 6:0.349206 7:0.555017 8:0.533996 
-0.6286383868423477 1:0.789623 2:0.327668 3:0.333011 4:0.313983 5:0.562552 6:0.284781 7:0.418475 8:0.552054 
-0.4518917017957037 1:0.864358 2:0.854733 3:0.360926 4:0.121929 5:0.742941 6:0.26958 7:0.262853 8:0.71075 
-0.6053294813109003 1:0.745351 2:0.191855 3:0.381701 4:0.374124 5:0.67027 6:0.218552 7:0.438158 8:0.567783 
-0.5367933693816862 1:0.866698 2:0.908975 3:0.242203 4:0.151601 5:0.780012 6:0.342944 7:0.296974 8:0.616054 
-0.6535455533409354 1:0.834292 2:0.868454 3:0.373231 4:0.569514 5:0.514059 6:0.336356 7:0.170024 8:0.7646 
-0.6503667369854989 1:0.373601 2:0.0445045 3:0.959925 4:1.0 6:0.752514 7:1.0 
-1.2752732795301762 1:0.876646 2:0.882066 3:0.40621 4:0.372874 5:0.557839 6:0.283122 7:0.251447 8:0.755608 
-0.42883731215494464 1:0.783162 2:0.895573 3:0.367235 4:0.378847 5:0.686299 6:0.372165 7:0.41682 8:0.592939 
-0.274776762772867 1:0.820227 2:0.895573 3:0.305003 4:0.357928 5:0.664166 6:0.412907 7:0.381718 8:0.646592 
-0.7551291672543928 1:0.843135 2:0.895573 3:0.305003 4:0.303886 5:0.694694 6:0.389603 7:0.240422 8:0.677109 
-0.12737099990182418 1:0.864358 2:0.854733 3:0.297024 4:0.292925 5:0.689431 6:0.283122 7:0.251447 8:0.755608 
-0.30691282558742683 1:0.818775 2:0.895573 3:0.372681 4:0.411884 5:0.572496 6:0.436189 7:0.381718 8:0.5549 
-0.47931829826360206 1:0.874713 2:0.895573 3:0.350132 4:0.303886 5:0.694694 6:0.221493 7:0.155502 8:0.862565 
-0.5268994456704699 1:0.782689 2:0.211919 3:0.45051 4:0.53174 5:0.489065 6:0.174759 7:0.0745267 8:0.983252 
-0.631538256302449 1:0.763384 2:0.191855 3:0.354287 4:0.58522 5:0.403742 6:0.312392 7:0.329582 8:0.686492 
-0.03348745702183743 1:0.835267 2:0.895573 3:0.259839 4:0.303886 5:0.755717 6:0.296206 7:0.325236 8:0.677109 
-5.798270990251857 1:0.916394 2:0.882066 3:0.309978 4:0.282103 5:0.764761 6:0.330672 7:0.366408 8:0.631584 
-0.4645197747154105 1:0.784572 2:0.191855 3:0.206411 4:0.281749 5:0.772349 6:0.292513 7:0.393605 8:0.664263 
-0.648285191248164 1:0.622316 2:0.151015 3:0.389589 4:0.332339 5:0.547551 6:0.835344 7:0.871333 8:0.0922168 
-0.5409553509197166 1:0.820227 2:0.895573 3:0.507788 4:0.411884 5:0.480716 6:0.319583 7:0.381718 8:0.616054 
-0.6509293768625672 1:0.701882 2:0.109192 3:0.354287 4:0.374621 5:0.547551 6:0.560047 7:0.672817 8:0.462984 
-0.6512296732493168 1:0.667211 2:0.0878964 3:1.0 4:0.739783 5:0.145808 6:0.181503 7:0.259772 8:0.71241 
-5.444425946974849 1:0.806172 2:0.191855 3:0.181098 4:0.357619 5:0.689431 6:0.218552 7:0.393605 8:0.616054 
-1.230936943993356 1:0.829986 2:0.826964 3:0.471872 4:0.444971 5:0.547551 6:0.211648 7:0.251447 8:0.786548 
-0.6593725522849919 1:0.801702 2:0.191855 4:0.374621 5:0.738861 6:0.218552 7:0.215106 8:0.71241 
-0.15122779814621135 1:0.809725 2:0.908975 3:0.344869 4:0.352079 5:0.656022 6:0.337345 7:0.40318 8:0.578159 
-0.6874926589953319 1:0.881131 2:0.364596 3:0.286943 4:0.449601 5:0.541917 6:0.259038 7:0.428202 8:0.5621 
-1.1325612264351674 1:0.877602 2:0.882066 3:0.287209 4:0.282103 5:0.734004 6:0.230687 7:0.245887 8:0.777452 
-0.5209544998055905 1:0.828973 2:0.868454 3:0.337986 4:0.452177 5:0.494321 6:0.38363 7:0.347179 8:0.608479 
-0.08559820416530342 1:0.858737 2:0.868454 3:0.269106 4:0.149577 5:0.804965 6:0.283122 7:0.251447 8:0.755608 
-1.4185643225911355 1:0.859554 2:0.191855 3:0.248242 4:0.332339 5:0.738861 6:0.218552 7:0.304412 8:0.760495 
-0.33449166667155383 1:0.845861 2:0.882066 3:0.378224 4:0.0905035 5:0.88767 6:0.27281 7:0.325236 8:0.677109 
-0.45719802881675603 1:0.865923 2:0.922274 3:0.264063 4:0.177877 5:0.780012 6:0.314176 7:0.066492 8:0.789872 
-0.5471301931445737 1:0.871014 2:0.882066 3:0.273094 4:0.133127 5:0.768067 6:0.283122 7:0.251447 8:0.786548 
-0.6953821142937753 1:0.895038 2:0.882066 3:0.202733 4:0.114025 5:0.91606 6:0.187786 7:0.193895 8:0.848354 
-0.4756332586773808 1:0.840666 2:0.868454 3:0.360926 4:0.342463 5:0.494321 6:0.301513 7:0.331406 8:0.623756 
-0.1751511025386968 1:0.765548 2:0.171555 3:0.248242 4:0.332339 5:0.643268 6:0.375613 7:0.0874905 8:0.774586 
-0.6407616764820424 1:0.736364 2:0.191855 3:0.141993 4:0.162666 5:0.882014 6:0.350724 7:0.794526 8:0.309291 
-0.6507677248843761 1:0.873245 2:0.908975 3:0.131083 5:1.0 6:0.412907 7:0.381718 8:0.646592 
-0.5733466857033301 1:0.870011 2:0.882066 3:0.355484 4:0.309385 5:0.70323 6:0.221307 7:0.515043 8:0.517451 
-0.649398643228402 1:0.805772 2:0.171555 3:0.0397957 4:0.384199 5:0.849591 6:0.211339 7:0.427166 8:0.55649 
-0.651227159670597 1:0.726751 2:0.109192 3:0.834773 4:0.768969 5:0.139364 6:0.12649 7:0.348498 8:0.691458 
-0.23282805206520638 1:0.854858 2:0.895573 3:0.305003 4:0.222652 5:0.755717 6:0.319583 7:0.296974 8:0.707597 
-0.46017042070781117 1:0.870011 2:0.908975 3:0.295302 4:0.133127 5:0.678042 6:0.27281 7:0.353483 8:0.616054 
-0.5725959539168928 1:0.858464 2:0.908975 3:0.0954423 4:0.633729 5:0.538572 6:0.27281 7:0.240422 8:0.616054 
-0.6516378148867924 1:0.728166 2:0.191855 3:0.354287 4:0.374621 5:0.547551 6:0.312392 7:0.589877 8:0.592546 
-0.6509324890700802 1:0.802526 2:0.151015 3:0.262587 4:0.653232 5:0.570844 6:0.233561 7:0.643689 8:0.591273 
-0.4964139614000051 1:0.833639 2:0.868454 3:0.42969 4:0.397366 5:0.525445 6:0.225958 7:0.296974 8:0.677109 
-0.5698109729966335 1:0.827952 2:0.882066 3:0.446382 4:0.309385 5:0.672443 6:0.235494 7:0.30895 8:0.693646 
-0.6506486075399556 1:0.653404 2:0.171555 3:0.200138 4:0.356199 5:0.804965 6:0.263444 7:0.629702 8:0.530413 
-0.8820390196111073 1:0.886148 2:0.908975 3:0.25532 4:0.378847 5:0.656022 6:0.314176 7:0.375187 8:0.608479 
-0.5161062187980525 1:0.825541 2:0.840904 3:0.39542 4:0.410245 5:0.603332 6:0.174759 7:0.347179 8:0.699283 
-0.837017565544846 1:0.791415 2:0.171555 3:0.248242 4:0.290002 5:0.69108 6:0.375613 7:0.0874905 8:0.774586 
