svm_type c_svc
kernel_type linear
nr_class 2
total_sv 313
rho 67.84772916592247
label 1 -1
nr_sv 157 156
SV
256.0 1:0.903981 2:0.895573 3:0.23724 4:0.303886 5:0.755717 6:0.27281 7:0.353483 8:0.616054 
256.0 1:0.791859 2:0.171555 3:0.469992 4:0.724869 5:0.316041 6:0.181503 7:0.438158 8:0.616054 
256.0 1:0.680758 2:0.0663361 3:0.570721 4:0.411884 5:0.456225 6:0.743742 7:0.55894 8:0.484891 
256.0 1:0.873245 2:0.868454 3:0.223137 4:0.369926 5:0.742941 6:0.429841 7:0.375187 8:0.578159 
256.0 1:0.839728 2:0.882066 3:0.469084 4:0.769717 5:0.240093 6:0.211648 7:0.251447 8:0.786548 
256.0 1:0.86304 2:0.231755 3:0.0969281 4:0.298475 5:0.755717 6:0.168189 7:0.329582 8:0.780204 
256.0 1:0.907478 2:0.908975 3:0.361874 4:0.293154 5:0.73807 6:0.202504 7:0.268704 8:0.768503 
256.0 1:0.834292 2:0.882066 3:0.469084 4:0.769717 5:0.240093 6:0.319583 7:0.381718 8:0.677109 
256.0 1:0.832982 2:0.191855 3:0.10653 4:0.416849 5:0.738861 6:0.148243 7:0.331081 8:0.71075 
256.0 1:0.88389 2:0.882066 3:0.332737 4:0.336641 5:0.672443 6:0.330672 7:0.280206 8:0.72464 
256.0 1:0.762289 2:0.109192 3:0.354287 4:0.374621 5:0.547551 6:0.790853 7:0.344068 8:0.5651 
256.0 1:0.85901 2:0.211919 3:0.206411 4:0.281749 5:0.772349 6:0.142716 7:0.129747 8:0.989148 
256.0 1:0.818775 2:0.171555 3:0.389589 4:0.214398 5:0.634951 6:0.188422 7:0.4043 8:0.628271 
256.0 1:0.854577 2:0.191855 3:0.177434 4:0.205168 5:0.977298 6:0.309913 7:0.253099 8:0.668693 
256.0 1:0.871014 2:0.191855 3:0.071043 4:0.247614 5:0.929672 6:0.0700592 7:0.259772 8:0.856478 
256.0 1:0.903981 2:0.882066 3:0.339693 4:0.0796113 5:0.708064 6:0.378143 7:0.165103 8:0.786548 
256.0 1:0.856811 2:0.171555 3:0.25532 4:0.298475 5:0.656022 6:0.0932565 7:0.308614 8:0.691458 
256.0 1:0.922722 2:0.895573 3:0.339693 4:0.106382 5:0.768067 6:0.207037 7:0.188817 8:0.808114 
256.0 1:0.837834 2:0.882066 3:0.53713 4:0.742816 5:0.240093 6:0.325082 7:0.445269 8:0.592939 
256.0 1:0.887928 2:0.882066 3:0.309978 4:0.282103 5:0.764761 6:0.425535 7:0.280206 8:0.693646 
256.0 1:0.837516 2:0.191855 3:0.212851 4:0.416849 5:0.69108 6:0.270681 7:0.206979 8:0.699283 
256.0 1:0.910327 2:0.882066 3:0.378224 4:0.0905035 5:0.88767 6:0.230687 7:0.245887 8:0.808114 
256.0 1:0.824844 2:0.400756 3:0.181098 4:0.357619 5:0.689431 6:0.438597 7:0.642116 8:0.288042 
256.0 1:0.870262 2:0.191855 3:0.175824 4:0.166532 5:0.966478 6:0.144403 7:0.12568 8:0.90438 
256.0 1:0.872505 2:0.798742 3:0.360926 4:0.204803 5:0.742941 6:0.215909 7:0.407927 8:0.681464 
256.0 1:0.849706 2:0.151015 3:0.0806358 4:0.263658 5:0.865263 6:0.192839 7:0.46802 8:0.518881 
256.0 1:0.877125 2:0.854733 3:0.273861 4:0.403751 5:0.564062 6:0.283122 7:0.251447 8:0.755608 
256.0 1:0.828633 2:0.191855 3:0.354287 4:0.374621 5:0.547551 6:0.192839 7:0.388361 8:0.648391 
256.0 1:0.82344 2:0.211919 3:0.19202 4:0.411884 5:0.67027 6:0.284358 7:0.339176 8:0.746761 
256.0 1:0.872999 2:0.895573 3:0.46279 4:0.411884 5:0.511325 6:0.27281 7:0.381718 8:0.707597 
256.0 1:0.866698 2:0.770054 3:0.230871 4:0.560782 5:0.578892 6:0.296206 7:0.466358 8:0.5549 
256.0 1:0.846758 2:0.191855 3:0.177434 4:0.332339 5:0.738861 6:0.211339 7:0.427166 8:0.55649 
256.0 1:0.689413 2:0.0663361 3:0.374685 4:0.795402 5:0.291699 6:0.704245 7:0.413975 8:0.537409 
256.0 1:0.545112 2:0.0445045 3:0.959925 4:1.0 6:0.835344 7:0.871333 8:0.0922168 
256.0 1:0.903587 2:0.868454 3:0.360926 4:0.121929 5:0.742941 6:0.192273 7:0.344068 8:0.7646 
256.0 1:0.907286 2:0.895573 3:0.259839 4:0.276828 5:0.755717 6:0.254314 7:0.302913 8:0.716048 
256.0 1:0.889904 2:0.882066 3:0.287209 4:0.282103 5:0.734004 6:0.319583 7:0.438158 8:0.585491 
256.0 1:0.832982 2:0.68103 3:0.646871 4:0.304664 5:0.560445 6:0.296206 7:0.353483 8:0.646592 
256.0 1:0.826579 2:0.171555 3:0.0397957 4:0.384199 5:0.849591 6:0.225958 7:0.58733 8:0.475615 
256.0 1:0.820948 2:0.191855 3:0.248242 4:0.543208 5:0.547551 6:0.174759 7:0.55894 8:0.604148 
256.0 1:0.877125 2:0.826964 3:0.354287 4:0.388703 5:0.611376 6:0.207037 7:0.188817 8:0.808114 
256.0 1:0.827952 2:0.171555 3:0.0397957 4:0.384199 5:0.849591 6:0.49326 7:0.361186 8:0.574368 
256.0 1:0.825541 2:0.171555 3:0.318962 4:0.332339 5:0.738861 6:0.300884 7:0.268704 8:0.823234 
256.0 1:0.847649 2:0.211919 3:0.17145 4:0.365291 5:0.72521 6:0.211339 7:0.427166 8:0.55649 
256.0 1:0.922206 2:0.908975 3:0.290571 4:0.102652 5:0.759216 6:0.202504 7:0.296974 8:0.768503 
256.0 1:0.8965 2:0.895573 3:0.305003 4:0.222652 5:0.755717 6:0.319583 7:0.438158 8:0.585491 
256.0 1:0.806572 2:0.191855 3:0.354287 4:0.58522 5:0.403742 6:0.192839 7:0.348498 8:0.691458 
256.0 1:0.911823 2:0.922274 3:0.295302 4:0.133127 5:0.678042 6:0.314176 7:0.375187 8:0.608479 
256.0 1:0.835267 2:0.171555 3:0.0397957 4:0.512366 5:0.704461 6:0.218552 7:0.438158 8:0.567783 
256.0 1:0.900594 2:0.908975 3:0.300114 4:0.405593 5:0.686299 6:0.249392 7:0.325236 8:0.677109 
256.0 1:0.832322 2:0.191855 3:0.283614 4:0.374621 5:0.738861 6:0.247871 7:0.295139 8:0.651746 
256.0 1:0.739641 2:0.151015 3:0.57701 4:0.724869 5:0.316041 6:0.460711 7:0.643689 8:0.442253 
256.0 1:0.875683 2:0.364596 3:0.0969281 4:0.298475 5:0.755717 6:0.159685 7:0.507811 8:0.60527 
256.0 1:0.824844 2:0.191855 3:0.223678 4:0.449601 5:0.541917 6:0.255556 7:0.393605 8:0.567783 
256.0 1:0.86171 2:0.868454 3:0.42969 4:0.397366 5:0.525445 6:0.314176 7:0.375187 8:0.608479 
256.0 1:0.842522 2:0.171555 3:0.0397957 4:0.384199 5:0.849591 6:0.357191 7:0.383185 8:0.651746 
256.0 1:0.907286 2:0.908975 3:0.322496 4:0.0291398 5:0.777062 6:0.389603 7:0.353483 8:0.5549 
91.47015924362071 1:0.899582 2:0.868454 3:0.273094 4:0.133127 5:0.768067 6:0.408127 7:0.401984 8:0.514076 
256.0 1:0.844656 2:0.151015 3:0.262587 4:0.35063 5:0.767254 6:0.12649 7:0.388361 8:0.648391 
256.0 1:0.829311 2:0.191855 3:0.177434 4:0.459023 5:0.738861 6:0.213019 7:0.370037 8:0.584434 
256.0 1:0.692181 2:0.151015 3:0.790417 4:0.426976 5:0.364708 6:0.611152 7:0.780365 8:0.242633 
256.0 1:0.84405 2:0.171555 3:0.17145 4:0.323547 5:0.678042 6:0.113201 7:0.449439 8:0.628271 
256.0 1:0.898357 2:0.908975 3:0.300114 4:0.217906 5:0.625728 6:0.337345 7:0.40318 8:0.578159 
256.0 1:0.842214 2:0.211919 3:0.206411 4:0.448621 5:0.630843 6:0.138133 7:0.206979 8:0.888834 
256.0 1:0.847352 2:0.68103 3:0.646871 4:0.304664 5:0.560445 6:0.249392 7:0.296974 8:0.677109 
256.0 1:0.804968 2:0.171555 3:0.291156 4:0.469697 5:0.656022 6:0.263444 7:0.449439 8:0.677109 
256.0 1:0.81841 2:0.191855 3:0.318962 4:0.247614 5:0.643268 6:0.174759 7:0.55894 8:0.604148 
256.0 1:0.875199 2:0.868454 3:0.200138 4:0.397366 5:0.742941 6:0.489533 7:0.388361 8:0.500343 
256.0 1:0.829649 2:0.68103 3:0.360926 4:0.342463 5:0.494321 6:0.634227 7:0.275229 8:0.580787 
256.0 1:0.90019 2:0.882066 3:0.289181 4:0.414854 5:0.717044 6:0.235494 7:0.30895 8:0.693646 
256.0 1:0.825888 2:0.171555 3:0.291156 4:0.384199 5:0.607547 6:0.188422 7:0.4043 8:0.628271 
256.0 1:0.857915 2:0.882066 3:0.469084 4:0.769717 5:0.240093 6:0.225958 7:0.296974 8:0.677109 
256.0 1:0.752023 3:0.718843 4:0.470972 5:0.445984 6:0.174759 7:0.55894 8:0.604148 
256.0 1:0.877364 2:0.895573 3:0.4566 4:0.43232 5:0.595425 6:0.230687 7:0.188817 8:0.808114 
256.0 1:0.833966 2:0.171555 3:0.31116 4:0.406982 5:0.630843 6:0.225958 7:0.223446 8:0.774586 
256.0 1:0.796225 2:0.171555 3:0.283614 4:0.543208 5:0.403742 6:0.487345 7:0.268704 8:0.579374 
256.0 1:0.905741 2:0.854733 3:0.250684 4:0.376079 5:0.626775 6:0.216337 7:0.111911 8:0.826971 
256.0 1:0.949498 2:0.922274 3:0.317501 4:0.0796113 5:0.768067 6:0.0615576 7:0.0706983 8:0.939421 
256.0 1:0.806172 2:0.191855 3:0.283614 4:0.543208 5:0.403742 6:0.218552 7:0.527177 8:0.567783 
256.0 1:0.88389 2:0.895573 3:0.434273 4:0.325287 5:0.534779 6:0.254314 7:0.302913 8:0.716048 
256.0 1:0.861977 2:0.882066 3:0.469084 4:0.769717 5:0.240093 6:0.187786 7:0.193895 8:0.848354 
256.0 1:0.895666 2:0.868454 3:0.360926 4:0.121929 5:0.742941 6:0.330672 7:0.366408 8:0.631584 
256.0 1:0.869 2:0.868454 3:0.223137 4:0.369926 5:0.742941 6:0.489533 7:0.388361 8:0.500343 
256.0 1:0.895875 2:0.908975 3:0.317501 4:0.0796113 5:0.768067 6:0.27281 7:0.381718 8:0.707597 
256.0 1:0.840977 2:0.211919 3:0.276266 4:0.239898 5:0.772349 6:0.192839 7:0.348498 8:0.691458 
256.0 1:0.901599 2:0.895573 3:0.389589 4:0.378847 5:0.656022 6:0.207037 7:0.188817 8:0.808114 
256.0 1:0.862243 2:0.895573 3:0.131083 4:0.911717 5:0.357221 6:0.325082 7:0.388361 8:0.623756 
256.0 1:0.829986 2:0.191855 3:0.261721 4:0.420868 5:0.595425 6:0.255556 7:0.393605 8:0.567783 
256.0 1:0.895038 2:0.882066 3:0.367235 4:0.405593 5:0.686299 6:0.211648 7:0.222679 8:0.817465 
256.0 1:0.79493 2:0.211919 3:0.19202 4:0.449601 5:0.627513 6:0.357191 7:0.383185 8:0.699283 
256.0 1:0.789171 2:0.109192 3:0.464041 4:0.547879 5:0.645925 6:0.375613 7:0.0874905 8:0.774586 
256.0 1:0.766617 2:0.191855 3:0.507788 4:0.524902 5:0.370429 6:0.403097 7:0.527177 8:0.471055 
256.0 1:0.90019 2:0.908975 3:0.322496 4:0.325287 5:0.80729 6:0.249392 7:0.325236 8:0.677109 
159.0976528342245 1:0.882747 2:0.908975 3:0.389589 4:0.352079 5:0.686299 6:0.412907 7:0.296974 8:0.5549 
256.0 1:0.792302 2:0.68103 3:0.646871 4:0.304664 5:0.560445 6:0.372165 7:0.41682 8:0.592939 
256.0 1:0.863305 2:0.770054 3:0.230871 4:0.560782 5:0.578892 6:0.389603 7:0.325236 8:0.585491 
256.0 1:0.826234 2:0.13023 3:0.196356 4:0.44805 5:0.682569 6:0.366283 7:0.180126 8:0.655884 
256.0 1:0.870011 2:0.826964 3:0.273861 4:0.292925 5:0.689431 6:0.329422 7:0.363887 8:0.63213 
256.0 1:0.84824 2:0.191855 3:0.212851 4:0.205168 5:0.834326 6:0.159685 7:0.507811 8:0.60527 
256.0 1:0.863569 2:0.798742 3:0.250684 4:0.376079 5:0.626775 6:0.215909 7:0.407927 8:0.681464 
256.0 1:0.905352 2:0.895573 3:0.344869 4:0.352079 5:0.656022 6:0.207037 7:0.188817 8:0.808114 
256.0 1:0.901999 2:0.895573 3:0.23724 4:0.303886 5:0.755717 6:0.314176 7:0.375187 8:0.608479 
112.18209063570053 1:0.850578 2:0.151015 3:0.117076 4:0.35063 5:0.669115 6:0.225958 7:0.381718 8:0.636418 
256.0 1:0.922033 2:0.908975 3:0.322496 4:0.0291398 5:0.777062 6:0.225958 7:0.268704 8:0.768503 
256.0 1:0.815451 2:0.171555 3:0.291156 4:0.469697 5:0.656022 6:0.270681 7:0.206979 8:0.699283 
256.0 1:0.901999 2:0.895573 3:0.411934 4:0.352079 5:0.56511 6:0.207037 7:0.188817 8:0.808114 
256.0 1:0.915129 2:0.882066 3:0.290571 4:0.102652 5:0.759216 6:0.283122 7:0.251447 8:0.755608 
256.0 1:0.838468 2:0.171555 3:0.283614 4:0.374621 5:0.69108 6:0.113201 7:0.449439 8:0.628271 
256.0 1:0.831658 2:0.171555 3:0.181098 4:0.357619 5:0.689431 6:0.113201 7:0.449439 8:0.628271 
256.0 1:0.820227 2:0.191855 3:0.428111 4:0.468227 5:0.522226 6:0.144403 7:0.393605 8:0.616054 
256.0 1:0.777865 2:0.109192 3:0.0355331 4:0.416849 5:0.69108 6:0.443947 7:0.532119 8:0.666939 
256.0 1:0.862243 2:0.191855 3:0.177434 4:0.374621 5:0.738861 6:0.0599844 7:0.268704 8:0.777452 
256.0 1:0.8965 2:0.868454 3:0.383857 4:0.424783 5:0.400872 6:0.163901 7:0.222679 8:0.817465 
256.0 1:0.832322 2:0.191855 3:0.181098 4:0.357619 5:0.689431 6:0.218552 7:0.393605 8:0.616054 
256.0 1:0.855978 2:0.868454 3:0.315035 4:0.369926 5:0.494321 6:0.489533 7:0.388361 8:0.500343 
256.0 1:0.886372 2:0.868454 3:0.315035 4:0.369926 5:0.494321 6:0.221307 7:0.515043 8:0.517451 
256.0 1:0.873491 2:0.922274 3:0.361874 4:0.399407 5:0.557839 6:0.337345 7:0.40318 8:0.578159 
256.0 1:0.903784 2:0.908975 3:0.27772 4:0.378847 5:0.656022 6:0.239791 7:0.28539 8:0.84076 
256.0 1:0.853446 2:0.784457 3:0.202003 4:0.495073 5:0.603616 6:0.330672 7:0.280206 8:0.72464 
256.0 1:0.835914 2:0.191855 3:0.248242 4:0.459023 5:0.643268 6:0.270681 7:0.206979 8:0.699283 
256.0 1:0.896707 2:0.840904 3:0.290571 4:0.102652 5:0.759216 6:0.323649 7:0.357167 8:0.624023 
256.0 1:0.851445 2:0.191855 4:0.374621 5:0.738861 6:0.247871 7:0.339176 8:0.699283 
256.0 1:0.747814 3:0.599345 4:0.803812 5:0.337108 6:0.181503 7:0.438158 8:0.616054 
256.0 1:0.902596 2:0.868454 3:0.200138 4:0.397366 5:0.742941 6:0.27281 7:0.353483 8:0.677109 
256.0 1:0.882517 2:0.854733 3:0.366462 4:0.431397 5:0.532689 6:0.283122 7:0.251447 8:0.786548 
256.0 1:0.828293 2:0.191855 3:0.177434 4:0.332339 5:0.738861 6:0.292513 7:0.393605 8:0.760495 
256.0 1:0.89356 2:0.854733 3:0.273861 4:0.209561 5:0.783317 6:0.314176 7:0.375187 8:0.608479 
256.0 1:0.889029 2:0.882066 3:0.339693 4:0.239898 5:0.798048 6:0.330672 7:0.280206 8:0.72464 
256.0 1:0.874469 2:0.364596 3:0.128644 4:0.336323 5:0.67027 6:0.12649 7:0.348498 8:0.691458 
256.0 1:0.866698 2:0.908975 3:0.131083 4:0.911717 5:0.357221 6:0.296206 7:0.466358 8:0.5549 
256.0 1:0.889467 2:0.854733 3:0.273861 4:0.403751 5:0.564062 6:0.211648 7:0.222679 8:0.817465 
256.0 1:0.78643 2:0.68103 3:0.646871 4:0.304664 5:0.560445 6:0.38363 7:0.347179 8:0.608479 
256.0 1:0.838468 2:0.191855 3:0.248242 4:0.247614 5:0.643268 6:0.225958 7:0.388361 8:0.648391 
256.0 1:0.838468 2:0.191855 3:0.248242 4:0.290002 5:0.834326 6:0.218552 7:0.259772 8:0.856478 
256.0 1:0.758951 3:0.718843 4:0.470972 5:0.445984 6:0.12649 7:0.308614 8:0.734479 
256.0 1:0.893984 2:0.908975 3:0.339693 4:0.0796113 5:0.708064 6:0.436189 7:0.409946 8:0.524287 
256.0 1:0.885699 2:0.868454 3:0.360926 4:0.121929 5:0.742941 6:0.366283 7:0.353483 8:0.677109 
214.5269996041361 1:0.76447 2:0.0663361 3:0.354287 4:0.374621 5:0.547551 6:0.704245 7:0.413975 8:0.537409 
256.0 1:0.819503 2:0.171555 3:0.291156 4:0.384199 5:0.801248 6:0.329422 7:0.349023 8:0.567783 
256.0 1:0.835267 2:0.171555 3:0.111733 4:0.554976 5:0.559044 6:0.218552 7:0.259772 8:0.856478 
256.0 1:0.834618 2:0.191855 3:0.318962 4:0.247614 5:0.643268 6:0.213019 7:0.40897 8:0.584434 
256.0 1:0.86644 2:0.826964 3:0.354287 4:0.388703 5:0.611376 6:0.354419 7:0.280206 8:0.631584 
256.0 1:0.893984 2:0.868454 3:0.315035 4:0.369926 5:0.494321 6:0.249392 7:0.325236 8:0.677109 
256.0 1:0.882057 2:0.868454 3:0.360926 4:0.342463 5:0.494321 6:0.330672 7:0.280206 8:0.72464 
256.0 1:0.75553 2:0.151015 3:0.24135 4:0.490206 5:0.678042 6:0.611152 7:0.780365 8:0.242633 
256.0 1:0.90457 2:0.854733 3:0.250684 4:0.376079 5:0.626775 6:0.163901 7:0.222679 8:0.817465 
256.0 1:0.848534 2:0.854733 3:0.469084 4:0.769717 5:0.240093 6:0.245355 7:0.262853 8:0.71075 
256.0 1:0.899987 2:0.895573 3:0.290571 4:0.102652 5:0.759216 6:0.254314 7:0.302913 8:0.716048 
256.0 1:0.78643 2:0.191855 3:0.177434 4:0.374621 5:0.738861 6:0.609406 7:0.85019 8:0.122581 
256.0 1:0.830992 2:0.191855 3:0.283614 4:0.543208 5:0.403742 6:0.211339 7:0.118706 8:0.936073 
193.6863924381923 1:0.840666 2:0.171555 3:0.398528 4:0.212527 5:0.656022 6:0.165606 7:0.276782 8:0.833649 
256.0 1:0.845861 2:0.171555 3:0.147665 4:0.341364 5:0.752868 6:0.255556 7:0.393605 8:0.567783 
256.0 1:0.842829 2:0.151015 3:0.153489 4:0.35063 5:0.767254 6:0.218552 7:0.438158 8:0.567783 
116.35255240758644 1:0.863305 2:0.191855 3:0.212851 4:0.205168 5:0.977298 6:0.138133 7:0.339176 8:0.746761 
256.0 1:0.75782 2:0.109192 3:0.326972 4:0.512366 5:0.559044 6:0.443947 7:0.532119 8:0.666939 
256.0 1:0.878315 2:0.364596 3:0.0969281 4:0.298475 5:0.755717 6:0.192839 7:0.388361 8:0.648391 
256.0 1:0.914401 2:0.854733 3:0.273861 4:0.209561 5:0.783317 6:0.240381 7:0.111911 8:0.826971 
-256.0 1:0.864358 2:0.908975 3:0.389589 4:0.405593 5:0.595425 6:0.296206 7:0.353483 8:0.707597 
-256.0 1:0.757251 2:0.191855 3:0.636061 4:0.752728 5:0.307716 6:0.622994 7:0.749217 8:0.325499 
-256.0 1:0.831325 2:0.191855 3:0.248242 4:0.416849 5:0.643268 6:0.174759 7:0.129747 8:0.865194 
-256.0 1:0.898562 2:0.895573 3:0.242203 4:0.151601 5:0.780012 6:0.277922 7:0.188817 8:0.838752 
-256.0 1:0.711741 2:0.191855 3:0.671181 4:0.794473 5:0.163438 6:0.659481 7:0.79354 8:0.179373 
-256.0 1:0.900795 2:0.895573 3:0.305003 4:0.303886 5:0.694694 6:0.254314 7:0.188817 8:0.808114 
-256.0 1:0.833311 2:0.211919 3:0.38088 4:0.281749 5:0.678042 6:0.357191 7:0.251073 8:0.699283 
-256.0 1:0.833311 2:0.882066 3:0.559792 4:0.742816 5:0.240093 6:0.259316 7:0.251447 8:0.786548 
-256.0 1:0.841906 2:0.191855 3:0.237969 4:0.173638 5:0.780962 6:0.181503 7:0.438158 8:0.616054 
-256.0 1:0.901799 2:0.908975 3:0.300114 4:0.217906 5:0.716565 6:0.221307 7:0.291136 8:0.729505 
-256.0 1:0.808158 2:0.191855 3:0.272853 4:0.354406 5:0.634951 6:0.329422 7:0.349023 8:0.71241 
-256.0 1:0.80004 2:0.191855 3:0.177434 4:0.332339 5:0.738861 6:0.438597 7:0.642116 8:0.288042 
-256.0 1:0.820227 2:0.231755 3:0.337986 4:0.273707 5:0.711909 6:0.312392 7:0.242597 8:0.733376 
-256.0 1:0.885249 2:0.908975 3:0.312589 4:0.155694 5:0.610329 6:0.296206 7:0.325236 8:0.677109 
-256.0 1:0.829311 2:0.211919 3:0.206411 4:0.281749 5:0.772349 6:0.358418 7:0.31444 8:0.646936 
-256.0 1:0.817676 2:0.151015 3:0.262587 4:0.35063 5:0.767254 6:0.375613 7:0.0874905 8:0.774586 
-256.0 1:0.84526 2:0.191855 3:0.283614 4:0.374621 5:0.69108 6:0.0595599 7:0.242597 8:0.920333 
-256.0 1:0.724601 2:0.109192 3:0.871707 4:0.813009 5:0.0885151 6:0.255556 7:0.482682 8:0.51945 
-256.0 1:0.840042 2:0.191855 3:0.10653 4:0.290002 5:0.834326 6:0.219413 7:0.418475 8:0.637363 
-256.0 1:0.81914 2:0.191855 3:0.141993 4:0.247614 5:0.834326 6:0.350724 7:0.794526 8:0.309291 
-256.0 1:0.737684 2:0.151015 3:0.552444 4:0.567059 5:0.324595 6:0.53603 7:0.552418 8:0.342575 
-256.0 1:0.887928 2:0.882066 3:0.309978 4:0.282103 5:0.734004 6:0.283122 7:0.251447 8:0.755608 
-256.0 1:0.896915 2:0.882066 3:0.309978 4:0.282103 5:0.70323 6:0.330672 7:0.280206 8:0.72464 
-256.0 1:0.826579 2:0.171555 3:0.219459 4:0.341364 5:0.704461 6:0.165606 7:0.276782 8:0.833649 
-256.0 1:0.892922 2:0.882066 3:0.287209 4:0.282103 5:0.764761 6:0.230687 7:0.274407 8:0.777452 
-256.0 1:0.850288 2:0.171555 3:0.0969281 4:0.298475 5:0.755717 6:0.263444 7:0.449439 8:0.628271 
-256.0 1:0.778843 2:0.0878964 3:0.775415 4:0.379977 5:0.556995 6:0.338273 7:0.0421098 8:0.823234 
-256.0 1:0.860096 2:0.211919 3:0.276266 4:0.365291 5:0.583614 6:0.247871 7:0.339176 8:0.604148 
-256.0 1:0.873491 2:0.908975 3:0.339693 4:0.425915 5:0.58791 6:0.296206 7:0.381718 8:0.616054 
-256.0 1:0.868746 2:0.908975 3:0.300114 4:0.405593 5:0.686299 6:0.342944 7:0.296974 8:0.616054 
-256.0 1:0.916753 2:0.908975 3:0.25532 4:0.298475 5:0.716565 6:0.170559 7:0.257576 8:0.721086 
-256.0 1:0.820948 2:0.0223949 3:0.0397957 4:0.384199 5:0.849591 6:0.530499 7:0.58733 8:0.45396 
-256.0 1:0.927948 2:0.854733 3:0.273861 4:0.403751 5:0.564062 6:0.245355 7:0.379774 8:0.584434 
-256.0 1:0.800457 2:0.191855 3:0.354287 4:0.290002 5:0.595425 6:0.329422 7:0.349023 8:0.567783 
-256.0 1:0.843441 2:0.826964 3:0.471872 4:0.444971 5:0.547551 6:0.325082 7:0.388361 8:0.623756 
-256.0 1:0.762289 2:0.151015 3:0.660742 4:0.696232 5:0.275244 6:0.165606 7:0.276782 8:0.833649 
-256.0 1:0.80004 2:0.151015 3:0.262587 4:0.567059 5:0.669115 6:0.181503 7:0.438158 8:0.616054 
-256.0 1:0.887263 2:0.882066 3:0.264434 4:0.254802 5:0.795509 6:0.330672 7:0.280206 8:0.72464 
-256.0 1:0.78735 2:0.171555 3:0.354287 4:0.543208 5:0.499646 6:0.300884 7:0.494551 8:0.628271 
-256.0 1:0.889029 2:0.882066 3:0.355484 4:0.309385 5:0.70323 6:0.348631 7:0.359892 8:0.623756 
-256.0 1:0.89228 2:0.895573 3:0.305003 4:0.384919 5:0.633621 6:0.207037 7:0.16026 8:0.838752 
-256.0 1:0.835914 2:0.840904 3:0.39542 4:0.410245 5:0.603332 6:0.436189 7:0.550894 8:0.432296 
-256.0 1:0.87973 2:0.191855 3:0.141993 4:0.247614 5:0.834326 6:0.107255 7:0.215106 8:0.856478 
-256.0 1:0.874469 2:0.364596 3:0.223678 4:0.411884 5:0.627513 6:0.192839 7:0.388361 8:0.648391 
-256.0 1:0.898562 2:0.908975 3:0.312589 4:0.155694 5:0.610329 6:0.202504 7:0.296974 8:0.768503 
-256.0 1:0.708532 2:0.0878964 3:0.812912 4:0.784484 5:0.145808 6:0.271543 7:0.415282 8:0.739709 
-256.0 1:0.890989 2:0.908975 3:0.322496 4:0.271642 5:0.746821 6:0.249392 7:0.296974 8:0.677109 
-256.0 1:0.826924 2:0.191855 3:0.318962 4:0.247614 5:0.643268 6:0.168189 7:0.199062 8:0.920333 
-256.0 1:0.820588 2:0.34623 3:0.325691 4:0.420868 5:0.595425 6:0.159685 7:0.507811 8:0.60527 
-256.0 1:0.869253 2:0.882066 3:0.350132 4:0.384919 5:0.633621 6:0.259316 7:0.251447 8:0.786548 
-256.0 1:0.837197 2:0.191855 3:0.141993 4:0.290002 5:0.786611 6:0.309913 7:0.253099 8:0.668693 
-256.0 1:0.912934 2:0.895573 3:0.282426 4:0.357928 5:0.664166 6:0.254314 7:0.331406 8:0.68531 
-256.0 1:0.834292 2:0.211919 3:0.206411 4:0.281749 5:0.772349 6:0.138133 7:0.339176 8:0.746761 
-256.0 1:0.74903 2:0.171555 3:0.790417 4:0.469697 5:0.364708 6:0.255556 7:0.349023 8:0.71241 
-256.0 1:0.831658 2:0.211919 3:0.17145 4:0.365291 5:0.72521 6:0.270681 7:0.206979 8:0.699283 
-256.0 1:0.793183 2:0.191855 3:0.389589 4:0.374621 5:0.547551 6:0.255556 7:0.482682 8:0.567783 
-256.0 1:0.81166 2:0.151015 3:0.212851 4:0.290002 5:0.69108 6:0.34736 7:0.552418 8:0.591273 
-256.0 1:0.696676 2:0.109192 3:0.686782 4:0.768969 5:0.342408 6:0.675682 7:0.766457 8:0.360593 
-256.0 1:0.863305 2:0.908975 3:0.344869 4:0.405593 5:0.656022 6:0.296206 7:0.325236 8:0.707597 
-256.0 1:0.907094 2:0.908975 3:0.300114 4:0.405593 5:0.625728 6:0.202504 7:0.268704 8:0.768503 
-256.0 1:0.767149 2:0.109192 3:0.175824 4:0.129785 5:0.884181 6:0.675682 7:0.766457 8:0.360593 
-256.0 1:0.890339 2:0.908975 3:0.242203 4:0.0989829 5:0.809502 6:0.319583 7:0.381718 8:0.677109 
-256.0 1:0.850578 2:0.868454 3:0.383857 4:0.424783 5:0.432035 6:0.348631 7:0.359892 8:0.623756 
-256.0 1:0.897741 2:0.908975 3:0.25532 4:0.325287 5:0.746821 6:0.225958 7:0.296974 8:0.768503 
-256.0 1:0.803752 2:0.191855 3:0.177434 4:0.459023 5:0.738861 6:0.329422 7:0.438158 8:0.616054 
-256.0 1:0.864881 2:0.211919 3:0.0664322 4:0.281749 5:0.819457 6:0.0279739 7:0.251073 8:0.841536 
-256.0 1:0.875441 2:0.895573 3:0.350132 4:0.465752 5:0.572496 6:0.225958 7:0.296974 8:0.738061 
-256.0 1:0.829986 2:0.38277 3:0.311565 4:0.440395 5:0.531957 6:0.284781 7:0.418475 8:0.552054 
-256.0 1:0.852592 2:0.908975 3:0.0954423 4:0.633729 5:0.538572 6:0.436189 7:0.550894 8:0.432296 
-256.0 1:0.885024 2:0.882066 3:0.25532 4:0.325287 5:0.746821 6:0.235494 7:0.30895 8:0.693646 
-256.0 1:0.811275 2:0.191855 3:0.389589 4:0.374621 5:0.595425 6:0.168189 7:0.329582 8:0.780204 
-256.0 1:0.854577 2:0.418557 3:0.267538 4:0.239898 5:0.678042 6:0.238742 7:0.206979 8:0.699283 
-256.0 1:0.865923 2:0.895573 3:0.507788 4:0.438827 5:0.480716 6:0.277922 7:0.16026 8:0.777452 
-256.0 1:0.820588 2:0.34623 3:0.325691 4:0.420868 5:0.595425 6:0.159685 7:0.507811 8:0.60527 
-256.0 1:0.906902 2:0.908975 3:0.367235 4:0.352079 5:0.595425 6:0.342944 7:0.325236 8:0.616054 
-256.0 1:0.809335 2:0.191855 3:0.141993 4:0.290002 5:0.786611 6:0.40648 7:0.447885 8:0.542236 
-256.0 1:0.878552 2:0.868454 3:0.337986 4:0.452177 5:0.494321 6:0.283122 7:0.251447 8:0.755608 
-256.0 1:0.870011 2:0.882066 3:0.332737 4:0.363878 5:0.641647 6:0.342944 7:0.296974 8:0.616054 
-256.0 1:0.814324 2:0.211919 3:0.31116 4:0.53174 5:0.441745 6:0.284358 7:0.515043 8:0.460992 
-256.0 1:0.87973 2:0.895573 3:0.305003 4:0.384919 5:0.633621 6:0.225958 7:0.325236 8:0.707597 
-256.0 1:0.88837 2:0.908975 3:0.23291 4:0.325287 5:0.746821 6:0.249392 7:0.296974 8:0.677109 
-256.0 1:0.855419 2:0.854733 3:0.273861 4:0.403751 5:0.564062 6:0.436189 7:0.325236 8:0.585491 
-256.0 1:0.84405 2:0.191855 3:0.177434 4:0.416849 5:0.595425 6:0.144403 7:0.393605 8:0.616054 
-256.0 1:0.872999 2:0.895573 3:0.344869 4:0.405593 5:0.56511 6:0.301513 7:0.331406 8:0.623756 
-256.0 1:0.880665 2:0.895573 3:0.350132 4:0.465752 5:0.572496 6:0.325082 7:0.445269 8:0.592939 
-256.0 1:0.829986 2:0.211919 3:0.206411 4:0.323547 5:0.772349 6:0.284781 7:0.418475 8:0.552054 
-256.0 1:0.816938 2:0.191855 3:0.311565 4:0.365776 5:0.616569 6:0.218552 7:0.259772 8:0.71241 
-256.0 1:0.833311 2:0.191855 3:0.206411 4:0.166532 5:0.843001 6:0.403097 7:0.393605 8:0.51945 
-256.0 1:0.794495 2:0.191855 3:0.318962 4:0.332339 5:0.595425 6:0.320797 7:0.427166 8:0.651746 
-256.0 1:0.812427 2:0.191855 3:0.276266 4:0.156037 5:0.819457 6:0.329422 7:0.349023 8:0.71241 
-256.0 1:0.894828 2:0.922274 3:0.339693 4:0.399407 5:0.58791 6:0.314176 7:0.375187 8:0.608479 
-256.0 1:0.852592 2:0.171555 3:0.177434 4:0.247614 5:0.834326 6:0.113201 7:0.449439 8:0.628271 
-256.0 1:0.838468 2:0.211919 3:0.38088 4:0.365291 5:0.536355 6:0.357191 7:0.339176 8:0.55649 
-256.0 1:0.894617 2:0.840904 3:0.290571 4:0.102652 5:0.759216 6:0.323649 7:0.357167 8:0.624023 
-256.0 1:0.799201 2:0.171555 3:0.212851 4:0.290002 5:0.786611 6:0.375613 7:0.494551 8:0.579374 
-256.0 1:0.891421 2:0.882066 3:0.350132 4:0.303886 5:0.694694 6:0.163901 7:0.222679 8:0.817465 
-256.0 1:0.862775 2:0.191855 3:0.177434 4:0.332339 5:0.738861 6:0.107255 7:0.215106 8:0.808519 
-256.0 1:0.869 2:0.895573 3:0.367235 4:0.352079 5:0.56511 6:0.301513 7:0.331406 8:0.623756 
-256.0 1:0.806172 2:0.171555 3:0.25532 4:0.426976 5:0.559044 6:0.284358 7:0.339176 8:0.699283 
-256.0 1:0.789171 2:0.191855 3:0.283614 4:0.543208 5:0.403742 6:0.366283 7:0.349023 8:0.567783 
-256.0 1:0.821664 2:0.231755 3:0.181098 4:0.357619 5:0.689431 6:0.312392 7:0.242597 8:0.733376 
-256.0 1:0.830992 2:0.191855 3:0.181098 4:0.357619 5:0.689431 6:0.181503 7:0.304412 8:0.664263 
-256.0 1:0.832652 2:0.191855 3:0.0355331 4:0.416849 5:0.69108 6:0.213019 7:0.40897 8:0.584434 
-256.0 1:0.902198 2:0.882066 3:0.287209 4:0.309385 5:0.734004 6:0.259316 7:0.280206 8:0.755608 
-256.0 1:0.848828 2:0.191855 3:0.141993 4:0.374621 5:0.738861 6:0.2078 7:0.137224 8:0.80284 
-256.0 1:0.882747 2:0.854733 3:0.227498 4:0.376079 5:0.689431 6:0.319583 7:0.296974 8:0.707597 
-256.0 1:0.808944 2:0.211919 3:0.206411 4:0.448621 5:0.630843 6:0.174759 7:0.55894 8:0.604148 
-256.0 1:0.874225 2:0.882066 3:0.220334 4:0.49156 5:0.454829 6:0.306908 7:0.280206 8:0.693646 
-256.0 1:0.877364 2:0.908975 3:0.344869 4:0.298475 5:0.656022 6:0.296206 7:0.353483 8:0.646592 
-256.0 1:0.901398 2:0.922274 3:0.339693 4:0.425915 5:0.58791 6:0.314176 7:0.40318 8:0.608479 
-256.0 1:0.854577 2:0.211919 3:0.24135 4:0.490206 5:0.678042 6:0.211339 7:0.471119 8:0.699283 
-256.0 1:0.880199 2:0.882066 3:0.327574 4:0.384919 5:0.633621 6:0.330672 7:0.280206 8:0.72464 
-256.0 1:0.86747 2:0.784457 3:0.202003 4:0.495073 5:0.603616 6:0.259316 7:0.337685 8:0.693646 
-256.0 1:0.882057 2:0.400756 3:0.273861 4:0.283672 5:0.689431 6:0.245355 7:0.253099 8:0.71075 
-256.0 1:0.789171 2:0.191855 3:0.248242 4:0.332339 5:0.643268 6:0.513258 7:0.527177 8:0.422598 
-256.0 1:0.79493 2:0.171555 3:0.291156 4:0.426976 5:0.656022 6:0.487345 7:0.268704 8:0.579374 
-256.0 1:0.874956 2:0.895573 3:0.4566 4:0.352079 5:0.56511 6:0.207037 7:0.188817 8:0.808114 
-256.0 1:0.891205 2:0.895573 3:0.282426 4:0.222652 5:0.786208 6:0.225958 7:0.268704 8:0.738061 
-256.0 1:0.852592 2:0.211919 3:0.0969281 4:0.298475 5:0.755717 6:0.174759 7:0.118706 8:0.888834 
-256.0 1:0.871762 2:0.882066 3:0.378224 4:0.309385 5:0.610834 6:0.225958 7:0.353483 8:0.677109 
-256.0 1:0.872258 2:0.908975 3:0.344869 4:0.43232 5:0.595425 6:0.221307 7:0.291136 8:0.729505 
-256.0 1:0.832982 2:0.191855 3:0.337986 4:0.602439 5:0.572107 6:0.181503 7:0.438158 8:0.616054 
-256.0 1:0.844353 2:0.191855 3:0.248242 4:0.416849 5:0.643268 6:0.218552 7:0.393605 8:0.616054 
-256.0 1:0.88881 2:0.826964 3:0.264063 4:0.177877 5:0.780012 6:0.329422 7:0.363887 8:0.63213 
-256.0 1:0.921341 2:0.895573 3:0.131083 5:1.0 6:0.230687 7:0.245887 8:0.777452 
-256.0 1:0.841597 2:0.882066 3:0.53713 4:0.742816 5:0.240093 6:0.225958 7:0.353483 8:0.677109 
-256.0 1:0.888149 2:0.882066 3:0.287209 4:0.282103 5:0.734004 6:0.27281 7:0.353483 8:0.616054 
-256.0 1:0.855419 2:0.868454 3:0.40621 4:0.372874 5:0.557839 6:0.3603 7:0.401984 8:0.451184 
-256.0 1:0.850288 2:0.191855 3:0.141993 4:0.290002 5:0.786611 6:0.144403 7:0.12568 8:0.90438 
-256.0 1:0.732326 2:0.109192 3:0.25532 4:0.600035 5:0.456225 6:0.790853 7:0.85997 8:0.154963 
-256.0 1:0.854577 2:0.908975 3:0.434273 4:0.405593 5:0.625728 6:0.412907 7:0.381718 8:0.646592 
-256.0 1:0.887041 2:0.191855 3:0.101461 4:0.365291 5:0.72521 6:0.144403 7:0.12568 8:0.90438 
-126.00309912287207 1:0.794059 2:0.191855 3:0.354287 4:0.374621 5:0.547551 6:0.329422 7:0.349023 8:0.567783 
-256.0 1:0.897328 2:0.922274 3:0.339693 4:0.399407 5:0.58791 6:0.314176 7:0.375187 8:0.608479 
-256.0 1:0.906902 2:0.948572 3:0.32959 4:0.125301 5:0.780012 6:0.30362 7:0.0863814 8:0.801884 
-256.0 1:0.947071 2:0.882066 3:0.196044 4:0.254802 5:0.795509 6:0.163901 7:0.222679 8:0.817465 
-256.0 1:0.871264 2:0.868454 3:0.383857 4:0.397366 5:0.432035 6:0.221307 7:0.291136 8:0.729505 
-256.0 1:0.876646 2:0.882066 3:0.40621 4:0.372874 5:0.557839 6:0.283122 7:0.251447 8:0.755608 
-256.0 1:0.710146 2:0.171555 3:0.861368 4:0.809488 5:0.0722379 6:0.856676 7:0.809489 8:0.0868593 
-256.0 1:0.865403 2:0.868454 3:0.383857 4:0.424783 5:0.400872 6:0.296206 7:0.381718 8:0.646592 
-34.79578745758748 1:0.828633 2:0.211919 3:0.234634 4:0.314977 5:0.758454 6:0.211339 7:0.162857 8:0.888834 
-256.0 1:0.916394 2:0.882066 3:0.309978 4:0.282103 5:0.764761 6:0.330672 7:0.366408 8:0.631584 
-256.0 1:0.840666 2:0.191855 3:0.177434 4:0.374621 5:0.738861 6:0.218552 7:0.259772 8:0.760495 
-214.51696058299913 1:0.802115 2:0.400756 3:0.242956 4:0.394529 5:0.564062 6:0.319583 7:0.757098 8:0.391339 
-256.0 1:0.929919 2:0.908975 3:0.300114 4:0.217906 5:0.716565 6:0.27281 7:0.183819 8:0.738061 
-256.0 1:0.881131 2:0.364596 3:0.286943 4:0.449601 5:0.541917 6:0.259038 7:0.428202 8:0.5621 
-256.0 1:0.801702 2:0.191855 3:0.354287 4:0.58522 5:0.403742 6:0.159685 7:0.268704 8:0.820372 
-256.0 1:0.859554 2:0.191855 3:0.248242 4:0.332339 5:0.738861 6:0.218552 7:0.304412 8:0.760495 
-256.0 1:0.85373 2:0.211919 3:0.206411 4:0.114025 5:0.960601 6:0.211339 7:0.118706 8:0.936073 
-256.0 1:0.835267 2:0.364596 3:0.223678 4:0.411884 5:0.627513 6:0.192839 7:0.388361 8:0.648391 
-256.0 1:0.870011 2:0.882066 3:0.355484 4:0.309385 5:0.70323 6:0.221307 7:0.515043 8:0.517451 
-256.0 1:0.935355 2:1.0 3:0.0661651 4:0.708696 5:0.519033 6:0.0615576 7:0.0706983 8:0.939421 
-256.0 1:0.802526 2:0.151015 3:0.262587 4:0.653232 5:0.570844 6:0.233561 7:0.643689 8:0.591273 
-256.0 1:0.834292 2:0.211919 3:0.206411 4:0.281749 5:0.772349 6:0.138133 7:0.339176 8:0.746761 
-256.0 1:0.886148 2:0.908975 3:0.25532 4:0.378847 5:0.656022 6:0.314176 7:0.375187 8:0.608479 
-256.0 1:0.809335 2:0.171555 3:0.206411 4:0.323547 5:0.772349 6:0.300884 7:0.494551 8:0.628271 
