svm_type c_svc
kernel_type rbf
gamma 256.0
nr_class 2
total_sv 765
rho 0.3569385834399917
label 1 -1
nr_sv 250 515
SV
1.321882335394185 1:0.830992 2:0.191855 3:0.248242 4:0.290002 5:0.738861 6:0.403097 7:0.438158 8:0.567783 
0.2879840432486419 1:0.935355 2:0.908975 3:0.344869 4:0.405593 5:0.56511 6:0.225958 7:0.325236 8:0.707597 
0.8722868874605212 1:0.850867 2:0.171555 3:0.25532 4:0.405593 5:0.615631 6:0.375613 7:0.0874905 8:0.774586 
2.4982785191246335 1:0.833311 2:0.191855 3:0.354287 4:0.374621 5:0.547551 6:0.329422 7:0.349023 8:0.567783 
1.3568809313557566 1:0.929101 2:0.882066 3:0.282426 4:0.222652 5:0.816686 6:0.163901 7:0.222679 8:0.817465 
1.156463439943384 1:0.916394 2:0.882066 3:0.332737 4:0.309385 5:0.672443 6:0.296206 7:0.240422 8:0.768503 
1.0731914868184171 1:0.903981 2:0.895573 3:0.23724 4:0.303886 5:0.755717 6:0.27281 7:0.353483 8:0.616054 
1.3568823643883887 1:0.794495 2:0.151015 3:0.732821 4:0.567059 5:0.275244 6:0.292513 7:0.304412 8:0.71241 
1.1041857503967853 1:0.854858 2:0.171555 3:0.267538 4:0.276522 5:0.636747 6:0.375613 7:0.0874905 8:0.774586 
1.1808214905607928 1:0.921341 2:0.882066 3:0.312589 4:0.155694 5:0.610329 6:0.283122 7:0.251447 8:0.755608 
0.6143521251195108 1:0.838785 2:0.171555 3:0.223678 4:0.449601 5:0.541917 6:0.225958 7:0.4043 8:0.579374 
0.5287597825593768 1:0.927617 2:0.908975 3:0.344869 4:0.352079 5:0.595425 6:0.296206 7:0.353483 8:0.646592 
1.3567054278640565 1:0.680758 2:0.0663361 3:0.570721 4:0.411884 5:0.456225 6:0.743742 7:0.55894 8:0.484891 
1.416522092282953 1:0.850867 2:0.151015 3:0.153489 4:0.35063 5:0.767254 6:0.312392 7:0.199062 8:0.780204 
1.3404406934451638 1:1.0 2:0.961572 3:0.237969 4:0.199686 5:0.829711 6:0.2078 7:0.164638 8:0.851841 
0.935626728207778 1:0.901999 2:0.908975 3:0.411934 4:0.352079 5:0.56511 6:0.366283 7:0.353483 8:0.677109 
1.3777977217886563 1:0.873245 2:0.868454 3:0.223137 4:0.369926 5:0.742941 6:0.429841 7:0.375187 8:0.578159 
0.6200058362193603 1:0.911077 2:0.895573 3:0.327574 4:0.357928 5:0.603067 6:0.254314 7:0.331406 8:0.68531 
1.4068371093878727 1:0.856256 2:0.171555 3:0.234634 4:0.479548 5:0.572107 6:0.263444 7:0.0421098 8:0.871815 
1.463087881815516 1:0.88389 2:0.882066 3:0.332737 4:0.336641 5:0.672443 6:0.330672 7:0.280206 8:0.72464 
1.4062232830245291 1:0.85901 2:0.211919 3:0.206411 4:0.281749 5:0.772349 6:0.142716 7:0.129747 8:0.989148 
0.11250457756662673 1:0.91089 2:0.895573 3:0.40621 4:0.372874 5:0.58791 6:0.230687 7:0.274407 8:0.746761 
0.43193085493976263 1:0.917648 2:0.908975 3:0.367235 4:0.378847 5:0.595425 6:0.225958 7:0.296974 8:0.768503 
0.0403614621351046 1:0.910515 2:0.895573 3:0.372681 4:0.411884 5:0.572496 6:0.296206 7:0.268704 8:0.738061 
1.3220425124927082 1:0.913853 2:0.868454 3:0.269106 4:0.149577 5:0.804965 6:0.306908 7:0.30895 8:0.66263 
1.3548825816785512 1:0.823792 2:0.171555 3:0.285186 4:0.33422 5:0.736737 6:0.300884 7:0.494551 8:0.579374 
1.357095976971857 1:0.837834 2:0.191855 3:0.177434 4:0.459023 5:0.738861 6:0.284358 7:0.515043 8:0.460992 
1.3574543385701272 1:0.763384 2:0.109192 3:0.318962 4:0.332339 5:0.595425 6:0.790853 7:0.85997 8:0.154963 
1.3595934577766464 1:0.826924 2:0.191855 3:0.354287 4:0.374621 5:0.547551 6:0.329422 7:0.527177 8:0.471055 
1.7374249353071591 1:0.944747 2:0.895573 3:0.440278 4:0.411884 5:0.511325 6:0.0615576 7:0.0706983 8:0.939421 
1.3558228413203184 1:0.857364 2:0.211919 3:0.333011 4:0.352722 5:0.562552 6:0.174759 7:0.0745267 8:0.983252 
2.110855682510785 1:0.77933 2:0.109192 3:0.871707 4:0.813009 5:0.0885151 6:0.255556 7:0.482682 8:0.51945 
1.2758399145916213 1:0.838468 2:0.191855 3:0.415706 4:0.490206 5:0.489065 6:0.144403 7:0.304412 8:0.760495 
1.3711998793520301 1:0.884571 2:0.895573 3:0.507788 4:0.411884 5:0.480716 6:0.249392 7:0.325236 8:0.677109 
1.301170427998009 1:0.917648 2:0.922274 3:0.428366 4:0.372874 5:0.557839 6:0.216731 7:0.118345 8:0.930271 
1.4158711303230906 1:0.903389 2:0.895573 3:0.417754 4:0.465752 5:0.450099 6:0.319583 7:0.325236 8:0.616054 
0.5896204923425645 1:0.917469 2:0.882066 3:0.350132 4:0.411884 5:0.603067 6:0.235494 7:0.30895 8:0.693646 
1.3769276332709408 1:0.871014 2:0.191855 3:0.071043 4:0.247614 5:0.929672 6:0.0700592 7:0.259772 8:0.856478 
1.3595992450720547 1:0.903981 2:0.882066 3:0.339693 4:0.0796113 5:0.708064 6:0.378143 7:0.165103 8:0.786548 
1.398724815201798 1:0.902596 2:0.882066 3:0.0859277 4:0.690689 5:0.536737 6:0.330672 7:0.366408 8:0.631584 
1.2259771668062265 1:0.932983 2:0.895573 3:0.259839 4:0.0868138 5:0.786208 6:0.249392 7:0.353483 8:0.677109 
1.1649275970025854 1:0.946059 2:0.882066 3:0.400952 4:0.41828 5:0.549174 6:0.221493 7:0.155502 8:0.862565 
0.7155264398869303 1:0.892066 2:0.908975 3:0.361874 4:0.399407 5:0.557839 6:0.27281 7:0.353483 8:0.677109 
1.3640501317621272 1:0.783634 2:0.0878964 3:0.812912 4:0.829121 5:0.197331 6:0.192839 7:0.388361 8:0.648391 
1.3407997925460322 1:0.868237 2:0.191855 3:0.318962 4:0.332339 5:0.69108 6:0.144403 7:0.0809238 8:0.95222 
1.3430961866641624 1:0.922722 2:0.895573 3:0.339693 4:0.106382 5:0.768067 6:0.207037 7:0.188817 8:0.808114 
1.4197603532016936 1:0.887928 2:0.882066 3:0.309978 4:0.282103 5:0.764761 6:0.425535 7:0.280206 8:0.693646 
1.2251942445406525 1:0.837516 2:0.191855 3:0.212851 4:0.416849 5:0.69108 6:0.270681 7:0.206979 8:0.699283 
1.3443782572274334 1:0.860905 2:0.171555 3:0.206411 4:0.57322 5:0.583614 6:0.263444 7:0.494551 8:0.628271 
1.4307862277548036 1:0.856256 2:0.191855 3:0.165623 4:0.273707 5:0.851451 6:0.403097 7:0.393605 8:0.51945 
1.4200035979009562 1:0.870262 2:0.191855 3:0.175824 4:0.166532 5:0.966478 6:0.144403 7:0.12568 8:0.90438 
1.3673651332704189 1:0.872505 2:0.798742 3:0.360926 4:0.204803 5:0.742941 6:0.215909 7:0.407927 8:0.681464 
1.1755034866390794 1:0.877125 2:0.854733 3:0.273861 4:0.403751 5:0.564062 6:0.283122 7:0.251447 8:0.755608 
1.0519304006605952 1:0.860096 2:0.171555 3:0.25532 4:0.298475 5:0.704461 6:0.375613 7:0.0874905 8:0.774586 
0.6948159274207794 1:0.912194 2:0.908975 3:0.40621 4:0.372874 5:0.557839 6:0.225958 7:0.353483 8:0.677109 
0.9037610831884143 1:0.887928 2:0.854733 3:0.478917 4:0.405593 5:0.625728 6:0.245355 7:0.262853 8:0.71075 
1.416458584074745 1:0.863305 2:0.171555 3:0.25532 4:0.512366 5:0.607547 6:0.107255 7:0.259772 8:0.760495 
1.3092574520845686 1:0.84526 2:0.191855 3:0.248242 4:0.247614 5:0.69108 6:0.174759 7:0.55894 8:0.604148 
1.518294206703062 1:0.82344 2:0.211919 3:0.19202 4:0.411884 5:0.67027 6:0.284358 7:0.339176 8:0.746761 
0.26996719129134333 1:0.913669 2:0.895573 3:0.327574 4:0.384919 5:0.633621 6:0.230687 7:0.274407 8:0.777452 
1.3341938463135368 1:0.896084 2:0.895573 3:0.327574 4:0.303886 5:0.72521 6:0.27281 7:0.381718 8:0.707597 
1.5497941656694656 1:0.872999 2:0.895573 3:0.46279 4:0.411884 5:0.511325 6:0.27281 7:0.381718 8:0.707597 
1.8221119639354038 1:0.883662 2:0.908975 3:0.367235 4:0.459023 5:0.595425 6:0.296206 7:0.466358 8:0.5549 
1.174385537833886 1:0.861442 2:0.191855 3:0.234634 4:0.314977 5:0.758454 6:0.255556 7:0.393605 8:0.567783 
1.2529695338771552 1:0.867982 2:0.191855 3:0.283614 4:0.332339 5:0.738861 6:0.138133 7:0.206979 8:0.888834 
1.3554142491134058 1:0.914401 2:0.868454 3:0.360926 4:0.342463 5:0.494321 6:0.27281 7:0.0704771 8:0.798918 
1.4686616647663997 1:0.849706 2:0.191855 3:0.354287 4:0.374621 5:0.547551 6:0.168189 7:0.199062 8:0.920333 
0.3630620956133047 1:0.898971 2:0.895573 3:0.40621 4:0.372874 5:0.557839 6:0.372165 7:0.41682 8:0.592939 
0.5514529049002492 1:0.933301 2:0.895573 3:0.23291 4:0.325287 5:0.746821 6:0.348631 7:0.359892 8:0.623756 
0.008829936070630973 1:0.909573 2:0.908975 3:0.367235 4:0.405593 5:0.595425 6:0.225958 7:0.325236 8:0.707597 
1.3508699683495793 1:0.836877 2:0.171555 3:0.45051 4:0.53174 5:0.441745 6:0.225958 7:0.4043 8:0.579374 
0.7977420700918052 1:0.899785 2:0.882066 3:0.355484 4:0.363878 5:0.672443 6:0.330672 7:0.337685 8:0.693646 
1.3569206635499296 1:0.689413 2:0.0663361 3:0.374685 4:0.795402 5:0.291699 6:0.704245 7:0.413975 8:0.537409 
1.3109412130492686 1:0.90457 2:0.882066 3:0.434273 4:0.325287 5:0.534779 6:0.211648 7:0.222679 8:0.817465 
1.214547770315602 1:0.922033 2:0.882066 3:0.378224 4:0.309385 5:0.610834 6:0.342944 7:0.296974 8:0.616054 
0.7453594217091137 1:0.941187 2:0.922274 3:0.40621 4:0.372874 5:0.557839 6:0.38363 7:0.347179 8:0.578159 
1.6098598476695953 1:0.896084 2:0.868454 3:0.383857 4:0.397366 5:0.432035 6:0.230687 7:0.245887 8:0.777452 
1.3393230545156276 1:0.842214 2:0.191855 3:0.318962 4:0.543208 5:0.547551 6:0.255556 7:0.438158 8:0.71241 
1.356922260419382 1:0.545112 2:0.0445045 3:0.959925 4:1.0 6:0.835344 7:0.871333 8:0.0922168 
0.6875971553988613 1:0.907478 2:0.882066 3:0.322496 4:0.325287 5:0.80729 6:0.306908 7:0.30895 8:0.66263 
1.7232286282833906 1:0.889904 2:0.882066 3:0.287209 4:0.282103 5:0.734004 6:0.319583 7:0.438158 8:0.585491 
1.343514029073054 1:0.917648 2:0.908975 3:0.322496 4:0.0291398 5:0.777062 6:0.319583 7:0.325236 8:0.616054 
1.357349895072677 1:0.826579 2:0.171555 3:0.0397957 4:0.384199 5:0.849591 6:0.225958 7:0.58733 8:0.475615 
1.3567093175112037 1:0.827952 2:0.171555 3:0.0397957 4:0.384199 5:0.849591 6:0.49326 7:0.361186 8:0.574368 
1.3957315544745073 1:0.842522 2:0.191855 3:0.389589 4:0.416849 5:0.547551 6:0.159685 7:0.388361 8:0.691458 
1.3947932542514632 1:0.825541 2:0.171555 3:0.318962 4:0.332339 5:0.738861 6:0.300884 7:0.268704 8:0.823234 
0.7587418387006349 1:0.847649 2:0.211919 3:0.17145 4:0.365291 5:0.72521 6:0.211339 7:0.427166 8:0.55649 
1.6964706007600454 1:0.922206 2:0.908975 3:0.290571 4:0.102652 5:0.759216 6:0.202504 7:0.296974 8:0.768503 
0.8076052468871877 1:0.8965 2:0.895573 3:0.305003 4:0.222652 5:0.755717 6:0.319583 7:0.438158 8:0.585491 
1.3688332254856335 1:0.806572 2:0.191855 3:0.354287 4:0.58522 5:0.403742 6:0.192839 7:0.348498 8:0.691458 
1.1880348925475785 1:0.849121 2:0.171555 3:0.276266 4:0.365291 5:0.583614 6:0.338273 7:0.132838 8:0.725879 
1.7969599145926611 1:0.900594 2:0.908975 3:0.300114 4:0.405593 5:0.686299 6:0.249392 7:0.325236 8:0.677109 
1.3368230950974993 1:0.836877 2:0.211919 3:0.381701 4:0.449601 5:0.541917 6:0.211339 7:0.251073 8:0.794178 
1.3387154379653479 1:0.875683 2:0.364596 3:0.0969281 4:0.298475 5:0.755717 6:0.159685 7:0.507811 8:0.60527 
0.5006715621371554 1:0.824844 2:0.191855 3:0.223678 4:0.449601 5:0.541917 6:0.255556 7:0.393605 8:0.567783 
1.6995924626169092 1:0.907286 2:0.908975 3:0.322496 4:0.0291398 5:0.777062 6:0.389603 7:0.353483 8:0.5549 
0.9439546788049691 1:0.858464 2:0.171555 3:0.25532 4:0.426976 5:0.559044 6:0.375613 7:0.0874905 8:0.774586 
1.450016900637225 1:0.899582 2:0.868454 3:0.273094 4:0.133127 5:0.768067 6:0.408127 7:0.401984 8:0.514076 
1.3477655839104594 1:0.912379 2:0.908975 3:0.300114 4:0.459023 5:0.56511 6:0.436189 7:0.409946 8:0.524287 
1.357276131588904 1:0.891421 2:0.400756 3:0.335612 4:0.283672 5:0.647666 6:0.2078 7:0.137224 8:0.80284 
1.3713471694620436 1:0.86171 2:0.171555 3:0.362762 4:0.083182 5:0.801248 6:0.255556 7:0.393605 8:0.567783 
1.461920065139288 1:0.900594 2:0.895573 3:0.350132 4:0.303886 5:0.694694 6:0.239791 7:0.28539 8:0.84076 
1.171172135614109 1:0.937686 2:0.908975 3:0.25532 4:0.325287 5:0.746821 6:0.225958 7:0.353483 8:0.677109 
1.0146989812906888 1:0.906322 2:0.854733 3:0.273861 4:0.209561 5:0.783317 6:0.319583 7:0.296974 8:0.707597 
1.29181374400486 1:0.868237 2:0.151015 3:0.262587 4:0.394031 5:0.767254 6:0.107255 7:0.259772 8:0.808519 
1.356207708030639 1:0.812808 2:0.151015 3:0.371463 4:0.567059 5:0.570844 6:0.429841 7:0.515043 8:0.460992 
5.284216642921637 1:0.903587 2:0.882066 3:0.40621 4:0.372874 5:0.557839 6:0.283122 7:0.251447 8:0.755608 
0.8811077069919858 1:0.940131 2:0.908975 3:0.322496 4:0.352079 5:0.625728 6:0.221307 7:0.291136 8:0.729505 
1.3566732348469785 1:0.797934 2:0.191855 3:0.671181 4:0.794473 5:0.163438 6:0.284358 7:0.515043 8:0.460992 
1.0305421197025582 1:0.926952 2:0.895573 3:0.259839 4:0.0868138 5:0.786208 6:0.314176 7:0.319163 8:0.729505 
1.9064455920682484 1:0.850288 2:0.191855 3:0.248242 4:0.290002 5:0.69108 6:0.247871 7:0.162857 8:0.936073 
1.3321823129642865 1:0.804968 2:0.171555 3:0.291156 4:0.469697 5:0.656022 6:0.263444 7:0.449439 8:0.677109 
1.1443361369470917 1:0.90457 2:0.854733 3:0.273861 4:0.292925 5:0.689431 6:0.296206 7:0.353483 8:0.707597 
3.518725793713624 1:0.900997 2:0.908975 3:0.339693 4:0.239898 5:0.798048 6:0.296206 7:0.353483 8:0.707597 
0.8750750336622751 1:0.90019 2:0.882066 3:0.289181 4:0.414854 5:0.717044 6:0.235494 7:0.30895 8:0.693646 
0.8368886391208715 1:0.892922 2:0.895573 3:0.40621 4:0.372874 5:0.557839 6:0.254314 7:0.302913 8:0.716048 
1.4142324125603456 1:0.815076 2:0.191855 3:0.354287 4:0.374621 5:0.547551 6:0.49326 7:0.361186 8:0.574368 
1.3583081081658792 1:0.859825 2:0.191855 3:0.0965237 4:0.273707 5:0.897903 6:0.292513 7:0.393605 8:0.760495 
1.3941202830773571 1:0.917112 2:0.868454 3:0.0661651 4:0.708696 5:0.519033 6:0.240381 7:0.111911 8:0.826971 
2.279044622237254 1:0.917469 2:0.908975 3:0.312589 4:0.155694 5:0.610329 6:0.366283 7:0.353483 8:0.616054 
1.340533698037105 1:0.877364 2:0.895573 3:0.4566 4:0.43232 5:0.595425 6:0.230687 7:0.188817 8:0.808114 
1.3986476940910406 1:0.925275 2:0.882066 3:0.259839 4:0.276828 5:0.755717 6:0.235494 7:0.30895 8:0.693646 
1.5225551277340161 1:0.833966 2:0.171555 3:0.31116 4:0.406982 5:0.630843 6:0.225958 7:0.223446 8:0.774586 
1.5419157093467268 1:0.905741 2:0.854733 3:0.250684 4:0.376079 5:0.626775 6:0.216337 7:0.111911 8:0.826971 
1.199367049467702 1:0.960508 2:0.908975 3:0.300114 4:0.244783 5:0.777062 6:0.27281 7:0.212124 8:0.798918 
1.3213922429796268 1:0.837197 2:0.171555 3:0.318962 4:0.332339 5:0.69108 6:0.375613 7:0.0874905 8:0.774586 
1.3569019261036028 1:0.93598 2:1.0 3:0.131083 4:0.911717 5:0.357221 6:0.0615576 7:0.0706983 8:0.939421 
1.3604238842403744 1:0.837516 2:0.151015 3:0.298902 4:0.437372 5:0.718203 6:0.393539 7:0.471119 8:0.508771 
1.2480140564670525 1:0.902596 2:0.908975 3:0.300114 4:0.271642 5:0.595425 6:0.314176 7:0.319163 8:0.729505 
1.2083752631020346 1:0.891636 2:0.895573 3:0.384048 4:0.425915 5:0.557839 6:0.325082 7:0.445269 8:0.592939 
1.263779464974648 1:0.925444 2:0.908975 3:0.322496 4:0.485704 5:0.534779 6:0.225958 7:0.353483 8:0.677109 
1.7332052404542064 1:0.895875 2:0.908975 3:0.317501 4:0.0796113 5:0.768067 6:0.27281 7:0.381718 8:0.707597 
1.3002096958233373 1:0.847649 2:0.171555 3:0.25532 4:0.298475 5:0.656022 6:0.403097 7:0.482682 8:0.51945 
1.2492664691157116 1:0.905157 2:0.868454 3:0.337986 4:0.452177 5:0.494321 6:0.296206 7:0.325236 8:0.707597 
1.4573318608605623 1:0.851732 2:0.34623 3:0.261721 4:0.420868 5:0.595425 6:0.225958 7:0.46802 8:0.5621 
1.3047589611650183 1:0.906902 2:0.868454 3:0.327574 4:0.357928 5:0.603067 6:0.168189 7:0.373032 8:0.7646 
1.2727264378432477 1:0.809725 2:0.171555 3:0.291156 4:0.384199 5:0.607547 6:0.49326 7:0.399681 8:0.574368 
0.4174768175310911 1:0.900997 2:0.908975 3:0.400579 4:0.367 5:0.550692 6:0.319583 7:0.381718 8:0.677109 
1.3359009981011716 1:0.864095 2:0.211919 3:0.276266 4:0.323547 5:0.630843 6:0.225958 7:0.188817 8:0.863246 
1.8714414565907973 1:0.87973 2:0.211919 3:0.136467 4:0.323547 5:0.772349 6:0.174759 7:0.118706 8:0.888834 
0.7046474676615924 1:0.901599 2:0.895573 3:0.389589 4:0.378847 5:0.656022 6:0.207037 7:0.188817 8:0.808114 
1.585046954164811 1:0.915129 2:0.854733 3:0.273861 4:0.320668 5:0.658108 6:0.225958 7:0.353483 8:0.677109 
1.3573564299400984 1:0.79493 2:0.109192 3:0.797813 4:0.768969 5:0.0885151 6:0.2078 7:0.137224 8:0.80284 
2.425714221814016 1:0.908815 2:0.882066 3:0.287209 4:0.309385 5:0.734004 6:0.348631 7:0.359892 8:0.623756 
1.143611050140431 1:0.829986 2:0.191855 3:0.261721 4:0.420868 5:0.595425 6:0.255556 7:0.393605 8:0.567783 
0.8089505267988103 1:0.850578 2:0.211919 3:0.242956 4:0.431397 5:0.564062 6:0.211339 7:0.427166 8:0.55649 
1.3486634506624842 1:0.82761 2:0.191855 3:0.354287 4:0.543208 5:0.451709 6:0.320797 7:0.427166 8:0.651746 
0.933371509210988 1:0.895038 2:0.882066 3:0.367235 4:0.405593 5:0.686299 6:0.211648 7:0.222679 8:0.817465 
0.5347639542488009 1:0.905935 2:0.908975 3:0.361874 4:0.346323 5:0.617965 6:0.366283 7:0.353483 8:0.677109 
0.568717701738253 1:0.91089 2:0.908975 3:0.322496 4:0.405593 5:0.595425 6:0.314176 7:0.319163 8:0.729505 
1.3567811581440044 1:0.789171 2:0.109192 3:0.464041 4:0.547879 5:0.645925 6:0.375613 7:0.0874905 8:0.774586 
0.9257911485959158 1:0.885249 2:0.882066 3:0.478917 4:0.405593 5:0.625728 6:0.235494 7:0.30895 8:0.693646 
1.357391954742494 1:0.766617 2:0.191855 3:0.507788 4:0.524902 5:0.370429 6:0.403097 7:0.527177 8:0.471055 
1.0236336687427634 1:0.90019 2:0.908975 3:0.322496 4:0.325287 5:0.80729 6:0.249392 7:0.325236 8:0.677109 
1.1965943517781317 1:0.880898 2:0.770054 3:0.230871 4:0.560782 5:0.578892 6:0.319583 7:0.296974 8:0.707597 
0.8136959097421458 1:0.913486 2:0.868454 3:0.360926 4:0.204803 5:0.742941 6:0.314176 7:0.40318 8:0.608479 
1.338516623810325 1:0.826234 2:0.13023 3:0.196356 4:0.44805 5:0.682569 6:0.366283 7:0.180126 8:0.655884 
1.4994730985225388 1:0.84824 2:0.191855 3:0.212851 4:0.205168 5:0.834326 6:0.159685 7:0.507811 8:0.60527 
1.36511267375746 1:0.863569 2:0.798742 3:0.250684 4:0.376079 5:0.626775 6:0.215909 7:0.407927 8:0.681464 
1.3522402847179218 1:0.829311 2:0.151015 3:0.262587 4:0.653232 5:0.570844 6:0.233561 7:0.552418 8:0.690294 
1.0209787528751073 1:0.850578 2:0.151015 3:0.117076 4:0.35063 5:0.669115 6:0.225958 7:0.381718 8:0.636418 
1.5858484677567815 1:0.82344 2:0.191855 3:0.318962 4:0.332339 5:0.595425 6:0.329422 7:0.438158 8:0.616054 
1.3573089203407858 1:0.869506 2:0.364596 3:0.206411 4:0.166532 5:0.843001 6:0.225958 7:0.58733 8:0.475615 
0.4062520071126972 1:0.913118 2:0.882066 3:0.287209 4:0.282103 5:0.764761 6:0.319583 7:0.325236 8:0.616054 
3.6526791507646097 1:0.93598 2:0.908975 3:0.300114 4:0.217906 5:0.716565 6:0.221307 7:0.291136 8:0.729505 
1.3494932365446093 1:0.790969 2:0.151015 3:0.248242 4:0.416849 5:0.643268 6:0.648638 7:0.689277 8:0.292635 
0.4624294591587095 1:0.915673 2:0.882066 3:0.350132 4:0.411884 5:0.603067 6:0.283122 7:0.280206 8:0.755608 
1.367480732363397 1:0.823792 2:0.171555 3:0.291156 4:0.597531 5:0.510509 6:0.403097 7:0.393605 8:0.51945 
4.833990758190357 1:0.815451 2:0.171555 3:0.291156 4:0.469697 5:0.656022 6:0.270681 7:0.206979 8:0.699283 
0.609398061297697 1:0.892708 2:0.922274 3:0.384048 4:0.425915 5:0.557839 6:0.337345 7:0.375187 8:0.578159 
1.488195959486287 1:0.915129 2:0.882066 3:0.290571 4:0.102652 5:0.759216 6:0.283122 7:0.251447 8:0.755608 
1.3573341793364349 1:0.777865 2:0.109192 3:0.0355331 4:0.416849 5:0.69108 6:0.443947 7:0.532119 8:0.666939 
1.3439845700698252 1:0.862243 2:0.191855 3:0.177434 4:0.374621 5:0.738861 6:0.0599844 7:0.268704 8:0.777452 
1.3512161710038622 1:0.841597 2:0.191855 3:0.424868 4:0.459023 5:0.547551 6:0.218552 7:0.438158 8:0.567783 
0.8637671737356494 1:0.904961 2:0.895573 3:0.327574 4:0.384919 5:0.603067 6:0.319583 7:0.381718 8:0.677109 
1.4310821235625344 1:0.947215 2:0.908975 3:0.389589 4:0.405593 5:0.595425 6:0.0615576 7:0.0706983 8:0.939421 
1.2921746544713335 1:0.847055 2:0.151015 3:0.413251 4:0.449601 5:0.499081 6:0.0811229 7:0.323707 8:0.690294 
1.3571521615319926 1:0.808944 2:0.171555 3:0.398528 4:0.724869 5:0.413339 6:0.329422 7:0.349023 8:0.567783 
5.909793630751534 1:0.832322 2:0.191855 3:0.181098 4:0.357619 5:0.689431 6:0.218552 7:0.393605 8:0.616054 
1.3654890654115353 1:0.855978 2:0.868454 3:0.315035 4:0.369926 5:0.494321 6:0.489533 7:0.388361 8:0.500343 
1.3360939097657205 1:0.821664 2:0.171555 3:0.38088 4:0.406982 5:0.630843 6:0.300884 7:0.494551 8:0.628271 
1.3386618368119094 1:0.95409 2:0.922274 3:0.273094 4:0.133127 5:0.768067 6:0.244554 7:0.0946111 8:0.789872 
0.7620412179378736 1:0.873491 2:0.922274 3:0.361874 4:0.399407 5:0.557839 6:0.337345 7:0.40318 8:0.578159 
1.3566975805124943 1:0.757251 2:0.171555 3:0.57701 4:0.724869 5:0.316041 6:0.561593 7:0.719653 8:0.333922 
1.1552032042532274 1:0.903784 2:0.908975 3:0.27772 4:0.378847 5:0.656022 6:0.239791 7:0.28539 8:0.84076 
1.181565480816134 1:0.853446 2:0.784457 3:0.202003 4:0.495073 5:0.603616 6:0.330672 7:0.280206 8:0.72464 
1.2918668256797496 1:0.881826 2:0.191855 3:0.276266 4:0.281749 5:0.72521 6:0.107255 7:0.349023 8:0.760495 
1.35668231216175 1:0.77933 2:0.0445045 3:0.959925 4:1.0 6:0.174759 7:0.0745267 8:0.983252 
1.3789332446003346 1:0.844656 2:0.171555 3:0.25532 4:0.469697 5:0.656022 6:0.181503 7:0.393605 8:0.71241 
1.3097489088894125 1:0.865923 2:0.151015 3:0.262587 4:0.35063 5:0.767254 6:0.338273 7:0.0421098 8:0.823234 
1.357215341287491 1:0.823792 2:0.109192 3:0.262587 4:0.394031 5:0.767254 6:0.560047 7:0.672817 8:0.462984 
1.3608103399226412 1:0.870764 2:0.171555 3:0.0965237 4:0.232381 5:0.944331 6:0.225958 7:0.223446 8:0.774586 
2.075655139564896 1:0.907286 2:0.854733 3:0.273861 4:0.292925 5:0.689431 6:0.296206 7:0.240422 8:0.768503 
1.7118234657625073 1:0.887041 2:0.826964 3:0.471872 4:0.444971 5:0.547551 6:0.225958 7:0.268704 8:0.768503 
0.4887133185698985 1:0.919419 2:0.908975 3:0.411934 4:0.378847 5:0.595425 6:0.314176 7:0.40318 8:0.608479 
1.3430450436255752 1:0.882517 2:0.854733 3:0.366462 4:0.431397 5:0.532689 6:0.283122 7:0.251447 8:0.786548 
1.3565972340928467 1:0.828293 2:0.191855 3:0.177434 4:0.332339 5:0.738861 6:0.292513 7:0.393605 8:0.760495 
2.1082366309914327 1:0.89356 2:0.854733 3:0.273861 4:0.209561 5:0.783317 6:0.314176 7:0.375187 8:0.608479 
1.3008943861771909 1:0.889029 2:0.882066 3:0.339693 4:0.239898 5:0.798048 6:0.330672 7:0.280206 8:0.72464 
1.3507079484471127 1:0.899582 2:0.854733 3:0.373231 4:0.569514 5:0.514059 6:0.245355 7:0.262853 8:0.71075 
1.3706479241927665 1:0.961419 2:0.882066 3:0.202733 4:0.114025 5:0.91606 6:0.259316 7:0.337685 8:0.693646 
1.406231343178428 1:0.896707 2:0.895573 3:0.300114 4:0.217906 5:0.716565 6:0.489533 7:0.41682 8:0.500343 
2.141604239860865 1:0.92409 2:0.908975 3:0.312589 4:0.155694 5:0.610329 6:0.296206 7:0.325236 8:0.707597 
1.2118097367523661 1:0.889467 2:0.854733 3:0.273861 4:0.403751 5:0.564062 6:0.211648 7:0.222679 8:0.817465 
1.3567924439729688 1:0.78643 2:0.68103 3:0.646871 4:0.304664 5:0.560445 6:0.38363 7:0.347179 8:0.608479 
1.0054455873602361 1:0.90767 2:0.908975 3:0.40621 4:0.372874 5:0.557839 6:0.436189 7:0.325236 8:0.585491 
0.8483945669023504 1:0.938761 2:0.908975 3:0.264063 4:0.177877 5:0.780012 6:0.296206 7:0.325236 8:0.677109 
0.9168862033612448 1:0.920819 2:0.854733 3:0.273861 4:0.292925 5:0.689431 6:0.174759 7:0.347179 8:0.699283 
1.360361636043088 1:0.895038 2:0.882066 3:0.46279 4:0.411884 5:0.511325 6:0.378143 7:0.165103 8:0.786548 
1.1407840868052206 1:0.880898 2:0.171555 3:0.219459 4:0.341364 5:0.704461 6:0.107255 7:0.349023 8:0.760495 
2.8722357453959964 1:0.911264 2:0.882066 3:0.309978 4:0.282103 5:0.764761 6:0.301513 7:0.331406 8:0.623756 
1.365699074258436 1:0.834292 2:0.171555 3:0.424868 4:0.374621 5:0.595425 6:0.375613 7:0.0874905 8:0.774586 
1.3578791732126982 1:0.838468 2:0.191855 3:0.248242 4:0.290002 5:0.834326 6:0.218552 7:0.259772 8:0.856478 
1.3567117158448996 1:0.758951 3:0.718843 4:0.470972 5:0.445984 6:0.12649 7:0.308614 8:0.734479 
1.3548068553210917 1:0.854577 2:0.191855 3:0.318962 4:0.543208 5:0.547551 6:0.312392 7:0.242597 8:0.733376 
1.3571417740098104 1:0.76447 2:0.0663361 3:0.354287 4:0.374621 5:0.547551 6:0.704245 7:0.413975 8:0.537409 
0.6289942251526496 1:0.903587 2:0.882066 3:0.327574 4:0.384919 5:0.603067 6:0.211648 7:0.251447 8:0.786548 
1.2988997127158919 1:0.885249 2:0.191855 3:0.10653 4:0.374621 5:0.738861 6:0.0700592 7:0.349023 8:0.760495 
1.2302090673381216 1:0.884345 2:0.171555 3:0.248242 4:0.247614 5:0.643268 6:0.188422 7:0.178155 8:0.968793 
1.2176837943096375 1:0.927948 2:0.895573 3:0.305003 4:0.195527 5:0.755717 6:0.296206 7:0.240422 8:0.768503 
1.0410351473332038 1:0.910139 2:0.882066 3:0.378224 4:0.309385 5:0.610834 6:0.436189 7:0.325236 8:0.585491 
1.0978992050694438 1:0.92409 2:0.908975 3:0.273094 4:0.425915 5:0.648011 6:0.296206 7:0.268704 8:0.738061 
1.397060515601611 1:0.819503 2:0.171555 3:0.291156 4:0.384199 5:0.801248 6:0.329422 7:0.349023 8:0.567783 
0.9412494419441692 1:0.931379 2:0.882066 3:0.300114 4:0.352079 5:0.656022 6:0.306908 7:0.280206 8:0.693646 
1.8337934833767946 1:0.834618 2:0.191855 3:0.318962 4:0.247614 5:0.643268 6:0.213019 7:0.40897 8:0.584434 
2.113149690813814 1:0.906902 2:0.882066 3:0.287209 4:0.282103 5:0.764761 6:0.319583 7:0.381718 8:0.677109 
1.3566391903865345 1:0.80537 2:0.191855 3:0.354287 4:0.374621 5:0.547551 6:0.319583 7:0.757098 8:0.391339 
0.5906114444286369 1:0.915311 2:0.908975 3:0.389589 4:0.383862 5:0.623834 6:0.249392 7:0.353483 8:0.677109 
0.6484591621406453 1:0.883205 2:0.895573 3:0.361874 4:0.399407 5:0.557839 6:0.372165 7:0.41682 8:0.592939 
0.93995384482341 1:0.919419 2:0.895573 3:0.389589 4:0.383862 5:0.623834 6:0.254314 7:0.188817 8:0.838752 
1.6259305565447446 1:0.889904 2:0.882066 3:0.332737 4:0.363878 5:0.641647 6:0.436189 7:0.381718 8:0.5549 
1.3429128638925443 1:0.882057 2:0.868454 3:0.360926 4:0.342463 5:0.494321 6:0.330672 7:0.280206 8:0.72464 
0.2400167511670557 1:0.911077 2:0.882066 3:0.309978 4:0.282103 5:0.70323 6:0.296206 7:0.353483 8:0.707597 
1.3491647848071988 1:0.75553 2:0.151015 3:0.24135 4:0.490206 5:0.678042 6:0.611152 7:0.780365 8:0.242633 
1.3788087401562958 1:0.960246 2:0.882066 3:0.202733 4:0.114025 5:0.91606 6:0.211648 7:0.251447 8:0.786548 
1.177184523017183 1:0.905935 2:0.882066 3:0.372681 4:0.411884 5:0.572496 6:0.163901 7:0.222679 8:0.817465 
1.3923354571987216 1:0.848534 2:0.854733 3:0.469084 4:0.769717 5:0.240093 6:0.245355 7:0.262853 8:0.71075 
0.8615663281755477 1:0.926451 2:0.908975 3:0.27772 4:0.271642 5:0.746821 6:0.296206 7:0.466358 8:0.5549 
1.3251279601185735 1:0.862775 2:0.191855 3:0.283614 4:0.332339 5:0.69108 6:0.0647407 7:0.206979 8:0.841536 
1.356744109305944 1:0.784572 2:0.151015 3:0.354287 4:0.374621 5:0.547551 6:0.760808 7:0.461026 8:0.392445 
1.3569217316433877 1:0.78643 2:0.191855 3:0.177434 4:0.374621 5:0.738861 6:0.609406 7:0.85019 8:0.122581 
1.431833097191698 1:0.907094 2:0.895573 3:0.327574 4:0.222652 5:0.755717 6:0.348631 7:0.388361 8:0.592939 
1.3572332025025284 1:0.86462 2:0.171555 3:0.206411 4:0.114025 5:0.960601 6:0.338273 7:0.132838 8:0.725879 
1.10422098466263 1:0.845861 2:0.171555 3:0.147665 4:0.341364 5:0.752868 6:0.255556 7:0.393605 8:0.567783 
1.2994582674955881 1:0.846459 2:0.171555 3:0.219459 4:0.341364 5:0.704461 6:0.159685 7:0.507811 8:0.60527 
0.9119594659722678 1:0.892708 2:0.908975 3:0.45051 4:0.399407 5:0.557839 6:0.319583 7:0.381718 8:0.616054 
0.9683444525872605 1:0.923919 2:0.882066 3:0.322496 4:0.352079 5:0.656022 6:0.211648 7:0.222679 8:0.817465 
1.7645184926594484 1:0.878315 2:0.364596 3:0.0969281 4:0.298475 5:0.755717 6:0.192839 7:0.388361 8:0.648391 
1.171610611050296 1:0.892708 2:0.854733 3:0.273861 4:0.292925 5:0.689431 6:0.38363 7:0.347179 8:0.608479 
1.5342405604902585 1:0.914401 2:0.854733 3:0.273861 4:0.209561 5:0.783317 6:0.240381 7:0.111911 8:0.826971 
-0.5461641860516975 1:0.822021 2:0.882066 3:0.289181 4:0.414854 5:0.717044 6:0.283122 7:0.251447 8:0.755608 
-0.6375023099552566 1:0.644661 2:0.109192 3:0.797813 4:0.768969 5:0.0885151 6:0.168189 7:0.329582 8:0.780204 
-0.1883903674926732 1:0.833966 2:0.895573 3:0.259839 4:0.276828 5:0.755717 6:0.366283 7:0.353483 8:0.677109 
-0.5485111947657145 1:0.826579 2:0.784457 3:0.298902 4:0.37957 5:0.636372 6:0.348631 7:0.359892 8:0.623756 
-0.4625111537612849 1:0.791859 2:0.364596 3:0.298078 4:0.239898 5:0.678042 6:0.225958 7:0.388361 8:0.648391 
-0.10523100370577784 1:0.848534 2:0.854733 3:0.297024 4:0.292925 5:0.689431 6:0.330672 7:0.366408 8:0.631584 
-0.6801250300274109 1:0.880898 2:0.922274 3:0.317501 4:0.0796113 5:0.768067 6:0.30362 7:0.0863814 8:0.801884 
-0.7406682724050695 1:0.768732 2:0.171555 3:0.25532 4:0.512366 5:0.607547 6:0.263444 7:0.0421098 8:0.871815 
-0.6475998733878532 1:0.810503 2:0.211919 3:0.101461 4:0.365291 5:0.72521 6:0.168189 7:0.329582 8:0.780204 
-0.50201646428219 1:0.791415 2:0.171555 3:0.111733 4:0.426976 5:0.656022 6:0.255556 7:0.393605 8:0.567783 
-0.5890259998415477 1:0.86644 2:0.882066 3:0.356603 4:0.0495271 5:0.759216 6:0.211648 7:0.251447 8:0.786548 
-0.8851198946481262 1:0.801702 2:0.191855 3:0.19202 4:0.449601 5:0.627513 6:0.292513 7:0.304412 8:0.71241 
-0.4540428636140893 1:0.797508 2:0.908975 3:0.339693 4:0.346323 5:0.708064 6:0.436189 7:0.381718 8:0.5549 
-0.24914642232756642 1:0.857915 2:0.922274 3:0.273094 4:0.425915 5:0.648011 6:0.314176 7:0.40318 8:0.608479 
-0.23754564493968033 1:0.826579 2:0.908975 3:0.389589 4:0.405593 5:0.595425 6:0.389603 7:0.353483 8:0.5549 
-0.22717201671911433 1:0.809335 2:0.882066 3:0.367235 4:0.378847 5:0.686299 6:0.283122 7:0.251447 8:0.755608 
-0.5946821497988016 1:0.889467 2:0.908975 3:0.300114 4:0.217906 5:0.625728 6:0.202504 7:0.296974 8:0.768503 
-0.5261700828538356 1:0.789623 2:0.191855 3:0.248242 4:0.247614 5:0.786611 6:0.292513 7:0.304412 8:0.71241 
-0.5160419849241216 1:0.79493 2:0.191855 3:0.141993 4:0.290002 5:0.786611 6:0.284358 7:0.339176 8:0.699283 
-0.6432796970089749 1:0.688478 2:0.171555 3:0.612636 4:0.561526 5:0.525445 6:0.375613 7:0.0874905 8:0.774586 
-0.40506896962502076 1:0.82761 2:0.908975 3:0.339693 4:0.0796113 5:0.708064 6:0.389603 7:0.353483 8:0.5549 
-0.6417693301000061 1:0.879495 2:0.948572 3:0.395041 4:0.151601 5:0.780012 6:0.0615576 7:0.0706983 8:0.939421 
-0.49977199197994454 1:0.845561 2:0.882066 3:0.110854 4:0.724869 5:0.454829 6:0.354419 7:0.280206 8:0.631584 
-1.1065612475152635 1:0.873245 2:0.908975 3:0.317501 4:0.0796113 5:0.768067 6:0.389603 7:0.353483 8:0.5549 
-0.32206201068960727 1:0.837516 2:0.882066 3:0.300114 4:0.110173 5:0.777062 6:0.283122 7:0.251447 8:0.755608 
-0.34267186456091225 1:0.856811 2:0.895573 3:0.350132 4:0.303886 5:0.694694 6:0.27281 7:0.353483 8:0.677109 
-0.6245314816844117 1:0.71945 2:0.151015 3:0.262587 4:0.394031 5:0.767254 6:0.375613 7:0.178155 8:0.677109 
-0.6431990201784993 1:0.707718 2:0.171555 3:0.469992 4:0.724869 5:0.316041 6:0.403097 7:0.393605 8:0.51945 
-0.578729285875198 1:0.872999 2:0.868454 3:0.339693 4:0.106382 5:0.768067 6:0.288409 7:0.344068 8:0.514076 
-0.6597466245897325 1:0.756106 2:0.191855 3:0.212851 4:0.290002 5:0.786611 6:0.403097 7:0.393605 8:0.51945 
-0.06451043392584382 1:0.862775 2:0.908975 3:0.264063 4:0.177877 5:0.780012 6:0.319583 7:0.381718 8:0.616054 
-0.9095136138694754 1:0.845861 2:0.908975 3:0.40621 4:0.372874 5:0.557839 6:0.366283 7:0.353483 8:0.616054 
-0.5878620853130737 1:0.773374 2:0.191855 3:0.160341 4:0.411884 5:0.627513 6:0.255556 7:0.438158 8:0.71241 
-0.6397481649954444 1:0.754371 2:0.868454 3:0.53713 4:0.742816 5:0.240093 6:0.3603 7:0.401984 8:0.451184 
-0.5261340655209968 1:0.851732 2:0.908975 3:0.25532 4:0.298475 5:0.746821 6:0.366283 7:0.353483 8:0.616054 
-0.5189380146110043 1:0.818775 2:0.882066 3:0.25532 4:0.405593 5:0.656022 6:0.235494 7:0.30895 8:0.693646 
-0.350374025574118 1:0.846459 2:0.854733 3:0.273861 4:0.292925 5:0.689431 6:0.312392 7:0.430924 8:0.514076 
-0.6515376373577259 1:0.779815 2:0.171555 3:0.354287 4:0.374621 5:0.547551 6:0.263444 7:0.449439 8:0.628271 
-0.42806221713872983 1:0.828293 2:0.908975 3:0.367235 4:0.378847 5:0.686299 6:0.27281 7:0.353483 8:0.677109 
-0.7594690720411109 1:0.866698 2:0.895573 3:0.327574 4:0.330918 5:0.664166 6:0.27281 7:0.212124 8:0.798918 
-1.24395058536278 1:0.824144 2:0.364596 3:0.0969281 4:0.298475 5:0.755717 6:0.225958 7:0.381718 8:0.636418 
-3.1589913282442152 1:0.901799 2:0.908975 3:0.300114 4:0.217906 5:0.716565 6:0.221307 7:0.291136 8:0.729505 
-0.4678610743095556 1:0.748423 2:0.171555 3:0.25532 4:0.384199 5:0.752868 6:0.255556 7:0.393605 8:0.567783 
-0.49978229153621745 1:0.808158 2:0.191855 3:0.272853 4:0.354406 5:0.634951 6:0.329422 7:0.349023 8:0.71241 
-0.40499447510290776 1:0.809725 2:0.364596 3:0.25532 4:0.336323 5:0.67027 6:0.192839 7:0.388361 8:0.648391 
-0.6523039472253358 1:0.758387 2:0.191855 3:0.318962 4:0.247614 5:0.643268 6:0.255556 7:0.482682 8:0.51945 
-0.03066245493648859 1:0.826579 2:0.882066 3:0.344869 4:0.325287 5:0.625728 6:0.283122 7:0.366408 8:0.66263 
-0.2647802285781158 1:0.85202 2:0.882066 3:0.309978 4:0.282103 5:0.734004 6:0.207037 7:0.188817 8:0.808114 
-0.6313097326490328 1:0.861977 2:0.784457 3:0.298902 4:0.37957 5:0.636372 6:0.225958 7:0.268704 8:0.768503 
-0.5969063082958274 1:0.80697 2:0.882066 3:0.110854 4:0.724869 5:0.454829 6:0.306908 7:0.251447 8:0.755608 
-0.49751527980293536 1:0.790522 2:0.191855 3:0.318546 4:0.336323 5:0.627513 6:0.181503 7:0.304412 8:0.664263 
-0.428722338462048 1:0.830322 2:0.882066 3:0.411934 4:0.378847 5:0.595425 6:0.378143 7:0.395115 8:0.56942 
-0.5980553255761112 1:0.758951 2:0.211919 3:0.415706 4:0.614648 5:0.441745 6:0.320797 7:0.339176 8:0.746761 
-0.1315244703472959 1:0.829649 2:0.908975 3:0.344869 4:0.298475 5:0.656022 6:0.27281 7:0.353483 8:0.646592 
-0.5185019662572536 1:0.820227 2:0.882066 3:0.469084 4:0.769717 5:0.240093 6:0.319583 7:0.325236 8:0.677109 
-1.4701897042684224 1:0.879495 2:0.895573 3:0.317501 4:0.0796113 5:0.768067 6:0.254314 7:0.331406 8:0.68531 
-0.6393143690274535 1:0.769777 2:0.171555 3:0.136467 4:0.323547 5:0.772349 6:0.375613 7:0.0874905 8:0.774586 
-3.3479765835967554 1:0.866956 2:0.908975 3:0.339693 4:0.239898 5:0.798048 6:0.296206 7:0.353483 8:0.707597 
-1.784119773011469 1:0.885249 2:0.908975 3:0.312589 4:0.155694 5:0.610329 6:0.296206 7:0.325236 8:0.677109 
-0.29378745491323577 1:0.791415 2:0.840904 3:0.39542 4:0.410245 5:0.603332 6:0.283122 7:0.337685 8:0.66263 
-0.4809489305384703 1:0.920296 2:0.908975 3:0.131083 5:1.0 6:0.225958 7:0.296974 8:0.677109 
-0.2837238633875074 1:0.812427 2:0.854733 3:0.366462 4:0.348384 5:0.658108 6:0.296206 7:0.353483 8:0.707597 
-0.4035550230707491 1:0.863305 2:0.882066 3:0.378224 4:0.0905035 5:0.88767 6:0.27281 7:0.296974 8:0.707597 
-0.3800550487276357 1:0.850288 2:0.922274 3:0.273094 4:0.133127 5:0.768067 6:0.337345 7:0.40318 8:0.608479 
-0.5768512830645095 1:0.829311 2:0.211919 3:0.206411 4:0.281749 5:0.772349 6:0.358418 7:0.31444 8:0.646936 
-0.7227864225564021 1:0.84526 2:0.191855 3:0.283614 4:0.374621 5:0.69108 6:0.0595599 7:0.242597 8:0.920333 
-1.6239708888803326 1:0.724601 2:0.109192 3:0.871707 4:0.813009 5:0.0885151 6:0.255556 7:0.482682 8:0.51945 
-0.5647590882706476 1:0.75668 2:0.211919 3:0.276266 4:0.490206 5:0.536355 6:0.284358 7:0.339176 8:0.699283 
-0.36933691742354285 1:0.870513 2:0.895573 3:0.259839 4:0.276828 5:0.786208 6:0.27281 7:0.212124 8:0.798918 
-0.13237959976337496 1:0.836877 2:0.882066 3:0.40621 4:0.372874 5:0.58791 6:0.211648 7:0.222679 8:0.817465 
-0.07895268393911106 1:0.837834 2:0.895573 3:0.389589 4:0.352079 5:0.686299 6:0.230687 7:0.274407 8:0.777452 
-0.5179636656233096 1:0.801702 2:0.191855 3:0.415706 4:0.490206 5:0.489065 6:0.144403 7:0.0809238 8:0.95222 
-0.6392082196697597 1:0.685633 2:0.109192 3:0.464041 4:0.547879 5:0.645925 6:0.218552 7:0.393605 8:0.616054 
-0.6388618304836191 1:0.867982 2:0.895573 3:0.327574 4:0.222652 5:0.755717 6:0.216731 7:0.118345 8:0.930271 
-0.6250468451809094 1:0.786891 2:0.191855 3:0.318962 4:0.543208 5:0.547551 6:0.0595599 7:0.242597 8:0.920333 
-0.6427030350444838 1:0.737684 2:0.151015 3:0.552444 4:0.567059 5:0.324595 6:0.53603 7:0.552418 8:0.342575 
-0.42645346746759316 1:0.790073 2:0.171555 3:0.318962 4:0.247614 5:0.643268 6:0.188422 7:0.4043 8:0.628271 
-0.629380307415046 1:0.887928 2:0.882066 3:0.309978 4:0.282103 5:0.734004 6:0.283122 7:0.251447 8:0.755608 
-0.5707006641605943 1:0.801702 2:0.770054 3:0.230871 4:0.560782 5:0.578892 6:0.225958 7:0.325236 8:0.707597 
-0.6016067300316432 1:0.732326 2:0.151015 3:0.371463 4:0.567059 5:0.570844 6:0.213019 7:0.370037 8:0.584434 
-0.5714527508564246 1:0.817307 2:0.854733 3:0.366462 4:0.431397 5:0.532689 6:0.319583 7:0.296974 8:0.707597 
-0.8324644612481116 1:0.849414 2:0.922274 3:0.384048 4:0.372874 5:0.557839 6:0.261379 7:0.391498 8:0.738543 
-0.6342810469153773 1:0.794059 2:0.191855 3:0.283614 4:0.290002 5:0.595425 6:0.309913 7:0.253099 8:0.668693 
-1.419525239594977 1:0.896915 2:0.882066 3:0.309978 4:0.282103 5:0.70323 6:0.330672 7:0.280206 8:0.72464 
-0.4928951551764112 1:0.844958 2:0.854733 3:0.273861 4:0.292925 5:0.689431 6:0.325082 7:0.388361 8:0.623756 
-0.5396773380929942 1:0.789171 2:0.231755 3:0.200138 4:0.356199 5:0.804965 6:0.312392 7:0.329582 8:0.686492 
-0.5297656992165842 1:0.772866 2:0.211919 3:0.206411 4:0.57322 5:0.583614 6:0.10146 7:0.295139 8:0.794178 
-0.643128439465927 1:0.648476 2:0.109192 3:0.575524 4:0.68071 5:0.443717 6:0.159685 7:0.507811 8:0.60527 
-0.43842088878342633 1:0.802115 2:0.171555 3:0.267538 4:0.239898 5:0.678042 6:0.263444 7:0.0421098 8:0.871815 
-0.6436627985927876 1:0.728868 2:0.171555 3:0.415706 4:0.490206 5:0.489065 6:0.375613 7:0.494551 8:0.579374 
-0.6415951860073477 1:0.742208 2:0.171555 3:0.219459 4:0.212527 5:0.946188 6:0.357191 7:0.383185 8:0.651746 
-0.6355693072105248 1:0.783634 2:0.211919 3:0.206411 4:0.156037 5:0.866535 6:0.284358 7:0.515043 8:0.460992 
-0.6384849259892112 1:0.872752 2:0.882066 3:0.27772 4:0.378847 5:0.625728 6:0.187786 7:0.193895 8:0.848354 
-0.5945773331142975 1:0.795795 2:0.191855 3:0.10653 4:0.416849 5:0.738861 6:0.244301 7:0.327691 8:0.655884 
-0.5942612057057026 1:0.790073 2:0.191855 3:0.389589 4:0.416849 5:0.547551 6:0.0599844 7:0.268704 8:0.777452 
-0.40013136069809285 1:0.837834 2:0.868454 3:0.383857 4:0.424783 5:0.432035 6:0.277922 7:0.188817 8:0.838752 
-0.6289298418040599 1:0.80537 2:0.191855 3:0.354287 4:0.543208 5:0.451709 6:0.0700592 7:0.259772 8:0.856478 
-0.9928042582415355 1:0.876885 2:0.908975 3:0.242203 4:0.151601 5:0.780012 6:0.296206 7:0.325236 8:0.677109 
-0.6431546820941392 2:0.0663361 3:0.75237 4:0.57322 5:0.465411 6:0.292513 7:0.393605 8:0.760495 
-0.8305702437495991 1:0.887263 2:0.854733 3:0.273861 4:0.209561 5:0.783317 6:0.30362 7:0.0863814 8:0.801884 
-0.6422601207400347 1:0.850288 2:0.171555 3:0.0969281 4:0.298475 5:0.755717 6:0.263444 7:0.449439 8:0.628271 
-0.43010867611557035 1:0.832652 2:0.895573 3:0.282426 4:0.357928 5:0.664166 6:0.429841 7:0.375187 8:0.578159 
-0.420475991480166 1:0.775388 2:0.191855 3:0.318962 4:0.247614 5:0.643268 6:0.144403 7:0.393605 8:0.616054 
-0.6428717918879895 1:0.612906 2:0.0663361 3:0.298902 4:0.437372 5:0.718203 6:0.822581 7:0.847955 8:0.115177 
-0.6435232906806914 1:0.687536 2:0.109192 3:0.10653 4:0.416849 5:0.738861 6:0.752514 7:1.0 
-0.6390330492075645 1:0.804968 2:0.922274 3:0.373231 4:0.569514 5:0.514059 6:0.314176 7:0.40318 8:0.608479 
-0.6456112029253285 1:0.751429 2:0.171555 3:0.469992 4:0.597531 5:0.461938 6:0.144403 7:0.304412 8:0.760495 
-0.5157357383297407 1:0.842522 2:0.895573 3:0.361874 4:0.399407 5:0.557839 6:0.277922 7:0.188817 8:0.838752 
-0.9885682932319196 1:0.873491 2:0.908975 3:0.339693 4:0.425915 5:0.58791 6:0.296206 7:0.381718 8:0.616054 
-0.4310915536412617 1:0.81841 2:0.908975 3:0.25532 4:0.405593 5:0.656022 6:0.366283 7:0.353483 8:0.677109 
-0.17098689647437482 1:0.866182 2:0.854733 3:0.273861 4:0.292925 5:0.689431 6:0.202504 7:0.268704 8:0.768503 
-0.05137175609799264 1:0.825888 2:0.882066 3:0.400952 4:0.41828 5:0.549174 6:0.306908 7:0.337685 8:0.66263 
-0.3802635212610659 1:0.717182 2:0.191855 3:0.354287 4:0.374621 5:0.547551 6:0.255556 7:0.393605 8:0.567783 
-0.5671642099680883 1:0.783162 2:0.191855 3:0.354287 4:0.290002 5:0.595425 6:0.0595599 7:0.242597 8:0.920333 
-1.1554083971176154 1:0.883205 2:0.908975 3:0.27772 4:0.271642 5:0.746821 6:0.225958 7:0.381718 8:0.677109 
-0.33363487624279947 1:0.849414 2:0.908975 3:0.317501 4:0.0796113 5:0.768067 6:0.319583 7:0.325236 8:0.616054 
-0.6427888584788162 1:0.725321 2:0.109192 3:0.0969281 4:0.298475 5:0.755717 6:0.790853 7:0.344068 8:0.5651 
-0.6181521785401926 1:0.693092 2:0.191855 3:0.19202 4:0.449601 5:0.627513 6:0.218552 7:0.438158 8:0.567783 
-0.6433905649736376 1:0.735699 2:0.171555 3:0.183572 4:0.469697 5:0.607547 6:0.45015 7:0.719653 8:0.333922 
-0.6414158549331015 1:0.839728 2:0.191855 3:0.177434 4:0.162666 5:0.738861 6:0.238742 7:0.206979 8:0.699283 
-0.43822763046239244 1:0.777865 2:0.211919 3:0.160341 4:0.374124 5:0.67027 6:0.357191 7:0.383185 8:0.651746 
-0.325692783690867 1:0.850867 2:0.895573 3:0.344869 4:0.352079 5:0.656022 6:0.348631 7:0.359892 8:0.623756 
-0.5441692732707936 1:0.878552 2:0.908975 3:0.300114 4:0.217906 5:0.625728 6:0.225958 7:0.353483 8:0.677109 
-0.14069299571750138 1:0.804968 2:0.895573 3:0.259839 4:0.303886 5:0.72521 6:0.372165 7:0.41682 8:0.592939 
-0.6238696706603726 1:0.745351 2:0.171555 3:0.326972 4:0.512366 5:0.607547 6:0.165606 7:0.276782 8:0.833649 
-0.7155796248122231 1:0.783162 2:0.171555 3:0.283614 4:0.374621 5:0.69108 6:0.375613 7:0.0874905 8:0.774586 
-0.4593589751387259 1:0.781259 2:0.211919 3:0.206411 4:0.323547 5:0.772349 6:0.299546 7:0.397849 8:0.616054 
-0.4395774171998896 1:0.778843 2:0.191855 3:0.141993 4:0.290002 5:0.786611 6:0.213019 7:0.40897 8:0.584434 
-0.22085492836881193 1:0.811275 2:0.191855 3:0.206411 4:0.281749 5:0.772349 6:0.218552 7:0.304412 8:0.71241 
-0.6401298380112392 1:0.747814 2:0.191855 3:0.424868 4:0.416849 5:0.499646 6:0.247871 7:0.162857 8:0.936073 
-0.6302099935429888 1:0.856256 2:0.882066 3:0.327574 4:0.384919 5:0.633621 6:0.306908 7:0.251447 8:0.755608 
-0.5604996451156478 1:0.731641 2:0.171555 3:0.326972 4:0.512366 5:0.607547 6:0.284358 7:0.339176 8:0.699283 
-0.3597323478174269 1:0.840042 2:0.895573 3:0.367235 4:0.459023 5:0.595425 6:0.230687 7:0.274407 8:0.777452 
-0.5008674129527756 1:0.843441 2:0.826964 3:0.471872 4:0.444971 5:0.547551 6:0.325082 7:0.388361 8:0.623756 
-0.6430610590318503 1:0.762289 2:0.151015 3:0.660742 4:0.696232 5:0.275244 6:0.165606 7:0.276782 8:0.833649 
-0.3384973680232337 1:0.770814 2:0.191855 3:0.389589 4:0.374621 5:0.595425 6:0.107255 7:0.259772 8:0.808519 
-1.750709837398301 1:0.873245 2:0.895573 3:0.282426 4:0.222652 5:0.786208 6:0.314176 7:0.40318 8:0.608479 
-0.6018705517026451 1:0.717942 2:0.171555 3:0.219459 4:0.512366 5:0.607547 6:0.320797 7:0.339176 8:0.746761 
-0.5193262305281531 1:0.820588 2:0.191855 3:0.212851 4:0.290002 5:0.69108 6:0.144403 7:0.393605 8:0.616054 
-0.6418196985820904 1:0.723877 2:0.191855 3:0.318962 4:0.247614 5:0.882014 6:0.312392 7:0.199062 8:0.780204 
-0.5778976664501128 1:0.855419 2:0.895573 3:0.327574 4:0.222652 5:0.755717 6:0.254314 7:0.188817 8:0.838752 
-0.6007911567830315 1:0.792743 2:0.191855 3:0.141993 4:0.290002 5:0.738861 6:0.259038 7:0.428202 8:0.5621 
-0.613045204822567 1:0.855139 2:0.908975 3:0.356603 4:0.0495271 5:0.759216 6:0.319583 7:0.438158 8:0.585491 
-0.572775263275962 1:0.790522 2:0.191855 3:0.248242 4:0.543208 5:0.547551 6:0.107255 7:0.259772 8:0.808519 
-0.6288342014728795 1:0.777865 2:0.191855 3:0.269106 4:0.397366 5:0.804965 6:0.329422 7:0.438158 8:0.616054 
-0.23550014866506463 1:0.826579 2:0.868454 3:0.360926 4:0.342463 5:0.494321 6:0.348631 7:0.359892 8:0.623756 
-0.6680632393183678 1:0.785968 2:0.191855 3:0.354287 4:0.374621 5:0.547551 6:0.132026 7:0.242597 8:0.873683 
-0.7517063948885115 1:0.80697 2:0.231755 3:0.133551 4:0.382668 5:0.768422 6:0.312392 7:0.199062 8:0.780204 
-0.5700855835795869 1:0.789623 2:0.191855 3:0.382055 4:0.341846 5:0.62607 6:0.144403 7:0.393605 8:0.616054 
-0.7804123935150384 1:0.889029 2:0.882066 3:0.355484 4:0.309385 5:0.70323 6:0.348631 7:0.359892 8:0.623756 
-0.6094647094897612 1:0.791415 2:0.171555 3:0.206411 4:0.166532 5:0.843001 6:0.300884 7:0.268704 8:0.823234 
-0.6206889664871145 1:0.852592 2:0.908975 3:0.322496 4:0.325287 5:0.80729 6:0.221307 7:0.515043 8:0.517451 
-0.6162269869246505 1:0.747203 2:0.171555 3:0.111733 4:0.426976 5:0.801248 6:0.247871 7:0.251073 8:0.746761 
-0.7257468048088062 1:0.790969 2:0.191855 3:0.354287 4:0.374621 5:0.547551 6:0.247871 7:0.339176 8:0.604148 
-0.5492240688385606 1:0.829311 2:0.231755 3:0.25532 4:0.411884 5:0.627513 6:0.0595599 7:0.242597 8:0.920333 
-0.6423025465784631 1:0.835914 2:0.840904 3:0.39542 4:0.410245 5:0.603332 6:0.436189 7:0.550894 8:0.432296 
-0.5981628220769939 1:0.87973 2:0.191855 3:0.141993 4:0.247614 5:0.834326 6:0.107255 7:0.215106 8:0.856478 
-0.6079020590447708 1:0.828973 2:0.868454 3:0.327574 4:0.357928 5:0.603067 6:0.408127 7:0.401984 8:0.514076 
-0.22018612832757178 1:0.81841 2:0.908975 3:0.389589 4:0.383862 5:0.623834 6:0.342944 7:0.325236 8:0.616054 
-0.593231488712277 1:0.834943 2:0.868454 3:0.200138 4:0.397366 5:0.742941 6:0.330672 7:0.366408 8:0.631584 
-0.6215218461332562 1:0.830992 2:0.882066 3:0.400952 4:0.200128 5:0.764761 6:0.283122 7:0.251447 8:0.755608 
-0.719660486144146 1:0.840666 2:0.868454 3:0.300114 4:0.217906 5:0.716565 6:0.408127 7:0.401984 8:0.514076 
-0.08307286273436881 1:0.861977 2:0.895573 3:0.259839 4:0.303886 5:0.755717 6:0.202504 7:0.296974 8:0.768503 
-0.5603285872291717 1:0.817307 2:0.191855 3:0.212851 4:0.290002 5:0.69108 6:0.225958 7:0.381718 8:0.636418 
-0.622043259318428 1:0.75782 2:0.151015 3:0.153489 4:0.35063 5:0.767254 6:0.204309 7:0.286102 8:0.826971 
-0.64329568858645 1:0.575896 2:0.0223949 3:0.398528 4:0.724869 5:0.413339 6:0.530499 7:0.58733 8:0.45396 
-0.1895983138956341 1:0.837197 2:0.908975 3:0.389589 4:0.352079 5:0.625728 6:0.225958 7:0.296974 8:0.738061 
-0.6425743167206843 1:0.697557 2:0.191855 3:0.507788 4:0.524902 5:0.370429 6:0.292513 7:0.393605 8:0.760495 
-0.4026838560019485 1:0.856256 2:0.908975 3:0.110854 4:0.724869 5:0.454829 6:0.319583 7:0.268704 8:0.677109 
-0.8875687197071594 1:0.890989 2:0.908975 3:0.322496 4:0.271642 5:0.746821 6:0.249392 7:0.296974 8:0.677109 
-0.5717803430862147 1:0.776384 2:0.191855 3:0.381701 4:0.374124 5:0.67027 6:0.107255 7:0.215106 8:0.808519 
-0.5084701374589262 1:0.857088 2:0.868454 3:0.246126 4:0.149577 5:0.804965 6:0.325082 7:0.274407 8:0.716048 
-0.6228947037760699 1:0.761738 2:0.211919 3:0.38088 4:0.406982 5:0.678042 6:0.0595599 7:0.242597 8:0.920333 
-0.6446001330268403 1:0.802526 2:0.895573 3:0.110854 4:0.724869 5:0.454829 6:0.325082 7:0.445269 8:0.592939 
-0.6420753291718335 1:0.79493 2:0.364596 3:0.128644 4:0.336323 5:0.67027 6:0.12649 7:0.348498 8:0.691458 
-0.6521922102650399 1:0.750833 2:0.171555 3:0.291156 4:0.384199 5:0.801248 6:0.393539 7:0.471119 8:0.508771 
-0.6422965034880538 1:0.644661 2:0.171555 3:0.183572 4:0.469697 5:0.849591 6:0.598644 7:0.546562 8:0.545483 
-0.6432858886045152 1:0.564854 2:0.109192 3:0.415706 4:0.490206 5:0.489065 6:0.752514 7:0.625952 8:0.257919 
-0.6655183838133831 1:0.869253 2:0.882066 3:0.350132 4:0.384919 5:0.633621 6:0.259316 7:0.251447 8:0.786548 
-0.21127223876767545 1:0.778355 2:0.211919 3:0.160341 4:0.411884 5:0.627513 6:0.320797 7:0.427166 8:0.651746 
-0.637900248515689 1:0.822377 2:0.798742 3:0.378224 4:0.0905035 5:0.88767 6:0.215909 7:0.407927 8:0.681464 
-0.5858756771742488 1:0.878315 2:0.868454 3:0.246126 4:0.149577 5:0.804965 6:0.174759 7:0.347179 8:0.699283 
-0.6437930967002015 1:0.723149 2:0.151015 3:0.200138 4:0.356199 5:0.804965 6:0.460711 7:0.643689 8:0.442253 
-0.9913917605545203 1:0.802526 2:0.171555 3:0.25532 4:0.411884 5:0.627513 6:0.188422 7:0.223446 8:0.774586 
-0.6204140088137456 1:0.817676 2:0.908975 3:0.273094 4:0.425915 5:0.648011 6:0.389603 7:0.240422 8:0.677109 
-0.5696046784559948 1:0.815451 2:0.770054 3:0.230871 4:0.560782 5:0.578892 6:0.225958 7:0.268704 8:0.768503 
-0.6408739206933458 1:0.750235 2:0.171555 3:0.326972 4:0.554976 5:0.607547 6:0.300884 7:0.53963 8:0.628271 
-0.6431077622977919 1:0.629695 2:0.151015 3:0.371463 4:0.739179 5:0.521662 6:0.255556 7:0.349023 8:0.71241 
-0.9082133062928031 1:0.806172 2:0.191855 3:0.318962 4:0.247614 5:0.643268 6:0.225958 7:0.381718 8:0.636418 
-0.61427950055633 1:0.770296 2:0.191855 3:0.269106 4:0.397366 5:0.804965 6:0.255556 7:0.349023 8:0.71241 
-2.607743424987093 1:0.912934 2:0.895573 3:0.282426 4:0.357928 5:0.664166 6:0.254314 7:0.331406 8:0.68531 
-0.4733448315042404 1:0.714876 2:0.151015 3:0.262587 4:0.394031 5:0.767254 6:0.299546 7:0.397849 8:0.616054 
-0.5998304834900903 1:0.729567 2:0.151015 3:0.262587 4:0.307175 5:0.767254 6:0.338273 7:0.132838 8:0.725879 
-0.5259301856376135 1:0.822021 2:0.868454 3:0.42969 4:0.424783 5:0.494321 6:0.429841 7:0.375187 8:0.578159 
-0.612014794123266 1:0.73436 2:0.151015 3:0.371463 4:0.567059 5:0.570844 6:0.12649 7:0.388361 8:0.648391 
-0.724421326225042 1:0.858737 2:0.854733 3:0.273861 4:0.292925 5:0.689431 6:0.296206 7:0.466358 8:0.5549 
-0.40874950914927777 1:0.803752 2:0.171555 3:0.206411 4:0.281749 5:0.772349 6:0.225958 7:0.268704 8:0.725879 
-0.642648762002689 1:0.758387 2:0.418557 3:0.382055 4:0.341846 5:0.62607 6:0.49326 7:0.399681 8:0.574368 
-0.42499245934472346 1:0.85819 2:0.854733 3:0.292075 4:0.177201 5:0.77396 6:0.245355 7:0.292103 8:0.67921 
-0.5666648237834802 1:0.81166 2:0.868454 3:0.383857 4:0.424783 5:0.432035 6:0.325082 7:0.445269 8:0.592939 
-0.7175470981716952 1:0.834292 2:0.211919 3:0.206411 4:0.281749 5:0.772349 6:0.138133 7:0.339176 8:0.746761 
-0.5919038678119926 1:0.721681 2:0.191855 3:0.177434 4:0.459023 5:0.738861 6:0.320797 7:0.427166 8:0.651746 
-0.5479231117550456 1:0.783634 2:0.191855 3:0.354287 4:0.290002 5:0.595425 6:0.181503 7:0.393605 8:0.71241 
-0.6378464084567903 1:0.74903 2:0.231755 3:0.269106 4:0.397366 5:0.804965 6:0.277652 7:0.135966 8:0.836642 
-0.6313977568759614 1:0.863305 2:0.908975 3:0.295302 4:0.133127 5:0.678042 6:0.296206 7:0.466358 8:0.5549 
-0.6719763997869219 1:0.81166 2:0.151015 3:0.212851 4:0.290002 5:0.69108 6:0.34736 7:0.552418 8:0.591273 
-0.707155657643201 1:0.800457 2:0.191855 3:0.354287 4:0.374621 5:0.547551 6:0.174759 7:0.118706 8:0.888834 
-0.6511539030454365 1:0.77933 2:0.171555 3:0.219459 4:0.212527 5:0.946188 6:0.138133 7:0.206979 8:0.888834 
-0.3721771293838567 1:0.760072 2:0.191855 3:0.177434 4:0.416849 5:0.595425 6:0.320797 7:0.427166 8:0.651746 
-0.6434460054279791 1:0.768732 2:0.171555 3:0.362762 4:0.083182 5:0.801248 6:0.225958 7:0.188817 8:0.863246 
-0.5699319445894631 1:0.841906 2:0.882066 3:0.411934 4:0.378847 5:0.595425 6:0.283122 7:0.366408 8:0.66263 
-0.28526208294972605 1:0.766617 2:0.191855 3:0.354287 4:0.374621 5:0.547551 6:0.284358 7:0.339176 8:0.699283 
-0.8408678496498531 1:0.828293 2:0.171555 3:0.217791 4:0.178487 5:0.82767 6:0.113201 7:0.449439 8:0.628271 
-0.56395845231314 1:0.721681 2:0.211919 3:0.45051 4:0.53174 5:0.489065 6:0.225958 7:0.388361 8:0.648391 
-0.6433959637353481 1:0.743474 2:0.191855 3:0.374685 4:0.795402 5:0.291699 6:0.255556 7:0.393605 8:0.567783 
-0.6310594818165248 1:0.791415 2:0.151015 3:0.0806358 4:0.263658 5:0.865263 6:0.204309 7:0.459852 8:0.592546 
-0.43467686398660604 1:0.840042 2:0.908975 3:0.295302 4:0.399407 5:0.648011 6:0.296206 7:0.353483 8:0.707597 
-0.6192293567893198 1:0.783634 2:0.151015 3:0.262587 4:0.567059 5:0.669115 6:0.138133 7:0.339176 8:0.746761 
-0.049591338291536974 1:0.828633 2:0.895573 3:0.327574 4:0.384919 5:0.633621 6:0.296206 7:0.353483 8:0.707597 
-0.06739613396090746 1:0.86462 2:0.895573 3:0.259839 4:0.222652 5:0.786208 6:0.296206 7:0.381718 8:0.646592 
-0.6473435304190862 1:0.774384 2:0.191855 3:0.354287 4:0.58522 5:0.403742 6:0.0700592 7:0.349023 8:0.760495 
-0.5913444750412725 1:0.76501 2:0.211919 3:0.223678 4:0.449601 5:0.541917 6:0.357191 7:0.383185 8:0.651746 
-1.058326282966836 1:0.881826 2:0.908975 3:0.339693 4:0.106382 5:0.768067 6:0.202504 7:0.296974 8:0.768503 
-0.05596815505215838 1:0.825541 2:0.882066 3:0.4566 4:0.405593 5:0.534779 6:0.306908 7:0.280206 8:0.693646 
-0.6321938647611239 1:0.730262 2:0.171555 3:0.326972 4:0.341364 5:0.752868 6:0.218552 7:0.259772 8:0.856478 
-0.12592984408575486 1:0.86462 2:0.895573 3:0.282426 4:0.222652 5:0.786208 6:0.27281 7:0.353483 8:0.677109 
-0.6424201574531979 1:0.81841 2:0.191855 4:0.374621 5:0.738861 6:0.181503 7:0.170408 8:0.856478 
-0.643098074633001 1:0.675704 3:0.291156 4:0.255531 5:0.752868 6:0.584824 7:0.803459 8:0.355233 
-0.7211475208940401 1:0.861442 2:0.854733 3:0.366462 4:0.431397 5:0.532689 6:0.225958 7:0.325236 8:0.707597 
-0.38918049506973845 1:0.85819 2:0.908975 3:0.25532 4:0.325287 5:0.716565 6:0.170559 7:0.257576 8:0.721086 
-0.8180153730491101 1:0.890339 2:0.908975 3:0.242203 4:0.0989829 5:0.809502 6:0.319583 7:0.381718 8:0.677109 
-0.8011752594280162 1:0.864095 2:0.908975 3:0.411934 4:0.271642 5:0.656022 6:0.239791 7:0.28539 8:0.84076 
-0.6315223325736594 1:0.838152 2:0.895573 3:0.327574 4:0.384919 5:0.633621 6:0.489533 7:0.41682 8:0.500343 
-0.628715988085438 1:0.704414 2:0.191855 3:0.248242 4:0.416849 5:0.643268 6:0.403097 7:0.482682 8:0.51945 
-0.6432153143191683 1:0.750235 2:0.400756 3:0.304745 4:0.172442 5:0.814587 6:0.49326 7:0.361186 8:0.574368 
-0.47560022499083787 1:0.758951 2:0.191855 3:0.248242 4:0.416849 5:0.643268 6:0.312392 7:0.242597 8:0.733376 
-0.5719797678817652 1:0.850578 2:0.868454 3:0.383857 4:0.424783 5:0.432035 6:0.348631 7:0.359892 8:0.623756 
-0.41713809907501503 1:0.799621 2:0.882066 3:0.469084 4:0.769717 5:0.240093 6:0.319583 7:0.381718 8:0.677109 
-0.514360995744575 1:0.830992 2:0.908975 3:0.322496 4:0.325287 5:0.656022 6:0.296206 7:0.466358 8:0.5549 
-0.4581611202703629 1:0.897741 2:0.908975 3:0.25532 4:0.325287 5:0.746821 6:0.225958 7:0.296974 8:0.768503 
-0.9206955443174343 1:0.85202 2:0.854733 3:0.273861 4:0.292925 5:0.689431 6:0.261379 7:0.391498 8:0.738543 
-0.6136933914586857 1:0.864881 2:0.211919 3:0.0664322 4:0.281749 5:0.819457 6:0.0279739 7:0.251073 8:0.841536 
-4.487891714685908 1:0.785504 2:0.171555 3:0.291156 4:0.469697 5:0.656022 6:0.270681 7:0.206979 8:0.699283 
-0.6242909415332015 1:0.780779 2:0.171555 3:0.177434 4:0.459023 5:0.738861 6:0.188422 7:0.223446 8:0.774586 
-0.6534087265758106 1:0.849997 2:0.826964 3:0.471872 4:0.444971 5:0.547551 6:0.30362 7:0.0863814 8:0.801884 
-0.6921470338886062 1:0.790969 2:0.211919 3:0.276266 4:0.156037 5:0.819457 6:0.174759 7:0.55894 8:0.604148 
-0.46459450716716405 1:0.829986 2:0.38277 3:0.311565 4:0.440395 5:0.531957 6:0.284781 7:0.418475 8:0.552054 
-0.5026713773322476 1:0.885249 2:0.882066 3:0.131083 5:1.0 6:0.259316 7:0.337685 8:0.693646 
-0.14107712699568994 1:0.850288 2:0.895573 3:0.282426 4:0.330918 5:0.694694 6:0.314176 7:0.375187 8:0.608479 
-0.5817228882703882 1:0.730953 2:0.211919 3:0.415706 4:0.490206 5:0.489065 6:0.213019 7:0.40897 8:0.584434 
-0.6401293975145713 1:0.799201 2:0.191855 3:0.071043 4:0.247614 5:0.929672 6:0.403097 7:0.482682 8:0.51945 
-0.6761737465965252 1:0.874225 2:0.895573 3:0.25532 4:0.378847 5:0.656022 6:0.207037 7:0.16026 8:0.838752 
-0.6130058118145406 1:0.781737 2:0.191855 3:0.141993 4:0.162666 5:0.882014 6:0.329422 7:0.482682 8:0.567783 
-0.49100150150999855 1:0.767149 2:0.191855 3:0.283614 4:0.374621 5:0.69108 6:0.204309 7:0.459852 8:0.592546 
-0.64317748033718 1:0.852592 2:0.908975 3:0.0954423 4:0.633729 5:0.538572 6:0.436189 7:0.550894 8:0.432296 
-0.867564231012331 1:0.885024 2:0.882066 3:0.25532 4:0.325287 5:0.746821 6:0.235494 7:0.30895 8:0.693646 
-0.6321995072343874 1:0.642058 2:0.0663361 3:0.177434 4:0.332339 5:0.738861 6:0.704245 7:0.413975 8:0.537409 
-0.6422630802717306 1:0.694895 2:0.171555 3:0.147665 4:0.341364 5:0.752868 6:0.598644 7:0.546562 8:0.545483 
-0.6429956482064292 1:0.817307 2:0.908975 3:0.4566 4:0.565619 5:0.413339 6:0.239791 7:0.28539 8:0.84076 
-0.35764613207293705 1:0.871014 2:0.854733 3:0.273861 4:0.209561 5:0.783317 6:0.230687 7:0.245887 8:0.777452 
-0.46910715407529735 1:0.851732 2:0.882066 3:0.309978 4:0.282103 5:0.734004 6:0.366283 7:0.353483 8:0.677109 
-0.6129536113788219 1:0.787808 2:0.868454 3:0.42969 4:0.424783 5:0.494321 6:0.489533 7:0.388361 8:0.500343 
-0.7147395452153148 1:0.871762 2:0.935473 3:0.0661651 4:0.708696 5:0.519033 6:0.262832 7:0.0625712 8:0.780971 
-0.6426128988767058 1:0.564854 2:0.171555 3:0.38088 4:0.406982 5:0.678042 6:0.487345 7:0.449439 8:0.481385 
-0.4462920166185053 1:0.799621 2:0.38277 3:0.272853 4:0.354406 5:0.634951 6:0.219413 7:0.418475 8:0.637363 
-0.4736355122477659 1:0.894195 2:0.882066 3:0.309978 4:0.282103 5:0.764761 6:0.139612 8:0.969181 
-0.7329028842720177 1:0.834292 2:0.895573 3:0.273094 4:0.133127 5:0.768067 6:0.489533 7:0.41682 8:0.500343 
-0.34188238381698716 1:0.784572 2:0.171555 3:0.276266 4:0.323547 5:0.678042 6:0.375613 7:0.0874905 8:0.774586 
-0.5488398534465464 1:0.811275 2:0.191855 3:0.389589 4:0.374621 5:0.595425 6:0.168189 7:0.329582 8:0.780204 
-0.6052255586834012 1:0.773374 2:0.191855 3:0.389589 4:0.332339 5:0.547551 6:0.357191 7:0.383185 8:0.699283 
-0.11628490027614109 1:0.834618 2:0.895573 3:0.305003 4:0.303886 5:0.694694 6:0.325082 7:0.274407 8:0.716048 
-0.1168108094646671 1:0.847649 2:0.854733 3:0.227498 4:0.376079 5:0.689431 6:0.254314 7:0.331406 8:0.68531 
-0.4371408794977098 1:0.856256 2:0.895573 3:0.237969 4:0.199686 5:0.829711 6:0.325082 7:0.274407 8:0.716048 
-0.6433255223188306 1:0.819866 2:0.908975 3:0.131083 4:0.911717 5:0.357221 6:0.389603 7:0.353483 8:0.5549 
-0.6391102814411047 1:0.747814 2:0.191855 3:0.283614 4:0.543208 5:0.403742 6:0.247871 7:0.471119 8:0.55649 
-0.17141742359583112 1:0.847055 2:0.882066 3:0.264434 4:0.282103 5:0.764761 6:0.27281 7:0.353483 8:0.616054 
-0.5305257906906835 1:0.884798 2:0.895573 3:0.305003 4:0.195527 5:0.755717 6:0.139612 8:0.969181 
-1.5155523361062495 1:0.813189 2:0.191855 3:0.248242 4:0.332339 5:0.69108 6:0.247871 7:0.162857 8:0.936073 
-0.6290562551580275 1:0.777865 2:0.191855 3:0.354287 4:0.374621 5:0.547551 6:0.138133 7:0.339176 8:0.699283 
-0.6658470652847804 1:0.763928 2:0.171555 3:0.326972 4:0.341364 5:0.752868 6:0.255556 7:0.215106 8:0.760495 
-0.4582727544756578 1:0.785968 2:0.171555 3:0.10653 4:0.374621 5:0.738861 6:0.263444 7:0.494551 8:0.628271 
-0.7342312839914505 1:0.80537 2:0.171555 3:0.291156 4:0.255531 5:0.752868 6:0.0647407 7:0.339176 8:0.746761 
-0.6275816785582243 1:0.832322 2:0.882066 3:0.485292 4:0.330918 5:0.603067 6:0.211648 7:0.251447 8:0.786548 
-0.6293016494295912 1:0.803345 2:0.171555 3:0.111733 4:0.426976 5:0.801248 6:0.307194 7:0.325914 8:0.582912 
-0.4491143521322635 1:0.770296 2:0.191855 3:0.136467 4:0.323547 5:0.772349 6:0.329422 7:0.438158 8:0.616054 
-0.43236940071956287 1:0.832982 2:0.908975 3:0.289181 4:0.414854 5:0.717044 6:0.319583 7:0.381718 8:0.616054 
-0.7147253340253308 1:0.809335 2:0.191855 3:0.141993 4:0.290002 5:0.786611 6:0.40648 7:0.447885 8:0.542236 
-0.05677662348571037 1:0.779815 2:0.191855 3:0.354287 4:0.374621 5:0.547551 6:0.174759 7:0.118706 8:0.888834 
-0.6384801518177544 1:0.814324 2:0.211919 3:0.31116 4:0.53174 5:0.441745 6:0.284358 7:0.515043 8:0.460992 
-0.6080966672066744 1:0.774887 2:0.231755 3:0.381701 4:0.374124 5:0.67027 6:0.204309 7:0.286102 8:0.826971 
-0.5908993003436601 1:0.852592 2:0.908975 3:0.25532 4:0.378847 5:0.656022 6:0.436189 7:0.409946 8:0.524287 
-0.6393786016775372 1:0.784104 2:0.191855 3:0.242956 4:0.431397 5:0.564062 6:0.403097 7:0.527177 8:0.471055 
-0.6462956213917491 1:0.63394 2:0.0878964 3:0.812912 4:0.829121 5:0.197331 6:0.188422 7:0.4043 8:0.628271 
-0.10833717440411395 1:0.859282 2:0.854733 3:0.273861 4:0.292925 5:0.689431 6:0.254314 7:0.302913 8:0.716048 
-0.6292965927335368 1:0.782689 2:0.191855 3:0.177434 4:0.205168 5:0.977298 6:0.329422 7:0.527177 8:0.51945 
-0.11334925006739101 1:0.839414 2:0.895573 3:0.305003 4:0.357928 5:0.664166 6:0.27281 7:0.381718 8:0.707597 
-0.6207592377820544 1:0.780779 2:0.191855 3:0.177434 4:0.205168 5:0.977298 6:0.181503 7:0.349023 8:0.664263 
-0.6488925805188057 1:0.808158 2:0.151015 3:0.117076 4:0.394031 5:0.816277 6:0.0811229 7:0.369512 8:0.83834 
-0.5397846875255787 1:0.88837 2:0.908975 3:0.23291 4:0.325287 5:0.746821 6:0.249392 7:0.296974 8:0.677109 
-0.4660252034665901 1:0.81841 2:0.895573 3:0.25532 4:0.325287 5:0.746821 6:0.325082 7:0.445269 8:0.592939 
-0.6273716164280946 1:0.855419 2:0.854733 3:0.273861 4:0.403751 5:0.564062 6:0.436189 7:0.325236 8:0.585491 
-0.2589279095074158 1:0.81914 2:0.908975 3:0.389589 4:0.352079 5:0.686299 6:0.225958 7:0.268704 8:0.768503 
-0.6615771162028041 1:0.84405 2:0.191855 3:0.177434 4:0.416849 5:0.595425 6:0.144403 7:0.393605 8:0.616054 
-0.6441729551026275 1:0.77388 2:0.191855 3:0.354287 4:0.374621 5:0.547551 6:0.403097 7:0.393605 8:0.51945 
-0.6871336141720096 1:0.81841 2:0.171555 3:0.219459 4:0.212527 5:0.752868 6:0.211339 7:0.118706 8:0.936073 
-0.5829068867472881 1:0.865403 2:0.868454 3:0.200138 4:0.397366 5:0.742941 6:0.225958 7:0.353483 8:0.677109 
-0.5731736391456129 1:0.668302 2:0.171555 3:0.57701 4:0.724869 5:0.316041 6:0.312392 7:0.329582 8:0.686492 
-0.48086144870492287 1:0.875924 2:0.882066 3:0.241646 4:0.282103 5:0.764761 6:0.277922 7:0.188817 8:0.838752 
-0.4153567093604726 1:0.740287 2:0.191855 3:0.354287 4:0.374621 5:0.547551 6:0.211339 7:0.427166 8:0.55649 
-0.46407338912700646 1:0.885924 2:0.908975 3:0.300114 4:0.217906 5:0.716565 6:0.262832 7:0.0625712 8:0.780971 
-0.6668558894284816 1:0.746588 2:0.171555 3:0.354287 4:0.374621 5:0.547551 6:0.375613 7:0.0874905 8:0.774586 
-0.5895223832099581 1:0.795363 2:0.171555 3:0.25532 4:0.469697 5:0.656022 6:0.144403 7:0.304412 8:0.760495 
-0.6432468144461646 1:0.58612 2:0.109192 3:0.219459 4:0.212527 5:0.946188 6:0.790853 7:0.85997 8:0.154963 
-0.592496485107252 1:0.753788 2:0.882066 3:0.469084 4:0.769717 5:0.240093 6:0.360498 7:0.347179 8:0.578159 
-0.6521422848132473 1:0.792743 2:0.171555 3:0.424868 4:0.374621 5:0.595425 6:0.225958 7:0.223446 8:0.774586 
-0.5711640922705931 1:0.831325 2:0.191855 3:0.0664322 4:0.281749 5:0.819457 6:0.107255 7:0.215106 8:0.808519 
-1.9149104615189367 1:0.880665 2:0.895573 3:0.350132 4:0.465752 5:0.572496 6:0.325082 7:0.445269 8:0.592939 
-0.6446343781019759 1:0.788718 2:0.171555 3:0.291156 4:0.640034 5:0.510509 6:0.225958 7:0.268704 8:0.677109 
-0.6418196048383056 1:0.802936 2:0.191855 3:0.10653 4:0.205168 5:0.882014 6:0.270681 7:0.245564 8:0.865194 
-0.6434381020175719 1:0.771844 2:0.171555 3:0.111733 4:0.554976 5:0.559044 6:0.375613 7:0.0874905 8:0.774586 
-0.488542122738156 1:0.79878 2:0.908975 3:0.322496 4:0.325287 5:0.80729 6:0.366283 7:0.353483 8:0.616054 
-0.15847039738049834 1:0.841597 2:0.840904 3:0.39542 4:0.410245 5:0.603332 6:0.27281 7:0.212124 8:0.798918 
-0.6429169973988813 1:0.522065 3:0.424868 4:0.543208 5:0.451709 6:0.584824 7:0.803459 8:0.355233 
-0.6431460997240848 1:0.717182 2:0.364596 3:0.570721 4:0.411884 5:0.456225 6:0.284781 7:0.339688 8:0.637363 
-0.47357849636344984 1:0.730953 2:0.191855 3:0.248242 4:0.332339 5:0.69108 6:0.357191 7:0.383185 8:0.699283 
-0.5864991951163633 1:0.792302 2:0.13023 3:0.196356 4:0.44805 5:0.682569 6:0.138133 7:0.339176 8:0.746761 
-0.2462307577248775 1:0.847352 2:0.854733 3:0.273861 4:0.292925 5:0.689431 6:0.230687 7:0.245887 8:0.808114 
-0.6380090502918894 1:0.738992 2:0.171555 3:0.248242 4:0.247614 5:0.643268 6:0.375613 7:0.494551 8:0.579374 
-0.8864824925862131 1:0.739641 2:0.191855 3:0.354287 4:0.374621 5:0.547551 6:0.49326 7:0.399681 8:0.574368 
-0.682195174998227 1:0.833311 2:0.191855 3:0.206411 4:0.166532 5:0.843001 6:0.403097 7:0.393605 8:0.51945 
-0.6777665040924729 1:0.871264 2:0.895573 3:0.339693 4:0.346323 5:0.617965 6:0.207037 7:0.16026 8:0.838752 
-0.24231182190969364 1:0.837834 2:0.895573 3:0.389589 4:0.352079 5:0.625728 6:0.301513 7:0.188817 8:0.777452 
-0.5426563010477361 1:0.712531 2:0.191855 3:0.346031 4:0.323547 5:0.678042 6:0.329422 7:0.438158 8:0.567783 
-0.6387127926422198 1:0.762837 2:0.171555 3:0.147665 4:0.469697 5:0.607547 6:0.225958 7:0.188817 8:0.863246 
-0.661363300180045 1:0.836236 2:0.908975 3:0.0954423 4:0.633729 5:0.538572 6:0.342944 7:0.296974 8:0.616054 
-0.62531694125031 1:0.812427 2:0.191855 3:0.276266 4:0.156037 5:0.819457 6:0.329422 7:0.349023 8:0.71241 
-0.3574395145563984 1:0.838152 2:0.854733 3:0.273861 4:0.292925 5:0.689431 6:0.319583 7:0.325236 8:0.616054 
-0.6089095876325705 1:0.813947 2:0.151015 3:0.153489 4:0.176455 5:0.91422 6:0.12649 7:0.388361 8:0.648391 
-0.649133664477677 1:0.864358 2:0.868454 3:0.292075 4:0.177201 5:0.77396 6:0.319583 7:0.381718 8:0.677109 
-0.5514709133189534 1:0.779815 2:0.895573 3:0.417754 4:0.330918 5:0.541917 6:0.412907 7:0.381718 8:0.646592 
-0.48382183458338474 1:0.813568 2:0.38277 3:0.331252 4:0.249458 5:0.713936 6:0.219413 7:0.418475 8:0.637363 
-1.1819780671497844 1:0.882517 2:0.895573 3:0.440278 4:0.411884 5:0.511325 6:0.0615576 7:0.0706983 8:0.939421 
-0.4076499779915383 1:0.859825 2:0.882066 3:0.355484 4:0.309385 5:0.70323 6:0.202504 7:0.296974 8:0.768503 
-0.7466932508605222 1:0.855419 2:0.854733 3:0.273861 4:0.320668 5:0.658108 6:0.296206 7:0.240422 8:0.768503 
-1.984810365404223 1:0.838468 2:0.211919 3:0.38088 4:0.365291 5:0.536355 6:0.357191 7:0.339176 8:0.55649 
-0.5272040352772325 1:0.774887 2:0.171555 3:0.147665 4:0.469697 5:0.607547 6:0.255556 7:0.393605 8:0.567783 
-0.5001588722193719 1:0.80537 2:0.191855 3:0.318962 4:0.332339 5:0.595425 6:0.0700592 7:0.259772 8:0.856478 
-0.4244599694679604 1:0.792302 2:0.191855 3:0.283614 4:0.332339 5:0.69108 6:0.144403 7:0.393605 8:0.616054 
-0.5752621120530198 1:0.767678 2:0.171555 3:0.248242 4:0.290002 5:0.69108 6:0.263444 7:0.449439 8:0.677109 
-0.5893372476142966 1:0.894617 2:0.840904 3:0.290571 4:0.102652 5:0.759216 6:0.323649 7:0.357167 8:0.624023 
-0.6393447888304842 1:0.79493 2:0.151015 3:0.248242 4:0.290002 5:0.69108 6:0.233561 7:0.277875 8:0.789055 
-0.2403567750530734 1:0.84526 2:0.895573 3:0.259839 4:0.222652 5:0.786208 6:0.296206 7:0.268704 8:0.738061 
-0.5917087588078949 1:0.847055 2:0.784457 3:0.298902 4:0.37957 5:0.636372 6:0.296206 7:0.353483 8:0.707597 
-0.5466425093206551 1:0.802936 2:0.191855 3:0.141993 4:0.247614 5:0.834326 6:0.284781 7:0.339688 8:0.637363 
-0.6373743067618549 1:0.702731 2:0.151015 3:0.262587 4:0.567059 5:0.669115 6:0.329422 7:0.482682 8:0.567783 
-0.7618402080356709 1:0.891421 2:0.882066 3:0.350132 4:0.303886 5:0.694694 6:0.163901 7:0.222679 8:0.817465 
-0.6359281034330722 1:0.765548 2:0.171555 3:0.183572 4:0.469697 5:0.849591 6:0.263444 7:0.449439 8:0.677109 
-0.873049205299465 1:0.862775 2:0.191855 3:0.177434 4:0.332339 5:0.738861 6:0.107255 7:0.215106 8:0.808519 
-0.9378261707325821 1:0.869 2:0.895573 3:0.367235 4:0.352079 5:0.56511 6:0.301513 7:0.331406 8:0.623756 
-0.6531878375860927 1:0.841287 2:0.840904 3:0.39542 4:0.410245 5:0.603332 6:0.216731 7:0.118345 8:0.930271 
-0.38075145743612626 1:0.85819 2:0.882066 3:0.327574 4:0.303886 5:0.72521 6:0.259316 7:0.337685 8:0.693646 
-0.6433053135936984 1:0.515647 2:0.0878964 3:1.0 4:0.739783 5:0.145808 6:0.2078 7:0.137224 8:0.80284 
-0.2833433536762633 1:0.889686 2:0.908975 3:0.300114 4:0.217906 5:0.716565 6:0.30362 7:0.0863814 8:0.801884 
-0.6099456145609227 1:0.744728 2:0.191855 3:0.354287 4:0.459023 5:0.595425 6:0.218552 7:0.393605 8:0.664263 
-0.28865839389976966 1:0.881363 2:0.908975 3:0.322496 4:0.298475 5:0.716565 6:0.170559 7:0.257576 8:0.721086 
-0.5585556000545817 1:0.830992 2:0.191855 3:0.181098 4:0.357619 5:0.689431 6:0.181503 7:0.304412 8:0.664263 
-0.6562690587112857 1:0.86747 2:0.882066 3:0.400952 4:0.200128 5:0.764761 6:0.151458 7:0.375187 8:0.729505 
-0.6205806289863878 1:0.715649 2:0.171555 3:0.354287 4:0.459023 5:0.595425 6:0.338273 7:0.132838 8:0.725879 
-0.46866998430976003 1:0.847352 2:0.882066 3:0.344869 4:0.43232 5:0.595425 6:0.259316 7:0.337685 8:0.693646 
-0.5017033320103748 1:0.887041 2:0.882066 3:0.241646 4:0.254802 5:0.795509 6:0.139612 8:0.969181 
-0.5802539670234874 1:0.823792 2:0.908975 3:0.4566 4:0.405593 5:0.534779 6:0.239791 7:0.28539 8:0.84076 
-0.3927276122462247 1:0.750833 2:0.171555 3:0.147665 4:0.341364 5:0.752868 6:0.263444 7:0.494551 8:0.628271 
-0.6077922402118703 1:0.882747 2:0.854733 3:0.227498 4:0.376079 5:0.689431 6:0.319583 7:0.296974 8:0.707597 
-0.7751096889233557 1:0.85202 2:0.895573 3:0.440278 4:0.411884 5:0.511325 6:0.207037 7:0.16026 8:0.838752 
-0.32244250121030826 1:0.79493 2:0.895573 3:0.395224 4:0.438827 5:0.572496 6:0.225958 7:0.353483 8:0.677109 
-0.6509215569630304 1:0.874225 2:0.882066 3:0.220334 4:0.49156 5:0.454829 6:0.306908 7:0.280206 8:0.693646 
-0.35546558818719654 1:0.81166 2:0.191855 3:0.17145 4:0.365291 5:0.72521 6:0.181503 7:0.349023 8:0.664263 
-1.0528671524881352 1:0.84526 2:0.868454 3:0.383857 4:0.397366 5:0.432035 6:0.225958 7:0.296974 8:0.768503 
-0.5065931115841252 1:0.785039 2:0.895573 3:0.507788 4:0.411884 5:0.480716 6:0.38363 7:0.347179 8:0.608479 
-0.4136023754042071 1:0.784572 2:0.826964 3:0.471872 4:0.444971 5:0.547551 6:0.314176 7:0.375187 8:0.608479 
-0.7002360036059974 1:0.890989 2:0.908975 3:0.202733 4:0.114025 5:0.91606 6:0.27281 7:0.353483 8:0.616054 
-0.6948270613300185 1:0.856534 2:0.868454 3:0.269106 4:0.149577 5:0.804965 6:0.342944 7:0.296974 8:0.616054 
-0.5442823003966601 1:0.844353 2:0.895573 3:0.4566 4:0.43232 5:0.595425 6:0.325082 7:0.274407 8:0.716048 
-0.6103358640686042 1:0.753788 2:0.211919 3:0.206411 4:0.156037 5:0.866535 6:0.312392 7:0.242597 8:0.733376 
-0.44858314522350884 1:0.807763 2:0.171555 3:0.248242 4:0.290002 5:0.69108 6:0.263444 7:0.0421098 8:0.871815 
-0.6410034816851505 1:0.564854 2:0.109192 3:0.834773 4:0.768969 5:0.139364 6:0.188422 7:0.223446 8:0.774586 
-0.6180443167389418 1:0.783162 2:0.211919 3:0.206411 4:0.323547 5:0.772349 6:0.211339 7:0.162857 8:0.888834 
-0.4367902290293797 1:0.849997 2:0.854733 3:0.250684 4:0.376079 5:0.626775 6:0.296206 7:0.381718 8:0.646592 
-0.6373467901917436 1:0.783162 2:0.191855 3:0.10653 4:0.205168 5:0.882014 6:0.292513 7:0.215106 8:0.664263 
-0.6098136835064891 1:0.775388 2:0.882066 3:0.559792 4:0.742816 5:0.240093 6:0.406746 7:0.347179 8:0.578159 
-0.25411748130368644 1:0.833639 2:0.882066 3:0.332737 4:0.309385 5:0.672443 6:0.296206 7:0.325236 8:0.707597 
-0.6492736161694523 1:0.895247 2:0.895573 3:0.327574 4:0.384919 5:0.633621 6:0.139612 8:0.969181 
-0.6217239030335759 1:0.654608 2:0.171555 3:0.57701 4:0.724869 5:0.316041 6:0.357191 7:0.427166 8:0.651746 
-0.6489558213810114 1:0.79493 2:0.171555 3:0.291156 4:0.426976 5:0.656022 6:0.487345 7:0.268704 8:0.579374 
-0.5971078670914822 1:0.693997 2:0.191855 3:0.636061 4:0.752728 5:0.307716 6:0.284358 7:0.339176 8:0.746761 
-0.6651180467819244 1:0.774384 2:0.151015 3:0.262587 4:0.653232 5:0.570844 6:0.366283 7:0.349023 8:0.567783 
-0.6433320019618892 1:0.648476 2:0.109192 3:0.686782 4:0.768969 5:0.342408 6:0.675682 7:0.766457 8:0.360593 
-0.6409913992218055 1:0.742208 2:0.211919 3:0.511366 4:0.386145 5:0.55408 6:0.284358 7:0.339176 8:0.699283 
-1.3160785472014693 1:0.829986 2:0.882066 3:0.46279 4:0.411884 5:0.511325 6:0.259316 7:0.337685 8:0.693646 
-1.0090126109226416 1:0.775887 2:0.191855 3:0.354287 4:0.290002 5:0.595425 6:0.329422 7:0.438158 8:0.616054 
-0.6434632573600969 1:0.696676 2:0.171555 3:0.790417 4:0.426976 5:0.364708 6:0.225958 7:0.494551 8:0.628271 
-0.6200623163611745 1:0.85901 2:0.854733 3:0.0954423 4:0.633729 5:0.538572 6:0.221107 7:0.350562 8:0.647647 
-0.40493373311790415 1:0.869759 2:0.908975 3:0.290571 4:0.102652 5:0.759216 6:0.436189 7:0.325236 8:0.585491 
-0.3433329240488389 1:0.891205 2:0.895573 3:0.282426 4:0.222652 5:0.786208 6:0.225958 7:0.268704 8:0.738061 
-0.05981913764444712 1:0.854013 2:0.854733 3:0.384048 4:0.372874 5:0.557839 6:0.26958 7:0.262853 8:0.71075 
-0.6095572910829457 1:0.739641 2:0.34623 3:0.35765 4:0.344427 5:0.595425 6:0.225958 7:0.46802 8:0.5621 
-0.42981982769380556 1:0.773374 2:0.191855 3:0.212851 4:0.416849 5:0.69108 6:0.357191 7:0.383185 8:0.651746 
-0.7439063599349824 1:0.871762 2:0.882066 3:0.378224 4:0.309385 5:0.610834 6:0.225958 7:0.353483 8:0.677109 
-0.47168666496917555 1:0.771844 2:0.171555 3:0.272853 4:0.354406 5:0.634951 6:0.225958 7:0.4043 8:0.579374 
-0.5165973256423219 1:0.792302 2:0.826964 3:0.471872 4:0.444971 5:0.547551 6:0.301513 7:0.274407 8:0.716048 
-0.6332524489749384 1:0.76447 2:0.231755 3:0.165623 4:0.273707 5:0.851451 6:0.350724 7:0.794526 8:0.309291 
-0.929655423177821 1:0.872258 2:0.908975 3:0.344869 4:0.43232 5:0.595425 6:0.221307 7:0.291136 8:0.729505 
-0.42466790378885944 1:0.801288 2:0.895573 3:0.361874 4:0.399407 5:0.557839 6:0.372165 7:0.41682 8:0.592939 
-1.1595710658324154 1:0.871264 2:0.895573 3:0.259839 4:0.276828 5:0.755717 6:0.337345 7:0.40318 8:0.578159 
-0.5708814848238247 1:0.860636 2:0.882066 3:0.332737 4:0.363878 5:0.641647 6:0.225958 7:0.296974 8:0.738061 
-0.529577215019925 1:0.791415 2:0.868454 3:0.315035 4:0.369926 5:0.494321 6:0.337345 7:0.375187 8:0.578159 
-0.44944855807530804 1:0.715649 2:0.191855 3:0.346031 4:0.323547 5:0.678042 6:0.255556 7:0.393605 8:0.567783 
-1.0730808601661832 1:0.844353 2:0.191855 3:0.248242 4:0.416849 5:0.643268 6:0.218552 7:0.393605 8:0.616054 
-0.2870028269220409 1:0.803752 2:0.882066 3:0.355484 4:0.391091 5:0.610834 6:0.436189 7:0.325236 8:0.585491 
-0.639129869777867 1:0.825888 2:0.770054 3:0.230871 4:0.560782 5:0.578892 6:0.245355 7:0.379774 8:0.584434 
-0.19857741786221922 1:0.851445 2:0.882066 3:0.287209 4:0.309385 5:0.734004 6:0.27281 7:0.353483 8:0.646592 
-0.41816543160450476 1:0.834618 2:0.868454 3:0.383857 4:0.424783 5:0.400872 6:0.254314 7:0.188817 8:0.838752 
-0.6432197509639914 1:0.808944 2:0.868454 3:0.131083 4:0.911717 5:0.357221 6:0.168189 7:0.373032 8:0.7646 
-0.6428656640054992 1:0.639405 2:0.191855 3:0.389589 4:0.501142 5:0.499646 6:0.659481 7:0.79354 8:0.179373 
-0.6225362939419175 1:0.775887 2:0.191855 3:0.333011 4:0.313983 5:0.562552 6:0.218552 7:0.215106 8:0.808519 
-0.6208473212872604 1:0.921341 2:0.895573 3:0.131083 5:1.0 6:0.230687 7:0.245887 8:0.777452 
-0.6505706107804644 1:0.841597 2:0.882066 3:0.53713 4:0.742816 5:0.240093 6:0.225958 7:0.353483 8:0.677109 
-0.4794255486773703 1:0.846758 2:0.882066 3:0.309978 4:0.282103 5:0.70323 6:0.389603 7:0.353483 8:0.5549 
-0.6322081321210477 1:0.779815 2:0.171555 3:0.206411 4:0.166532 5:0.843001 6:0.263444 7:0.449439 8:0.628271 
-0.288574481400984 1:0.842214 2:0.840904 3:0.339693 4:0.106382 5:0.768067 6:0.323649 7:0.357167 8:0.624023 
-0.38786934596230477 1:0.813568 2:0.840904 3:0.39542 4:0.410245 5:0.603332 6:0.254314 7:0.188817 8:0.838752 
-0.6285281079893125 1:0.855419 2:0.868454 3:0.40621 4:0.372874 5:0.557839 6:0.3603 7:0.401984 8:0.451184 
-0.6426532021929079 1:0.683703 3:0.599345 4:0.803812 5:0.337108 6:0.225958 7:0.381718 8:0.636418 
-0.6431053422779539 1:0.72746 2:0.0223949 3:0.547131 4:0.600035 5:0.434783 6:0.144403 7:0.393605 8:0.616054 
-0.32821211979105147 1:0.758951 2:0.211919 3:0.206411 4:0.323547 5:0.772349 6:0.211339 7:0.383185 8:0.604148 
-1.3831395740777013 1:0.850288 2:0.191855 3:0.141993 4:0.290002 5:0.786611 6:0.144403 7:0.12568 8:0.90438 
-1.6704330915962051 1:0.866182 2:0.908975 3:0.312589 4:0.155694 5:0.610329 6:0.366283 7:0.353483 8:0.616054 
-0.6430744101068455 1:0.730953 2:0.171555 3:0.206411 4:0.57322 5:0.583614 6:0.487345 7:0.268704 8:0.579374 
-0.30329646191118204 1:0.844656 2:0.908975 3:0.339693 4:0.106382 5:0.768067 6:0.342944 7:0.296974 8:0.616054 
-0.6366135207828093 1:0.860366 2:0.895573 3:0.305003 4:0.195527 5:0.755717 6:0.221307 7:0.515043 8:0.517451 
-0.5366595169089038 1:0.861977 2:0.854733 3:0.344869 4:0.083182 5:0.716565 6:0.245355 7:0.379774 8:0.584434 
-0.5728297876234781 1:0.783162 2:0.151015 3:0.354287 4:0.374621 5:0.547551 6:0.233561 7:0.323707 8:0.789055 
-0.6396791353039578 1:0.768206 2:0.171555 3:0.0397957 4:0.554976 5:0.656022 6:0.225958 7:0.4043 8:0.579374 
-0.50536483191691 1:0.856256 2:0.882066 3:0.202402 4:0.287919 5:0.699699 6:0.306908 7:0.280206 8:0.693646 
-0.5249727779611854 1:0.74903 2:0.211919 3:0.304745 4:0.394529 5:0.605878 6:0.320797 7:0.339176 8:0.746761 
-0.510052811746255 1:0.733007 2:0.171555 3:0.326972 4:0.512366 5:0.607547 6:0.255556 7:0.215106 8:0.760495 
-0.5696158875812819 1:0.857364 2:0.854733 3:0.0661651 4:0.708696 5:0.519033 6:0.245355 7:0.292103 8:0.67921 
-0.6371284674433652 1:0.746588 2:0.191855 3:0.177434 4:0.459023 5:0.738861 6:0.403097 7:0.482682 8:0.51945 
-0.6213483157264011 1:0.810114 2:0.364596 3:0.242956 4:0.394529 5:0.564062 6:0.12649 7:0.348498 8:0.691458 
-0.7456540388491429 1:0.84824 2:0.882066 3:0.372681 4:0.384919 5:0.603067 6:0.211648 7:0.222679 8:0.817465 
-0.4401988776246042 1:0.872258 2:0.854733 3:0.273861 4:0.292925 5:0.689431 6:0.187786 7:0.193895 8:0.848354 
-0.268278045690755 1:0.767149 2:0.191855 3:0.248242 4:0.332339 5:0.643268 6:0.357191 7:0.383185 8:0.699283 
-0.604615512220217 1:0.854858 2:0.908975 3:0.237969 4:0.199686 5:0.829711 6:0.27281 7:0.240422 8:0.616054 
-0.6341431552469265 1:0.75553 2:0.211919 3:0.223678 4:0.449601 5:0.541917 6:0.138133 7:0.206979 8:0.888834 
-0.854984832479427 1:0.884117 2:0.922274 3:0.428366 4:0.425915 5:0.58791 6:0.0615576 7:0.0706983 8:0.939421 
-0.6665167268182958 1:0.799201 2:0.191855 3:0.318962 4:0.290002 5:0.738861 6:0.307194 7:0.325914 8:0.582912 
-0.5199292616630793 1:0.791415 2:0.211919 3:0.276266 4:0.365291 5:0.583614 6:0.138133 7:0.295139 8:0.699283 
-1.17687059266352 1:0.855978 2:0.882066 3:0.287209 4:0.282103 5:0.764761 6:0.301513 7:0.331406 8:0.623756 
-0.6096871716577914 1:0.789623 2:0.327668 3:0.333011 4:0.313983 5:0.562552 6:0.284781 7:0.418475 8:0.552054 
-0.520200672009108 1:0.864358 2:0.854733 3:0.360926 4:0.121929 5:0.742941 6:0.26958 7:0.262853 8:0.71075 
-0.42358888811015644 1:0.803345 2:0.895573 3:0.282426 4:0.276828 5:0.786208 6:0.412907 7:0.381718 8:0.646592 
-0.5260720841947809 1:0.745351 2:0.191855 3:0.381701 4:0.374124 5:0.67027 6:0.218552 7:0.438158 8:0.567783 
-0.6429315346221419 1:0.754371 2:0.191855 3:0.354287 4:0.543208 5:0.451709 6:0.305357 7:0.217049 8:0.735415 
-0.6456600649932804 1:0.834292 2:0.868454 3:0.373231 4:0.569514 5:0.514059 6:0.336356 7:0.170024 8:0.7646 
-0.6432588804668394 1:0.373601 2:0.0445045 3:0.959925 4:1.0 6:0.752514 7:1.0 
-0.5999793110338683 1:0.831325 2:0.882066 3:0.327574 4:0.384919 5:0.633621 6:0.378143 7:0.165103 8:0.786548 
-5.544412488694385 1:0.876646 2:0.882066 3:0.40621 4:0.372874 5:0.557839 6:0.283122 7:0.251447 8:0.755608 
-0.3778925619623523 1:0.820227 2:0.895573 3:0.305003 4:0.357928 5:0.664166 6:0.412907 7:0.381718 8:0.646592 
-0.6835157294995947 1:0.843135 2:0.895573 3:0.305003 4:0.303886 5:0.694694 6:0.389603 7:0.240422 8:0.677109 
-0.8562235038244427 1:0.864358 2:0.854733 3:0.297024 4:0.292925 5:0.689431 6:0.283122 7:0.251447 8:0.755608 
-0.3028510199486956 1:0.815824 2:0.908975 3:0.322496 4:0.378847 5:0.625728 6:0.436189 7:0.325236 8:0.585491 
-0.34833032515768547 1:0.818775 2:0.895573 3:0.372681 4:0.411884 5:0.572496 6:0.436189 7:0.381718 8:0.5549 
-0.521696244646829 1:0.865403 2:0.868454 3:0.383857 4:0.424783 5:0.400872 6:0.296206 7:0.381718 8:0.646592 
-0.5201117778274011 1:0.782689 2:0.211919 3:0.45051 4:0.53174 5:0.489065 6:0.174759 7:0.0745267 8:0.983252 
-0.625506584407758 1:0.763384 2:0.191855 3:0.354287 4:0.58522 5:0.403742 6:0.312392 7:0.329582 8:0.686492 
-5.038846356942876 1:0.916394 2:0.882066 3:0.309978 4:0.282103 5:0.764761 6:0.330672 7:0.366408 8:0.631584 
-0.582515612042203 1:0.813189 2:0.908975 3:0.0859277 4:0.690689 5:0.536737 6:0.296206 7:0.325236 8:0.707597 
-0.6430603771605046 1:0.622316 2:0.151015 3:0.389589 4:0.332339 5:0.547551 6:0.835344 7:0.871333 8:0.0922168 
-0.5441539931133337 1:0.820227 2:0.895573 3:0.507788 4:0.411884 5:0.480716 6:0.319583 7:0.381718 8:0.616054 
-0.642649015510755 1:0.701882 2:0.109192 3:0.354287 4:0.374621 5:0.547551 6:0.560047 7:0.672817 8:0.462984 
-0.6131415011926826 1:0.885924 2:0.868454 3:0.269106 4:0.149577 5:0.804965 6:0.202504 7:0.296974 8:0.768503 
-0.9715768098018206 1:0.929919 2:0.908975 3:0.300114 4:0.217906 5:0.716565 6:0.27281 7:0.183819 8:0.738061 
-5.51048760222596 1:0.806172 2:0.191855 3:0.181098 4:0.357619 5:0.689431 6:0.218552 7:0.393605 8:0.616054 
-1.226257170789966 1:0.829986 2:0.826964 3:0.471872 4:0.444971 5:0.547551 6:0.211648 7:0.251447 8:0.786548 
-0.6401812167445656 1:0.801702 2:0.191855 4:0.374621 5:0.738861 6:0.218552 7:0.215106 8:0.71241 
-0.6428423850381636 1:0.75553 2:0.109192 3:0.147665 4:0.298475 5:0.849591 6:0.405141 7:0.625952 8:0.309291 
-0.6779980107215238 1:0.881131 2:0.364596 3:0.286943 4:0.449601 5:0.541917 6:0.259038 7:0.428202 8:0.5621 
-0.6328769612219506 1:0.665004 2:0.0663361 3:0.298902 4:0.35063 5:0.718203 6:0.704245 7:0.413975 8:0.537409 
-0.39882772886546114 1:0.72746 2:0.191855 3:0.354287 4:0.374621 5:0.547551 6:0.247871 7:0.339176 8:0.699283 
-0.38742328566854 1:0.845861 2:0.882066 3:0.378224 4:0.0905035 5:0.88767 6:0.27281 7:0.325236 8:0.677109 
-0.45146316898360805 1:0.865923 2:0.922274 3:0.264063 4:0.177877 5:0.780012 6:0.314176 7:0.066492 8:0.789872 
-1.0401702034706575 1:0.871014 2:0.882066 3:0.273094 4:0.133127 5:0.768067 6:0.283122 7:0.251447 8:0.786548 
-0.7084841472755116 1:0.895038 2:0.882066 3:0.202733 4:0.114025 5:0.91606 6:0.187786 7:0.193895 8:0.848354 
-0.3367743884550289 1:0.840666 2:0.868454 3:0.360926 4:0.342463 5:0.494321 6:0.301513 7:0.331406 8:0.623756 
-0.7539629613624044 1:0.85373 2:0.211919 3:0.206411 4:0.114025 5:0.960601 6:0.211339 7:0.118706 8:0.936073 
-0.20875856473743695 1:0.765548 2:0.171555 3:0.248242 4:0.332339 5:0.643268 6:0.375613 7:0.0874905 8:0.774586 
-0.6327261789877846 1:0.736364 2:0.191855 3:0.141993 4:0.162666 5:0.882014 6:0.350724 7:0.794526 8:0.309291 
-0.5529943272386253 1:0.835267 2:0.364596 3:0.223678 4:0.411884 5:0.627513 6:0.192839 7:0.388361 8:0.648391 
-0.6428561270071118 1:0.873245 2:0.908975 3:0.131083 5:1.0 6:0.412907 7:0.381718 8:0.646592 
-0.6008145993054577 1:0.870011 2:0.882066 3:0.355484 4:0.309385 5:0.70323 6:0.221307 7:0.515043 8:0.517451 
-0.6712644251935155 1:0.784572 2:0.171555 3:0.398528 4:0.126356 5:0.752868 6:0.218552 7:0.393605 8:0.616054 
-0.6496961606872966 1:0.726751 2:0.109192 3:0.834773 4:0.768969 5:0.139364 6:0.12649 7:0.348498 8:0.691458 
-0.5125276672341554 1:0.854858 2:0.895573 3:0.305003 4:0.222652 5:0.755717 6:0.319583 7:0.296974 8:0.707597 
-0.45247084297105755 1:0.870011 2:0.908975 3:0.295302 4:0.133127 5:0.678042 6:0.27281 7:0.353483 8:0.616054 
-0.5786514160809217 1:0.823792 2:0.895573 3:0.350132 4:0.411884 5:0.603067 6:0.325082 7:0.445269 8:0.592939 
-0.6441698370997377 1:0.728166 2:0.191855 3:0.354287 4:0.374621 5:0.547551 6:0.312392 7:0.589877 8:0.592546 
-0.6536759757210635 1:0.802526 2:0.151015 3:0.262587 4:0.653232 5:0.570844 6:0.233561 7:0.643689 8:0.591273 
-0.5648484988713913 1:0.827952 2:0.882066 3:0.446382 4:0.309385 5:0.672443 6:0.235494 7:0.30895 8:0.693646 
-0.42226963032388365 1:0.841906 2:0.882066 3:0.332737 4:0.336641 5:0.672443 6:0.389603 7:0.353483 8:0.5549 
-0.6425946317024124 1:0.653404 2:0.171555 3:0.200138 4:0.356199 5:0.804965 6:0.263444 7:0.629702 8:0.530413 
-0.3898929863301347 1:0.886148 2:0.908975 3:0.25532 4:0.378847 5:0.656022 6:0.314176 7:0.375187 8:0.608479 
-0.6429100603941932 1:0.702731 2:0.151015 3:0.0397957 4:0.512366 5:0.704461 6:0.835344 7:0.871333 8:0.0922168 
-0.5299921426759295 1:0.825541 2:0.840904 3:0.39542 4:0.410245 5:0.603332 6:0.174759 7:0.347179 8:0.699283 
-0.8842098417275638 1:0.791415 2:0.171555 3:0.248242 4:0.290002 5:0.69108 6:0.375613 7:0.0874905 8:0.774586 
-0.6875476357270245 1:0.807763 2:0.191855 3:0.283614 4:0.290002 5:0.595425 6:0.174759 7:0.129747 8:0.865194 
