svm_type c_svc
kernel_type rbf
gamma 256.0
nr_class 2
total_sv 766
rho 0.3303177840588562
label 1 -1
nr_sv 262 504
SV
1.2591551724711798 1:0.73834 2:0.0878964 3:0.812912 4:0.829121 5:0.197331 6:0.263444 7:0.449439 8:0.628271 
0.5047642629192962 1:0.935355 2:0.908975 3:0.344869 4:0.405593 5:0.56511 6:0.225958 7:0.325236 8:0.707597 
0.8216897035199904 1:0.850867 2:0.171555 3:0.25532 4:0.405593 5:0.615631 6:0.375613 7:0.0874905 8:0.774586 
4.473351726594258 1:0.833311 2:0.191855 3:0.354287 4:0.374621 5:0.547551 6:0.329422 7:0.349023 8:0.567783 
1.1397969652667894 1:0.929101 2:0.882066 3:0.282426 4:0.222652 5:0.816686 6:0.163901 7:0.222679 8:0.817465 
1.3377167457333226 1:0.888149 2:0.882066 3:0.423673 4:0.282103 5:0.610834 6:0.436189 7:0.409946 8:0.524287 
1.1568939928634503 1:0.916394 2:0.882066 3:0.332737 4:0.309385 5:0.672443 6:0.296206 7:0.240422 8:0.768503 
1.7776810359230693 1:0.903981 2:0.895573 3:0.23724 4:0.303886 5:0.755717 6:0.27281 7:0.353483 8:0.616054 
1.3307664586460481 1:0.794495 2:0.151015 3:0.732821 4:0.567059 5:0.275244 6:0.292513 7:0.304412 8:0.71241 
1.096993032995298 1:0.854858 2:0.171555 3:0.267538 4:0.276522 5:0.636747 6:0.375613 7:0.0874905 8:0.774586 
1.3424770794359087 1:0.921341 2:0.882066 3:0.312589 4:0.155694 5:0.610329 6:0.283122 7:0.251447 8:0.755608 
0.6377901770581696 1:0.838785 2:0.171555 3:0.223678 4:0.449601 5:0.541917 6:0.225958 7:0.4043 8:0.579374 
1.3304554496777483 1:0.680758 2:0.0663361 3:0.570721 4:0.411884 5:0.456225 6:0.743742 7:0.55894 8:0.484891 
2.069954600933062 1:0.85764 2:0.191855 3:0.248242 4:0.332339 5:0.738861 6:0.255556 7:0.304412 8:0.71241 
1.394027921772693 1:0.850867 2:0.151015 3:0.153489 4:0.35063 5:0.767254 6:0.312392 7:0.199062 8:0.780204 
0.3293550049185671 1:0.901999 2:0.908975 3:0.411934 4:0.352079 5:0.56511 6:0.366283 7:0.353483 8:0.677109 
1.3281231498257409 1:0.855419 2:0.171555 3:0.25532 4:0.212527 5:0.801248 6:0.338273 7:0.132838 8:0.725879 
1.3303581922847048 1:0.775887 2:0.109192 3:0.219459 4:0.512366 5:0.559044 6:0.790853 7:0.766457 8:0.103379 
0.9970174378109788 1:0.919066 2:0.895573 3:0.40621 4:0.372874 5:0.557839 6:0.277922 7:0.16026 8:0.777452 
1.514684286516813 1:0.856256 2:0.191855 3:0.141993 4:0.290002 5:0.738861 6:0.320797 7:0.427166 8:0.651746 
0.41516443452900575 1:0.911077 2:0.895573 3:0.327574 4:0.357928 5:0.603067 6:0.254314 7:0.331406 8:0.68531 
1.3833698381226247 1:0.856256 2:0.171555 3:0.234634 4:0.479548 5:0.572107 6:0.263444 7:0.0421098 8:0.871815 
1.327570271798996 1:0.88389 2:0.882066 3:0.332737 4:0.336641 5:0.672443 6:0.330672 7:0.280206 8:0.72464 
1.4054188331802806 1:0.85901 2:0.211919 3:0.206411 4:0.281749 5:0.772349 6:0.142716 7:0.129747 8:0.989148 
0.6157928729576772 1:0.917648 2:0.908975 3:0.367235 4:0.378847 5:0.595425 6:0.225958 7:0.296974 8:0.768503 
0.14056152907484623 1:0.910515 2:0.895573 3:0.372681 4:0.411884 5:0.572496 6:0.296206 7:0.268704 8:0.738061 
1.2546994660902726 1:0.913853 2:0.868454 3:0.269106 4:0.149577 5:0.804965 6:0.306908 7:0.30895 8:0.66263 
1.274350718062305 1:0.823792 2:0.171555 3:0.285186 4:0.33422 5:0.736737 6:0.300884 7:0.494551 8:0.579374 
1.3305515793868221 1:0.763384 2:0.109192 3:0.318962 4:0.332339 5:0.595425 6:0.790853 7:0.85997 8:0.154963 
1.1198781784894163 1:0.920121 2:0.882066 3:0.378224 4:0.309385 5:0.610834 6:0.296206 7:0.353483 8:0.646592 
1.7864109315064791 1:0.86171 2:0.171555 3:0.141993 4:0.374621 5:0.738861 6:0.263444 7:0.584679 8:0.530413 
1.3309936102318882 1:0.85764 2:0.171555 3:0.177434 4:0.162666 5:0.738861 6:0.263444 7:0.359132 8:0.823234 
1.7094426190321608 1:0.944747 2:0.895573 3:0.440278 4:0.411884 5:0.511325 6:0.0615576 7:0.0706983 8:0.939421 
1.327123372854369 1:0.824844 2:0.191855 3:0.530569 4:0.543208 5:0.403742 6:0.320797 7:0.427166 8:0.651746 
1.4588207663675075 1:0.857364 2:0.211919 3:0.333011 4:0.352722 5:0.562552 6:0.174759 7:0.0745267 8:0.983252 
1.339630275928347 1:0.884571 2:0.895573 3:0.507788 4:0.411884 5:0.480716 6:0.249392 7:0.325236 8:0.677109 
0.3780216261610633 1:0.913302 2:0.882066 3:0.300114 4:0.352079 5:0.686299 6:0.283122 7:0.366408 8:0.66263 
1.2772045609746416 1:0.917648 2:0.922274 3:0.428366 4:0.372874 5:0.557839 6:0.216731 7:0.118345 8:0.930271 
1.3400511602817777 1:0.903389 2:0.895573 3:0.417754 4:0.465752 5:0.450099 6:0.319583 7:0.325236 8:0.616054 
1.3494128835089967 1:0.871014 2:0.191855 3:0.071043 4:0.247614 5:0.929672 6:0.0700592 7:0.259772 8:0.856478 
1.0924630760548515 1:0.917291 2:0.908975 3:0.344869 4:0.352079 5:0.656022 6:0.151458 7:0.375187 8:0.729505 
1.3252071732579676 1:0.903981 2:0.882066 3:0.339693 4:0.0796113 5:0.708064 6:0.378143 7:0.165103 8:0.786548 
1.0546676394008436 1:0.932983 2:0.895573 3:0.259839 4:0.0868138 5:0.786208 6:0.249392 7:0.353483 8:0.677109 
1.1130717634088596 1:0.946059 2:0.882066 3:0.400952 4:0.41828 5:0.549174 6:0.221493 7:0.155502 8:0.862565 
0.9751930699827006 1:0.892066 2:0.908975 3:0.361874 4:0.399407 5:0.557839 6:0.27281 7:0.353483 8:0.677109 
1.2181857633876216 1:0.874956 2:0.171555 3:0.25532 4:0.298475 5:0.656022 6:0.225958 7:0.268704 8:0.677109 
1.264418409757429 1:0.783634 2:0.0878964 3:0.812912 4:0.829121 5:0.197331 6:0.192839 7:0.388361 8:0.648391 
1.3261180174422624 1:0.868237 2:0.191855 3:0.318962 4:0.332339 5:0.69108 6:0.144403 7:0.0809238 8:0.95222 
0.6136302288365832 1:0.918181 2:0.908975 3:0.367235 4:0.405593 5:0.595425 6:0.319583 7:0.325236 8:0.616054 
1.3198920049012859 1:0.887928 2:0.882066 3:0.309978 4:0.282103 5:0.764761 6:0.425535 7:0.280206 8:0.693646 
1.264168473937368 1:0.837516 2:0.191855 3:0.212851 4:0.416849 5:0.69108 6:0.270681 7:0.206979 8:0.699283 
1.4086355805770987 1:0.856256 2:0.191855 3:0.165623 4:0.273707 5:0.851451 6:0.403097 7:0.393605 8:0.51945 
1.3303394576989838 1:0.799621 2:0.109192 3:0.501228 4:0.856991 5:0.190177 6:0.150835 7:0.449439 8:0.871815 
1.4458357761429115 1:0.870262 2:0.191855 3:0.175824 4:0.166532 5:0.966478 6:0.144403 7:0.12568 8:0.90438 
1.0952270965866582 1:0.860096 2:0.171555 3:0.25532 4:0.298475 5:0.704461 6:0.375613 7:0.0874905 8:0.774586 
1.1387143326489633 1:0.828633 2:0.191855 3:0.354287 4:0.374621 5:0.547551 6:0.192839 7:0.388361 8:0.648391 
0.6426206847628786 1:0.912194 2:0.908975 3:0.40621 4:0.372874 5:0.557839 6:0.225958 7:0.353483 8:0.677109 
0.8572435715037234 1:0.887928 2:0.854733 3:0.478917 4:0.405593 5:0.625728 6:0.245355 7:0.262853 8:0.71075 
1.3286082909815513 1:0.84526 2:0.191855 3:0.248242 4:0.247614 5:0.69108 6:0.174759 7:0.55894 8:0.604148 
1.411828020326836 1:0.82344 2:0.211919 3:0.19202 4:0.411884 5:0.67027 6:0.284358 7:0.339176 8:0.746761 
0.5181574387997187 1:0.913669 2:0.895573 3:0.327574 4:0.384919 5:0.633621 6:0.230687 7:0.274407 8:0.777452 
1.012358996026832 1:0.896084 2:0.895573 3:0.327574 4:0.303886 5:0.72521 6:0.27281 7:0.381718 8:0.707597 
1.5095892232163248 1:0.872999 2:0.895573 3:0.46279 4:0.411884 5:0.511325 6:0.27281 7:0.381718 8:0.707597 
1.2445783254140534 1:0.776384 2:0.0878964 3:0.206411 4:0.365291 5:0.72521 6:0.689765 7:0.782932 8:0.317965 
1.201810163472529 1:0.847945 2:0.191855 3:0.212851 4:0.416849 5:0.69108 6:0.255556 7:0.393605 8:0.567783 
1.3959634427359113 1:0.873981 2:0.882066 3:0.559792 4:0.742816 5:0.240093 6:0.406746 7:0.347179 8:0.578159 
1.1331265549854348 1:0.861442 2:0.191855 3:0.234634 4:0.314977 5:0.758454 6:0.255556 7:0.393605 8:0.567783 
1.3138862219378784 1:0.914401 2:0.868454 3:0.360926 4:0.342463 5:0.494321 6:0.27281 7:0.0704771 8:0.798918 
1.3847290346439625 1:0.849706 2:0.191855 3:0.354287 4:0.374621 5:0.547551 6:0.168189 7:0.199062 8:0.920333 
0.7689826039404467 1:0.933301 2:0.895573 3:0.23291 4:0.325287 5:0.746821 6:0.348631 7:0.359892 8:0.623756 
1.233455323117381 1:0.922033 2:0.895573 3:0.282426 4:0.222652 5:0.786208 6:0.342944 7:0.325236 8:0.616054 
1.3333561326378494 1:0.836877 2:0.171555 3:0.45051 4:0.53174 5:0.441745 6:0.225958 7:0.4043 8:0.579374 
0.7174814840517802 1:0.899785 2:0.882066 3:0.355484 4:0.363878 5:0.672443 6:0.330672 7:0.337685 8:0.693646 
1.3304714783349463 1:0.689413 2:0.0663361 3:0.374685 4:0.795402 5:0.291699 6:0.704245 7:0.413975 8:0.537409 
1.2635046704403916 1:0.90457 2:0.882066 3:0.434273 4:0.325287 5:0.534779 6:0.211648 7:0.222679 8:0.817465 
1.3680301078260684 1:0.92047 2:0.908975 3:0.339693 4:0.106382 5:0.768067 6:0.225958 7:0.353483 8:0.677109 
1.0462190902613921 1:0.941187 2:0.922274 3:0.40621 4:0.372874 5:0.557839 6:0.38363 7:0.347179 8:0.578159 
1.5792342673106043 1:0.919066 2:0.895573 3:0.259839 4:0.276828 5:0.786208 6:0.254314 7:0.188817 8:0.808114 
1.322115211582883 1:0.896084 2:0.868454 3:0.383857 4:0.397366 5:0.432035 6:0.230687 7:0.245887 8:0.777452 
1.3304146210708692 1:0.545112 2:0.0445045 3:0.959925 4:1.0 6:0.835344 7:0.871333 8:0.0922168 
0.6285587879055173 1:0.907478 2:0.882066 3:0.322496 4:0.325287 5:0.80729 6:0.306908 7:0.30895 8:0.66263 
1.7861079223745322 1:0.889904 2:0.882066 3:0.287209 4:0.282103 5:0.734004 6:0.319583 7:0.438158 8:0.585491 
1.3252389966793665 1:0.945914 2:0.922274 3:0.339693 4:0.0796113 5:0.708064 6:0.314176 7:0.0383579 8:0.729505 
1.3303439632036014 1:0.826579 2:0.171555 3:0.0397957 4:0.384199 5:0.849591 6:0.225958 7:0.58733 8:0.475615 
1.3282667036729747 1:0.827952 2:0.171555 3:0.0397957 4:0.384199 5:0.849591 6:0.49326 7:0.361186 8:0.574368 
1.062845886112308 1:0.842522 2:0.191855 3:0.389589 4:0.416849 5:0.547551 6:0.159685 7:0.388361 8:0.691458 
1.3464282820365614 1:0.825541 2:0.171555 3:0.318962 4:0.332339 5:0.738861 6:0.300884 7:0.268704 8:0.823234 
0.7257133774715521 1:0.884571 2:0.908975 3:0.40621 4:0.372874 5:0.557839 6:0.366283 7:0.353483 8:0.677109 
0.5676869952743997 1:0.847649 2:0.211919 3:0.17145 4:0.365291 5:0.72521 6:0.211339 7:0.427166 8:0.55649 
1.6853486037475602 1:0.922206 2:0.908975 3:0.290571 4:0.102652 5:0.759216 6:0.202504 7:0.296974 8:0.768503 
1.295575787785254 1:0.909762 2:0.882066 3:0.0859277 4:0.690689 5:0.536737 6:0.283122 7:0.251447 8:0.755608 
0.6889372496583783 1:0.8965 2:0.895573 3:0.305003 4:0.222652 5:0.755717 6:0.319583 7:0.438158 8:0.585491 
1.3907454913119432 1:0.835267 2:0.171555 3:0.0397957 4:0.512366 5:0.704461 6:0.218552 7:0.438158 8:0.567783 
1.1928738067509883 1:0.849121 2:0.171555 3:0.276266 4:0.365291 5:0.583614 6:0.338273 7:0.132838 8:0.725879 
0.9995826256190271 1:0.900594 2:0.908975 3:0.300114 4:0.405593 5:0.686299 6:0.249392 7:0.325236 8:0.677109 
1.3471653631232026 1:0.836877 2:0.211919 3:0.381701 4:0.449601 5:0.541917 6:0.211339 7:0.251073 8:0.794178 
0.4032849392583838 1:0.824844 2:0.191855 3:0.223678 4:0.449601 5:0.541917 6:0.255556 7:0.393605 8:0.567783 
1.3276785350703109 1:0.842522 2:0.171555 3:0.0397957 4:0.384199 5:0.849591 6:0.357191 7:0.383185 8:0.651746 
1.7987315768659133 1:0.907286 2:0.908975 3:0.322496 4:0.0291398 5:0.777062 6:0.389603 7:0.353483 8:0.5549 
0.9505747857178558 1:0.858464 2:0.171555 3:0.25532 4:0.426976 5:0.559044 6:0.375613 7:0.0874905 8:0.774586 
1.431376743970454 1:0.899582 2:0.868454 3:0.273094 4:0.133127 5:0.768067 6:0.408127 7:0.401984 8:0.514076 
1.3301122183687688 1:0.891421 2:0.400756 3:0.335612 4:0.283672 5:0.647666 6:0.2078 7:0.137224 8:0.80284 
1.3448473360955913 1:0.86171 2:0.171555 3:0.362762 4:0.083182 5:0.801248 6:0.255556 7:0.393605 8:0.567783 
1.0984832070697168 1:0.937686 2:0.908975 3:0.25532 4:0.325287 5:0.746821 6:0.225958 7:0.353483 8:0.677109 
0.8382127656576127 1:0.929265 2:0.908975 3:0.25532 4:0.298475 5:0.716565 6:0.314176 7:0.319163 8:0.729505 
1.2931421358115538 1:0.868237 2:0.151015 3:0.262587 4:0.394031 5:0.767254 6:0.107255 7:0.259772 8:0.808519 
1.3303704317174208 1:0.812808 2:0.151015 3:0.371463 4:0.567059 5:0.570844 6:0.429841 7:0.515043 8:0.460992 
4.904276611075953 1:0.903587 2:0.882066 3:0.40621 4:0.372874 5:0.557839 6:0.283122 7:0.251447 8:0.755608 
0.5852457001775431 1:0.919945 2:0.895573 3:0.305003 4:0.303886 5:0.694694 6:0.249392 7:0.353483 8:0.677109 
1.3299912453167702 1:0.797934 2:0.191855 3:0.671181 4:0.794473 5:0.163438 6:0.284358 7:0.515043 8:0.460992 
1.06290069174842 1:0.926952 2:0.895573 3:0.259839 4:0.0868138 5:0.786208 6:0.314176 7:0.319163 8:0.729505 
1.901264471847513 1:0.850288 2:0.191855 3:0.248242 4:0.290002 5:0.69108 6:0.247871 7:0.162857 8:0.936073 
1.3132249734175565 1:0.804968 2:0.171555 3:0.291156 4:0.469697 5:0.656022 6:0.263444 7:0.449439 8:0.677109 
0.8855618367267997 1:0.90457 2:0.854733 3:0.273861 4:0.292925 5:0.689431 6:0.296206 7:0.353483 8:0.707597 
1.3297713423171438 1:0.844656 2:0.327668 3:0.333011 4:0.352722 5:0.562552 6:0.225958 7:0.388361 8:0.648391 
3.4416438899344426 1:0.900997 2:0.908975 3:0.339693 4:0.239898 5:0.798048 6:0.296206 7:0.353483 8:0.707597 
0.8111778313309767 1:0.892922 2:0.895573 3:0.40621 4:0.372874 5:0.557839 6:0.254314 7:0.302913 8:0.716048 
1.5633612164280704 1:0.825888 2:0.171555 3:0.291156 4:0.384199 5:0.607547 6:0.188422 7:0.4043 8:0.628271 
1.390408241245834 1:0.815076 2:0.191855 3:0.354287 4:0.374621 5:0.547551 6:0.49326 7:0.361186 8:0.574368 
1.2369669749657655 1:0.816938 2:0.109192 3:0.262587 4:0.394031 5:0.767254 6:0.675682 7:0.766457 8:0.360593 
1.3688927352627072 1:0.917112 2:0.868454 3:0.0661651 4:0.708696 5:0.519033 6:0.240381 7:0.111911 8:0.826971 
0.9705370977414269 1:0.909573 2:0.854733 3:0.297024 4:0.292925 5:0.689431 6:0.348631 7:0.359892 8:0.623756 
2.279011805715908 1:0.917469 2:0.908975 3:0.312589 4:0.155694 5:0.610329 6:0.366283 7:0.353483 8:0.616054 
1.280995670556465 1:0.877364 2:0.895573 3:0.4566 4:0.43232 5:0.595425 6:0.230687 7:0.188817 8:0.808114 
0.7250964214397442 1:0.925275 2:0.882066 3:0.259839 4:0.276828 5:0.755717 6:0.235494 7:0.30895 8:0.693646 
0.3761893897123652 1:0.915673 2:0.854733 3:0.40621 4:0.372874 5:0.557839 6:0.245355 7:0.262853 8:0.71075 
1.6412465115621049 1:0.833966 2:0.171555 3:0.31116 4:0.406982 5:0.630843 6:0.225958 7:0.223446 8:0.774586 
1.3994353071841568 1:0.905741 2:0.854733 3:0.250684 4:0.376079 5:0.626775 6:0.216337 7:0.111911 8:0.826971 
1.286930810587371 1:0.900392 2:0.895573 3:0.327574 4:0.384919 5:0.633621 6:0.389603 7:0.240422 8:0.677109 
0.6873158453644598 1:0.960508 2:0.908975 3:0.300114 4:0.244783 5:0.777062 6:0.27281 7:0.212124 8:0.798918 
1.0666236538101603 1:0.837197 2:0.171555 3:0.318962 4:0.332339 5:0.69108 6:0.375613 7:0.0874905 8:0.774586 
1.3300577071970459 1:0.93598 2:1.0 3:0.131083 4:0.911717 5:0.357221 6:0.0615576 7:0.0706983 8:0.939421 
1.330528146298071 1:0.949498 2:0.922274 3:0.317501 4:0.0796113 5:0.768067 6:0.0615576 7:0.0706983 8:0.939421 
1.3198074806104654 1:0.837516 2:0.151015 3:0.298902 4:0.437372 5:0.718203 6:0.393539 7:0.471119 8:0.508771 
1.2257795711702448 1:0.902596 2:0.908975 3:0.300114 4:0.271642 5:0.595425 6:0.314176 7:0.319163 8:0.729505 
1.4625611834122114 1:0.891636 2:0.895573 3:0.384048 4:0.425915 5:0.557839 6:0.325082 7:0.445269 8:0.592939 
1.2750552864750584 1:0.925444 2:0.908975 3:0.322496 4:0.485704 5:0.534779 6:0.225958 7:0.353483 8:0.677109 
0.9328200013602378 1:0.920121 2:0.908975 3:0.344869 4:0.298475 5:0.656022 6:0.366283 7:0.353483 8:0.616054 
1.3462290655940077 1:0.869 2:0.868454 3:0.223137 4:0.369926 5:0.742941 6:0.489533 7:0.388361 8:0.500343 
1.6264682023522772 1:0.895875 2:0.908975 3:0.317501 4:0.0796113 5:0.768067 6:0.27281 7:0.381718 8:0.707597 
1.3146226612049416 1:0.847649 2:0.171555 3:0.25532 4:0.298475 5:0.656022 6:0.403097 7:0.482682 8:0.51945 
1.0561071906721953 1:0.827952 2:0.151015 3:0.298902 4:0.35063 5:0.718203 6:0.329422 7:0.349023 8:0.567783 
1.3742399393488651 1:0.851732 2:0.34623 3:0.261721 4:0.420868 5:0.595425 6:0.225958 7:0.46802 8:0.5621 
1.0823577056303433 1:0.906902 2:0.868454 3:0.327574 4:0.357928 5:0.603067 6:0.168189 7:0.373032 8:0.7646 
1.2474931099057411 1:0.809725 2:0.171555 3:0.291156 4:0.384199 5:0.607547 6:0.49326 7:0.399681 8:0.574368 
1.3170337214489118 1:0.864095 2:0.211919 3:0.276266 4:0.323547 5:0.630843 6:0.225958 7:0.188817 8:0.863246 
1.1000031061481932 1:0.924768 2:0.908975 3:0.295302 4:0.399407 5:0.648011 6:0.27281 7:0.353483 8:0.616054 
1.8570074693551677 1:0.87973 2:0.211919 3:0.136467 4:0.323547 5:0.772349 6:0.174759 7:0.118706 8:0.888834 
1.2596617391355935 1:0.86171 2:0.171555 3:0.25532 4:0.298475 5:0.656022 6:0.312392 7:0.242597 8:0.733376 
1.0880956166831026 1:0.829986 2:0.191855 3:0.261721 4:0.420868 5:0.595425 6:0.255556 7:0.393605 8:0.567783 
1.3944315576260602 1:0.86644 2:0.908975 3:0.4566 4:0.43232 5:0.595425 6:0.436189 7:0.550894 8:0.432296 
0.7964241569869477 1:0.850578 2:0.211919 3:0.242956 4:0.431397 5:0.564062 6:0.211339 7:0.427166 8:0.55649 
1.0768873760465694 1:0.895038 2:0.882066 3:0.367235 4:0.405593 5:0.686299 6:0.211648 7:0.222679 8:0.817465 
1.3140794439276022 1:0.870011 2:0.171555 3:0.0397957 4:0.384199 5:0.849591 6:0.218552 7:0.304412 8:0.71241 
0.47198834035477877 1:0.905935 2:0.908975 3:0.361874 4:0.346323 5:0.617965 6:0.366283 7:0.353483 8:0.677109 
1.3819500428065499 1:0.871513 2:0.191855 3:0.141993 4:0.162666 5:0.882014 6:0.192839 7:0.388361 8:0.648391 
0.3971995173432535 1:0.917826 2:0.908975 3:0.411934 4:0.378847 5:0.534779 6:0.27281 7:0.353483 8:0.646592 
1.3309530139377277 1:0.789171 2:0.109192 3:0.464041 4:0.547879 5:0.645925 6:0.375613 7:0.0874905 8:0.774586 
0.9250350579390089 1:0.885249 2:0.882066 3:0.478917 4:0.405593 5:0.625728 6:0.235494 7:0.30895 8:0.693646 
1.24579762052866 1:0.832322 2:0.191855 3:0.318962 4:0.332339 5:0.738861 6:0.403097 7:0.393605 8:0.51945 
1.3304422591430876 1:0.766617 2:0.191855 3:0.507788 4:0.524902 5:0.370429 6:0.403097 7:0.527177 8:0.471055 
0.9254910613376925 1:0.90019 2:0.908975 3:0.322496 4:0.325287 5:0.80729 6:0.249392 7:0.325236 8:0.677109 
1.3469978418372823 1:0.825541 2:0.171555 3:0.219459 4:0.512366 5:0.559044 6:0.329422 7:0.349023 8:0.567783 
0.7921778565172599 1:0.921514 2:0.882066 3:0.322496 4:0.405593 5:0.625728 6:0.163901 7:0.222679 8:0.817465 
1.3703824403213762 1:0.880898 2:0.770054 3:0.230871 4:0.560782 5:0.578892 6:0.319583 7:0.296974 8:0.707597 
0.8544158142124977 1:0.913486 2:0.868454 3:0.360926 4:0.204803 5:0.742941 6:0.314176 7:0.40318 8:0.608479 
1.3169257464506812 1:0.826234 2:0.13023 3:0.196356 4:0.44805 5:0.682569 6:0.366283 7:0.180126 8:0.655884 
1.449422709974757 1:0.84824 2:0.191855 3:0.212851 4:0.205168 5:0.834326 6:0.159685 7:0.507811 8:0.60527 
1.3661443524473291 1:0.863569 2:0.798742 3:0.250684 4:0.376079 5:0.626775 6:0.215909 7:0.407927 8:0.681464 
1.3266720283325053 1:0.899378 2:0.854733 3:0.110854 4:0.724869 5:0.454829 6:0.245355 7:0.262853 8:0.71075 
1.3306858084883044 1:0.829311 2:0.151015 3:0.262587 4:0.653232 5:0.570844 6:0.233561 7:0.552418 8:0.690294 
0.9982742164274362 1:0.850578 2:0.151015 3:0.117076 4:0.35063 5:0.669115 6:0.225958 7:0.381718 8:0.636418 
1.5756437694848444 1:0.82344 2:0.191855 3:0.318962 4:0.332339 5:0.595425 6:0.329422 7:0.438158 8:0.616054 
1.3305382130914076 1:0.869506 2:0.364596 3:0.206411 4:0.166532 5:0.843001 6:0.225958 7:0.58733 8:0.475615 
1.3778497875384732 1:0.928772 2:0.882066 3:0.423673 4:0.0905035 5:0.856964 6:0.221307 7:0.291136 8:0.729505 
3.557848491713358 1:0.93598 2:0.908975 3:0.300114 4:0.217906 5:0.716565 6:0.221307 7:0.291136 8:0.729505 
0.6821666888661294 1:0.915673 2:0.882066 3:0.350132 4:0.411884 5:0.603067 6:0.283122 7:0.280206 8:0.755608 
1.49738489623483 1:0.815451 2:0.171555 3:0.291156 4:0.469697 5:0.656022 6:0.270681 7:0.206979 8:0.699283 
1.5037293456551364 1:0.915129 2:0.882066 3:0.290571 4:0.102652 5:0.759216 6:0.283122 7:0.251447 8:0.755608 
1.2494241894726543 1:0.820227 2:0.191855 3:0.428111 4:0.468227 5:0.522226 6:0.144403 7:0.393605 8:0.616054 
1.33044896128863 1:0.777865 2:0.109192 3:0.0355331 4:0.416849 5:0.69108 6:0.443947 7:0.532119 8:0.666939 
0.7123050316037984 1:0.940584 2:0.895573 3:0.23724 4:0.222652 5:0.786208 6:0.207037 7:0.188817 8:0.808114 
1.2374890016885738 1:0.862243 2:0.191855 3:0.177434 4:0.374621 5:0.738861 6:0.0599844 7:0.268704 8:0.777452 
1.0637897775675909 1:0.910139 2:0.908975 3:0.367235 4:0.378847 5:0.686299 6:0.249392 7:0.296974 8:0.677109 
0.9006683586629031 1:0.904961 2:0.895573 3:0.327574 4:0.384919 5:0.603067 6:0.319583 7:0.381718 8:0.677109 
1.5437197312737232 1:0.947215 2:0.908975 3:0.389589 4:0.405593 5:0.595425 6:0.0615576 7:0.0706983 8:0.939421 
1.302780110963783 1:0.847055 2:0.151015 3:0.413251 4:0.449601 5:0.499081 6:0.0811229 7:0.323707 8:0.690294 
1.330702453213443 1:0.808944 2:0.171555 3:0.398528 4:0.724869 5:0.413339 6:0.329422 7:0.349023 8:0.567783 
5.709753106750683 1:0.832322 2:0.191855 3:0.181098 4:0.357619 5:0.689431 6:0.218552 7:0.393605 8:0.616054 
1.3442570415863335 1:0.855978 2:0.868454 3:0.315035 4:0.369926 5:0.494321 6:0.489533 7:0.388361 8:0.500343 
1.3131237604574748 1:0.821664 2:0.171555 3:0.38088 4:0.406982 5:0.630843 6:0.300884 7:0.494551 8:0.628271 
1.3002746492251631 1:0.95409 2:0.922274 3:0.273094 4:0.133127 5:0.768067 6:0.244554 7:0.0946111 8:0.789872 
0.9541448541713924 1:0.873491 2:0.922274 3:0.361874 4:0.399407 5:0.557839 6:0.337345 7:0.40318 8:0.578159 
1.2716096864781332 1:0.849414 2:0.171555 3:0.291156 4:0.255531 5:0.752868 6:0.329422 7:0.527177 8:0.51945 
1.159576190848011 1:0.903784 2:0.908975 3:0.27772 4:0.378847 5:0.656022 6:0.239791 7:0.28539 8:0.84076 
1.4402187020483421 1:0.881826 2:0.191855 3:0.276266 4:0.281749 5:0.72521 6:0.107255 7:0.349023 8:0.760495 
1.3305482797599888 1:0.77933 2:0.0445045 3:0.959925 4:1.0 6:0.174759 7:0.0745267 8:0.983252 
1.3518403886794017 1:0.844656 2:0.171555 3:0.25532 4:0.469697 5:0.656022 6:0.181503 7:0.393605 8:0.71241 
1.281158722214041 1:0.865923 2:0.151015 3:0.262587 4:0.35063 5:0.767254 6:0.338273 7:0.0421098 8:0.823234 
0.7990929010603554 1:0.928772 2:0.908975 3:0.23291 4:0.298475 5:0.746821 6:0.342944 7:0.296974 8:0.616054 
0.20091243818615806 1:0.927118 2:0.868454 3:0.269106 4:0.149577 5:0.804965 6:0.296206 7:0.353483 8:0.646592 
1.3301201410760557 1:0.823792 2:0.109192 3:0.262587 4:0.394031 5:0.767254 6:0.560047 7:0.672817 8:0.462984 
1.336842022395971 1:0.870764 2:0.171555 3:0.0965237 4:0.232381 5:0.944331 6:0.225958 7:0.223446 8:0.774586 
1.323789763921752 1:0.851445 2:0.191855 4:0.374621 5:0.738861 6:0.247871 7:0.339176 8:0.699283 
1.7938848428365108 1:0.907286 2:0.854733 3:0.273861 4:0.292925 5:0.689431 6:0.296206 7:0.240422 8:0.768503 
1.2570689843884235 1:0.887041 2:0.826964 3:0.471872 4:0.444971 5:0.547551 6:0.225958 7:0.268704 8:0.768503 
1.8830219286324488 1:0.909573 2:0.882066 3:0.309978 4:0.282103 5:0.764761 6:0.225958 7:0.268704 8:0.768503 
0.4713655139692556 1:0.919419 2:0.908975 3:0.411934 4:0.378847 5:0.595425 6:0.314176 7:0.40318 8:0.608479 
1.4017710341951384 1:0.882517 2:0.854733 3:0.366462 4:0.431397 5:0.532689 6:0.283122 7:0.251447 8:0.786548 
1.4137378873286996 1:0.828293 2:0.191855 3:0.177434 4:0.332339 5:0.738861 6:0.292513 7:0.393605 8:0.760495 
1.3157652148631418 1:0.889029 2:0.882066 3:0.339693 4:0.239898 5:0.798048 6:0.330672 7:0.280206 8:0.72464 
1.3266602736879223 1:0.899582 2:0.854733 3:0.373231 4:0.569514 5:0.514059 6:0.245355 7:0.262853 8:0.71075 
1.339301557028343 1:0.961419 2:0.882066 3:0.202733 4:0.114025 5:0.91606 6:0.259316 7:0.337685 8:0.693646 
1.2260777190055194 1:0.842522 2:0.171555 3:0.291156 4:0.255531 5:0.752868 6:0.329422 7:0.349023 8:0.567783 
1.3804421912999751 1:0.896707 2:0.895573 3:0.300114 4:0.217906 5:0.716565 6:0.489533 7:0.41682 8:0.500343 
1.336954531277938 1:0.889467 2:0.854733 3:0.273861 4:0.403751 5:0.564062 6:0.211648 7:0.222679 8:0.817465 
0.7875812089425336 1:0.938761 2:0.908975 3:0.264063 4:0.177877 5:0.780012 6:0.296206 7:0.325236 8:0.677109 
1.214852148457639 1:0.920819 2:0.854733 3:0.273861 4:0.292925 5:0.689431 6:0.174759 7:0.347179 8:0.699283 
1.3251909310818941 1:0.895038 2:0.882066 3:0.46279 4:0.411884 5:0.511325 6:0.378143 7:0.165103 8:0.786548 
3.520937016491282 1:0.911264 2:0.882066 3:0.309978 4:0.282103 5:0.764761 6:0.301513 7:0.331406 8:0.623756 
1.3836751654073058 1:0.834292 2:0.171555 3:0.424868 4:0.374621 5:0.595425 6:0.375613 7:0.0874905 8:0.774586 
1.5532844251467866 1:0.838468 2:0.191855 3:0.248242 4:0.247614 5:0.643268 6:0.225958 7:0.388361 8:0.648391 
1.3387950881573554 1:0.838468 2:0.191855 3:0.248242 4:0.290002 5:0.834326 6:0.218552 7:0.259772 8:0.856478 
1.3303853412111433 1:0.758951 3:0.718843 4:0.470972 5:0.445984 6:0.12649 7:0.308614 8:0.734479 
1.332228512131903 1:0.854577 2:0.191855 3:0.318962 4:0.543208 5:0.547551 6:0.312392 7:0.242597 8:0.733376 
1.3302493829287974 1:0.76447 2:0.0663361 3:0.354287 4:0.374621 5:0.547551 6:0.704245 7:0.413975 8:0.537409 
1.2810804134932403 1:0.921341 2:0.868454 3:0.223137 4:0.149577 5:0.835958 6:0.296206 7:0.381718 8:0.646592 
1.2883011985346646 1:0.885249 2:0.191855 3:0.10653 4:0.374621 5:0.738861 6:0.0700592 7:0.349023 8:0.760495 
1.2058053159805404 1:0.884345 2:0.171555 3:0.248242 4:0.247614 5:0.643268 6:0.188422 7:0.178155 8:0.968793 
1.3104218982038687 1:0.927948 2:0.895573 3:0.305003 4:0.195527 5:0.755717 6:0.296206 7:0.240422 8:0.768503 
1.2142644702484424 1:0.92409 2:0.908975 3:0.273094 4:0.425915 5:0.648011 6:0.296206 7:0.268704 8:0.738061 
0.45939842221115307 1:0.92409 2:0.895573 3:0.259839 4:0.303886 5:0.72521 6:0.319583 7:0.381718 8:0.616054 
1.2128240369415253 1:0.819503 2:0.171555 3:0.291156 4:0.384199 5:0.801248 6:0.329422 7:0.349023 8:0.567783 
0.9843599193831869 1:0.907862 2:0.908975 3:0.361874 4:0.425915 5:0.557839 6:0.342944 7:0.296974 8:0.616054 
1.8389545548663175 1:0.834618 2:0.191855 3:0.318962 4:0.247614 5:0.643268 6:0.213019 7:0.40897 8:0.584434 
2.521311089880959 1:0.906902 2:0.882066 3:0.287209 4:0.282103 5:0.764761 6:0.319583 7:0.381718 8:0.677109 
1.347537382628882 1:0.836236 2:0.171555 3:0.326972 4:0.512366 5:0.607547 6:0.2078 7:0.137224 8:0.80284 
1.3300337922469467 1:0.80537 2:0.191855 3:0.354287 4:0.374621 5:0.547551 6:0.319583 7:0.757098 8:0.391339 
0.5944796568943849 1:0.883205 2:0.895573 3:0.361874 4:0.399407 5:0.557839 6:0.372165 7:0.41682 8:0.592939 
1.257809184869473 1:0.893984 2:0.868454 3:0.315035 4:0.369926 5:0.494321 6:0.249392 7:0.325236 8:0.677109 
0.982108852553349 1:0.919419 2:0.895573 3:0.389589 4:0.383862 5:0.623834 6:0.254314 7:0.188817 8:0.838752 
1.3137254467566009 1:0.882057 2:0.868454 3:0.360926 4:0.342463 5:0.494321 6:0.330672 7:0.280206 8:0.72464 
1.3304109857392306 1:0.75553 2:0.151015 3:0.24135 4:0.490206 5:0.678042 6:0.611152 7:0.780365 8:0.242633 
0.3014845789123493 1:0.904961 2:0.882066 3:0.384048 4:0.372874 5:0.557839 6:0.330672 7:0.366408 8:0.631584 
1.637795911804857 1:0.960246 2:0.882066 3:0.202733 4:0.114025 5:0.91606 6:0.211648 7:0.251447 8:0.786548 
1.0730274813490315 1:0.905935 2:0.882066 3:0.372681 4:0.411884 5:0.572496 6:0.163901 7:0.222679 8:0.817465 
1.367239918462726 1:0.848534 2:0.854733 3:0.469084 4:0.769717 5:0.240093 6:0.245355 7:0.262853 8:0.71075 
0.8638398944734572 1:0.926451 2:0.908975 3:0.27772 4:0.271642 5:0.746821 6:0.296206 7:0.466358 8:0.5549 
1.329910154762952 1:0.784572 2:0.151015 3:0.354287 4:0.374621 5:0.547551 6:0.760808 7:0.461026 8:0.392445 
1.3305176605890452 1:0.78643 2:0.191855 3:0.177434 4:0.374621 5:0.738861 6:0.609406 7:0.85019 8:0.122581 
0.7109919331465346 1:0.907094 2:0.895573 3:0.327574 4:0.222652 5:0.755717 6:0.348631 7:0.388361 8:0.592939 
1.3303494350448093 1:0.86462 2:0.171555 3:0.206411 4:0.114025 5:0.960601 6:0.338273 7:0.132838 8:0.725879 
2.1818184319451213 1:0.916574 2:0.882066 3:0.264434 4:0.309385 5:0.734004 6:0.235494 7:0.280206 8:0.755608 
2.7804382147148696 1:0.920819 2:0.908975 3:0.322496 4:0.271642 5:0.746821 6:0.319583 7:0.381718 8:0.616054 
0.7406107930027861 1:0.845861 2:0.171555 3:0.147665 4:0.341364 5:0.752868 6:0.255556 7:0.393605 8:0.567783 
0.9840870960275961 1:0.842829 2:0.151015 3:0.153489 4:0.35063 5:0.767254 6:0.218552 7:0.438158 8:0.567783 
0.7969159992660098 1:0.892708 2:0.908975 3:0.45051 4:0.399407 5:0.557839 6:0.319583 7:0.381718 8:0.616054 
0.9957890605887297 1:0.923919 2:0.882066 3:0.322496 4:0.352079 5:0.656022 6:0.211648 7:0.222679 8:0.817465 
1.0950066954708328 1:0.892708 2:0.854733 3:0.273861 4:0.292925 5:0.689431 6:0.38363 7:0.347179 8:0.608479 
0.45302237289569447 1:0.925275 2:0.882066 3:0.344869 4:0.352079 5:0.595425 6:0.235494 7:0.30895 8:0.693646 
1.272728881804596 1:0.914401 2:0.854733 3:0.273861 4:0.209561 5:0.783317 6:0.240381 7:0.111911 8:0.826971 
0.029913362594468335 1:0.917291 2:0.895573 3:0.305003 4:0.357928 5:0.664166 6:0.319583 7:0.296974 8:0.707597 
-0.5689983833757776 1:0.822021 2:0.882066 3:0.289181 4:0.414854 5:0.717044 6:0.283122 7:0.251447 8:0.755608 
-0.41108980041090404 1:0.833966 2:0.895573 3:0.259839 4:0.276828 5:0.755717 6:0.366283 7:0.353483 8:0.677109 
-0.5819943815446199 1:0.826579 2:0.784457 3:0.298902 4:0.37957 5:0.636372 6:0.348631 7:0.359892 8:0.623756 
-0.6694742385375891 1:0.836236 2:0.935473 3:0.131083 4:0.911717 5:0.357221 6:0.262832 7:0.0625712 8:0.780971 
-0.48050913425333663 1:0.791859 2:0.364596 3:0.298078 4:0.239898 5:0.678042 6:0.225958 7:0.388361 8:0.648391 
-0.6348654348207138 1:0.848534 2:0.854733 3:0.297024 4:0.292925 5:0.689431 6:0.330672 7:0.366408 8:0.631584 
-1.2950335234655215 1:0.797934 2:0.171555 3:0.141993 4:0.374621 5:0.738861 6:0.263444 7:0.584679 8:0.530413 
-0.7641313871791693 1:0.768732 2:0.171555 3:0.25532 4:0.512366 5:0.607547 6:0.263444 7:0.0421098 8:0.871815 
-0.519426078562356 1:0.783634 2:0.191855 3:0.17145 4:0.365291 5:0.72521 6:0.292513 7:0.304412 8:0.71241 
-0.6507429442004137 1:0.810503 2:0.211919 3:0.101461 4:0.365291 5:0.72521 6:0.168189 7:0.329582 8:0.780204 
-0.489712462847537 1:0.86644 2:0.882066 3:0.356603 4:0.0495271 5:0.759216 6:0.211648 7:0.251447 8:0.786548 
-0.41840704681694374 1:0.797508 2:0.908975 3:0.339693 4:0.346323 5:0.708064 6:0.436189 7:0.381718 8:0.5549 
-0.5011399081030836 1:0.857915 2:0.922274 3:0.273094 4:0.425915 5:0.648011 6:0.314176 7:0.40318 8:0.608479 
-0.6701248299743836 1:0.829986 2:0.68103 3:0.356603 4:0.0495271 5:0.759216 6:0.634227 7:0.275229 8:0.580787 
-0.6103076542614098 1:0.75553 2:0.191855 3:0.354287 4:0.459023 5:0.595425 6:0.218552 7:0.259772 8:0.71241 
-0.26915085368543484 1:0.809335 2:0.882066 3:0.367235 4:0.378847 5:0.686299 6:0.283122 7:0.251447 8:0.755608 
-0.667489448941086 1:0.515647 2:0.0663361 3:0.389589 4:0.332339 5:0.595425 6:0.822581 7:0.847955 8:0.115177 
-0.40763922895256943 1:0.79493 2:0.191855 3:0.141993 4:0.290002 5:0.786611 6:0.284358 7:0.339176 8:0.699283 
-0.6694773990611196 1:0.688478 2:0.171555 3:0.612636 4:0.561526 5:0.525445 6:0.375613 7:0.0874905 8:0.774586 
-0.5663911314174764 1:0.81166 2:0.854733 3:0.227498 4:0.376079 5:0.689431 6:0.412907 7:0.381718 8:0.646592 
-0.4280211112460731 1:0.82761 2:0.908975 3:0.339693 4:0.0796113 5:0.708064 6:0.389603 7:0.353483 8:0.5549 
-0.47423843283182426 1:0.845561 2:0.882066 3:0.110854 4:0.724869 5:0.454829 6:0.354419 7:0.280206 8:0.631584 
-1.1384112251293141 1:0.873245 2:0.908975 3:0.317501 4:0.0796113 5:0.768067 6:0.389603 7:0.353483 8:0.5549 
-0.29513135553416936 1:0.837516 2:0.882066 3:0.300114 4:0.110173 5:0.777062 6:0.283122 7:0.251447 8:0.755608 
-0.768066620677988 1:0.856811 2:0.895573 3:0.350132 4:0.303886 5:0.694694 6:0.27281 7:0.353483 8:0.677109 
-0.632361535237437 1:0.809335 2:0.191855 3:0.248242 4:0.543208 5:0.547551 6:0.174759 7:0.129747 8:0.865194 
-0.6507753151311116 1:0.71945 2:0.151015 3:0.262587 4:0.394031 5:0.767254 6:0.375613 7:0.178155 8:0.677109 
-0.601186890231607 1:0.872999 2:0.868454 3:0.339693 4:0.106382 5:0.768067 6:0.288409 7:0.344068 8:0.514076 
-0.6504343624507734 1:0.756106 2:0.191855 3:0.212851 4:0.290002 5:0.786611 6:0.403097 7:0.393605 8:0.51945 
-0.5840407457624384 1:0.773374 2:0.191855 3:0.160341 4:0.411884 5:0.627513 6:0.255556 7:0.438158 8:0.71241 
-0.6675845091305161 1:0.754371 2:0.868454 3:0.53713 4:0.742816 5:0.240093 6:0.3603 7:0.401984 8:0.451184 
-0.22116286582383643 1:0.851732 2:0.908975 3:0.25532 4:0.298475 5:0.746821 6:0.366283 7:0.353483 8:0.616054 
-0.3768341719401239 1:0.846459 2:0.854733 3:0.273861 4:0.292925 5:0.689431 6:0.312392 7:0.430924 8:0.514076 
-0.7251525833726816 1:0.779815 2:0.171555 3:0.354287 4:0.374621 5:0.547551 6:0.263444 7:0.449439 8:0.628271 
-0.36795787130387475 1:0.828293 2:0.908975 3:0.367235 4:0.378847 5:0.686299 6:0.27281 7:0.353483 8:0.677109 
-0.7566294871027066 1:0.866698 2:0.895573 3:0.327574 4:0.330918 5:0.664166 6:0.27281 7:0.212124 8:0.798918 
-3.3951519896793325 1:0.901799 2:0.908975 3:0.300114 4:0.217906 5:0.716565 6:0.221307 7:0.291136 8:0.729505 
-0.3194038672865789 1:0.770814 2:0.191855 3:0.248242 4:0.290002 5:0.69108 6:0.218552 7:0.349023 8:0.616054 
-0.5072685402420652 1:0.808158 2:0.191855 3:0.272853 4:0.354406 5:0.634951 6:0.329422 7:0.349023 8:0.71241 
-0.5892362649797277 1:0.809725 2:0.364596 3:0.25532 4:0.336323 5:0.67027 6:0.192839 7:0.388361 8:0.648391 
-0.7357604198112856 1:0.770814 2:0.191855 3:0.206411 4:0.57322 5:0.583614 6:0.292513 7:0.393605 8:0.567783 
-0.670040470416293 1:0.758387 2:0.191855 3:0.318962 4:0.247614 5:0.643268 6:0.255556 7:0.482682 8:0.51945 
-0.6682339618400609 1:0.745971 2:0.191855 3:0.283614 4:0.543208 5:0.403742 6:0.307194 7:0.325914 8:0.582912 
-0.6443771090109431 1:0.861977 2:0.784457 3:0.298902 4:0.37957 5:0.636372 6:0.225958 7:0.268704 8:0.768503 
-0.668326038771526 1:0.819866 2:0.191855 3:0.206411 4:0.156037 5:0.866535 6:0.107255 7:0.259772 8:0.760495 
-0.62392291388198 1:0.80697 2:0.882066 3:0.110854 4:0.724869 5:0.454829 6:0.306908 7:0.251447 8:0.755608 
-0.6423082614695783 1:0.830322 2:0.882066 3:0.411934 4:0.378847 5:0.595425 6:0.378143 7:0.395115 8:0.56942 
-0.6614301014877322 1:0.809725 2:0.191855 3:0.0965237 4:0.232381 5:0.944331 6:0.292513 7:0.393605 8:0.567783 
-0.667977649853315 1:0.758951 2:0.211919 3:0.415706 4:0.614648 5:0.441745 6:0.320797 7:0.339176 8:0.746761 
-0.049291338273976665 1:0.829649 2:0.908975 3:0.344869 4:0.298475 5:0.656022 6:0.27281 7:0.353483 8:0.646592 
-0.5410253137562824 1:0.820227 2:0.882066 3:0.469084 4:0.769717 5:0.240093 6:0.319583 7:0.325236 8:0.677109 
-0.7112520065843232 1:0.791859 2:0.191855 3:0.212851 4:0.205168 5:0.977298 6:0.107255 7:0.12568 8:0.90438 
-1.6644288245363563 1:0.879495 2:0.895573 3:0.317501 4:0.0796113 5:0.768067 6:0.254314 7:0.331406 8:0.68531 
-3.4926458885321328 1:0.866956 2:0.908975 3:0.339693 4:0.239898 5:0.798048 6:0.296206 7:0.353483 8:0.707597 
-0.8504952671389182 1:0.781259 2:0.191855 3:0.354287 4:0.374621 5:0.547551 6:0.174759 7:0.0745267 8:0.983252 
-0.6998125984861997 1:0.885249 2:0.908975 3:0.312589 4:0.155694 5:0.610329 6:0.296206 7:0.325236 8:0.677109 
-0.5004833669043168 1:0.920296 2:0.908975 3:0.131083 5:1.0 6:0.225958 7:0.296974 8:0.677109 
-0.29627388784597625 1:0.812427 2:0.854733 3:0.366462 4:0.348384 5:0.658108 6:0.296206 7:0.353483 8:0.707597 
-0.5463021261468017 1:0.863305 2:0.882066 3:0.378224 4:0.0905035 5:0.88767 6:0.27281 7:0.296974 8:0.707597 
-0.4373020401822336 1:0.850288 2:0.922274 3:0.273094 4:0.133127 5:0.768067 6:0.337345 7:0.40318 8:0.608479 
-0.6231761682654877 1:0.829311 2:0.211919 3:0.206411 4:0.281749 5:0.772349 6:0.358418 7:0.31444 8:0.646936 
-0.6705168662080444 1:0.724601 2:0.109192 3:0.871707 4:0.813009 5:0.0885151 6:0.255556 7:0.482682 8:0.51945 
-0.6040203108852938 1:0.75668 2:0.211919 3:0.276266 4:0.490206 5:0.536355 6:0.284358 7:0.339176 8:0.699283 
-0.8924017623827265 1:0.870513 2:0.895573 3:0.259839 4:0.276828 5:0.786208 6:0.27281 7:0.212124 8:0.798918 
-0.3757875301819289 1:0.837834 2:0.895573 3:0.389589 4:0.352079 5:0.686299 6:0.230687 7:0.274407 8:0.777452 
-0.5372304843930417 1:0.801702 2:0.191855 3:0.415706 4:0.490206 5:0.489065 6:0.144403 7:0.0809238 8:0.95222 
-0.6704499757580034 1:0.867982 2:0.895573 3:0.327574 4:0.222652 5:0.755717 6:0.216731 7:0.118345 8:0.930271 
-0.6690007965106433 1:0.799621 2:0.191855 3:0.283614 4:0.543208 5:0.403742 6:0.211339 7:0.118706 8:0.936073 
-0.6499875341233521 1:0.786891 2:0.191855 3:0.318962 4:0.543208 5:0.547551 6:0.0595599 7:0.242597 8:0.920333 
-0.6696093339441663 1:0.737684 2:0.151015 3:0.552444 4:0.567059 5:0.324595 6:0.53603 7:0.552418 8:0.342575 
-0.3623097602651809 1:0.790073 2:0.171555 3:0.318962 4:0.247614 5:0.643268 6:0.188422 7:0.4043 8:0.628271 
-0.12202878861861659 1:0.851732 2:0.854733 3:0.273861 4:0.292925 5:0.689431 6:0.283122 7:0.251447 8:0.786548 
-1.2984217956157842 1:0.887928 2:0.882066 3:0.309978 4:0.282103 5:0.734004 6:0.283122 7:0.251447 8:0.755608 
-0.3560482412874812 1:0.801702 2:0.770054 3:0.230871 4:0.560782 5:0.578892 6:0.225958 7:0.325236 8:0.707597 
-0.4779274383277346 1:0.817307 2:0.854733 3:0.366462 4:0.431397 5:0.532689 6:0.319583 7:0.296974 8:0.707597 
-0.7719744224253875 1:0.849414 2:0.922274 3:0.384048 4:0.372874 5:0.557839 6:0.261379 7:0.391498 8:0.738543 
-0.6627713829981537 1:0.752023 2:0.826964 3:0.471872 4:0.444971 5:0.547551 6:0.425535 7:0.280206 8:0.693646 
-0.6997549412475716 1:0.794059 2:0.191855 3:0.283614 4:0.290002 5:0.595425 6:0.309913 7:0.253099 8:0.668693 
-0.2210217197431995 1:0.844958 2:0.854733 3:0.273861 4:0.292925 5:0.689431 6:0.325082 7:0.388361 8:0.623756 
-0.07494612482840111 1:0.851732 2:0.908975 3:0.344869 4:0.325287 5:0.686299 6:0.249392 7:0.325236 8:0.677109 
-0.47441136585418553 1:0.789171 2:0.231755 3:0.200138 4:0.356199 5:0.804965 6:0.312392 7:0.329582 8:0.686492 
-0.5499158344711366 1:0.772866 2:0.211919 3:0.206411 4:0.57322 5:0.583614 6:0.10146 7:0.295139 8:0.794178 
-0.45671478490112055 1:0.802115 2:0.171555 3:0.267538 4:0.239898 5:0.678042 6:0.263444 7:0.0421098 8:0.871815 
-0.662502031100834 1:0.728868 2:0.171555 3:0.415706 4:0.490206 5:0.489065 6:0.375613 7:0.494551 8:0.579374 
-0.25824137739547715 1:0.813189 2:0.908975 3:0.344869 4:0.405593 5:0.656022 6:0.389603 7:0.353483 8:0.5549 
-0.668930936266423 1:0.742208 2:0.171555 3:0.219459 4:0.212527 5:0.946188 6:0.357191 7:0.383185 8:0.651746 
-0.6578647351260668 1:0.832322 2:0.882066 3:0.241646 4:0.282103 5:0.764761 6:0.221307 7:0.515043 8:0.517451 
-0.8711945785634321 1:0.872752 2:0.882066 3:0.27772 4:0.378847 5:0.625728 6:0.187786 7:0.193895 8:0.848354 
-0.6293955015870102 1:0.795795 2:0.191855 3:0.10653 4:0.416849 5:0.738861 6:0.244301 7:0.327691 8:0.655884 
-0.4019759905433751 1:0.837834 2:0.868454 3:0.383857 4:0.424783 5:0.432035 6:0.277922 7:0.188817 8:0.838752 
-0.6536184298569239 1:0.80537 2:0.191855 3:0.354287 4:0.543208 5:0.451709 6:0.0700592 7:0.259772 8:0.856478 
-0.9939495534492069 1:0.876885 2:0.908975 3:0.242203 4:0.151601 5:0.780012 6:0.296206 7:0.325236 8:0.677109 
-0.6697405979013374 2:0.0663361 3:0.75237 4:0.57322 5:0.465411 6:0.292513 7:0.393605 8:0.760495 
-0.5927234988458782 1:0.849414 2:0.895573 3:0.389589 4:0.352079 5:0.625728 6:0.325082 7:0.274407 8:0.716048 
-0.9258562449575278 1:0.850288 2:0.171555 3:0.0969281 4:0.298475 5:0.755717 6:0.263444 7:0.449439 8:0.628271 
-0.48562518043383424 1:0.805772 2:0.770054 3:0.230871 4:0.560782 5:0.578892 6:0.259316 7:0.337685 8:0.693646 
-0.13158151266546902 1:0.832652 2:0.895573 3:0.282426 4:0.357928 5:0.664166 6:0.429841 7:0.375187 8:0.578159 
-0.4398000264597506 1:0.775388 2:0.191855 3:0.318962 4:0.247614 5:0.643268 6:0.144403 7:0.393605 8:0.616054 
-0.6696228642212813 1:0.612906 2:0.0663361 3:0.298902 4:0.437372 5:0.718203 6:0.822581 7:0.847955 8:0.115177 
-0.6698996667439363 1:0.687536 2:0.109192 3:0.10653 4:0.416849 5:0.738861 6:0.752514 7:1.0 
-0.4363050722410031 1:0.860366 2:0.868454 3:0.292075 4:0.177201 5:0.77396 6:0.301513 7:0.274407 8:0.716048 
-0.6641683291765832 1:0.804968 2:0.922274 3:0.373231 4:0.569514 5:0.514059 6:0.314176 7:0.40318 8:0.608479 
-0.6685210838455158 1:0.751429 2:0.171555 3:0.469992 4:0.597531 5:0.461938 6:0.144403 7:0.304412 8:0.760495 
-0.5928200359107716 1:0.842522 2:0.895573 3:0.361874 4:0.399407 5:0.557839 6:0.277922 7:0.188817 8:0.838752 
-1.106007749586887 1:0.873491 2:0.908975 3:0.339693 4:0.425915 5:0.58791 6:0.296206 7:0.381718 8:0.616054 
-0.3620689555255987 1:0.866182 2:0.854733 3:0.273861 4:0.292925 5:0.689431 6:0.202504 7:0.268704 8:0.768503 
-0.3765595675637753 1:0.851445 2:0.882066 3:0.289181 4:0.414854 5:0.717044 6:0.330672 7:0.366408 8:0.631584 
-0.14331279173498837 1:0.825888 2:0.882066 3:0.400952 4:0.41828 5:0.549174 6:0.306908 7:0.337685 8:0.66263 
-0.31310838671651375 1:0.717182 2:0.191855 3:0.354287 4:0.374621 5:0.547551 6:0.255556 7:0.393605 8:0.567783 
-0.6243073136023448 1:0.79878 2:0.191855 3:0.283614 4:0.247614 5:0.738861 6:0.225958 7:0.308614 8:0.691458 
-0.9450640896585778 1:0.883205 2:0.908975 3:0.27772 4:0.271642 5:0.746821 6:0.225958 7:0.381718 8:0.677109 
-0.6694027627197021 1:0.799201 2:0.171555 3:0.291156 4:0.083182 5:0.849591 6:0.263444 7:0.0421098 8:0.871815 
-0.005021425154763781 1:0.849414 2:0.908975 3:0.317501 4:0.0796113 5:0.768067 6:0.319583 7:0.325236 8:0.616054 
-0.6413985098713999 1:0.693092 2:0.191855 3:0.19202 4:0.449601 5:0.627513 6:0.218552 7:0.438158 8:0.567783 
-0.6696596167786323 1:0.735699 2:0.171555 3:0.183572 4:0.469697 5:0.607547 6:0.45015 7:0.719653 8:0.333922 
-0.7164035759174774 1:0.800874 2:0.171555 3:0.333011 4:0.352722 5:0.562552 6:0.375613 7:0.0874905 8:0.774586 
-0.5676855203279244 1:0.777865 2:0.211919 3:0.160341 4:0.374124 5:0.67027 6:0.357191 7:0.383185 8:0.651746 
-0.6635286449204074 1:0.753202 2:0.171555 3:0.25532 4:0.469697 5:0.656022 6:0.0595599 7:0.242597 8:0.920333 
-0.5622231266162121 1:0.850867 2:0.895573 3:0.344869 4:0.352079 5:0.656022 6:0.348631 7:0.359892 8:0.623756 
-0.17363434009341225 1:0.804968 2:0.895573 3:0.259839 4:0.303886 5:0.72521 6:0.372165 7:0.41682 8:0.592939 
-0.7094500181463436 1:0.927948 2:0.854733 3:0.273861 4:0.403751 5:0.564062 6:0.245355 7:0.379774 8:0.584434 
-0.6387531469109564 1:0.745351 2:0.171555 3:0.326972 4:0.512366 5:0.607547 6:0.165606 7:0.276782 8:0.833649 
-0.373609005630668 1:0.781259 2:0.211919 3:0.206411 4:0.323547 5:0.772349 6:0.299546 7:0.397849 8:0.616054 
-0.47354699139375256 1:0.778843 2:0.191855 3:0.141993 4:0.290002 5:0.786611 6:0.213019 7:0.40897 8:0.584434 
-0.2687092012730959 1:0.811275 2:0.191855 3:0.206411 4:0.281749 5:0.772349 6:0.218552 7:0.304412 8:0.71241 
-0.664268847273007 1:0.747814 2:0.191855 3:0.424868 4:0.416849 5:0.499646 6:0.247871 7:0.162857 8:0.936073 
-0.5464086001499755 1:0.856256 2:0.882066 3:0.327574 4:0.384919 5:0.633621 6:0.306908 7:0.251447 8:0.755608 
-0.4838397500599457 1:0.840042 2:0.895573 3:0.367235 4:0.459023 5:0.595425 6:0.230687 7:0.274407 8:0.777452 
-0.5310873717708402 1:0.843441 2:0.826964 3:0.471872 4:0.444971 5:0.547551 6:0.325082 7:0.388361 8:0.623756 
-0.7427816663115948 1:0.86171 2:0.895573 3:0.327574 4:0.384919 5:0.633621 6:0.27281 7:0.296974 8:0.707597 
-0.6694762436882724 1:0.762289 2:0.151015 3:0.660742 4:0.696232 5:0.275244 6:0.165606 7:0.276782 8:0.833649 
-0.8769808630067666 1:0.873245 2:0.895573 3:0.282426 4:0.222652 5:0.786208 6:0.314176 7:0.40318 8:0.608479 
-0.23081384413263914 1:0.822732 2:0.908975 3:0.367235 4:0.459023 5:0.595425 6:0.314176 7:0.375187 8:0.608479 
-0.6294637878891063 1:0.717942 2:0.171555 3:0.219459 4:0.512366 5:0.607547 6:0.320797 7:0.339176 8:0.746761 
-0.5325862112813681 1:0.820588 2:0.191855 3:0.212851 4:0.290002 5:0.69108 6:0.144403 7:0.393605 8:0.616054 
-0.30841823824812475 1:0.870262 2:0.895573 3:0.27772 4:0.325287 5:0.686299 6:0.207037 7:0.16026 8:0.838752 
-0.6684097229894501 1:0.723877 2:0.191855 3:0.318962 4:0.247614 5:0.882014 6:0.312392 7:0.199062 8:0.780204 
-0.5909468284005941 1:0.792743 2:0.191855 3:0.141993 4:0.290002 5:0.738861 6:0.259038 7:0.428202 8:0.5621 
-0.6219482502043207 1:0.855139 2:0.908975 3:0.356603 4:0.0495271 5:0.759216 6:0.319583 7:0.438158 8:0.585491 
-0.6819216367590742 1:0.668302 2:0.0878964 3:0.200138 4:0.356199 5:0.804965 6:0.689765 7:0.782932 8:0.317965 
-0.5337198010537492 1:0.790522 2:0.191855 3:0.248242 4:0.543208 5:0.547551 6:0.107255 7:0.259772 8:0.808519 
-0.662035889842727 1:0.777865 2:0.191855 3:0.269106 4:0.397366 5:0.804965 6:0.329422 7:0.438158 8:0.616054 
-0.42356331812899445 1:0.826579 2:0.868454 3:0.360926 4:0.342463 5:0.494321 6:0.348631 7:0.359892 8:0.623756 
-0.761490307948301 1:0.80697 2:0.231755 3:0.133551 4:0.382668 5:0.768422 6:0.312392 7:0.199062 8:0.780204 
-0.672940823155934 1:0.789623 2:0.191855 3:0.382055 4:0.341846 5:0.62607 6:0.144403 7:0.393605 8:0.616054 
-0.6430496868701219 1:0.78735 2:0.171555 3:0.354287 4:0.543208 5:0.499646 6:0.300884 7:0.494551 8:0.628271 
-0.6206721966874956 1:0.790522 2:0.211919 3:0.206411 4:0.57322 5:0.583614 6:0.2078 7:0.137224 8:0.80284 
-0.6371363709940647 1:0.791415 2:0.171555 3:0.206411 4:0.166532 5:0.843001 6:0.300884 7:0.268704 8:0.823234 
-0.6369340896224978 1:0.747203 2:0.171555 3:0.111733 4:0.426976 5:0.801248 6:0.247871 7:0.251073 8:0.746761 
-0.6975179562970956 1:0.790969 2:0.191855 3:0.354287 4:0.374621 5:0.547551 6:0.247871 7:0.339176 8:0.604148 
-0.6633451909432382 1:0.808944 2:0.191855 3:0.248242 4:0.290002 5:0.738861 6:0.144403 7:0.12568 8:0.90438 
-0.7808771551861621 1:0.835914 2:0.840904 3:0.39542 4:0.410245 5:0.603332 6:0.436189 7:0.550894 8:0.432296 
-0.6497148265693193 1:0.87973 2:0.191855 3:0.141993 4:0.247614 5:0.834326 6:0.107255 7:0.215106 8:0.856478 
-0.48569870706834745 1:0.828973 2:0.868454 3:0.327574 4:0.357928 5:0.603067 6:0.408127 7:0.401984 8:0.514076 
-0.31473047478086813 1:0.81841 2:0.908975 3:0.389589 4:0.383862 5:0.623834 6:0.342944 7:0.325236 8:0.616054 
-0.6724815747049764 1:0.824144 2:0.211919 3:0.101461 4:0.365291 5:0.72521 6:0.2078 7:0.137224 8:0.80284 
-0.5762466936257474 1:0.834943 2:0.868454 3:0.200138 4:0.397366 5:0.742941 6:0.330672 7:0.366408 8:0.631584 
-0.7220237009680036 1:0.840666 2:0.868454 3:0.300114 4:0.217906 5:0.716565 6:0.408127 7:0.401984 8:0.514076 
-0.6627145065298152 1:0.754952 2:0.191855 3:0.141993 4:0.247614 5:0.834326 6:0.49326 7:0.399681 8:0.574368 
-0.6349947858837717 1:0.75782 2:0.151015 3:0.153489 4:0.35063 5:0.767254 6:0.204309 7:0.286102 8:0.826971 
-0.650353119741101 1:0.705247 2:0.191855 3:0.511366 4:0.422602 5:0.55408 6:0.255556 7:0.438158 8:0.71241 
-0.188924179823413 1:0.837197 2:0.908975 3:0.389589 4:0.352079 5:0.625728 6:0.225958 7:0.296974 8:0.738061 
-0.6697553523961173 1:0.697557 2:0.191855 3:0.507788 4:0.524902 5:0.370429 6:0.292513 7:0.393605 8:0.760495 
-0.01008211956432978 1:0.857088 2:0.922274 3:0.317501 4:0.0796113 5:0.768067 6:0.221307 7:0.291136 8:0.729505 
-0.5184501522067751 1:0.856256 2:0.908975 3:0.110854 4:0.724869 5:0.454829 6:0.319583 7:0.268704 8:0.677109 
-0.6382493908168434 1:0.776384 2:0.191855 3:0.381701 4:0.374124 5:0.67027 6:0.107255 7:0.215106 8:0.808519 
-0.4637075419873005 1:0.857088 2:0.868454 3:0.246126 4:0.149577 5:0.804965 6:0.325082 7:0.274407 8:0.716048 
-0.6702507481634095 1:0.7069 2:0.151015 3:0.248242 4:0.247614 5:0.69108 6:0.648638 7:0.689277 8:0.292635 
-0.6575214114062703 1:0.761738 2:0.211919 3:0.38088 4:0.406982 5:0.678042 6:0.0595599 7:0.242597 8:0.920333 
-0.6598628240975926 1:0.802526 2:0.895573 3:0.110854 4:0.724869 5:0.454829 6:0.325082 7:0.445269 8:0.592939 
-0.6672139938681433 1:0.79493 2:0.364596 3:0.128644 4:0.336323 5:0.67027 6:0.12649 7:0.348498 8:0.691458 
-0.6696264448421334 1:0.644661 2:0.171555 3:0.183572 4:0.469697 5:0.849591 6:0.598644 7:0.546562 8:0.545483 
-0.7178231054631982 1:0.820588 2:0.34623 3:0.325691 4:0.420868 5:0.595425 6:0.159685 7:0.507811 8:0.60527 
-0.6696311455518545 1:0.564854 2:0.109192 3:0.415706 4:0.490206 5:0.489065 6:0.752514 7:0.625952 8:0.257919 
-0.6658158469483508 1:0.760072 2:0.151015 3:0.371463 4:0.739179 5:0.521662 6:0.181503 7:0.304412 8:0.664263 
-0.2489453471626229 1:0.778355 2:0.211919 3:0.160341 4:0.411884 5:0.627513 6:0.320797 7:0.427166 8:0.651746 
-0.6648237568253248 1:0.822377 2:0.798742 3:0.378224 4:0.0905035 5:0.88767 6:0.215909 7:0.407927 8:0.681464 
-0.6359374516497713 1:0.878315 2:0.868454 3:0.246126 4:0.149577 5:0.804965 6:0.174759 7:0.347179 8:0.699283 
-1.0089274533280679 1:0.802526 2:0.171555 3:0.25532 4:0.411884 5:0.627513 6:0.188422 7:0.223446 8:0.774586 
-0.72314970315945 1:0.817676 2:0.908975 3:0.273094 4:0.425915 5:0.648011 6:0.389603 7:0.240422 8:0.677109 
-0.6605044472856904 1:0.820948 2:0.868454 3:0.46279 4:0.411884 5:0.511325 6:0.312392 7:0.430924 8:0.514076 
-0.6555714656060221 1:0.750235 2:0.171555 3:0.326972 4:0.554976 5:0.607547 6:0.300884 7:0.53963 8:0.628271 
-0.6689205796817155 1:0.629695 2:0.151015 3:0.371463 4:0.739179 5:0.521662 6:0.255556 7:0.349023 8:0.71241 
-1.2581459379471593 1:0.806172 2:0.191855 3:0.318962 4:0.247614 5:0.643268 6:0.225958 7:0.381718 8:0.636418 
-0.5758687072984519 1:0.770296 2:0.191855 3:0.269106 4:0.397366 5:0.804965 6:0.255556 7:0.349023 8:0.71241 
-0.6040181993083307 1:0.714876 2:0.151015 3:0.262587 4:0.394031 5:0.767254 6:0.299546 7:0.397849 8:0.616054 
-0.6332414072237883 1:0.729567 2:0.151015 3:0.262587 4:0.307175 5:0.767254 6:0.338273 7:0.132838 8:0.725879 
-0.6694671711593148 1:0.635327 2:0.109192 3:0.177434 4:0.162666 5:0.882014 6:0.443947 7:0.532119 8:0.666939 
-0.6666797938081432 1:0.744728 2:0.171555 3:0.424868 4:0.459023 5:0.547551 6:0.375613 7:0.0874905 8:0.774586 
-0.6630047552666355 1:0.73436 2:0.151015 3:0.371463 4:0.567059 5:0.570844 6:0.12649 7:0.388361 8:0.648391 
-0.22637679100055152 1:0.858737 2:0.854733 3:0.273861 4:0.292925 5:0.689431 6:0.296206 7:0.466358 8:0.5549 
-0.4468095603181318 1:0.803752 2:0.171555 3:0.206411 4:0.281749 5:0.772349 6:0.225958 7:0.268704 8:0.725879 
-0.670018603174419 1:0.758387 2:0.418557 3:0.382055 4:0.341846 5:0.62607 6:0.49326 7:0.399681 8:0.574368 
-0.627817948675247 1:0.81166 2:0.868454 3:0.383857 4:0.424783 5:0.432035 6:0.325082 7:0.445269 8:0.592939 
-0.5483818419747224 1:0.80004 2:0.895573 3:0.367235 4:0.405593 5:0.686299 6:0.489533 7:0.388361 8:0.500343 
-0.6770521932388457 1:0.834292 2:0.211919 3:0.206411 4:0.281749 5:0.772349 6:0.138133 7:0.339176 8:0.746761 
-0.6038522844614294 1:0.783634 2:0.191855 3:0.354287 4:0.290002 5:0.595425 6:0.181503 7:0.393605 8:0.71241 
-0.6653993807362166 1:0.74903 2:0.231755 3:0.269106 4:0.397366 5:0.804965 6:0.277652 7:0.135966 8:0.836642 
-0.3012075172825877 1:0.820948 2:0.882066 3:0.40621 4:0.372874 5:0.557839 6:0.330672 7:0.366408 8:0.631584 
-0.6634713404313778 1:0.787808 2:0.211919 3:0.136467 4:0.448621 5:0.630843 6:0.168189 7:0.199062 8:0.920333 
-0.6565348134712978 1:0.863305 2:0.908975 3:0.295302 4:0.133127 5:0.678042 6:0.296206 7:0.466358 8:0.5549 
-0.7097667803095602 1:0.800457 2:0.191855 3:0.354287 4:0.374621 5:0.547551 6:0.174759 7:0.118706 8:0.888834 
-0.6121968666681088 1:0.77933 2:0.171555 3:0.219459 4:0.212527 5:0.946188 6:0.138133 7:0.206979 8:0.888834 
-0.6282801781780694 1:0.805772 2:0.191855 3:0.354287 4:0.290002 5:0.595425 6:0.107255 7:0.259772 8:0.760495 
-0.39172696728713663 1:0.760072 2:0.191855 3:0.177434 4:0.416849 5:0.595425 6:0.320797 7:0.427166 8:0.651746 
-0.6697405637497247 1:0.768732 2:0.171555 3:0.362762 4:0.083182 5:0.801248 6:0.225958 7:0.188817 8:0.863246 
-0.471845184113712 1:0.841906 2:0.882066 3:0.411934 4:0.378847 5:0.595425 6:0.283122 7:0.366408 8:0.66263 
-0.8668657667654506 1:0.828293 2:0.171555 3:0.217791 4:0.178487 5:0.82767 6:0.113201 7:0.449439 8:0.628271 
-0.670084210035554 1:0.721681 2:0.211919 3:0.45051 4:0.53174 5:0.489065 6:0.225958 7:0.388361 8:0.648391 
-0.4774958212581423 1:0.769255 2:0.191855 3:0.249065 4:0.440395 5:0.616569 6:0.292513 7:0.304412 8:0.71241 
-0.6697882818557922 1:0.743474 2:0.191855 3:0.374685 4:0.795402 5:0.291699 6:0.255556 7:0.393605 8:0.567783 
-0.6505592131309603 1:0.791415 2:0.151015 3:0.0806358 4:0.263658 5:0.865263 6:0.204309 7:0.459852 8:0.592546 
-0.2735395255908413 1:0.856811 2:0.882066 3:0.322496 4:0.378847 5:0.625728 6:0.187786 7:0.193895 8:0.848354 
-0.4587440947514865 1:0.840042 2:0.908975 3:0.295302 4:0.399407 5:0.648011 6:0.296206 7:0.353483 8:0.707597 
-0.6663536568512785 1:0.774384 2:0.191855 3:0.354287 4:0.58522 5:0.403742 6:0.0700592 7:0.349023 8:0.760495 
-0.6250946400259594 1:0.76501 2:0.211919 3:0.223678 4:0.449601 5:0.541917 6:0.357191 7:0.383185 8:0.651746 
-0.6032351355948784 1:0.826924 2:0.840904 3:0.0859277 4:0.690689 5:0.536737 6:0.323649 7:0.357167 8:0.624023 
-1.068812582283442 1:0.881826 2:0.908975 3:0.339693 4:0.106382 5:0.768067 6:0.202504 7:0.296974 8:0.768503 
-0.4200049463481971 1:0.76501 2:0.191855 3:0.318962 4:0.332339 5:0.595425 6:0.211339 7:0.427166 8:0.55649 
-0.6776102029103437 1:0.730262 2:0.171555 3:0.326972 4:0.341364 5:0.752868 6:0.218552 7:0.259772 8:0.856478 
-0.38151170444265203 1:0.851156 2:0.908975 3:0.322496 4:0.0291398 5:0.777062 6:0.221307 7:0.291136 8:0.729505 
-0.6538512642073733 1:0.81841 2:0.191855 4:0.374621 5:0.738861 6:0.181503 7:0.170408 8:0.856478 
-0.669942175321016 1:0.675704 3:0.291156 4:0.255531 5:0.752868 6:0.584824 7:0.803459 8:0.355233 
-0.6615524333616336 1:0.717182 2:0.171555 3:0.206411 4:0.57322 5:0.583614 6:0.225958 7:0.313931 8:0.823234 
-0.6301066391879027 1:0.861442 2:0.854733 3:0.366462 4:0.431397 5:0.532689 6:0.225958 7:0.325236 8:0.707597 
-1.000949687313071 1:0.890339 2:0.908975 3:0.242203 4:0.0989829 5:0.809502 6:0.319583 7:0.381718 8:0.677109 
-0.63433463044695 1:0.864095 2:0.908975 3:0.411934 4:0.271642 5:0.656022 6:0.239791 7:0.28539 8:0.84076 
-0.6512132420906812 1:0.832652 2:0.882066 3:0.400952 4:0.41828 5:0.549174 6:0.389603 7:0.240422 8:0.677109 
-0.4656281667703072 1:0.838152 2:0.895573 3:0.327574 4:0.384919 5:0.633621 6:0.489533 7:0.41682 8:0.500343 
-0.6548172599452371 1:0.704414 2:0.191855 3:0.248242 4:0.416849 5:0.643268 6:0.403097 7:0.482682 8:0.51945 
-0.6695407135254874 1:0.750235 2:0.400756 3:0.304745 4:0.172442 5:0.814587 6:0.49326 7:0.361186 8:0.574368 
-0.5572463493911022 1:0.88389 2:0.895573 3:0.305003 4:0.222652 5:0.755717 6:0.30362 7:0.0863814 8:0.801884 
-0.34708159790190585 1:0.758951 2:0.191855 3:0.248242 4:0.416849 5:0.643268 6:0.312392 7:0.242597 8:0.733376 
-0.4481012402668817 1:0.799621 2:0.882066 3:0.469084 4:0.769717 5:0.240093 6:0.319583 7:0.381718 8:0.677109 
-0.3696215022838887 1:0.830992 2:0.908975 3:0.322496 4:0.325287 5:0.656022 6:0.296206 7:0.466358 8:0.5549 
-1.9182357792459603 1:0.897741 2:0.908975 3:0.25532 4:0.325287 5:0.746821 6:0.225958 7:0.296974 8:0.768503 
-0.8286874479283338 1:0.85202 2:0.854733 3:0.273861 4:0.292925 5:0.689431 6:0.261379 7:0.391498 8:0.738543 
-0.6810581773139348 1:0.864881 2:0.211919 3:0.0664322 4:0.281749 5:0.819457 6:0.0279739 7:0.251073 8:0.841536 
-0.6492817515292457 1:0.780779 2:0.171555 3:0.177434 4:0.459023 5:0.738861 6:0.188422 7:0.223446 8:0.774586 
-0.68070859684007 1:0.849997 2:0.826964 3:0.471872 4:0.444971 5:0.547551 6:0.30362 7:0.0863814 8:0.801884 
-0.6692343232442763 1:0.716418 2:0.211919 3:0.511366 4:0.422602 5:0.55408 6:0.429841 7:0.515043 8:0.460992 
-0.702646655836533 1:0.829986 2:0.38277 3:0.311565 4:0.440395 5:0.531957 6:0.284781 7:0.418475 8:0.552054 
-0.523288468564553 1:0.885249 2:0.882066 3:0.131083 5:1.0 6:0.259316 7:0.337685 8:0.693646 
-0.020674554268080916 1:0.850288 2:0.895573 3:0.282426 4:0.330918 5:0.694694 6:0.314176 7:0.375187 8:0.608479 
-0.6657265243581522 1:0.799201 2:0.191855 3:0.071043 4:0.247614 5:0.929672 6:0.403097 7:0.482682 8:0.51945 
-0.8439892059624984 1:0.796654 2:0.191855 3:0.248242 4:0.332339 5:0.738861 6:0.284358 7:0.339176 8:0.699283 
-0.6532929916822869 1:0.781737 2:0.191855 3:0.141993 4:0.162666 5:0.882014 6:0.329422 7:0.482682 8:0.567783 
-0.4987358508348763 1:0.767149 2:0.191855 3:0.283614 4:0.374621 5:0.69108 6:0.204309 7:0.459852 8:0.592546 
-1.1442243916780053 1:0.898357 2:0.895573 3:0.202733 4:0.114025 5:0.91606 6:0.230687 7:0.274407 8:0.777452 
-0.6694693509809673 1:0.852592 2:0.908975 3:0.0954423 4:0.633729 5:0.538572 6:0.436189 7:0.550894 8:0.432296 
-0.6587205388872753 1:0.642058 2:0.0663361 3:0.177434 4:0.332339 5:0.738861 6:0.704245 7:0.413975 8:0.537409 
-0.6695821754662072 1:0.817307 2:0.908975 3:0.4566 4:0.565619 5:0.413339 6:0.239791 7:0.28539 8:0.84076 
-0.5301289303635244 1:0.871014 2:0.854733 3:0.273861 4:0.209561 5:0.783317 6:0.230687 7:0.245887 8:0.777452 
-0.261813302480927 1:0.835914 2:0.908975 3:0.300114 4:0.217906 5:0.716565 6:0.27281 7:0.353483 8:0.616054 
-0.6691820700951718 1:0.787808 2:0.868454 3:0.42969 4:0.424783 5:0.494321 6:0.489533 7:0.388361 8:0.500343 
-0.7394317391114641 1:0.871762 2:0.935473 3:0.0661651 4:0.708696 5:0.519033 6:0.262832 7:0.0625712 8:0.780971 
-0.6696676706881409 1:0.564854 2:0.171555 3:0.38088 4:0.406982 5:0.678042 6:0.487345 7:0.449439 8:0.481385 
-0.6677538778992604 1:0.894195 2:0.882066 3:0.309978 4:0.282103 5:0.764761 6:0.139612 8:0.969181 
-0.7203938922858502 1:0.812044 2:0.191855 3:0.248242 4:0.290002 5:0.69108 6:0.213019 7:0.40897 8:0.584434 
-0.7580816809568495 1:0.834292 2:0.895573 3:0.273094 4:0.133127 5:0.768067 6:0.489533 7:0.41682 8:0.500343 
-0.6444483031449781 1:0.773374 2:0.191855 3:0.389589 4:0.332339 5:0.547551 6:0.357191 7:0.383185 8:0.699283 
-0.3947214467279142 1:0.834618 2:0.895573 3:0.305003 4:0.303886 5:0.694694 6:0.325082 7:0.274407 8:0.716048 
-0.6458976217524377 1:0.8391 2:0.882066 3:0.309978 4:0.309385 5:0.734004 6:0.151458 7:0.375187 8:0.729505 
-0.5370419623913589 1:0.847649 2:0.854733 3:0.227498 4:0.376079 5:0.689431 6:0.254314 7:0.331406 8:0.68531 
-0.6603852794752206 1:0.747814 2:0.191855 3:0.283614 4:0.543208 5:0.403742 6:0.247871 7:0.471119 8:0.55649 
-1.5283153227632371 1:0.813189 2:0.191855 3:0.248242 4:0.332339 5:0.69108 6:0.247871 7:0.162857 8:0.936073 
-0.739917887797231 1:0.777865 2:0.191855 3:0.354287 4:0.374621 5:0.547551 6:0.138133 7:0.339176 8:0.699283 
-0.47761552892751213 1:0.785968 2:0.171555 3:0.10653 4:0.374621 5:0.738861 6:0.263444 7:0.494551 8:0.628271 
-0.45281509923752417 1:0.872752 2:0.895573 3:0.282426 4:0.330918 5:0.694694 6:0.225958 7:0.296974 8:0.677109 
-0.9743935377420669 1:0.778355 2:0.171555 3:0.25532 4:0.469697 5:0.656022 6:0.305357 7:0.217049 8:0.735415 
-0.7683501376743704 1:0.80537 2:0.171555 3:0.291156 4:0.255531 5:0.752868 6:0.0647407 7:0.339176 8:0.746761 
-0.6670056146334074 1:0.832322 2:0.882066 3:0.485292 4:0.330918 5:0.603067 6:0.211648 7:0.251447 8:0.786548 
-0.5467849845672591 1:0.770296 2:0.191855 3:0.136467 4:0.323547 5:0.772349 6:0.329422 7:0.438158 8:0.616054 
-0.20598048862881144 1:0.832982 2:0.908975 3:0.289181 4:0.414854 5:0.717044 6:0.319583 7:0.381718 8:0.616054 
-0.656431639804898 1:0.748423 2:0.191855 3:0.24135 4:0.490206 5:0.678042 6:0.255556 7:0.393605 8:0.567783 
-0.5395412326278732 1:0.865923 2:0.882066 3:0.287209 4:0.282103 5:0.734004 6:0.330672 7:0.280206 8:0.72464 
-0.705146052335712 1:0.809335 2:0.191855 3:0.141993 4:0.290002 5:0.786611 6:0.40648 7:0.447885 8:0.542236 
-0.6492171634844716 1:0.827952 2:0.895573 3:0.110854 4:0.724869 5:0.454829 6:0.277922 7:0.188817 8:0.838752 
-0.0252641743103975 1:0.779815 2:0.191855 3:0.354287 4:0.374621 5:0.547551 6:0.174759 7:0.118706 8:0.888834 
-0.6650120540949278 1:0.814324 2:0.211919 3:0.31116 4:0.53174 5:0.441745 6:0.284358 7:0.515043 8:0.460992 
-0.6695361642802335 1:0.802936 2:0.364596 3:0.25532 4:0.600035 5:0.456225 6:0.142716 7:0.129747 8:0.989148 
-0.6506299499749402 1:0.774887 2:0.231755 3:0.381701 4:0.374124 5:0.67027 6:0.204309 7:0.286102 8:0.826971 
-0.577714410446171 1:0.852592 2:0.908975 3:0.25532 4:0.378847 5:0.656022 6:0.436189 7:0.409946 8:0.524287 
-0.6622394916120184 1:0.784104 2:0.191855 3:0.242956 4:0.431397 5:0.564062 6:0.403097 7:0.527177 8:0.471055 
-0.06883544525719237 1:0.807763 2:0.882066 3:0.361874 4:0.399407 5:0.557839 6:0.330672 7:0.366408 8:0.631584 
-0.2844295409925437 1:0.859282 2:0.854733 3:0.273861 4:0.292925 5:0.689431 6:0.254314 7:0.302913 8:0.716048 
-0.5528021906807431 1:0.846758 2:0.882066 3:0.344869 4:0.405593 5:0.56511 6:0.259316 7:0.337685 8:0.693646 
-0.6579424429644216 1:0.782689 2:0.191855 3:0.177434 4:0.205168 5:0.977298 6:0.329422 7:0.527177 8:0.51945 
-0.2805724759466672 1:0.839414 2:0.895573 3:0.305003 4:0.357928 5:0.664166 6:0.27281 7:0.381718 8:0.707597 
-0.6694606453558622 1:0.689413 2:0.0878964 3:0.925242 4:0.425171 5:0.300271 6:0.188422 7:0.223446 8:0.774586 
-0.6482760346758529 1:0.780779 2:0.191855 3:0.177434 4:0.205168 5:0.977298 6:0.181503 7:0.349023 8:0.664263 
-0.5185344640405851 1:0.88837 2:0.908975 3:0.23291 4:0.325287 5:0.746821 6:0.249392 7:0.296974 8:0.677109 
-0.492866616956564 1:0.81841 2:0.895573 3:0.25532 4:0.325287 5:0.746821 6:0.325082 7:0.445269 8:0.592939 
-0.6268198912458598 1:0.855419 2:0.854733 3:0.273861 4:0.403751 5:0.564062 6:0.436189 7:0.325236 8:0.585491 
-0.6909630753943408 1:0.84405 2:0.191855 3:0.177434 4:0.416849 5:0.595425 6:0.144403 7:0.393605 8:0.616054 
-0.35651413871705095 1:0.77388 2:0.191855 3:0.354287 4:0.374621 5:0.547551 6:0.403097 7:0.393605 8:0.51945 
-0.6902419933130318 1:0.81841 2:0.171555 3:0.219459 4:0.212527 5:0.752868 6:0.211339 7:0.118706 8:0.936073 
-0.596827764658269 1:0.668302 2:0.171555 3:0.57701 4:0.724869 5:0.316041 6:0.312392 7:0.329582 8:0.686492 
-0.7967846058157443 1:0.875924 2:0.882066 3:0.241646 4:0.282103 5:0.764761 6:0.277922 7:0.188817 8:0.838752 
-0.4857944382550311 1:0.769777 2:0.191855 3:0.354287 4:0.374621 5:0.547551 6:0.403097 7:0.438158 8:0.567783 
-0.37897309666907664 1:0.740287 2:0.191855 3:0.354287 4:0.374621 5:0.547551 6:0.211339 7:0.427166 8:0.55649 
-0.4809289109102679 1:0.885924 2:0.908975 3:0.300114 4:0.217906 5:0.716565 6:0.262832 7:0.0625712 8:0.780971 
-0.4247137357273909 1:0.746588 2:0.171555 3:0.354287 4:0.374621 5:0.547551 6:0.375613 7:0.0874905 8:0.774586 
-0.5765098063331648 1:0.795363 2:0.171555 3:0.25532 4:0.469697 5:0.656022 6:0.144403 7:0.304412 8:0.760495 
-0.19024053035460117 1:0.850867 2:0.882066 3:0.309978 4:0.282103 5:0.70323 6:0.319583 7:0.296974 8:0.707597 
-0.6775628085604332 1:0.792743 2:0.171555 3:0.424868 4:0.374621 5:0.595425 6:0.225958 7:0.223446 8:0.774586 
-1.2903448418314303 1:0.880665 2:0.895573 3:0.350132 4:0.465752 5:0.572496 6:0.325082 7:0.445269 8:0.592939 
-0.6673554909710353 1:0.788718 2:0.171555 3:0.291156 4:0.640034 5:0.510509 6:0.225958 7:0.268704 8:0.677109 
-0.6485382845137662 1:0.802936 2:0.191855 3:0.10653 4:0.205168 5:0.882014 6:0.270681 7:0.245564 8:0.865194 
-0.5439246367496311 1:0.79878 2:0.908975 3:0.322496 4:0.325287 5:0.80729 6:0.366283 7:0.353483 8:0.616054 
-0.5983421407267 1:0.690342 2:0.191855 3:0.38088 4:0.448621 5:0.630843 6:0.255556 7:0.349023 8:0.71241 
-0.6696754368478961 1:0.522065 3:0.424868 4:0.543208 5:0.451709 6:0.584824 7:0.803459 8:0.355233 
-0.020090575104478463 1:0.834618 2:0.854733 3:0.273861 4:0.209561 5:0.783317 6:0.325082 7:0.388361 8:0.623756 
-0.48188225684842845 1:0.730953 2:0.191855 3:0.248242 4:0.332339 5:0.69108 6:0.357191 7:0.383185 8:0.699283 
-0.8140119807673389 1:0.816938 2:0.191855 3:0.311565 4:0.365776 5:0.616569 6:0.218552 7:0.259772 8:0.71241 
-0.6124555102076673 1:0.792302 2:0.13023 3:0.196356 4:0.44805 5:0.682569 6:0.138133 7:0.339176 8:0.746761 
-0.6758398311327419 1:0.738992 2:0.171555 3:0.248242 4:0.247614 5:0.643268 6:0.375613 7:0.494551 8:0.579374 
-0.8876207825107184 1:0.739641 2:0.191855 3:0.354287 4:0.374621 5:0.547551 6:0.49326 7:0.399681 8:0.574368 
-0.7074661150718132 1:0.833311 2:0.191855 3:0.206411 4:0.166532 5:0.843001 6:0.403097 7:0.393605 8:0.51945 
-0.33426088952149385 1:0.837834 2:0.895573 3:0.389589 4:0.352079 5:0.625728 6:0.301513 7:0.188817 8:0.777452 
-0.6568027744402077 1:0.818775 2:0.191855 3:0.071043 4:0.374621 5:0.786611 6:0.270681 7:0.245564 8:0.865194 
-0.568236024234282 1:0.712531 2:0.191855 3:0.346031 4:0.323547 5:0.678042 6:0.329422 7:0.438158 8:0.567783 
-0.5531286894683466 1:0.836236 2:0.908975 3:0.0954423 4:0.633729 5:0.538572 6:0.342944 7:0.296974 8:0.616054 
-0.66610521107684 1:0.812427 2:0.191855 3:0.276266 4:0.156037 5:0.819457 6:0.329422 7:0.349023 8:0.71241 
-0.6266603527682602 1:0.782214 2:0.231755 3:0.160341 4:0.374124 5:0.67027 6:0.204309 7:0.373032 8:0.733376 
-0.7227521992811897 1:0.813947 2:0.151015 3:0.153489 4:0.176455 5:0.91422 6:0.12649 7:0.388361 8:0.648391 
-0.493708959374732 1:0.864358 2:0.868454 3:0.292075 4:0.177201 5:0.77396 6:0.319583 7:0.381718 8:0.677109 
-0.42982510530030194 1:0.851732 2:0.882066 3:0.305003 4:0.357928 5:0.664166 6:0.378143 7:0.165103 8:0.786548 
-0.5054345559945316 1:0.813568 2:0.38277 3:0.331252 4:0.249458 5:0.713936 6:0.219413 7:0.418475 8:0.637363 
-0.6589115819096752 1:0.837516 2:0.922274 3:0.110854 4:0.724869 5:0.454829 6:0.429841 7:0.375187 8:0.578159 
-1.1977259124594257 1:0.882517 2:0.895573 3:0.440278 4:0.411884 5:0.511325 6:0.0615576 7:0.0706983 8:0.939421 
-0.2466020663316282 1:0.859825 2:0.882066 3:0.355484 4:0.309385 5:0.70323 6:0.202504 7:0.296974 8:0.768503 
-0.7737367825638444 1:0.855419 2:0.854733 3:0.273861 4:0.320668 5:0.658108 6:0.296206 7:0.240422 8:0.768503 
-0.926525132078495 1:0.87926 2:0.908975 3:0.25532 4:0.325287 5:0.746821 6:0.249392 7:0.325236 8:0.677109 
-2.156895228832816 1:0.838468 2:0.211919 3:0.38088 4:0.365291 5:0.536355 6:0.357191 7:0.339176 8:0.55649 
-0.6433040118227754 1:0.80537 2:0.191855 3:0.318962 4:0.332339 5:0.595425 6:0.0700592 7:0.259772 8:0.856478 
-0.41896150966949597 1:0.792302 2:0.191855 3:0.283614 4:0.332339 5:0.69108 6:0.144403 7:0.393605 8:0.616054 
-0.5327966849161843 1:0.894617 2:0.840904 3:0.290571 4:0.102652 5:0.759216 6:0.323649 7:0.357167 8:0.624023 
-0.6345166318952075 1:0.79493 2:0.151015 3:0.248242 4:0.290002 5:0.69108 6:0.233561 7:0.277875 8:0.789055 
-0.3113142963692883 1:0.821664 2:0.908975 3:0.384048 4:0.372874 5:0.557839 6:0.225958 7:0.353483 8:0.677109 
-0.2489567969937885 1:0.84526 2:0.895573 3:0.259839 4:0.222652 5:0.786208 6:0.296206 7:0.268704 8:0.738061 
-0.6246447830351054 1:0.847055 2:0.784457 3:0.298902 4:0.37957 5:0.636372 6:0.296206 7:0.353483 8:0.707597 
-0.5783742415866251 1:0.802936 2:0.191855 3:0.141993 4:0.247614 5:0.834326 6:0.284781 7:0.339688 8:0.637363 
-0.6613915059735382 1:0.702731 2:0.151015 3:0.262587 4:0.567059 5:0.669115 6:0.329422 7:0.482682 8:0.567783 
-0.8499137811828826 1:0.89228 2:0.895573 3:0.327574 4:0.411884 5:0.603067 6:0.0615576 7:0.0706983 8:0.939421 
-0.6782752036609685 1:0.891421 2:0.882066 3:0.350132 4:0.303886 5:0.694694 6:0.163901 7:0.222679 8:0.817465 
-0.6666285057306289 1:0.765548 2:0.171555 3:0.183572 4:0.469697 5:0.849591 6:0.263444 7:0.449439 8:0.677109 
-1.2123480759305643 1:0.869 2:0.895573 3:0.367235 4:0.352079 5:0.56511 6:0.301513 7:0.331406 8:0.623756 
-0.6778326752411274 1:0.841287 2:0.840904 3:0.39542 4:0.410245 5:0.603332 6:0.216731 7:0.118345 8:0.930271 
-0.6692554607763539 1:0.515647 2:0.0878964 3:1.0 4:0.739783 5:0.145808 6:0.2078 7:0.137224 8:0.80284 
-0.10774936074201395 1:0.889686 2:0.908975 3:0.300114 4:0.217906 5:0.716565 6:0.30362 7:0.0863814 8:0.801884 
-0.6364830211302934 1:0.744728 2:0.191855 3:0.354287 4:0.459023 5:0.595425 6:0.218552 7:0.393605 8:0.664263 
-0.48678343282808834 1:0.881363 2:0.908975 3:0.322496 4:0.298475 5:0.716565 6:0.170559 7:0.257576 8:0.721086 
-0.6234214329922946 1:0.885249 2:0.882066 3:0.206411 4:0.372874 5:0.678042 6:0.163901 7:0.222679 8:0.817465 
-0.669558263599701 1:0.675704 2:0.171555 3:0.790417 4:0.426976 5:0.364708 6:0.192839 7:0.348498 8:0.691458 
-0.6635611324747495 1:0.86747 2:0.882066 3:0.400952 4:0.200128 5:0.764761 6:0.151458 7:0.375187 8:0.729505 
-0.6675406118851726 1:0.788718 2:0.191855 3:0.354287 4:0.543208 5:0.499646 6:0.213019 7:0.40897 8:0.584434 
-0.634247022966538 1:0.823792 2:0.908975 3:0.4566 4:0.405593 5:0.534779 6:0.239791 7:0.28539 8:0.84076 
-0.24016940561499214 1:0.857364 2:0.895573 3:0.322496 4:0.352079 5:0.625728 6:0.207037 7:0.16026 8:0.838752 
-0.40459002272443856 1:0.750833 2:0.171555 3:0.147665 4:0.341364 5:0.752868 6:0.263444 7:0.494551 8:0.628271 
-0.8090726174084797 1:0.85202 2:0.895573 3:0.440278 4:0.411884 5:0.511325 6:0.207037 7:0.16026 8:0.838752 
-0.19390969703935063 1:0.842522 2:0.908975 3:0.250875 4:0.319751 5:0.708064 6:0.296206 7:0.353483 8:0.646592 
-0.6705370317007624 1:0.874225 2:0.882066 3:0.220334 4:0.49156 5:0.454829 6:0.306908 7:0.280206 8:0.693646 
-0.5429460190614951 1:0.81166 2:0.191855 3:0.17145 4:0.365291 5:0.72521 6:0.181503 7:0.349023 8:0.664263 
-0.6696677446682666 1:0.686588 2:0.191855 3:0.177434 4:0.374621 5:0.69108 6:0.598644 7:0.546562 8:0.545483 
-0.6588372530089145 1:0.785039 2:0.895573 3:0.507788 4:0.411884 5:0.480716 6:0.38363 7:0.347179 8:0.608479 
-0.6446750454706337 1:0.756106 2:0.191855 3:0.177434 4:0.332339 5:0.738861 6:0.192839 7:0.46802 8:0.518881 
-0.44113842179132234 1:0.784572 2:0.826964 3:0.471872 4:0.444971 5:0.547551 6:0.314176 7:0.375187 8:0.608479 
-0.7713177376478562 1:0.890989 2:0.908975 3:0.202733 4:0.114025 5:0.91606 6:0.27281 7:0.353483 8:0.616054 
-0.5666317231110868 1:0.856534 2:0.868454 3:0.269106 4:0.149577 5:0.804965 6:0.342944 7:0.296974 8:0.616054 
-0.6374788211286757 1:0.753788 2:0.211919 3:0.206411 4:0.156037 5:0.866535 6:0.312392 7:0.242597 8:0.733376 
-0.5029121304064459 1:0.822377 2:0.868454 3:0.42969 4:0.424783 5:0.494321 6:0.283122 7:0.251447 8:0.755608 
-0.4656713036405562 1:0.807763 2:0.171555 3:0.248242 4:0.290002 5:0.69108 6:0.263444 7:0.0421098 8:0.871815 
-0.6694996075183849 1:0.564854 2:0.109192 3:0.834773 4:0.768969 5:0.139364 6:0.188422 7:0.223446 8:0.774586 
-0.6662079418317624 1:0.686588 2:0.109192 3:0.834773 4:0.768969 5:0.139364 6:0.255556 7:0.349023 8:0.71241 
-0.6004034993975044 1:0.783162 2:0.211919 3:0.206411 4:0.323547 5:0.772349 6:0.211339 7:0.162857 8:0.888834 
-0.664259373348538 1:0.783162 2:0.191855 3:0.10653 4:0.205168 5:0.882014 6:0.292513 7:0.215106 8:0.664263 
-0.5815796560424266 1:0.871513 2:0.882066 3:0.322496 4:0.0291398 5:0.777062 6:0.283122 7:0.366408 8:0.66263 
-0.7826680713882298 1:0.775388 2:0.882066 3:0.559792 4:0.742816 5:0.240093 6:0.406746 7:0.347179 8:0.578159 
-0.6503048156955871 1:0.895247 2:0.895573 3:0.327574 4:0.384919 5:0.633621 6:0.139612 8:0.969181 
-0.6700275870594283 1:0.718698 2:0.171555 3:0.658868 4:0.862126 5:0.204688 6:0.263444 7:0.449439 8:0.677109 
-0.6474774521962566 1:0.654608 2:0.171555 3:0.57701 4:0.724869 5:0.316041 6:0.357191 7:0.427166 8:0.651746 
-0.6223389690367541 1:0.693997 2:0.191855 3:0.636061 4:0.752728 5:0.307716 6:0.284358 7:0.339176 8:0.746761 
-0.6651593786081477 1:0.774384 2:0.151015 3:0.262587 4:0.653232 5:0.570844 6:0.366283 7:0.349023 8:0.567783 
-0.649454961561334 1:0.742208 2:0.211919 3:0.511366 4:0.386145 5:0.55408 6:0.284358 7:0.339176 8:0.699283 
-1.275694696489542 1:0.829986 2:0.882066 3:0.46279 4:0.411884 5:0.511325 6:0.259316 7:0.337685 8:0.693646 
-0.6510064351589676 1:0.806172 2:0.191855 3:0.10653 4:0.205168 5:0.882014 6:0.181503 7:0.170408 8:0.856478 
-1.0112734222973043 1:0.775887 2:0.191855 3:0.354287 4:0.290002 5:0.595425 6:0.329422 7:0.438158 8:0.616054 
-0.6473028488832417 1:0.85901 2:0.854733 3:0.0954423 4:0.633729 5:0.538572 6:0.221107 7:0.350562 8:0.647647 
-0.41866971557672145 1:0.869759 2:0.908975 3:0.290571 4:0.102652 5:0.759216 6:0.436189 7:0.325236 8:0.585491 
-0.05599567913363681 1:0.854013 2:0.854733 3:0.384048 4:0.372874 5:0.557839 6:0.26958 7:0.262853 8:0.71075 
-0.6692456943132425 1:0.667211 2:0.13023 3:0.196356 4:0.44805 5:0.682569 6:0.487345 7:0.268704 8:0.579374 
-0.6681612555121083 1:0.739641 2:0.34623 3:0.35765 4:0.344427 5:0.595425 6:0.225958 7:0.46802 8:0.5621 
-0.828934429762378 1:0.871762 2:0.882066 3:0.378224 4:0.309385 5:0.610834 6:0.225958 7:0.353483 8:0.677109 
-0.5100005228065798 1:0.771844 2:0.171555 3:0.272853 4:0.354406 5:0.634951 6:0.225958 7:0.4043 8:0.579374 
-0.6591670304309387 1:0.76447 2:0.231755 3:0.165623 4:0.273707 5:0.851451 6:0.350724 7:0.794526 8:0.309291 
-0.9975855490645638 1:0.862775 2:0.882066 3:0.309978 4:0.282103 5:0.70323 6:0.296206 7:0.466358 8:0.5549 
-0.7531905255833202 1:0.872258 2:0.908975 3:0.344869 4:0.43232 5:0.595425 6:0.221307 7:0.291136 8:0.729505 
-0.7145218659973435 1:0.864881 2:0.882066 3:0.309978 4:0.282103 5:0.764761 6:0.225958 7:0.296974 8:0.738061 
-1.1559037643954237 1:0.871264 2:0.895573 3:0.259839 4:0.276828 5:0.755717 6:0.337345 7:0.40318 8:0.578159 
-0.6471695362776726 1:0.832982 2:0.191855 3:0.337986 4:0.602439 5:0.572107 6:0.181503 7:0.438158 8:0.616054 
-0.421131876444138 1:0.860636 2:0.882066 3:0.332737 4:0.363878 5:0.641647 6:0.225958 7:0.296974 8:0.738061 
-0.459727289253458 1:0.715649 2:0.191855 3:0.346031 4:0.323547 5:0.678042 6:0.255556 7:0.393605 8:0.567783 
-1.5856822645022353 1:0.844353 2:0.191855 3:0.248242 4:0.416849 5:0.643268 6:0.218552 7:0.393605 8:0.616054 
-0.6497919501397679 1:0.825888 2:0.770054 3:0.230871 4:0.560782 5:0.578892 6:0.245355 7:0.379774 8:0.584434 
-0.6715066277408324 1:0.846459 2:0.784457 3:0.202003 4:0.495073 5:0.603616 6:0.348631 7:0.359892 8:0.623756 
-0.43919608927808673 1:0.834618 2:0.868454 3:0.383857 4:0.424783 5:0.400872 6:0.254314 7:0.188817 8:0.838752 
-0.6696827508790824 1:0.747814 2:0.151015 3:0.262587 4:0.307175 5:0.767254 6:0.760808 7:0.461026 8:0.392445 
-0.6695698199238148 1:0.808944 2:0.868454 3:0.131083 4:0.911717 5:0.357221 6:0.168189 7:0.373032 8:0.7646 
-0.6486618283718473 1:0.775887 2:0.191855 3:0.333011 4:0.313983 5:0.562552 6:0.218552 7:0.215106 8:0.808519 
-0.6456967822433145 1:0.921341 2:0.895573 3:0.131083 5:1.0 6:0.230687 7:0.245887 8:0.777452 
-0.8156573616350288 1:0.871014 2:0.882066 3:0.241646 4:0.254802 5:0.795509 6:0.296206 7:0.353483 8:0.646592 
-0.6763636622014596 1:0.841597 2:0.882066 3:0.53713 4:0.742816 5:0.240093 6:0.225958 7:0.353483 8:0.677109 
-0.6038475244035173 1:0.846758 2:0.882066 3:0.309978 4:0.282103 5:0.70323 6:0.389603 7:0.353483 8:0.5549 
-0.6692462421180798 1:0.697557 2:0.109192 3:0.501228 4:0.856991 5:0.190177 6:0.225958 7:0.308614 8:0.691458 
-0.3205354168937906 1:0.842214 2:0.840904 3:0.339693 4:0.106382 5:0.768067 6:0.323649 7:0.357167 8:0.624023 
-0.4901069819868966 1:0.813568 2:0.840904 3:0.39542 4:0.410245 5:0.603332 6:0.254314 7:0.188817 8:0.838752 
-2.329019469439937 1:0.888149 2:0.882066 3:0.287209 4:0.282103 5:0.734004 6:0.27281 7:0.353483 8:0.616054 
-0.6695254942791028 1:0.683703 3:0.599345 4:0.803812 5:0.337108 6:0.225958 7:0.381718 8:0.636418 
-0.6695499535559176 1:0.72746 2:0.0223949 3:0.547131 4:0.600035 5:0.434783 6:0.144403 7:0.393605 8:0.616054 
-0.17571021674181383 1:0.838152 2:0.882066 3:0.309978 4:0.363878 5:0.641647 6:0.296206 7:0.381718 8:0.616054 
-0.3318038736085114 1:0.758951 2:0.211919 3:0.206411 4:0.323547 5:0.772349 6:0.211339 7:0.383185 8:0.604148 
-1.390810796014097 1:0.850288 2:0.191855 3:0.141993 4:0.290002 5:0.786611 6:0.144403 7:0.12568 8:0.90438 
-1.7598484165071677 1:0.866182 2:0.908975 3:0.312589 4:0.155694 5:0.610329 6:0.366283 7:0.353483 8:0.616054 
-0.662024194007591 1:0.776879 2:0.151015 3:0.248242 4:0.543208 5:0.547551 6:0.0811229 7:0.323707 8:0.690294 
-0.6691296881734141 1:0.730953 2:0.171555 3:0.206411 4:0.57322 5:0.583614 6:0.487345 7:0.268704 8:0.579374 
-0.7018616599726639 1:0.771844 2:0.191855 3:0.354287 4:0.459023 5:0.595425 6:0.225958 7:0.188817 8:0.863246 
-0.4341320134034974 1:0.844656 2:0.908975 3:0.339693 4:0.106382 5:0.768067 6:0.342944 7:0.296974 8:0.616054 
-2.840489927846282 1:0.794059 2:0.191855 3:0.354287 4:0.374621 5:0.547551 6:0.329422 7:0.349023 8:0.567783 
-0.5549921225271336 1:0.861977 2:0.854733 3:0.344869 4:0.083182 5:0.716565 6:0.245355 7:0.379774 8:0.584434 
-0.636093891717407 1:0.783162 2:0.151015 3:0.354287 4:0.374621 5:0.547551 6:0.233561 7:0.323707 8:0.789055 
-0.7771307591548295 1:0.768206 2:0.171555 3:0.0397957 4:0.554976 5:0.656022 6:0.225958 7:0.4043 8:0.579374 
-0.5221987209823348 1:0.74903 2:0.211919 3:0.304745 4:0.394529 5:0.605878 6:0.320797 7:0.339176 8:0.746761 
-0.6201023969292483 1:0.733007 2:0.171555 3:0.326972 4:0.512366 5:0.607547 6:0.255556 7:0.215106 8:0.760495 
-0.6696752883075359 1:0.406213 2:0.0663361 3:0.223678 4:0.449601 5:0.541917 6:0.704245 7:0.413975 8:0.537409 
-0.052221885864544015 1:0.829311 2:0.882066 3:0.27772 4:0.352079 5:0.656022 6:0.235494 7:0.30895 8:0.693646 
-0.6644583461606717 1:0.746588 2:0.191855 3:0.177434 4:0.459023 5:0.738861 6:0.403097 7:0.482682 8:0.51945 
-0.6690284398403376 1:0.914219 2:0.987285 3:0.272388 4:0.242226 5:0.78282 6:0.0615576 7:0.0706983 8:0.939421 
-0.8379399230150488 1:0.84824 2:0.882066 3:0.372681 4:0.384919 5:0.603067 6:0.211648 7:0.222679 8:0.817465 
-0.39709635258050296 1:0.872258 2:0.854733 3:0.273861 4:0.292925 5:0.689431 6:0.187786 7:0.193895 8:0.848354 
-0.6162033697731752 1:0.769255 2:0.151015 3:0.262587 4:0.35063 5:0.767254 6:0.181503 7:0.393605 8:0.71241 
-0.29434512571091204 1:0.767149 2:0.191855 3:0.248242 4:0.332339 5:0.643268 6:0.357191 7:0.383185 8:0.699283 
-0.6552009193618905 1:0.75553 2:0.211919 3:0.223678 4:0.449601 5:0.541917 6:0.138133 7:0.206979 8:0.888834 
-0.5527968501126536 1:0.76501 2:0.171555 3:0.147665 4:0.341364 5:0.752868 6:0.284358 7:0.339176 8:0.746761 
-0.853799277807812 1:0.884117 2:0.922274 3:0.428366 4:0.425915 5:0.58791 6:0.0615576 7:0.0706983 8:0.939421 
-0.5575132834773471 1:0.791415 2:0.211919 3:0.276266 4:0.365291 5:0.583614 6:0.138133 7:0.295139 8:0.699283 
-0.3373186556383988 1:0.855978 2:0.882066 3:0.287209 4:0.282103 5:0.764761 6:0.301513 7:0.331406 8:0.623756 
-0.6728483289143864 1:0.838152 2:0.922274 3:0.428366 4:0.372874 5:0.557839 6:0.349206 7:0.555017 8:0.533996 
-0.5665040801374435 1:0.864358 2:0.854733 3:0.360926 4:0.121929 5:0.742941 6:0.26958 7:0.262853 8:0.71075 
-0.45311752868399297 1:0.803345 2:0.895573 3:0.282426 4:0.276828 5:0.786208 6:0.412907 7:0.381718 8:0.646592 
-0.5317109951914882 1:0.745351 2:0.191855 3:0.381701 4:0.374124 5:0.67027 6:0.218552 7:0.438158 8:0.567783 
-0.37191757416323534 1:0.866698 2:0.908975 3:0.242203 4:0.151601 5:0.780012 6:0.342944 7:0.296974 8:0.616054 
-0.6741302412698408 1:0.754371 2:0.191855 3:0.354287 4:0.543208 5:0.451709 6:0.305357 7:0.217049 8:0.735415 
-0.6697464883907099 1:0.373601 2:0.0445045 3:0.959925 4:1.0 6:0.752514 7:1.0 
-0.4070780868388321 1:0.831325 2:0.882066 3:0.327574 4:0.384919 5:0.633621 6:0.378143 7:0.165103 8:0.786548 
-5.391800857444962 1:0.876646 2:0.882066 3:0.40621 4:0.372874 5:0.557839 6:0.283122 7:0.251447 8:0.755608 
-0.4504367225326811 1:0.783162 2:0.895573 3:0.367235 4:0.378847 5:0.686299 6:0.372165 7:0.41682 8:0.592939 
-0.3820666287195287 1:0.820227 2:0.895573 3:0.305003 4:0.357928 5:0.664166 6:0.412907 7:0.381718 8:0.646592 
-0.5072299427480315 1:0.864358 2:0.854733 3:0.297024 4:0.292925 5:0.689431 6:0.283122 7:0.251447 8:0.755608 
-0.4046612838874304 1:0.815824 2:0.908975 3:0.322496 4:0.378847 5:0.625728 6:0.436189 7:0.325236 8:0.585491 
-0.49432759603638365 1:0.818775 2:0.895573 3:0.372681 4:0.411884 5:0.572496 6:0.436189 7:0.381718 8:0.5549 
-0.6988512620745104 1:0.865403 2:0.868454 3:0.383857 4:0.424783 5:0.400872 6:0.296206 7:0.381718 8:0.646592 
-0.5020386624755838 1:0.874713 2:0.895573 3:0.350132 4:0.303886 5:0.694694 6:0.221493 7:0.155502 8:0.862565 
-0.542119580433299 1:0.782689 2:0.211919 3:0.45051 4:0.53174 5:0.489065 6:0.174759 7:0.0745267 8:0.983252 
-6.017164034031182 1:0.916394 2:0.882066 3:0.309978 4:0.282103 5:0.764761 6:0.330672 7:0.366408 8:0.631584 
-0.6254596761573132 1:0.813189 2:0.908975 3:0.0859277 4:0.690689 5:0.536737 6:0.296206 7:0.325236 8:0.707597 
-0.40648747142332387 1:0.784572 2:0.191855 3:0.206411 4:0.281749 5:0.772349 6:0.292513 7:0.393605 8:0.664263 
-0.6674164448344754 1:0.622316 2:0.151015 3:0.389589 4:0.332339 5:0.547551 6:0.835344 7:0.871333 8:0.0922168 
-0.6696852366492946 1:0.701882 2:0.109192 3:0.354287 4:0.374621 5:0.547551 6:0.560047 7:0.672817 8:0.462984 
-0.6420113839393977 1:0.885924 2:0.868454 3:0.269106 4:0.149577 5:0.804965 6:0.202504 7:0.296974 8:0.768503 
-0.6701111037243954 1:0.667211 2:0.0878964 3:1.0 4:0.739783 5:0.145808 6:0.181503 7:0.259772 8:0.71241 
-0.985780640065974 1:0.929919 2:0.908975 3:0.300114 4:0.217906 5:0.716565 6:0.27281 7:0.183819 8:0.738061 
-5.469416474511789 1:0.806172 2:0.191855 3:0.181098 4:0.357619 5:0.689431 6:0.218552 7:0.393605 8:0.616054 
-0.6782354568640052 1:0.801702 2:0.191855 4:0.374621 5:0.738861 6:0.218552 7:0.215106 8:0.71241 
-0.669990792638877 1:0.75553 2:0.109192 3:0.147665 4:0.298475 5:0.849591 6:0.405141 7:0.625952 8:0.309291 
-0.06494884594240244 1:0.809725 2:0.908975 3:0.344869 4:0.352079 5:0.656022 6:0.337345 7:0.40318 8:0.578159 
-0.8891011264285188 1:0.877602 2:0.882066 3:0.287209 4:0.282103 5:0.734004 6:0.230687 7:0.245887 8:0.777452 
-0.6593181536000167 1:0.665004 2:0.0663361 3:0.298902 4:0.35063 5:0.718203 6:0.704245 7:0.413975 8:0.537409 
-0.6520919980000844 1:0.828973 2:0.868454 3:0.337986 4:0.452177 5:0.494321 6:0.38363 7:0.347179 8:0.608479 
-0.5477733902209272 1:0.72746 2:0.191855 3:0.354287 4:0.374621 5:0.547551 6:0.247871 7:0.339176 8:0.699283 
-1.4038117817885791 1:0.859554 2:0.191855 3:0.248242 4:0.332339 5:0.738861 6:0.218552 7:0.304412 8:0.760495 
-0.347897040363862 1:0.845861 2:0.882066 3:0.378224 4:0.0905035 5:0.88767 6:0.27281 7:0.325236 8:0.677109 
-1.0278179171457162 1:0.871014 2:0.882066 3:0.273094 4:0.133127 5:0.768067 6:0.283122 7:0.251447 8:0.786548 
-0.3569168317764167 1:0.840666 2:0.868454 3:0.360926 4:0.342463 5:0.494321 6:0.301513 7:0.331406 8:0.623756 
-0.7817961250612269 1:0.85373 2:0.211919 3:0.206411 4:0.114025 5:0.960601 6:0.211339 7:0.118706 8:0.936073 
-0.6591280748671384 1:0.736364 2:0.191855 3:0.141993 4:0.162666 5:0.882014 6:0.350724 7:0.794526 8:0.309291 
-0.6298052687192301 1:0.835267 2:0.364596 3:0.223678 4:0.411884 5:0.627513 6:0.192839 7:0.388361 8:0.648391 
-0.6692624375944985 1:0.873245 2:0.908975 3:0.131083 5:1.0 6:0.412907 7:0.381718 8:0.646592 
-0.6144370904262968 1:0.870011 2:0.882066 3:0.355484 4:0.309385 5:0.70323 6:0.221307 7:0.515043 8:0.517451 
-0.6973246879909489 1:0.784572 2:0.171555 3:0.398528 4:0.126356 5:0.752868 6:0.218552 7:0.393605 8:0.616054 
-0.6677929219216648 1:0.805772 2:0.171555 3:0.0397957 4:0.384199 5:0.849591 6:0.211339 7:0.427166 8:0.55649 
-0.6739085604402648 1:0.726751 2:0.109192 3:0.834773 4:0.768969 5:0.139364 6:0.12649 7:0.348498 8:0.691458 
-0.5199284601910128 1:0.870011 2:0.908975 3:0.295302 4:0.133127 5:0.678042 6:0.27281 7:0.353483 8:0.616054 
-0.5587523509237736 1:0.823792 2:0.895573 3:0.350132 4:0.411884 5:0.603067 6:0.325082 7:0.445269 8:0.592939 
-0.5993533151323478 1:0.858464 2:0.908975 3:0.0954423 4:0.633729 5:0.538572 6:0.27281 7:0.240422 8:0.616054 
-0.6694278537047549 1:0.728166 2:0.191855 3:0.354287 4:0.374621 5:0.547551 6:0.312392 7:0.589877 8:0.592546 
-0.2855687960066611 1:0.833639 2:0.868454 3:0.42969 4:0.397366 5:0.525445 6:0.225958 7:0.296974 8:0.677109 
-0.58521301569514 1:0.827952 2:0.882066 3:0.446382 4:0.309385 5:0.672443 6:0.235494 7:0.30895 8:0.693646 
-0.15578289408402413 1:0.841906 2:0.882066 3:0.332737 4:0.336641 5:0.672443 6:0.389603 7:0.353483 8:0.5549 
-0.6690566466999679 1:0.653404 2:0.171555 3:0.200138 4:0.356199 5:0.804965 6:0.263444 7:0.629702 8:0.530413 
-0.6694593093624877 1:0.702731 2:0.151015 3:0.0397957 4:0.512366 5:0.704461 6:0.835344 7:0.871333 8:0.0922168 
-0.5764028283423969 1:0.825541 2:0.840904 3:0.39542 4:0.410245 5:0.603332 6:0.174759 7:0.347179 8:0.699283 
-1.2407609647044973 1:0.791415 2:0.171555 3:0.248242 4:0.290002 5:0.69108 6:0.375613 7:0.0874905 8:0.774586 
-0.7123243968684392 1:0.807763 2:0.191855 3:0.283614 4:0.290002 5:0.595425 6:0.174759 7:0.129747 8:0.865194 
